svm_type c_svc
kernel_type rbf
gamma 133
nr_class 2
total_sv 216
rho -0.545083
label 0 1
nr_sv 139 77
SV
1 1:0.469899 2:-0.02492 3:0.347825 4:0.333334 5:0.488371 6:0.488371 7:0.810811 8:0.046794 9:0.666667 
1 1:0.469798 2:-0.02495 3:0.347817 4:0.333343 5:0.488357 6:0.488357 7:0.810811 8:0.04667 9:0.666667 
1 1:0.469656 2:-0.024972 3:0.347804 4:0.33336 5:0.488346 6:0.488346 7:0.810811 8:0.04667 9:0.666689 
1 1:0.469502 2:-0.024967 3:0.347791 4:0.333382 5:0.488349 6:0.488349 7:0.810811 8:0.04667 9:0.666689 
1 1:0.469369 2:-0.024928 3:0.347774 4:0.33341 5:0.488367 6:0.488367 7:0.810838 8:0.04667 9:0.666711 
0.7314403096007972 1:0.469277 2:-0.024851 3:0.347759 4:0.333441 5:0.488403 6:0.488403 7:0.810838 8:0.04667 9:0.666711 
0.5403127723643503 1:0.483942 2:0.000261 3:0.346759 4:0.334689 5:0.500122 6:0.500122 7:0.810811 8:0.046794 9:0.667267 
1 1:0.484161 2:0.000768 3:0.346703 4:0.33467 5:0.500358 6:0.500358 7:0.810811 8:0.046794 9:0.667267 
1 1:0.484351 2:0.00113 3:0.34674 4:0.334646 5:0.500527 6:0.500527 7:0.810784 8:0.046794 9:0.667244 
1 1:0.484488 2:0.001331 3:0.346892 4:0.334614 5:0.500621 6:0.500621 7:0.810784 8:0.046794 9:0.667222 
1 1:0.484604 2:0.001416 3:0.347123 4:0.334578 5:0.500661 6:0.500661 7:0.810784 8:0.046794 9:0.667222 
1 1:0.484714 2:0.001613 3:0.347561 4:0.334542 5:0.500753 6:0.500753 7:0.810784 8:0.046794 9:0.6672 
1 1:0.484899 2:0.004734 3:0.349719 4:0.334296 5:0.502209 6:0.502209 7:0.810757 8:0.046918 9:0.667067 
1 1:0.484759 2:0.005625 3:0.349917 4:0.3342 5:0.502625 6:0.502625 7:0.810757 8:0.046918 9:0.667022 
1 1:0.484599 2:0.006409 3:0.350148 4:0.334099 5:0.502991 6:0.502991 7:0.810757 8:0.046918 9:0.666978 
1 1:0.484596 2:0.007658 3:0.350553 4:0.333998 5:0.503574 6:0.503574 7:0.810757 8:0.046918 9:0.666933 
1 1:0.484696 2:0.009003 3:0.35091 4:0.333892 5:0.504201 6:0.504201 7:0.810757 8:0.046918 9:0.666889 
1 1:0.485027 2:0.010336 3:0.351334 4:0.333781 5:0.504824 6:0.504824 7:0.810757 8:0.046918 9:0.666844 
1 1:0.48573 2:0.011612 3:0.351992 4:0.333663 5:0.505419 6:0.505419 7:0.810757 8:0.046918 9:0.666778 
1 1:0.486953 2:0.012426 3:0.352673 4:0.333532 5:0.505799 6:0.505799 7:0.810757 8:0.046918 9:0.666733 
1 1:0.488472 2:0.015322 3:0.353271 4:0.333379 5:0.50715 6:0.50715 7:0.81073 8:0.046918 9:0.666644 
1 1:0.489811 2:0.023928 3:0.353644 4:0.333186 5:0.511167 6:0.511167 7:0.810703 8:0.046918 9:0.666556 
1 1:0.490507 2:0.040085 3:0.353659 4:0.332938 5:0.518706 6:0.518706 7:0.810676 8:0.046918 9:0.666444 
1 1:0.490092 2:0.065 3:0.353359 4:0.33263 5:0.530333 6:0.530333 7:0.810649 8:0.046918 9:0.666289 
1 1:0.488524 2:0.098826 3:0.352838 4:0.332248 5:0.546119 6:0.546119 7:0.810622 8:0.046794 9:0.666089 
0.2073628024713168 1:0.467738 2:0.204421 3:0.351236 4:0.330163 5:0.595397 6:0.595397 7:0.810568 8:0.04667 9:0.665156 
0.6855961492061424 1:0.463238 2:0.114972 3:0.350315 4:0.329494 5:0.553653 6:0.553653 7:0.810865 8:0.04667 9:0.664978 
1 1:0.462783 2:0.078915 3:0.349636 4:0.329659 5:0.536827 6:0.536827 7:0.810919 8:0.04667 9:0.665067 
1 1:0.46172 2:0.054219 3:0.348623 4:0.329886 5:0.525302 6:0.525302 7:0.810919 8:0.04667 9:0.665178 
1 1:0.459809 2:0.046779 3:0.347402 4:0.330103 5:0.52183 6:0.52183 7:0.810892 8:0.04667 9:0.665267 
1 1:0.457056 2:0.058781 3:0.34614 4:0.330258 5:0.527431 6:0.527431 7:0.810865 8:0.04667 9:0.665311 
1 1:0.453758 2:0.088163 3:0.336575 4:0.330318 5:0.541143 6:0.541143 7:0.810811 8:0.046546 9:0.665333 
0.3691524241143723 1:0.450574 2:0.1302 3:0.31123 4:0.330239 5:0.56076 6:0.56076 7:0.810703 8:0.046546 9:0.663489 
0.002417622737892798 1:0.448343 2:0.180254 3:0.295174 4:0.32953 5:0.584118 6:0.584118 7:0.810189 8:0.046175 9:0.607378 
0.3333358567851061 1:0.44815 2:0.23443 3:0.287523 4:0.327471 5:0.609401 6:0.609401 7:0.809432 8:0.04568 9:0.555089 
0.1796741215989069 1:0.451239 2:0.288205 3:0.285988 4:0.323833 5:0.634496 6:0.634496 7:0.808703 8:0.045308 9:0.507311 
0.2215866479151371 1:0.457549 2:0.333396 3:0.288793 4:0.318718 5:0.655585 6:0.655585 7:0.808054 8:0.045061 9:0.463867 
0.03288110571210842 1:0.466378 2:0.360141 3:0.294338 4:0.312451 5:0.668066 6:0.668066 7:0.807595 8:0.044937 9:0.423689 
0.2414808691356702 1:0.476484 2:0.363373 3:0.301442 4:0.305383 5:0.669574 6:0.669574 7:0.807243 8:0.045184 9:0.386311 
0.05158494226888249 1:0.486605 2:0.343489 3:0.309213 4:0.297563 5:0.660295 6:0.660295 7:0.806865 8:0.045556 9:0.352333 
0.2255842837821415 1:0.495544 2:0.303623 3:0.317019 4:0.288943 5:0.641691 6:0.641691 7:0.806486 8:0.046051 9:0.322 
0.2302510185560629 1:0.502305 2:0.247368 3:0.3244 4:0.279546 5:0.615438 6:0.615438 7:0.806108 8:0.04667 9:0.295222 
0.2785031791640537 1:0.506487 2:0.177985 3:0.330909 4:0.269282 5:0.583059 6:0.583059 7:0.805676 8:0.04766 9:0.271978 
0.3046192361821028 1:0.507603 2:0.098231 3:0.336424 4:0.258226 5:0.545841 6:0.545841 7:0.805351 8:0.048651 9:0.252067 
0.3278021277064831 1:0.50528 2:0.010329 3:0.341025 4:0.246642 5:0.50482 6:0.50482 7:0.805189 8:0.049517 9:0.235489 
0.3417766675834299 1:0.499414 2:-0.083705 3:0.344618 4:0.234932 5:0.460938 6:0.460938 7:0.805216 8:0.049889 9:0.223089 
0.3478365896619821 1:0.490354 2:-0.181432 3:0.347258 4:0.22351 5:0.415332 6:0.415332 7:0.805459 8:0.049765 9:0.215467 
0.3416388283704903 1:0.47928 2:-0.279345 3:0.349004 4:0.212672 5:0.369639 6:0.369639 7:0.805757 8:0.04927 9:0.212644 
0.3209061620000671 1:0.46799 2:-0.373014 3:0.349999 4:0.202459 5:0.325927 6:0.325927 7:0.806054 8:0.049022 9:0.214556 
0.2869283526630791 1:0.458037 2:-0.458036 3:0.3504 4:0.192883 5:0.28625 6:0.28625 7:0.806378 8:0.048898 9:0.221244 
0.2368819720991079 1:0.450393 2:-0.531034 3:0.350379 4:0.184091 5:0.252184 6:0.252184 7:0.806811 8:0.049022 9:0.232867 
0.1995336464662002 1:0.445221 2:-0.589854 3:0.350109 4:0.176271 5:0.224735 6:0.224735 7:0.807324 8:0.049393 9:0.249111 
0.1273808372784616 1:0.441983 2:-0.633389 3:0.349696 4:0.169611 5:0.204418 6:0.204418 7:0.807919 8:0.049765 9:0.269778 
0.2692429217789176 1:0.437388 2:-0.672355 3:0.34874 4:0.160467 5:0.186234 6:0.186234 7:0.809324 8:0.050384 9:0.3216 
0.1323741855828506 1:0.430697 2:-0.642723 3:0.347699 4:0.157336 5:0.200062 6:0.200062 7:0.810757 8:0.05026 9:0.383711 
0.2031834096025782 1:0.426622 2:-0.603004 3:0.347184 4:0.157936 5:0.218598 6:0.218598 7:0.811432 8:0.05026 9:0.416489 
0.2279414671037155 1:0.422575 2:-0.549479 3:0.346768 4:0.159859 5:0.243577 6:0.243577 7:0.812027 8:0.05026 9:0.449556 
0.2639828627452986 1:0.418832 2:-0.4852 3:0.346524 4:0.162979 5:0.273573 6:0.273573 7:0.812568 8:0.05026 9:0.482333 
0.2748197037263438 1:0.415417 2:-0.413752 3:0.346469 4:0.167159 5:0.306916 6:0.306916 7:0.813054 8:0.050384 9:0.514244 
0.291629748282107 1:0.412295 2:-0.338721 3:0.346536 4:0.172269 5:0.34193 6:0.34193 7:0.813459 8:0.050384 9:0.544756 
0.2474649486926634 1:0.409386 2:-0.26332 3:0.346725 4:0.178151 5:0.377118 6:0.377118 7:0.813784 8:0.050508 9:0.572933 
0.3545783347563938 1:0.406568 2:-0.190443 3:0.346887 4:0.184638 5:0.411127 6:0.411127 7:0.814054 8:0.050508 9:0.598356 
1 1:0.401411 2:-0.061478 3:0.346998 4:0.198842 5:0.47131 6:0.47131 7:0.814351 8:0.050136 9:0.640533 
1 1:0.50892 2:-0.022334 3:0.347952 4:0.382024 5:0.489578 6:0.489578 7:0.810162 8:0.047165 9:0.687933 
1 1:0.507456 2:-0.025172 3:0.347896 4:0.380704 5:0.488253 6:0.488253 7:0.810189 8:0.047165 9:0.687511 
1 1:0.505809 2:-0.027437 3:0.347875 4:0.379403 5:0.487196 6:0.487196 7:0.810189 8:0.047165 9:0.687289 
1 1:0.504168 2:-0.029885 3:0.347874 4:0.378114 5:0.486054 6:0.486054 7:0.810189 8:0.047289 9:0.687222 
1 1:0.502547 2:-0.035661 3:0.347862 4:0.37684 5:0.483358 6:0.483358 7:0.810216 8:0.047289 9:0.687333 
1 1:0.500812 2:-0.049848 3:0.347969 4:0.375638 5:0.476737 6:0.476737 7:0.81027 8:0.047289 9:0.687489 
1 1:0.498905 2:-0.077452 3:0.34812 4:0.374581 5:0.463856 6:0.463856 7:0.810351 8:0.047289 9:0.687467 
1 1:0.496933 2:-0.121569 3:0.34823 4:0.373742 5:0.443268 6:0.443268 7:0.810486 8:0.047413 9:0.687356 
1 1:0.494916 2:-0.182545 3:0.348311 4:0.373238 5:0.414813 6:0.414813 7:0.810676 8:0.047413 9:0.687356 
0.1303749084432882 1:0.492867 2:-0.258279 3:0.348389 4:0.373197 5:0.37947 6:0.37947 7:0.810919 8:0.047413 9:0.687733 
0.3564298473963531 1:0.490948 2:-0.345186 3:0.348416 4:0.373783 5:0.338913 6:0.338913 7:0.81127 8:0.047413 9:0.688578 
0.3296289843008519 1:0.489195 2:-0.438921 3:0.348327 4:0.3752 5:0.29517 6:0.29517 7:0.81173 8:0.047289 9:0.689956 
0.336606599336816 1:0.487553 2:-0.534793 3:0.348153 4:0.377604 5:0.25043 6:0.25043 7:0.812216 8:0.047165 9:0.691689 
0.3214969431230482 1:0.485981 2:-0.628293 3:0.347966 4:0.381118 5:0.206797 6:0.206797 7:0.812784 8:0.047165 9:0.693556 
0.2917231875921527 1:0.484407 2:-0.715275 3:0.347786 4:0.385841 5:0.166205 6:0.166205 7:0.813378 8:0.047041 9:0.6954 
0.2588540150014402 1:0.482801 2:-0.792389 3:0.347657 4:0.391847 5:0.130218 6:0.130218 7:0.814 8:0.046918 9:0.698089 
0.1963532381752718 1:0.481211 2:-0.857461 3:0.347615 4:0.399183 5:0.099852 6:0.099852 7:0.814676 8:0.046794 9:0.7014 
0.1975721925444809 1:0.479791 2:-0.909695 3:0.347606 4:0.407932 5:0.075476 6:0.075476 7:0.815351 8:0.046422 9:0.705089 
0.08635847411598759 1:0.478745 2:-0.949057 3:0.347622 4:0.418106 5:0.057107 6:0.057107 7:0.816027 8:0.046051 9:0.709467 
0.1303322138147852 1:0.477805 2:-0.992282 3:0.347645 4:0.44259 5:0.036935 6:0.036935 7:0.817324 8:0.045432 9:0.720156 
0.3131965546216068 1:0.478745 2:-0.990104 3:0.347624 4:0.489056 5:0.037952 6:0.037952 7:0.819162 8:0.044442 9:0.741511 
0.4006822667374906 1:0.098324 2:-0.04731 3:0.346466 4:0.333447 5:0.477922 6:0.477922 7:0.810973 8:0.047537 9:0.6668 
0.2733046252021363 1:0.130872 2:-0.099029 3:0.256278 4:0.343378 5:0.453787 6:0.453787 7:0.812514 8:0.050631 9:0.670267 
0.08956872859243148 1:0.169149 2:-0.086466 3:0.217981 4:0.351413 5:0.459649 6:0.459649 7:0.812919 8:0.050508 9:0.671956 
0.1116668017490039 1:0.191384 2:-0.064459 3:0.202739 4:0.355974 5:0.469919 6:0.469919 7:0.813081 8:0.050012 9:0.673111 
0.163741231049367 1:0.214832 2:-0.033341 3:0.190302 4:0.360823 5:0.484441 6:0.484441 7:0.813216 8:0.049393 9:0.674333 
0.1506601894773533 1:0.239186 2:0.004434 3:0.180405 4:0.365911 5:0.502069 6:0.502069 7:0.813297 8:0.048651 9:0.675489 
0.1804156596410091 1:0.264165 2:0.04664 3:0.172974 4:0.371232 5:0.521765 6:0.521765 7:0.813432 8:0.047784 9:0.676889 
0.1836233676618269 1:0.28969 2:0.091764 3:0.167756 4:0.376803 5:0.542823 6:0.542823 7:0.813541 8:0.046918 9:0.678356 
0.1805934701783705 1:0.315647 2:0.139089 3:0.164333 4:0.382568 5:0.564908 6:0.564908 7:0.813622 8:0.046175 9:0.679867 
0.2086928096957771 1:0.341868 2:0.188079 3:0.162284 4:0.388449 5:0.58777 6:0.58777 7:0.813649 8:0.04568 9:0.681156 
0.161233596440504 1:0.367979 2:0.237714 3:0.161328 4:0.394386 5:0.610933 6:0.610933 7:0.813676 8:0.045308 9:0.682622 
0.247046786621164 1:0.393214 2:0.286743 3:0.16131 4:0.400299 5:0.633813 6:0.633813 7:0.813622 8:0.045061 9:0.6842 
0.09125783185009555 1:0.416734 2:0.333775 3:0.161874 4:0.406086 5:0.655762 6:0.655762 7:0.813541 8:0.044937 9:0.685178 
0.3239060717390295 1:0.437721 2:0.377509 3:0.16277 4:0.411668 5:0.676171 6:0.676171 7:0.813432 8:0.044937 9:0.6866 
0.1700621424931122 1:0.45569 2:0.41683 3:0.163813 4:0.416949 5:0.694521 6:0.694521 7:0.81327 8:0.044937 9:0.688178 
0.04748782962264687 1:0.481682 2:0.478304 3:0.166012 4:0.426313 5:0.723208 6:0.723208 7:0.812838 8:0.045061 9:0.691933 
1 1:0.489881 2:0.498423 3:0.167076 4:0.430337 5:0.732597 6:0.732597 7:0.812649 8:0.044937 9:0.694111 
1 1:0.495614 2:0.510784 3:0.167987 4:0.43398 5:0.738366 6:0.738366 7:0.812486 8:0.044689 9:0.696422 
1 1:0.499781 2:0.516327 3:0.168856 4:0.437353 5:0.740952 6:0.740952 7:0.812378 8:0.044442 9:0.698667 
1 1:0.503332 2:0.517314 3:0.169606 4:0.440558 5:0.741413 6:0.741413 7:0.812324 8:0.04407 9:0.701311 
1 1:0.460198 2:-0.064407 3:0.348469 4:0.491097 5:0.469943 6:0.469943 7:0.812081 8:0.046299 9:0.728356 
0.4821321208008553 1:0.464999 2:-0.055157 3:0.348212 4:0.439894 5:0.47426 6:0.47426 7:0.724784 8:-0.112156 9:0.657311 
1 1:0.473713 2:-0.039681 3:0.348246 4:0.333697 5:0.481482 6:0.481482 7:0.811189 8:0.046546 9:0.667 
1 1:0.472952 2:-0.037498 3:0.351571 4:0.334867 5:0.482501 6:0.482501 7:0.811568 8:0.046175 9:0.667356 
1 1:0.460712 2:0.041576 3:0.391151 4:0.342023 5:0.519402 6:0.519402 7:0.812135 8:0.043328 9:0.669111 
0.03209291383857068 1:0.457624 2:0.098745 3:0.411262 4:0.344718 5:0.546081 6:0.546081 7:0.812054 8:0.042213 9:0.669333 
0.1775054891102945 1:0.468417 2:0.205732 3:0.450356 4:0.349229 5:0.596008 6:0.596008 7:0.811703 8:0.04048 9:0.668778 
0.08177692499596739 1:0.483362 2:0.239245 3:0.467679 4:0.350849 5:0.611647 6:0.611647 7:0.811486 8:0.039985 9:0.668178 
0.1476280317107234 1:0.503004 2:0.254445 3:0.482966 4:0.352036 5:0.618741 6:0.618741 7:0.811297 8:0.039738 9:0.666978 
0.05415742358810983 1:0.571033 2:0.197934 3:0.515195 4:0.353717 5:0.592369 6:0.592369 7:0.810892 8:0.039738 9:0.6618 
0.1523385767006353 1:0.591226 2:0.154798 3:0.521725 4:0.353803 5:0.572239 6:0.572239 7:0.810811 8:0.039985 9:0.659933 
0.09240669081720893 1:0.608134 2:0.105248 3:0.526497 4:0.353698 5:0.549116 6:0.549116 7:0.81073 8:0.04048 9:0.658044 
0.1574399220795724 1:0.620984 2:0.052707 3:0.529818 4:0.353443 5:0.524596 6:0.524596 7:0.810649 8:0.040975 9:0.656467 
0.1213720018764911 1:0.629328 2:0.000806 3:0.531924 4:0.353084 5:0.500376 6:0.500376 7:0.810622 8:0.041594 9:0.655067 
0.1170949171645194 1:0.633149 2:-0.047387 3:0.533074 4:0.352662 5:0.477886 6:0.477886 7:0.810595 8:0.042337 9:0.653911 
0.1004245614447515 1:0.632732 2:-0.08949 3:0.533532 4:0.352243 5:0.458238 6:0.458238 7:0.810622 8:0.04308 9:0.653333 
0.1953348958118867 1:0.611256 2:-0.161109 3:0.53279 4:0.351898 5:0.424816 6:0.424816 7:0.810919 8:0.044813 9:0.655533 
0.1733022675624213 1:0.599952 2:-0.162003 3:0.532281 4:0.352221 5:0.424399 6:0.424399 7:0.811027 8:0.045184 9:0.657356 
0.08920930570840505 1:0.56755 2:-0.09675 3:0.530856 4:0.354518 5:0.45485 6:0.45485 7:0.811324 8:0.046299 9:0.665778 
0.1512846435074769 1:0.560498 2:-0.056384 3:0.530491 4:0.355698 5:0.473687 6:0.473687 7:0.811432 8:0.046794 9:0.669244 
0.1131195448121741 1:0.556231 2:-0.009723 3:0.530223 4:0.357121 5:0.495462 6:0.495462 7:0.811568 8:0.047413 9:0.672911 
0.08523465391175358 1:0.55472 2:0.041377 3:0.530055 4:0.358829 5:0.519309 6:0.519309 7:0.811703 8:0.048032 9:0.676867 
0.1260012075457022 1:0.555683 2:0.094763 3:0.529903 4:0.360849 5:0.544223 6:0.544223 7:0.811865 8:0.049022 9:0.680956 
0.06552647875010333 1:0.558643 2:0.148074 3:0.52971 4:0.363223 5:0.569101 6:0.569101 7:0.812054 8:0.050136 9:0.684933 
0.08760054433966506 1:0.562756 2:0.199521 3:0.529487 4:0.366124 5:0.59311 6:0.59311 7:0.812405 8:0.051498 9:0.689133 
0.1178826410564024 1:0.567008 2:0.248886 3:0.529245 4:0.370087 5:0.616147 6:0.616147 7:0.813027 8:0.053355 9:0.693578 
0.1848710611555975 1:0.570019 2:0.298909 3:0.529046 4:0.37538 5:0.639491 6:0.639491 7:0.813676 8:0.055335 9:0.698356 
0.2102644943762784 1:0.570341 2:0.354052 3:0.528896 4:0.381966 5:0.665224 6:0.665224 7:0.81427 8:0.057192 9:0.703333 
0.244743912619919 1:0.566983 2:0.417555 3:0.528737 4:0.389728 5:0.694859 6:0.694859 7:0.814784 8:0.058925 9:0.708711 
0.2759218092907078 1:0.559738 2:0.490263 3:0.528572 4:0.398443 5:0.728789 6:0.728789 7:0.815189 8:0.060163 9:0.714267 
0.2980117522964218 1:0.549138 2:0.570616 3:0.528415 4:0.407798 5:0.766288 6:0.766288 7:0.815405 8:0.060906 9:0.719244 
0.3059814569628497 1:0.536097 2:0.655245 3:0.528248 4:0.417388 5:0.805781 6:0.805781 7:0.815378 8:0.061278 9:0.723067 
0.2878898379408438 1:0.522 2:0.739014 3:0.528165 4:0.426312 5:0.844873 6:0.844873 7:0.814757 8:0.061154 9:0.725489 
0.263719261319063 1:0.508427 2:0.814443 3:0.528186 4:0.433518 5:0.880073 6:0.880073 7:0.813757 8:0.060782 9:0.726267 
0.3890475005964577 1:0.487436 2:0.898343 3:0.528338 4:0.441101 5:0.919227 6:0.919227 7:0.811513 8:0.060163 9:0.725044 
-1 1:0.399461 2:-0.008093 3:0.34708 4:0.206266 5:0.496224 6:0.496224 7:0.814405 8:0.049765 9:0.656889 
-0.8397609886989323 1:0.417594 2:0.134868 3:0.347144 4:0.254389 5:0.562938 6:0.562938 7:0.813676 8:0.046546 9:0.6968 
-0.259416867803786 1:0.424534 2:0.127209 3:0.347163 4:0.260207 5:0.559364 6:0.559364 7:0.813541 8:0.046175 9:0.694578 
-0.9923648615229315 1:0.431733 2:0.115797 3:0.347267 4:0.265741 5:0.554039 6:0.554039 7:0.813405 8:0.045927 9:0.691356 
-1 1:0.465433 2:0.018559 3:0.347247 4:0.297834 5:0.508661 6:0.508661 7:0.81273 8:0.045432 9:0.663244 
-1 1:0.466647 2:0.011908 3:0.347142 4:0.301763 5:0.505557 6:0.505557 7:0.812676 8:0.045432 9:0.660689 
-1 1:0.467117 2:0.008685 3:0.34702 4:0.305566 5:0.504053 6:0.504053 7:0.812595 8:0.045432 9:0.658778 
-1 1:0.466835 2:0.009126 3:0.346914 4:0.309228 5:0.504259 6:0.504259 7:0.812541 8:0.045432 9:0.6574 
-1 1:0.465844 2:0.012857 3:0.346859 4:0.312732 5:0.506 6:0.506 7:0.812459 8:0.045308 9:0.656222 
-1 1:0.464439 2:0.0192 3:0.346887 4:0.316043 5:0.50896 6:0.50896 7:0.812351 8:0.045184 9:0.655244 
-1 1:0.463045 2:0.027344 3:0.346966 4:0.319109 5:0.512761 6:0.512761 7:0.812216 8:0.045061 9:0.654644 
-1 1:0.462009 2:0.036243 3:0.347039 4:0.321879 5:0.516913 6:0.516913 7:0.812081 8:0.045061 9:0.654689 
-0.05765638118605213 1:0.461584 2:0.052229 3:0.347099 4:0.326493 5:0.524373 6:0.524373 7:0.811757 8:0.044937 9:0.656244 
-1 1:0.461922 2:0.057858 3:0.347086 4:0.328304 5:0.527 6:0.527 7:0.811595 8:0.044937 9:0.657 
-1 1:0.462367 2:0.06099 3:0.347024 4:0.329803 5:0.528462 6:0.528462 7:0.811459 8:0.045061 9:0.6578 
-1 1:0.462815 2:0.061488 3:0.346919 4:0.331054 5:0.528694 6:0.528694 7:0.811351 8:0.045061 9:0.658511 
-1 1:0.463245 2:0.059771 3:0.346833 4:0.33208 5:0.527893 6:0.527893 7:0.811243 8:0.044937 9:0.659156 
-1 1:0.463719 2:0.056466 3:0.346784 4:0.332893 5:0.526351 6:0.526351 7:0.811162 8:0.044937 9:0.659822 
-1 1:0.464315 2:0.051926 3:0.346793 4:0.333516 5:0.524232 6:0.524232 7:0.811081 8:0.045061 9:0.660711 
-1 1:0.464983 2:0.046266 3:0.346814 4:0.333988 5:0.521591 6:0.521591 7:0.811 8:0.044937 9:0.661533 
-1 1:0.465621 2:0.039685 3:0.346895 4:0.334329 5:0.51852 6:0.51852 7:0.810946 8:0.044937 9:0.662378 
-1 1:0.466238 2:0.032324 3:0.347035 4:0.334546 5:0.515085 6:0.515085 7:0.810892 8:0.044937 9:0.663267 
-1 1:0.466972 2:0.024279 3:0.347196 4:0.334649 5:0.51133 6:0.51133 7:0.810838 8:0.044937 9:0.663844 
-1 1:0.467859 2:0.015616 3:0.347336 4:0.334653 5:0.507287 6:0.507287 7:0.810784 8:0.044937 9:0.664133 
-1 1:0.468837 2:0.006365 3:0.347464 4:0.334579 5:0.50297 6:0.50297 7:0.810757 8:0.045061 9:0.664578 
-1 1:0.469651 2:-0.003637 3:0.347597 4:0.33442 5:0.498303 6:0.498303 7:0.810703 8:0.045061 9:0.664956 
-1 1:0.470154 2:-0.014915 3:0.34759 4:0.334191 5:0.49304 6:0.49304 7:0.810703 8:0.045184 9:0.664889 
-1 1:0.470355 2:-0.027753 3:0.34757 4:0.333936 5:0.487049 6:0.487049 7:0.810676 8:0.045184 9:0.664889 
-1 1:0.470338 2:-0.04189 3:0.347474 4:0.333689 5:0.480451 6:0.480451 7:0.810703 8:0.045308 9:0.665089 
-1 1:0.470324 2:-0.056844 3:0.347387 4:0.333477 5:0.473473 6:0.473473 7:0.81073 8:0.045308 9:0.665267 
-1 1:0.470263 2:-0.072382 3:0.347245 4:0.333338 5:0.466222 6:0.466222 7:0.810784 8:0.045308 9:0.6656 
-1 1:0.466706 2:-0.142243 3:0.347471 4:0.336864 5:0.43362 6:0.43362 7:0.811486 8:0.045308 9:0.671667 
-0.8224323837684038 1:0.466379 2:-0.139863 3:0.347545 4:0.338388 5:0.434731 6:0.434731 7:0.811595 8:0.045184 9:0.672956 
-0.2264951951425632 1:0.483072 2:-0.068535 3:0.347001 4:0.353317 5:0.468017 6:0.468017 7:0.811946 8:0.044813 9:0.678244 
-1 1:0.486351 2:-0.061905 3:0.34694 4:0.355688 5:0.471111 6:0.471111 7:0.811946 8:0.044937 9:0.679467 
-1 1:0.489238 2:-0.057523 3:0.346932 4:0.358051 5:0.473156 6:0.473156 7:0.811946 8:0.044937 9:0.680733 
-1 1:0.491675 2:-0.055335 3:0.347011 4:0.360434 5:0.474177 6:0.474177 7:0.811973 8:0.044937 9:0.682244 
-1 1:0.493755 2:-0.055077 3:0.34722 4:0.362927 5:0.474297 6:0.474297 7:0.812054 8:0.044813 9:0.683556 
-0.1930020290608072 1:0.495671 2:-0.05584 3:0.347493 4:0.36562 5:0.473941 6:0.473941 7:0.812162 8:0.044689 9:0.684467 
-1 1:0.507533 2:-0.021816 3:0.348531 4:0.382292 5:0.489819 6:0.489819 7:0.812568 8:0.044565 9:0.691022 
-0.292447277654535 1:0.510481 2:-0.004867 3:0.34845 4:0.385897 5:0.497729 6:0.497729 7:0.812514 8:0.044689 9:0.6926 
-1 1:0.52255 2:0.068906 3:0.347438 4:0.400542 5:0.532156 6:0.532156 7:0.811811 8:0.045803 9:0.6986 
-0.504083859202341 1:0.523048 2:0.070358 3:0.347394 4:0.402454 5:0.532834 6:0.532834 7:0.811649 8:0.046175 9:0.698956 
-1 1:0.484877 2:-0.017411 3:0.347328 4:0.401991 5:0.491875 6:0.491875 7:0.810378 8:0.046546 9:0.6918 
-1 1:0.487018 2:-0.014014 3:0.347439 4:0.401079 5:0.49346 6:0.49346 7:0.810378 8:0.046546 9:0.691133 
-1 1:0.489643 2:-0.011287 3:0.34747 4:0.400172 5:0.494733 6:0.494733 7:0.810378 8:0.046546 9:0.6904 
-1 1:0.492401 2:-0.008467 3:0.347468 4:0.39927 5:0.496049 6:0.496049 7:0.810378 8:0.046546 9:0.6898 
-0.09354857020841034 1:0.49504 2:-0.005386 3:0.34743 4:0.398361 5:0.497486 6:0.497486 7:0.810378 8:0.046422 9:0.689089 
-1 1:0.507037 2:0.5167 3:0.170284 4:0.443611 5:0.741127 6:0.741127 7:0.812243 8:0.043823 9:0.703956 
-1 1:0.511445 2:0.517307 3:0.170772 4:0.446504 5:0.74141 6:0.74141 7:0.812162 8:0.043699 9:0.706467 
-1 1:0.516646 2:0.521066 3:0.171213 4:0.449218 5:0.743164 6:0.743164 7:0.812054 8:0.043947 9:0.709 
-1 1:0.522174 2:0.528836 3:0.173676 4:0.451633 5:0.74679 6:0.74679 7:0.811865 8:0.044318 9:0.711222 
-0.4588986982363282 1:0.527266 2:0.537987 3:0.179609 4:0.453553 5:0.751061 6:0.751061 7:0.811568 8:0.044565 9:0.712889 
-0.2721473152281249 1:0.535411 2:0.494211 3:0.212551 4:0.455012 5:0.730632 6:0.730632 7:0.810541 8:0.045432 9:0.714889 
-1 1:0.535714 2:0.442777 3:0.226588 4:0.454212 5:0.706629 6:0.706629 7:0.810324 8:0.04568 9:0.715222 
-0.8295151820635676 1:0.535445 2:0.376913 3:0.241042 4:0.453074 5:0.675892 6:0.675892 7:0.810216 8:0.045803 9:0.715644 
-0.9653072610358183 1:0.535018 2:0.302563 3:0.255329 4:0.451772 5:0.641196 6:0.641196 7:0.810162 8:0.045927 9:0.715378 
-0.8933100449651851 1:0.534862 2:0.225693 3:0.269003 4:0.450348 5:0.605323 6:0.605323 7:0.810081 8:0.046175 9:0.714422 
-1 1:0.535129 2:0.151449 3:0.281765 4:0.448804 5:0.570676 6:0.570676 7:0.810054 8:0.046299 9:0.713356 
-0.2635090409535397 1:0.535806 2:0.083649 3:0.293401 4:0.447216 5:0.539036 6:0.539036 7:0.810054 8:0.046546 9:0.712378 
-1 1:0.544709 2:-0.129112 3:0.339523 4:0.442993 5:0.439748 6:0.439748 7:0.811135 8:0.049022 9:0.713067 
-0.7199758125200296 1:0.546045 2:-0.128409 3:0.342113 4:0.443882 5:0.440076 6:0.440076 7:0.811351 8:0.049393 9:0.714 
-0.02328388255216998 1:0.540505 2:-0.055471 3:0.348183 4:0.469201 5:0.474113 6:0.474113 7:0.813135 8:0.052241 9:0.735022 
-0.6564538863809499 1:0.512777 2:0.008827 3:0.348445 4:0.519508 5:0.504119 6:0.504119 7:0.813649 8:0.052736 9:0.763178 
-0.8577397437412909 1:0.502055 2:0.051659 3:0.348851 4:0.59277 5:0.524107 6:0.524107 7:0.812541 8:0.048651 9:0.794756 
-0.9924137457780046 1:0.538097 2:0.002557 3:0.348285 4:0.61973 5:0.501193 6:0.501193 7:0.810568 8:0.048527 9:0.798756 
-1 1:0.53793 2:0.003838 3:0.347731 4:0.580084 5:0.501791 6:0.501791 7:0.660405 8:-0.145952 9:0.668689 
-1 1:0.533704 2:-0.023465 3:0.347848 4:0.333682 5:0.48905 6:0.48905 7:0.811243 8:0.047413 9:0.667044 
-1 1:0.533726 2:-0.023278 3:0.347953 4:0.33531 5:0.489137 6:0.489137 7:0.811919 8:0.048403 9:0.6682 
-1 1:0.533601 2:-0.022466 3:0.348121 4:0.338249 5:0.489516 6:0.489516 7:0.812514 8:0.04927 9:0.670067 
-0.7130147311852428 1:0.533282 2:-0.020684 3:0.348367 4:0.342338 5:0.490348 6:0.490348 7:0.813027 8:0.050012 9:0.672089 
-1 1:0.532781 2:-0.017906 3:0.348543 4:0.347402 5:0.491644 6:0.491644 7:0.813459 8:0.050755 9:0.6742 
-1 1:0.532023 2:-0.014118 3:0.348625 4:0.353281 5:0.493412 6:0.493412 7:0.813811 8:0.051374 9:0.676911 
-1 1:0.530849 2:-0.009294 3:0.34873 4:0.359819 5:0.495663 6:0.495663 7:0.814081 8:0.051993 9:0.679933 
-1 1:0.529124 2:-0.003842 3:0.348829 4:0.366868 5:0.498207 6:0.498207 7:0.814297 8:0.052488 9:0.683178 
-0.8190957597154299 1:0.46147 2:-0.06661 3:0.348527 4:0.48517 5:0.468915 6:0.468915 7:0.812405 8:0.047784 9:0.727356 
-1 1:0.460404 2:-0.065758 3:0.348524 4:0.488302 5:0.469313 6:0.469313 7:0.812243 8:0.047041 9:0.727933 
