svm_type c_svc
kernel_type rbf
gamma 149
nr_class 2
total_sv 250
rho -0.908298
label 0 1
nr_sv 203 47
SV
1 1:-0.012861 2:0.484461 3:0.347827 4:0.333332 5:0.493998 6:0.493998 7:0.810811 8:0.04667 9:0.666667 
1 1:-0.012868 2:0.484399 3:0.347827 4:0.333326 5:0.493995 6:0.493995 7:0.810811 8:0.04667 9:0.666667 
1 1:-0.012859 2:0.484294 3:0.347825 4:0.33332 5:0.493999 6:0.493999 7:0.810811 8:0.04667 9:0.666667 
1 1:-0.012829 2:0.484176 3:0.347821 4:0.333317 5:0.494013 6:0.494013 7:0.810811 8:0.04667 9:0.666667 
1 1:-0.012773 2:0.484072 3:0.34781 4:0.333318 5:0.494039 6:0.494039 7:0.810811 8:0.04667 9:0.666667 
1 1:-0.012669 2:0.484014 3:0.347799 4:0.333322 5:0.494088 6:0.494088 7:0.810811 8:0.04667 9:0.666667 
1 1:-0.012521 2:0.484006 3:0.347791 4:0.33333 5:0.494157 6:0.494157 7:0.810811 8:0.04667 9:0.666667 
1 1:-0.012334 2:0.484038 3:0.347784 4:0.333341 5:0.494244 6:0.494244 7:0.810811 8:0.04667 9:0.666667 
1 1:-0.012121 2:0.484109 3:0.347777 4:0.333354 5:0.494344 6:0.494344 7:0.810811 8:0.04667 9:0.666689 
1 1:-0.011891 2:0.484225 3:0.347768 4:0.33337 5:0.494451 6:0.494451 7:0.810811 8:0.04667 9:0.666689 
1 1:-0.011636 2:0.484378 3:0.347797 4:0.33339 5:0.49457 6:0.49457 7:0.810811 8:0.04667 9:0.666689 
1 1:-0.011267 2:0.484553 3:0.347844 4:0.333419 5:0.494742 6:0.494742 7:0.810838 8:0.04667 9:0.666711 
1 1:-0.010772 2:0.484742 3:0.34789 4:0.333457 5:0.494973 6:0.494973 7:0.810838 8:0.04667 9:0.666733 
1 1:-0.010272 2:0.484945 3:0.3479 4:0.333496 5:0.495206 6:0.495206 7:0.810838 8:0.04667 9:0.666756 
0.7287179837935355 1:-0.009804 2:0.48515 3:0.347892 4:0.333534 5:0.495425 6:0.495425 7:0.810838 8:0.04667 9:0.666756 
1 1:-0.019117 2:0.494783 3:0.353689 4:0.333171 5:0.491079 6:0.491079 7:0.810784 8:0.047041 9:0.666578 
1 1:-0.027205 2:0.498318 3:0.353809 4:0.333156 5:0.487304 6:0.487304 7:0.810811 8:0.047041 9:0.6666 
1 1:-0.036134 2:0.501168 3:0.353409 4:0.33323 5:0.483137 6:0.483137 7:0.810865 8:0.047041 9:0.666644 
1 1:-0.044736 2:0.502516 3:0.352712 4:0.333428 5:0.479123 6:0.479123 7:0.810919 8:0.046918 9:0.666756 
1 1:-0.050641 2:0.502087 3:0.351658 4:0.33369 5:0.476368 6:0.476368 7:0.810946 8:0.046918 9:0.666889 
1 1:-0.050574 2:0.50007 3:0.350532 4:0.333969 5:0.476399 6:0.476399 7:0.810946 8:0.046794 9:0.667 
1 1:-0.041322 2:0.496439 3:0.349589 4:0.334234 5:0.480717 6:0.480717 7:0.810919 8:0.046794 9:0.667111 
1 1:-0.021013 2:0.491464 3:0.34889 4:0.334448 5:0.490194 6:0.490194 7:0.810892 8:0.04667 9:0.6672 
1 1:0.051104 2:0.478632 3:0.324408 4:0.3346 5:0.523848 6:0.523848 7:0.810811 8:0.046546 9:0.667222 
1 1:0.099196 2:0.47161 3:0.311283 4:0.334564 5:0.546292 6:0.546292 7:0.810784 8:0.046051 9:0.618467 
0.04426356551799963 1:0.151708 2:0.465725 3:0.304724 4:0.334519 5:0.570797 6:0.570797 7:0.810784 8:0.044937 9:0.570333 
0.04902053028363332 1:0.205582 2:0.462537 3:0.303004 4:0.334382 5:0.595938 6:0.595938 7:0.810703 8:0.043699 9:0.527511 
0.0439833256145148 1:0.257812 2:0.462772 3:0.304723 4:0.334073 5:0.620313 6:0.620313 7:0.810622 8:0.042832 9:0.488622 
0.03893979938662663 1:0.304795 2:0.466425 3:0.308637 4:0.33353 5:0.642237 6:0.642237 7:0.810486 8:0.04209 9:0.452378 
0.03557504095598163 1:0.343605 2:0.472915 3:0.313843 4:0.332719 5:0.660349 6:0.660349 7:0.810351 8:0.041842 9:0.419156 
0.02235799083755922 1:0.372511 2:0.481414 3:0.319508 4:0.33168 5:0.673838 6:0.673838 7:0.81027 8:0.042832 9:0.388689 
0.02286412137229264 1:0.391313 2:0.490525 3:0.325236 4:0.330508 5:0.682612 6:0.682612 7:0.810216 8:0.044565 9:0.3612 
0.007358850178843456 1:0.404036 2:0.502091 3:0.335512 4:0.327949 5:0.68855 6:0.68855 7:0.810162 8:0.048527 9:0.316067 
0.04247790744051144 1:0.401291 2:0.500409 3:0.339696 4:0.326579 5:0.687269 6:0.687269 7:0.810135 8:0.050136 9:0.298289 
0.01286580919162751 1:0.382009 2:0.479697 3:0.345996 4:0.323707 5:0.678271 6:0.678271 7:0.810081 8:0.052117 9:0.273333 
0.009905073734681332 1:0.366023 2:0.462701 3:0.348077 4:0.322116 5:0.670811 6:0.670811 7:0.81 8:0.052612 9:0.268 
0.01917897692512256 1:0.345204 2:0.443277 3:0.349585 4:0.320218 5:0.661095 6:0.661095 7:0.809784 8:0.052612 9:0.267622 
0.03395044021836137 1:0.318262 2:0.42327 3:0.350673 4:0.3178 5:0.648522 6:0.648522 7:0.809486 8:0.052241 9:0.272133 
0.02609758076987091 1:0.283543 2:0.404481 3:0.351406 4:0.314652 5:0.63232 6:0.63232 7:0.809108 8:0.051498 9:0.281156 
0.04294358307198812 1:0.239146 2:0.388662 3:0.351856 4:0.310687 5:0.611602 6:0.611602 7:0.80873 8:0.050384 9:0.294289 
0.04555463541681149 1:0.18438 2:0.377278 3:0.352041 4:0.30602 5:0.586044 6:0.586044 7:0.808432 8:0.049146 9:0.311444 
0.05418749647900347 1:0.120542 2:0.371413 3:0.351973 4:0.300866 5:0.556253 6:0.556253 7:0.808243 8:0.047908 9:0.332489 
0.05612831523472309 1:0.050777 2:0.371546 3:0.351746 4:0.295494 5:0.523696 6:0.523696 7:0.808216 8:0.046546 9:0.356511 
0.05665697877719186 1:-0.020658 2:0.377565 3:0.351392 4:0.290109 5:0.49036 6:0.49036 7:0.808243 8:0.045432 9:0.382822 
0.04420936123037263 1:-0.088666 2:0.388742 3:0.350941 4:0.284827 5:0.458623 6:0.458623 7:0.808324 8:0.044318 9:0.410689 
0.03824709370942791 1:-0.148603 2:0.403911 3:0.350448 4:0.279788 5:0.430652 6:0.430652 7:0.808459 8:0.043451 9:0.439422 
0.04155100976984467 1:-0.197491 2:0.421811 3:0.349963 4:0.275087 5:0.407838 6:0.407838 7:0.808649 8:0.042709 9:0.468178 
0.02852094237310321 1:-0.233982 2:0.441296 3:0.34942 4:0.270814 5:0.390808 6:0.390808 7:0.808865 8:0.042461 9:0.496644 
0.02116461620562186 1:-0.257759 2:0.461286 3:0.348885 4:0.267039 5:0.379712 6:0.379712 7:0.809135 8:0.042337 9:0.523978 
0.02791581039608198 1:-0.26927 2:0.480639 3:0.348467 4:0.263801 5:0.374341 6:0.374341 7:0.809378 8:0.042461 9:0.549867 
0.01535727160541239 1:-0.269495 2:0.498289 3:0.348159 4:0.261131 5:0.374236 6:0.374236 7:0.809676 8:0.042585 9:0.573956 
0.04590917067756797 1:-0.241443 2:0.526024 3:0.347655 4:0.257463 5:0.387327 6:0.387327 7:0.810189 8:0.04308 9:0.615333 
0.01898593614236425 1:-0.216473 2:0.535862 3:0.347433 4:0.256422 5:0.398979 6:0.398979 7:0.810432 8:0.043204 9:0.632222 
0.0576803659009966 1:-0.11829 2:0.552169 3:0.347296 4:0.25605 5:0.444798 6:0.444798 7:0.811027 8:0.043823 9:0.6668 
1 1:-0.08368 2:0.554602 3:0.347307 4:0.256623 5:0.46095 6:0.46095 7:0.811162 8:0.04407 9:0.673156 
1 1:0.003679 2:0.482935 3:0.34751 4:0.383091 5:0.501717 6:0.501717 7:0.810378 8:0.046422 9:0.690222 
1 1:0.008708 2:0.483236 3:0.347379 4:0.382216 5:0.504064 6:0.504064 7:0.810378 8:0.046299 9:0.689578 
1 1:0.015744 2:0.483776 3:0.347288 4:0.381312 5:0.507347 6:0.507347 7:0.810351 8:0.046299 9:0.688911 
1 1:0.020494 2:0.484603 3:0.347257 4:0.38032 5:0.509564 6:0.509564 7:0.810324 8:0.046299 9:0.688044 
1 1:0.016024 2:0.485744 3:0.347269 4:0.379261 5:0.507478 6:0.507478 7:0.810297 8:0.046299 9:0.687222 
1 1:-0.004413 2:0.487377 3:0.347302 4:0.378212 5:0.497941 6:0.497941 7:0.810324 8:0.046422 9:0.686533 
1 1:-0.044648 2:0.48948 3:0.347389 4:0.377252 5:0.479164 6:0.479164 7:0.810378 8:0.046422 9:0.6858 
1 1:-0.104909 2:0.49198 3:0.347524 4:0.376434 5:0.451042 6:0.451042 7:0.810459 8:0.046546 9:0.685644 
0.07722431786729832 1:-0.274154 2:0.498039 3:0.347811 4:0.375691 5:0.372062 6:0.372062 7:0.810865 8:0.046794 9:0.6864 
0.07365492973302623 1:-0.37312 2:0.501168 3:0.347968 4:0.376098 5:0.325878 6:0.325878 7:0.811162 8:0.047041 9:0.687444 
0.07456225050566716 1:-0.474614 2:0.504055 3:0.348076 4:0.377244 5:0.278513 6:0.278513 7:0.811568 8:0.047165 9:0.688756 
0.0728126354957825 1:-0.574007 2:0.506385 3:0.348098 4:0.37934 5:0.23213 6:0.23213 7:0.812081 8:0.047289 9:0.690511 
0.06619397168601289 1:-0.667223 2:0.508001 3:0.348091 4:0.38262 5:0.188629 6:0.188629 7:0.812703 8:0.047413 9:0.692756 
0.06031978863465205 1:-0.750725 2:0.508942 3:0.34806 4:0.387223 5:0.149662 6:0.149662 7:0.813351 8:0.047537 9:0.695667 
0.04551656631267969 1:-0.821804 2:0.509048 3:0.347968 4:0.393249 5:0.116492 6:0.116492 7:0.814081 8:0.04766 9:0.699089 
0.04664379359457185 1:-0.878662 2:0.508143 3:0.347867 4:0.400843 5:0.089958 6:0.089958 7:0.814865 8:0.047784 9:0.703111 
0.01036020169809157 1:-0.920232 2:0.506099 3:0.34777 4:0.410141 5:0.070558 6:0.070558 7:0.815703 8:0.047784 9:0.707956 
0.04582207965902131 1:-0.961595 2:0.49843 3:0.347743 4:0.43398 5:0.051256 6:0.051256 7:0.817378 8:0.04766 9:0.719311 
0.01632063791748319 1:-0.965898 2:0.493279 3:0.34776 4:0.448462 5:0.049248 6:0.049248 7:0.818135 8:0.047537 9:0.726022 
0.008914048191098652 1:-0.952646 2:0.482371 3:0.347917 4:0.481816 5:0.055432 6:0.055432 7:0.819459 8:0.047165 9:0.740933 
0.006608947961746603 1:-0.939109 2:0.477463 3:0.347946 4:0.500386 5:0.061749 6:0.061749 7:0.82 8:0.046918 9:0.748711 
0.03080125249268745 1:-0.923096 2:0.473388 3:0.348019 4:0.519994 5:0.069222 6:0.069222 7:0.820459 8:0.046794 9:0.756156 
0.01619699475801183 1:-0.905273 2:0.469705 3:0.348087 4:0.540504 5:0.077539 6:0.077539 7:0.820892 8:0.046546 9:0.764156 
0.02659634668947055 1:-0.883046 2:0.465048 3:0.348119 4:0.561933 5:0.087912 6:0.087912 7:0.821324 8:0.046299 9:0.773533 
0.0309833144101321 1:-0.851914 2:0.457525 3:0.348067 4:0.584376 5:0.10244 6:0.10244 7:0.821865 8:0.045803 9:0.7836 
0.04423391719489835 1:-0.807841 2:0.445018 3:0.347876 4:0.607901 5:0.123007 6:0.123007 7:0.822351 8:0.045308 9:0.794844 
0.05596550689814656 1:-0.748354 2:0.426061 3:0.347587 4:0.632422 5:0.150768 6:0.150768 7:0.822811 8:0.044565 9:0.806689 
0.06705870879979535 1:-0.673464 2:0.400156 3:0.347189 4:0.657783 5:0.185717 6:0.185717 7:0.823162 8:0.043575 9:0.819 
0.07483797903088663 1:-0.585077 2:0.367734 3:0.346678 4:0.683777 5:0.226964 6:0.226964 7:0.823405 8:0.042213 9:0.831222 
0.07889445281035098 1:-0.486673 2:0.330177 3:0.346277 4:0.710004 5:0.272886 6:0.272886 7:0.823405 8:0.040604 9:0.843378 
0.08063796322023052 1:-0.383405 2:0.289368 3:0.346025 4:0.736044 5:0.321077 6:0.321077 7:0.823216 8:0.038623 9:0.855111 
0.08030789434917622 1:-0.279996 2:0.247092 3:0.345838 4:0.761532 5:0.369335 6:0.369335 7:0.822865 8:0.036519 9:0.866778 
0.07726464231015612 1:-0.179898 2:0.205197 3:0.345859 4:0.786216 5:0.416048 6:0.416048 7:0.822459 8:0.034043 9:0.878089 
0.07276472779312813 1:-0.08624 2:0.165257 3:0.346052 4:0.809993 5:0.459755 6:0.459755 7:0.822 8:0.031443 9:0.888444 
0.06636124825343737 1:-0.001361 2:0.128377 3:0.346368 4:0.832824 5:0.499365 6:0.499365 7:0.821541 8:0.028472 9:0.898289 
0.05690958554549626 1:0.072782 2:0.095502 3:0.346817 4:0.85459 5:0.533965 6:0.533965 7:0.821 8:0.025625 9:0.908067 
0.04918489103600299 1:0.134916 2:0.067238 3:0.347245 4:0.875169 5:0.562961 6:0.562961 7:0.820378 8:0.022902 9:0.918622 
0.03439977276131507 1:0.184695 2:0.044092 3:0.347734 4:0.894347 5:0.586191 6:0.586191 7:0.819649 8:0.020178 9:0.928711 
0.0366763400967544 1:0.221982 2:0.026203 3:0.348143 4:0.911902 5:0.603592 6:0.603592 7:0.818838 8:0.017455 9:0.937578 
0.03623164295326595 1:0.271182 2:0.003444 3:0.349042 4:0.95374 5:0.626552 6:0.626552 7:0.816189 8:0.010027 9:0.959622 
0.03847050159253355 1:0.255188 2:0.027581 3:0.349102 4:0.987961 5:0.619088 6:0.619088 7:0.812054 8:-0.002104 9:0.970622 
0.009709867756846189 1:0.287693 2:0.062533 3:0.348582 4:0.989593 5:0.634257 6:0.634257 7:0.810351 8:-0.005323 9:0.970289 
0.05005883328106202 1:0.327513 2:0.089418 3:0.348223 4:0.9877 5:0.652839 6:0.652839 7:0.809459 8:-0.006313 9:0.968667 
0.04879462653117723 1:0.382188 2:0.122208 3:0.347851 4:0.983959 5:0.678354 6:0.678354 7:0.808568 8:-0.00718 9:0.9662 
0.06183688702621831 1:0.449911 2:0.159791 3:0.347456 4:0.978283 5:0.709958 6:0.709958 7:0.807595 8:-0.007799 9:0.962511 
0.06619137536476224 1:0.527271 2:0.200741 3:0.347118 4:0.970572 5:0.74606 6:0.74606 7:0.806595 8:-0.008047 9:0.957822 
0.06837216217760542 1:0.609439 2:0.243381 3:0.346792 4:0.960748 5:0.784405 6:0.784405 7:0.805568 8:-0.007799 9:0.9522 
0.06628218159080781 1:0.691084 2:0.286017 3:0.346502 4:0.948713 5:0.822506 6:0.822506 7:0.804486 8:-0.00718 9:0.9456 
0.06118746931950621 1:0.767707 2:0.326991 3:0.346306 4:0.934391 5:0.858263 6:0.858263 7:0.803378 8:-0.005942 9:0.937622 
0.05529681123067069 1:0.835911 2:0.365321 3:0.34621 4:0.917719 5:0.890092 6:0.890092 7:0.802243 8:-0.004333 9:0.9284 
0.0445866570256563 1:0.893152 2:0.400324 3:0.346152 4:0.898673 5:0.916804 6:0.916804 7:0.801081 8:-0.002352 9:0.918089 
0.0407172655914535 1:0.937868 2:0.431522 3:0.346214 4:0.877258 5:0.937672 6:0.937672 7:0.799946 8:-0.000124 9:0.906778 
0.02490185471787325 1:0.968988 2:0.458872 3:0.346278 4:0.853506 5:0.952194 6:0.952194 7:0.798838 8:0.002228 9:0.894133 
0.02549369974024212 1:0.986559 2:0.482318 3:0.346367 4:0.827464 5:0.960394 6:0.960394 7:0.797757 8:0.004704 9:0.880578 
0.03032009051607311 1:0.991829 2:0.502088 3:0.34648 4:0.79924 5:0.962853 6:0.962853 7:0.79673 8:0.007056 9:0.866578 
0.01366057536533481 1:0.986552 2:0.518469 3:0.346587 4:0.768928 5:0.960391 6:0.960391 7:0.795757 8:0.009656 9:0.851733 
0.03550907103539015 1:0.972898 2:0.531697 3:0.34671 4:0.736661 5:0.954019 6:0.954019 7:0.794865 8:0.012379 9:0.835867 
0.02696876674943273 1:0.952993 2:0.542162 3:0.346904 4:0.702564 5:0.94473 6:0.94473 7:0.794027 8:0.01535 9:0.819156 
0.0316549129286118 1:0.928773 2:0.550093 3:0.347204 4:0.666821 5:0.933428 6:0.933428 7:0.79327 8:0.018445 9:0.8018 
0.0370059072716994 1:0.90212 2:0.555866 3:0.347567 4:0.629616 5:0.920989 6:0.920989 7:0.792622 8:0.021664 9:0.784067 
0.0338538902939786 1:0.872471 2:0.560543 3:0.347962 4:0.591132 5:0.907153 6:0.907153 7:0.792054 8:0.025006 9:0.766 
0.04372704345380957 1:0.835879 2:0.56572 3:0.348277 4:0.55157 5:0.890077 6:0.890077 7:0.791568 8:0.028472 9:0.747533 
0.05135688637898604 1:0.787241 2:0.573474 3:0.348503 4:0.51114 5:0.867379 6:0.867379 7:0.791216 8:0.031815 9:0.728556 
0.06440190376076549 1:0.721773 2:0.586013 3:0.348583 4:0.470122 5:0.836828 6:0.836828 7:0.791027 8:0.035405 9:0.710156 
0.0755493646188817 1:0.637629 2:0.604527 3:0.348489 4:0.429034 5:0.79756 6:0.79756 7:0.79127 8:0.038995 9:0.692133 
0.07854245785064592 1:0.53598 2:0.629252 3:0.348281 4:0.389873 5:0.750124 6:0.750124 7:0.792838 8:0.041966 9:0.676356 
0.0765295511620956 1:0.4207 2:0.659584 3:0.348155 4:0.354327 5:0.696327 6:0.696327 7:0.794622 8:0.045061 9:0.6628 
0.0822357248058293 1:0.297238 2:0.694363 3:0.348296 4:0.322374 5:0.638711 6:0.638711 7:0.79627 8:0.048403 9:0.651022 
0.08765476729766462 1:0.170853 2:0.731983 3:0.348659 4:0.293632 5:0.579732 6:0.579732 7:0.79773 8:0.051993 9:0.640444 
0.08900134521394311 1:0.045666 2:0.770704 3:0.349133 4:0.267937 5:0.521311 6:0.521311 7:0.799216 8:0.055707 9:0.630622 
0.08470565886125059 1:-0.07493 2:0.809218 3:0.349551 4:0.245337 5:0.465032 6:0.465032 7:0.800703 8:0.059668 9:0.621778 
0.08019460555732752 1:-0.187082 2:0.846038 3:0.350115 4:0.225873 5:0.412695 6:0.412695 7:0.802216 8:0.063753 9:0.614022 
0.07276601924438005 1:-0.286193 2:0.879881 3:0.350773 4:0.209191 5:0.366443 6:0.366443 7:0.803216 8:0.068086 9:0.606933 
0.05870403718858223 1:-0.368959 2:0.909993 3:0.351437 4:0.1937 5:0.327819 6:0.327819 7:0.803432 8:0.073162 9:0.599578 
0.04806828949454952 1:-0.432925 2:0.935297 3:0.351923 4:0.178334 5:0.297968 6:0.297968 7:0.803405 8:0.078361 9:0.591756 
0.02233979203597113 1:-0.476727 2:0.954581 3:0.352388 4:0.162849 5:0.277527 6:0.277527 7:0.803351 8:0.08356 9:0.583622 
0.07511671700634774 1:-0.506102 2:0.973184 3:0.352763 4:0.116132 5:0.263819 6:0.263819 7:0.803432 8:0.097425 9:0.5572 
0.09193004289691964 1:-0.491446 2:0.874438 3:0.352051 4:0.127527 5:0.270658 6:0.270658 7:0.932811 8:1.392671 9:0.654689 
0.0786942067118757 1:-0.483384 2:0.118725 3:0.347816 4:0.333136 5:0.274421 6:0.274421 7:0.810568 8:0.047165 9:0.666444 
0.01241795989032432 1:-0.428079 2:0.136479 3:0.347254 4:0.327176 5:0.30023 6:0.30023 7:0.809865 8:0.04766 9:0.648133 
0.04897424374530798 1:-0.39352 2:0.153257 3:0.347146 4:0.325151 5:0.316357 6:0.316357 7:0.809811 8:0.047413 9:0.637956 
0.02707587140052578 1:-0.351939 2:0.175252 3:0.347141 4:0.323073 5:0.335762 6:0.335762 7:0.809811 8:0.047165 9:0.626444 
0.04718938114361967 1:-0.306216 2:0.201467 3:0.347138 4:0.320983 5:0.357099 6:0.357099 7:0.809811 8:0.046918 9:0.614378 
0.03516299045031616 1:-0.259529 2:0.230844 3:0.347109 4:0.31892 5:0.378887 6:0.378887 7:0.809838 8:0.046546 9:0.602311 
0.04529464729161531 1:-0.214705 2:0.262327 3:0.347104 4:0.316908 5:0.399804 6:0.399804 7:0.809865 8:0.046299 9:0.590533 
0.0252970098174805 1:-0.173868 2:0.295088 3:0.347093 4:0.314994 5:0.418862 6:0.418862 7:0.809919 8:0.046051 9:0.579422 
0.05396808521658159 1:-0.138143 2:0.328322 3:0.347084 4:0.313219 5:0.435533 6:0.435533 7:0.81 8:0.045927 9:0.5692 
0.2243239366039488 1:-0.065295 2:0.422271 3:0.347397 4:0.309066 5:0.469529 6:0.469529 7:0.810324 8:0.045927 9:0.542822 
0.01557014365952519 1:4.7e-05 2:0.550096 3:0.347999 4:0.30916 5:0.500022 6:0.500022 7:0.81127 8:0.046794 9:0.510867 
0.03139989824009204 1:0.006029 2:0.552832 3:0.348127 4:0.310202 5:0.502814 6:0.502814 7:0.811351 8:0.047041 9:0.510556 
0.01390384496207851 1:0.051108 2:0.531133 3:0.348111 4:0.319028 5:0.52385 6:0.52385 7:0.811703 8:0.049393 9:0.518711 
0.0349038914480518 1:0.059269 2:0.522084 3:0.345311 4:0.320972 5:0.527659 6:0.527659 7:0.811784 8:0.049765 9:0.520867 
0.03411959434717828 1:0.166666 2:0.401757 3:0.198877 4:0.34975 5:0.577777 6:0.577777 7:0.813622 8:0.051869 9:0.564778 
0.02771479835114647 1:0.211498 2:0.383512 3:0.18359 4:0.362209 5:0.598699 6:0.598699 7:0.813865 8:0.050631 9:0.580289 
0.002699260676862304 1:0.241954 2:0.377693 3:0.178647 4:0.368202 5:0.612912 6:0.612912 7:0.813486 8:0.050384 9:0.587933 
0.07666169066150115 1:0.295273 2:0.37131 3:0.171907 4:0.379746 5:0.637794 6:0.637794 7:0.811865 8:0.04927 9:0.609667 
0.0053284121952603 1:0.244975 2:0.374615 3:0.171667 4:0.382713 5:0.614322 6:0.614322 7:0.811216 8:0.048279 9:0.625444 
0.02807347241957912 1:0.196104 2:0.378908 3:0.172243 4:0.383293 5:0.591515 6:0.591515 7:0.810973 8:0.04766 9:0.633511 
0.03234049879414738 1:0.139371 2:0.385282 3:0.17302 4:0.383437 5:0.56504 6:0.56504 7:0.810811 8:0.047041 9:0.641267 
0.02289363952706694 1:0.081287 2:0.393779 3:0.173878 4:0.383296 5:0.537934 6:0.537934 7:0.810703 8:0.046546 9:0.648711 
0.03655676014705304 1:0.027159 2:0.404048 3:0.174825 4:0.383066 5:0.512674 6:0.512674 7:0.81073 8:0.045927 9:0.656067 
0.04820515853147737 1:-0.066471 2:0.438664 3:0.177633 4:0.384802 5:0.46898 6:0.46898 7:0.811622 8:0.044565 9:0.678622 
0.05574953580514849 1:-0.06241 2:0.449207 3:0.178462 4:0.38689 5:0.470875 6:0.470875 7:0.812 8:0.044194 9:0.686667 
0.004143973081620973 1:-0.036817 2:0.458264 3:0.179165 4:0.389734 5:0.482819 6:0.482819 7:0.812324 8:0.043823 9:0.695067 
0.05001338461578218 1:0.008997 2:0.465448 3:0.179657 4:0.39317 5:0.504198 6:0.504198 7:0.812595 8:0.043575 9:0.703578 
0.04241146261932466 1:0.070787 2:0.470491 3:0.180042 4:0.397086 5:0.533034 6:0.533034 7:0.812784 8:0.043328 9:0.711756 
0.05267894625593329 1:0.143417 2:0.473141 3:0.180354 4:0.401389 5:0.566928 6:0.566928 7:0.812946 8:0.04308 9:0.719844 
0.05896320622125678 1:0.221761 2:0.473305 3:0.18056 4:0.405949 5:0.603488 6:0.603488 7:0.813054 8:0.042956 9:0.727422 
0.05795015825549548 1:0.301432 2:0.471338 3:0.180641 4:0.410636 5:0.640668 6:0.640668 7:0.813054 8:0.042709 9:0.7346 
0.05742151510164698 1:0.378002 2:0.467826 3:0.18068 4:0.415127 5:0.676401 6:0.676401 7:0.812865 8:0.042461 9:0.741 
0.03690637401727625 1:0.447454 2:0.463397 3:0.180765 4:0.419034 5:0.708812 6:0.708812 7:0.812514 8:0.04209 9:0.746244 
0.03525236034294752 1:0.505132 2:0.458886 3:0.180807 4:0.422181 5:0.735728 6:0.735728 7:0.812135 8:0.041842 9:0.750244 
0.0781235464504112 1:0.57685 2:0.452336 3:0.180845 4:0.42755 5:0.769197 6:0.769197 7:0.811324 8:0.041223 9:0.756333 
0.03137074563181325 1:0.464329 2:0.528425 3:0.217022 4:0.425247 5:0.716687 6:0.716687 7:0.81027 8:0.039366 9:0.754156 
0.01753954187540835 1:0.483702 2:0.562192 3:0.258213 4:0.419964 5:0.725727 6:0.725727 7:0.809595 8:0.037881 9:0.752756 
0.02194566173246112 1:0.485071 2:0.57457 3:0.271457 4:0.417166 5:0.726367 6:0.726367 7:0.809351 8:0.037509 9:0.752822 
0.02000974031044393 1:0.479411 2:0.587706 3:0.283781 4:0.413853 5:0.723725 6:0.723725 7:0.809108 8:0.037509 9:0.753333 
0.009996328518116434 1:0.444725 2:0.615124 3:0.304937 4:0.405651 5:0.707538 6:0.707538 7:0.808595 8:0.038004 9:0.7556 
0.04347610056179552 1:0.415888 2:0.627993 3:0.313617 4:0.400838 5:0.694081 6:0.694081 7:0.808405 8:0.0385 9:0.757244 
0.0006637261571068436 1:0.380311 2:0.639162 3:0.321076 4:0.395651 5:0.677478 6:0.677478 7:0.808243 8:0.039242 9:0.7592 
0.05919330203320282 1:0.339827 2:0.647822 3:0.327377 4:0.390141 5:0.658586 6:0.658586 7:0.808081 8:0.039985 9:0.761378 
0.004147489373292988 1:0.296746 2:0.653557 3:0.332611 4:0.384369 5:0.638482 6:0.638482 7:0.808 8:0.040852 9:0.763778 
0.05629730815947492 1:0.253368 2:0.656358 3:0.336864 4:0.378421 5:0.618238 6:0.618238 7:0.807919 8:0.041718 9:0.766244 
0.005331393695524658 1:0.211686 2:0.656272 3:0.340228 4:0.372383 5:0.598787 6:0.598787 7:0.807892 8:0.042461 9:0.767911 
0.05466236593669124 1:0.173233 2:0.653585 3:0.342842 4:0.366323 5:0.580842 6:0.580842 7:0.807892 8:0.043328 9:0.767222 
0.001845810266533269 1:0.13897 2:0.648817 3:0.344783 4:0.360287 5:0.564852 6:0.564852 7:0.807919 8:0.04407 9:0.767733 
0.02574261133489099 1:0.109146 2:0.642665 3:0.346183 4:0.354326 5:0.550935 6:0.550935 7:0.807973 8:0.044689 9:0.768978 
0.04540113604714919 1:0.083726 2:0.63593 3:0.347157 4:0.348501 5:0.539072 6:0.539072 7:0.808054 8:0.045184 9:0.770756 
0.02318273769044794 1:0.062452 2:0.629168 3:0.347783 4:0.342876 5:0.529144 6:0.529144 7:0.808162 8:0.045803 9:0.773089 
0.1039926851204216 1:0.011652 2:0.604412 3:0.348678 4:0.318387 5:0.505437 6:0.505437 7:0.808757 8:0.048279 9:0.788 
0.0995460215274324 1:0.061674 2:0.580595 3:0.348621 4:0.27865 5:0.528781 6:0.528781 7:0.810189 8:0.051127 9:0.805111 
0.07336902681603862 1:0.011023 2:0.581991 3:0.395215 4:0.274582 5:0.505144 6:0.505144 7:0.810541 8:0.051869 9:0.790156 
0.08024994433866216 1:0.001088 2:0.579512 3:0.414749 4:0.274162 5:0.500508 6:0.500508 7:0.810703 8:0.052241 9:0.783933 
0.05800088132494008 1:-0.004563 2:0.57541 3:0.434492 4:0.27412 5:0.497871 6:0.497871 7:0.810892 8:0.052488 9:0.776467 
0.04022450571367847 1:0.03909 2:0.547112 3:0.498601 4:0.278409 5:0.518242 6:0.518242 7:0.811757 8:0.052983 9:0.741778 
0.02170255511411827 1:0.065019 2:0.53937 3:0.509294 4:0.280582 5:0.530342 6:0.530342 7:0.811946 8:0.05286 9:0.731956 
0.05073845165864855 1:0.094636 2:0.532267 3:0.517864 4:0.283097 5:0.544164 6:0.544164 7:0.812081 8:0.05286 9:0.722111 
0.003982293720895066 1:0.126256 2:0.525956 3:0.524482 4:0.285913 5:0.558919 6:0.558919 7:0.812243 8:0.052736 9:0.712244 
0.04484848406538627 1:0.15877 2:0.520697 3:0.529384 4:0.289008 5:0.574093 6:0.574093 7:0.812351 8:0.052612 9:0.702756 
0.02577219634513842 1:0.191482 2:0.51674 3:0.532855 4:0.292333 5:0.589358 6:0.589358 7:0.812459 8:0.052488 9:0.693778 
0.00449703954859274 1:0.223171 2:0.514186 3:0.535128 4:0.29584 5:0.604147 6:0.604147 7:0.812541 8:0.052364 9:0.685644 
0.04690606149033073 1:0.252568 2:0.513132 3:0.536429 4:0.299482 5:0.617865 6:0.617865 7:0.812595 8:0.052241 9:0.678289 
0.005739405740316977 1:0.279021 2:0.513496 3:0.536997 4:0.303189 5:0.63021 6:0.63021 7:0.812595 8:0.052117 9:0.671689 
0.02443251254320219 1:0.30198 2:0.515092 3:0.537067 4:0.306896 5:0.640924 6:0.640924 7:0.812568 8:0.052117 9:0.665867 
0.003673781350186801 1:0.354841 2:0.534933 3:0.533504 4:0.327716 5:0.665592 6:0.665592 7:0.812405 8:0.052488 9:0.645822 
0.06007900457759363 1:0.353052 2:0.53635 3:0.532908 4:0.331051 5:0.664757 6:0.664757 7:0.812405 8:0.052736 9:0.645667 
0.002973046676805249 1:0.363279 2:0.498005 3:0.529657 4:0.361989 5:0.66953 6:0.66953 7:0.812135 8:0.051622 9:0.660356 
0.08202925619904892 1:0.404918 2:0.449233 3:0.5286 4:0.377797 5:0.688962 6:0.688962 7:0.811649 8:0.047908 9:0.6696 
-1 1:-0.051075 2:0.556432 3:0.347288 4:0.257469 5:0.476165 6:0.476165 7:0.81127 8:0.044194 9:0.677578 
-0.9294498596024346 1:-0.021637 2:0.558054 3:0.34725 4:0.258556 5:0.489903 6:0.489903 7:0.811378 8:0.044442 9:0.679867 
-0.874761143072772 1:0.004206 2:0.559593 3:0.347235 4:0.259829 5:0.501963 6:0.501963 7:0.811459 8:0.044689 9:0.680311 
-0.04005488596851744 1:0.026141 2:0.561144 3:0.34722 4:0.261241 5:0.512199 6:0.512199 7:0.811513 8:0.045061 9:0.679244 
-0.9140832399697436 1:0.071225 2:0.563736 3:0.347397 4:0.267653 5:0.533238 6:0.533238 7:0.811622 8:0.046794 9:0.668422 
-0.06888592357182532 1:0.060644 2:0.538567 3:0.347556 4:0.281744 5:0.528301 6:0.528301 7:0.811892 8:0.049146 9:0.652711 
-0.5466993273275443 1:0.13172 2:0.490831 3:0.347769 4:0.312982 5:0.561469 6:0.561469 7:0.81127 8:0.050136 9:0.656822 
-1 1:0.132244 2:0.490456 3:0.347679 4:0.313842 5:0.561714 6:0.561714 7:0.811189 8:0.050136 9:0.657156 
-0.9817079829559185 1:0.071684 2:0.485299 3:0.347506 4:0.316317 5:0.533452 6:0.533452 7:0.810946 8:0.049641 9:0.661244 
-1 1:0.052374 2:0.482847 3:0.347609 4:0.316594 5:0.524441 6:0.524441 7:0.810946 8:0.049393 9:0.6624 
-1 1:0.033322 2:0.480007 3:0.347756 4:0.316872 5:0.51555 6:0.51555 7:0.810946 8:0.049146 9:0.663844 
-1 1:0.015506 2:0.476989 3:0.347965 4:0.317144 5:0.507236 6:0.507236 7:0.810946 8:0.048898 9:0.664933 
-1 1:-0.000535 2:0.474194 3:0.348184 4:0.317414 5:0.49975 6:0.49975 7:0.810946 8:0.048651 9:0.6658 
-1 1:-0.014899 2:0.471905 3:0.348446 4:0.3177 5:0.493047 6:0.493047 7:0.810946 8:0.048403 9:0.666289 
-1 1:-0.027754 2:0.470209 3:0.348596 4:0.318031 5:0.487048 6:0.487048 7:0.810973 8:0.048155 9:0.6664 
-1 1:-0.039151 2:0.469186 3:0.348646 4:0.318428 5:0.48173 6:0.48173 7:0.811027 8:0.047784 9:0.666778 
-1 1:-0.04608 2:0.490264 3:0.348342 4:0.326834 5:0.478496 6:0.478496 7:0.811432 8:0.046175 9:0.666933 
-1 1:-0.041285 2:0.493169 3:0.348199 4:0.32813 5:0.480734 6:0.480734 7:0.811432 8:0.046051 9:0.6666 
-1 1:-0.037559 2:0.495447 3:0.348069 4:0.329446 5:0.482472 6:0.482472 7:0.811432 8:0.046051 9:0.6664 
-1 1:-0.03537 2:0.497187 3:0.347909 4:0.330771 5:0.483494 6:0.483494 7:0.811459 8:0.046051 9:0.666333 
-1 1:-0.034983 2:0.49847 3:0.347742 4:0.332122 5:0.483674 6:0.483674 7:0.811459 8:0.046051 9:0.666222 
-1 1:-0.036125 2:0.499207 3:0.347538 4:0.33351 5:0.483142 6:0.483142 7:0.811486 8:0.046175 9:0.666244 
-1 1:-0.038289 2:0.499342 3:0.34734 4:0.334941 5:0.482132 6:0.482132 7:0.811513 8:0.046175 9:0.666422 
-1 1:-0.041011 2:0.498808 3:0.347226 4:0.33645 5:0.480862 6:0.480862 7:0.811568 8:0.046299 9:0.666756 
-1 1:-0.043545 2:0.497606 3:0.34719 4:0.338067 5:0.479679 6:0.479679 7:0.811622 8:0.046299 9:0.667178 
-1 1:-0.044999 2:0.495825 3:0.34724 4:0.339796 5:0.479001 6:0.479001 7:0.811676 8:0.046299 9:0.6676 
-0.5505833516801312 1:-0.044967 2:0.493594 3:0.347281 4:0.341612 5:0.479016 6:0.479016 7:0.811703 8:0.046175 9:0.668067 
-1 1:-0.043707 2:0.491003 3:0.347376 4:0.343482 5:0.479603 6:0.479603 7:0.81173 8:0.046175 9:0.668578 
-1 1:-0.041523 2:0.488172 3:0.347461 4:0.345379 5:0.480623 6:0.480623 7:0.81173 8:0.046175 9:0.669089 
-1 1:-0.038741 2:0.485279 3:0.347563 4:0.347277 5:0.481921 6:0.481921 7:0.811703 8:0.046175 9:0.669489 
-1 1:-0.036299 2:0.482442 3:0.347664 4:0.349148 5:0.48306 6:0.48306 7:0.811703 8:0.046051 9:0.6698 
-1 1:-0.03519 2:0.479614 3:0.347714 4:0.351009 5:0.483578 6:0.483578 7:0.811703 8:0.046051 9:0.669956 
-1 1:-0.035752 2:0.476721 3:0.347727 4:0.352887 5:0.483316 6:0.483316 7:0.81173 8:0.045927 9:0.670333 
-0.01713377036238225 1:-0.02504 2:0.469898 3:0.347595 4:0.370343 5:0.488315 6:0.488315 7:0.811973 8:0.044937 9:0.676044 
-1 1:-0.016376 2:0.471691 3:0.347617 4:0.372769 5:0.492358 6:0.492358 7:0.811973 8:0.044937 9:0.677044 
-1 1:-0.006531 2:0.473641 3:0.347658 4:0.375179 5:0.496952 6:0.496952 7:0.811973 8:0.044813 9:0.678111 
-1 1:0.004042 2:0.47556 3:0.347631 4:0.377558 5:0.501886 6:0.501886 7:0.811946 8:0.044813 9:0.679378 
-1 1:0.015151 2:0.477316 3:0.347572 4:0.379888 5:0.50707 6:0.50707 7:0.811919 8:0.044689 9:0.680956 
-1 1:0.026598 2:0.478987 3:0.347532 4:0.382121 5:0.512412 6:0.512412 7:0.811838 8:0.044689 9:0.682022 
-0.912864629732406 1:0.03775 2:0.480753 3:0.347487 4:0.384198 5:0.517617 6:0.517617 7:0.811757 8:0.044689 9:0.683089 
-0.07407973526320449 1:0.063897 2:0.493633 3:0.347272 4:0.391354 5:0.529819 6:0.529819 7:0.811243 8:0.044937 9:0.689489 
-0.3781199405029194 1:0.02115 2:0.499145 3:0.347608 4:0.394127 5:0.50987 6:0.50987 7:0.810946 8:0.04568 9:0.692267 
-1 1:0.014287 2:0.498652 3:0.347625 4:0.394391 5:0.506667 6:0.506667 7:0.810919 8:0.045803 9:0.692556 
-0.9110517699924847 1:0.014039 2:0.483377 3:0.347922 4:0.387164 5:0.506552 6:0.506552 7:0.810243 8:0.046422 9:0.692733 
-1 1:0.008152 2:0.48318 3:0.347849 4:0.386014 5:0.503804 6:0.503804 7:0.81027 8:0.046422 9:0.692289 
-1 1:0.003653 2:0.483036 3:0.347751 4:0.384966 5:0.501705 6:0.501705 7:0.810324 8:0.046422 9:0.691533 
-1 1:0.001971 2:0.482895 3:0.347642 4:0.383998 5:0.50092 6:0.50092 7:0.810351 8:0.046422 9:0.690844 
