svm_type c_svc
kernel_type rbf
gamma 134
nr_class 2
total_sv 260
rho -0.972428
label 0 1
nr_sv 203 57
SV
1 1:0.021887 2:0.507423 3:0.347795 4:0.333194 5:0.500003 6:0.5 7:0.810784 8:0.046794 9:0.666667 
1 1:0.021752 2:0.507432 3:0.347793 4:0.33316 5:0.500004 6:0.5 7:0.810784 8:0.046794 9:0.666667 
1 1:0.021624 2:0.507426 3:0.347792 4:0.333126 5:0.500005 6:0.5 7:0.810784 8:0.046794 9:0.666667 
1 1:0.021504 2:0.507404 3:0.347792 4:0.333091 5:0.500006 6:0.5 7:0.810784 8:0.046794 9:0.666667 
1 1:0.021357 2:0.507361 3:0.347765 4:0.333054 5:0.500008 6:0.5 7:0.810784 8:0.046794 9:0.666667 
0.4191131140409139 1:0.022686 2:0.50738 3:0.347556 4:0.332787 5:0.500021 6:0.5 7:0.810784 8:0.046794 9:0.666667 
1 1:0.022956 2:0.507481 3:0.347583 4:0.332744 5:0.500023 6:0.5 7:0.810784 8:0.046794 9:0.666667 
1 1:0.023125 2:0.507604 3:0.347617 4:0.332706 5:0.500024 6:0.5 7:0.810784 8:0.046794 9:0.666667 
1 1:0.023256 2:0.507724 3:0.347628 4:0.332672 5:0.500026 6:0.5 7:0.810784 8:0.046794 9:0.666667 
1 1:0.023368 2:0.507827 3:0.347647 4:0.332642 5:0.500028 6:0.5 7:0.810811 8:0.046794 9:0.666667 
1 1:0.023471 2:0.507937 3:0.347693 4:0.332612 5:0.50003 6:0.5 7:0.810811 8:0.046794 9:0.666667 
1 1:0.02351 2:0.508059 3:0.347734 4:0.332587 5:0.500031 6:0.5 7:0.810811 8:0.046794 9:0.666667 
1 1:0.023496 2:0.508183 3:0.347733 4:0.332563 5:0.500033 6:0.5 7:0.810811 8:0.046794 9:0.666667 
1 1:0.023479 2:0.508301 3:0.347723 4:0.33254 5:0.500036 6:0.5 7:0.810811 8:0.046794 9:0.666667 
1 1:0.02347 2:0.508412 3:0.34771 4:0.332519 5:0.500037 6:0.5 7:0.810811 8:0.046794 9:0.666667 
1 1:0.023438 2:0.50851 3:0.347663 4:0.332499 5:0.500039 6:0.5 7:0.810811 8:0.046794 9:0.666667 
1 1:0.023382 2:0.508557 3:0.347613 4:0.332479 5:0.500041 6:0.5 7:0.810811 8:0.046794 9:0.666667 
1 1:0.023304 2:0.508582 3:0.347572 4:0.332459 5:0.500043 6:0.5 7:0.810811 8:0.046794 9:0.666667 
1 1:0.02322 2:0.508568 3:0.347527 4:0.332439 5:0.500045 6:0.5 7:0.810811 8:0.046794 9:0.666667 
1 1:0.023175 2:0.508508 3:0.347446 4:0.332419 5:0.500047 6:0.5 7:0.810811 8:0.046794 9:0.666667 
1 1:0.0231 2:0.508418 3:0.347383 4:0.332398 5:0.500048 6:0.5 7:0.810811 8:0.046794 9:0.666667 
1 1:0.022935 2:0.508329 3:0.347365 4:0.332379 5:0.500049 6:0.5 7:0.810811 8:0.046794 9:0.666667 
1 1:0.022767 2:0.508201 3:0.347346 4:0.33236 5:0.500051 6:0.5 7:0.810811 8:0.046794 9:0.666667 
1 1:0.022569 2:0.508051 3:0.347324 4:0.332341 5:0.500052 6:0.5 7:0.810811 8:0.046794 9:0.666667 
1 1:0.02228 2:0.507888 3:0.347316 4:0.332324 5:0.500054 6:0.5 7:0.810811 8:0.046794 9:0.666667 
1 1:0.021863 2:0.507727 3:0.347336 4:0.332309 5:0.500055 6:0.5 7:0.810811 8:0.046794 9:0.666667 
1 1:0.021344 2:0.507567 3:0.347276 4:0.332297 5:0.500056 6:0.5 7:0.810811 8:0.046794 9:0.666667 
1 1:0.020817 2:0.50742 3:0.347151 4:0.332289 5:0.500058 6:0.5 7:0.810811 8:0.046794 9:0.666667 
1 1:0.020448 2:0.507266 3:0.346897 4:0.332282 5:0.500059 6:0.5 7:0.810811 8:0.046794 9:0.666667 
1 1:0.009212 2:0.506799 3:0.344255 4:0.332261 5:0.500065 6:0.5 7:0.810811 8:0.046918 9:0.666667 
1 1:0.007059 2:0.507097 3:0.344611 4:0.332284 5:0.500069 6:0.5 7:0.810811 8:0.046918 9:0.666667 
1 1:0.003974 2:0.50723 3:0.345368 4:0.332297 5:0.500074 6:0.5 7:0.810811 8:0.046918 9:0.666667 
1 1:-0.001681 2:0.507194 3:0.346642 4:0.332296 5:0.50008 6:0.5 7:0.810811 8:0.046918 9:0.666667 
1 1:-0.012411 2:0.507128 3:0.348196 4:0.332288 5:0.500086 6:0.5 7:0.810811 8:0.047041 9:0.666667 
1 1:-0.031064 2:0.507541 3:0.349655 4:0.332286 5:0.500094 6:0.5 7:0.810811 8:0.047041 9:0.666667 
0.3940859406163821 1:-0.06017 2:0.509103 3:0.350694 4:0.332323 5:0.500102 6:0.5 7:0.810838 8:0.047041 9:0.666667 
0.01466740767518041 1:-0.411032 2:0.585443 3:0.347937 4:0.336464 5:0.50022 6:0.5 7:0.811216 8:0.047289 9:0.666667 
0.01534420861929505 1:-0.306077 2:0.591332 3:0.3356 4:0.338813 5:0.50027 6:0.5 7:0.811027 8:0.047289 9:0.666667 
0.01234005084070938 1:-0.212196 2:0.592348 3:0.254394 4:0.339207 5:0.500286 6:0.503377 7:0.810919 8:0.047289 9:0.710222 
0.03706851918948982 1:-0.098458 2:0.593673 3:0.194749 4:0.339319 5:0.500305 6:0.513831 7:0.810784 8:0.047413 9:0.714467 
0.04870971214455856 1:0.025454 2:0.594818 3:0.166978 4:0.339056 5:0.500333 6:0.523162 7:0.810568 8:0.047784 9:0.708844 
0.01906470532888924 1:0.153353 2:0.594818 3:0.162141 4:0.338168 5:0.500378 6:0.531434 7:0.81027 8:0.048155 9:0.703867 
0.01823898246533332 1:0.274332 2:0.592486 3:0.172704 4:0.336528 5:0.500438 6:0.538734 7:0.809919 8:0.048651 9:0.6998 
0.01426444595607205 1:0.375577 2:0.58733 3:0.192826 4:0.334066 5:0.500511 6:0.545268 7:0.809541 8:0.048898 9:0.696289 
0.007993989094617755 1:0.448482 2:0.579465 3:0.217636 4:0.330703 5:0.500595 6:0.551117 7:0.809135 8:0.049146 9:0.693178 
0.01784906423190001 1:0.496073 2:0.557841 3:0.268683 4:0.321583 5:0.500778 6:0.560841 7:0.808514 8:0.04927 9:0.686822 
0.007880901034464444 1:0.427975 2:0.534412 3:0.3101 4:0.309821 5:0.500953 6:0.567817 7:0.807973 8:0.049022 9:0.680022 
0.01803238582021342 1:0.364816 2:0.524307 3:0.325453 4:0.303046 5:0.501032 6:0.570207 7:0.807757 8:0.048898 9:0.676111 
0.00272802325762362 1:0.289207 2:0.515842 3:0.337186 4:0.296013 5:0.501108 6:0.57172 7:0.80773 8:0.048898 9:0.6718 
0.1113974495683723 1:0.121395 2:0.502319 3:0.351283 4:0.282244 5:0.501278 6:0.57174 7:0.807865 8:0.049393 9:0.661689 
0.6490755701038212 1:0.039506 2:0.49602 3:0.354666 4:0.275658 5:0.501384 6:0.570179 7:0.808 8:0.049889 9:0.6566 
0.2593747674759886 1:-0.036096 2:0.489441 3:0.356299 4:0.269432 5:0.50151 6:0.567551 7:0.808189 8:0.050508 9:0.651533 
0.01680856030763425 1:-0.102612 2:0.482232 3:0.356668 4:0.263711 5:0.501661 6:0.563942 7:0.808432 8:0.05125 9:0.647267 
0.07032036247516063 1:-0.1448 2:0.398708 3:0.346556 4:0.248612 5:0.504016 6:0.502016 7:0.811676 8:0.050755 9:0.647333 
1 1:-0.119353 2:0.402418 3:0.346417 4:0.250777 5:0.504151 6:0.498271 7:0.811838 8:0.050012 9:0.649867 
1 1:-0.012617 2:0.534872 3:0.347853 4:0.373541 5:0.497978 6:0.500489 7:0.810676 8:0.048651 9:0.665778 
1 1:-0.01775 2:0.537523 3:0.347934 4:0.373249 5:0.498053 6:0.500314 7:0.810703 8:0.048898 9:0.665844 
1 1:-0.02164 2:0.539459 3:0.347916 4:0.373 5:0.498134 6:0.50015 7:0.810703 8:0.049022 9:0.666 
1 1:-0.0279 2:0.540211 3:0.347834 4:0.37279 5:0.498221 6:0.500035 7:0.81073 8:0.04927 9:0.666178 
1 1:-0.044693 2:0.539342 3:0.347699 4:0.372637 5:0.498315 6:0.499947 7:0.810757 8:0.049393 9:0.666356 
1 1:-0.080602 2:0.536712 3:0.347638 4:0.372597 5:0.498414 6:0.499898 7:0.810838 8:0.049517 9:0.6664 
0.01544989655923918 1:-0.327852 2:0.521599 3:0.34779 4:0.37467 5:0.498722 6:0.499579 7:0.811541 8:0.049517 9:0.665911 
0.01649921041185223 1:-0.444009 2:0.515341 3:0.347837 4:0.3768 5:0.498818 6:0.499435 7:0.811973 8:0.04927 9:0.666067 
0.02173257693097379 1:-0.564702 2:0.50897 3:0.347903 4:0.380052 5:0.498905 6:0.499342 7:0.812514 8:0.048898 9:0.666333 
0.01992636166784431 1:-0.682054 2:0.502688 3:0.347948 4:0.384752 5:0.49898 6:0.499249 7:0.813216 8:0.048651 9:0.666067 
0.01877873855056139 1:-0.789329 2:0.496405 3:0.347989 4:0.391134 5:0.49904 6:0.499125 7:0.814 8:0.048155 9:0.666111 
0.01355452556884241 1:-0.88183 2:0.490098 3:0.347996 4:0.399303 5:0.499083 6:0.499027 7:0.814784 8:0.04766 9:0.666156 
0.01602866841091562 1:-0.956607 2:0.483798 3:0.347987 4:0.409324 5:0.499108 6:0.498887 7:0.815622 8:0.047165 9:0.665867 
0.003016944711989311 1:-1.012141 2:0.477169 3:0.347964 4:0.421264 5:0.499112 6:0.498759 7:0.816486 8:0.04667 9:0.666311 
0.01924840683957741 1:-1.067662 2:0.463108 3:0.348093 4:0.451423 5:0.499049 6:0.498657 7:0.818324 8:0.045184 9:0.666311 
0.01070042899877187 1:-1.038341 2:0.441202 3:0.349088 4:0.535121 5:0.498569 6:0.498677 7:0.821459 8:0.041842 9:0.666978 
0.006493537618680628 1:-1.020654 2:0.437778 3:0.349459 4:0.560152 5:0.498369 6:0.49876 7:0.822081 8:0.040975 9:0.667044 
0.01457813225607432 1:-0.975875 2:0.429485 3:0.350145 4:0.614614 5:0.497863 6:0.498843 7:0.823351 8:0.038871 9:0.666956 
0.005949272351949551 1:-0.936216 2:0.420342 3:0.3503 4:0.643901 5:0.497544 6:0.498878 7:0.823892 8:0.037509 9:0.666667 
0.01670428121068601 1:-0.875961 2:0.404752 3:0.350298 4:0.674298 5:0.497171 6:0.498864 7:0.824324 8:0.036148 9:0.666644 
0.01807392557331952 1:-0.792605 2:0.381623 3:0.350103 4:0.705528 5:0.496741 6:0.498945 7:0.824622 8:0.034414 9:0.667533 
0.02209505840405201 1:-0.687339 2:0.351139 3:0.349859 4:0.737238 5:0.496247 6:0.499135 7:0.824757 8:0.032681 9:0.667556 
0.02350321646032359 1:-0.565005 2:0.314267 3:0.349673 4:0.769136 5:0.495679 6:0.499344 7:0.824811 8:0.030577 9:0.667911 
0.02444886735988854 1:-0.432195 2:0.27264 3:0.349611 4:0.801029 5:0.495032 6:0.499662 7:0.824703 8:0.028349 9:0.668533 
0.02498035714320377 1:-0.296304 2:0.228449 3:0.34979 4:0.83251 5:0.494298 6:0.500132 7:0.824459 8:0.025997 9:0.6692 
0.02379732408759947 1:-0.164557 2:0.183943 3:0.350151 4:0.863217 5:0.493468 6:0.500594 7:0.824027 8:0.023149 9:0.668467 
0.02192344902254057 1:-0.043217 2:0.140917 3:0.350753 4:0.892823 5:0.492532 6:0.500876 7:0.823487 8:0.020302 9:0.667778 
0.01940834834278555 1:0.062537 2:0.100423 3:0.351585 4:0.920995 5:0.491487 6:0.501068 7:0.822784 8:0.017455 9:0.667311 
0.01511167466349429 1:0.148493 2:0.062949 3:0.352635 4:0.947416 5:0.490334 6:0.501087 7:0.821973 8:0.014484 9:0.6662 
0.01411231974045825 1:0.212809 2:0.02891 3:0.35377 4:0.971841 5:0.489074 6:0.500954 7:0.821027 8:0.011637 9:0.665889 
0.0006118045361481449 1:0.256095 2:-0.001088 3:0.354758 4:0.99408 5:0.487704 6:0.500777 7:0.820027 8:0.008666 9:0.665822 
0.01487303567545499 1:0.286021 2:-0.046028 3:0.356006 4:1.031164 5:0.48463 6:0.500358 7:0.817784 8:0.002723 9:0.665622 
0.00556403579632998 1:0.259427 2:-0.072198 3:0.356032 4:1.057849 5:0.481119 6:0.499882 7:0.815541 8:-0.002847 9:0.6656 
0.007012870087931149 1:0.179071 2:-0.077702 3:0.353587 4:1.079286 5:0.475135 6:0.499258 7:0.812432 8:-0.00978 9:0.665711 
0.0133806137067505 1:0.164988 2:-0.063031 3:0.352038 4:1.081884 5:0.472989 6:0.499092 7:0.811486 8:-0.011389 9:0.666022 
0.001901381854990802 1:0.172192 2:-0.036219 3:0.350275 4:1.082337 5:0.470791 6:0.498986 7:0.810541 8:-0.012503 9:0.666289 
0.003668259569381849 1:0.208868 2:0.002982 3:0.348295 4:1.080693 5:0.46856 6:0.498949 7:0.809622 8:-0.013122 9:0.666822 
0.01719647533447262 1:0.279413 2:0.053794 3:0.346253 4:1.07684 5:0.466314 6:0.499125 7:0.808595 8:-0.01337 9:0.668044 
0.02281793492043981 1:0.380816 2:0.114743 3:0.344193 4:1.070553 5:0.464069 6:0.499458 7:0.807486 8:-0.012998 9:0.668467 
0.02470815513671902 1:0.502607 2:0.183671 3:0.342136 4:1.061653 5:0.461855 6:0.499864 7:0.806324 8:-0.01176 9:0.668733 
0.02484219433208786 1:0.631818 2:0.258018 3:0.340213 4:1.050031 5:0.459701 6:0.500324 7:0.805108 8:-0.00978 9:0.669044 
0.02393847596233932 1:0.755979 2:0.334657 3:0.338512 4:1.035466 5:0.457634 6:0.500812 7:0.803757 8:-0.007056 9:0.669044 
0.02160224846436725 1:0.863586 2:0.409889 3:0.337257 4:1.017758 5:0.455678 6:0.501325 7:0.802351 8:-0.003714 9:0.669089 
0.01818540636354651 1:0.944727 2:0.480873 3:0.336646 4:0.996927 5:0.45386 6:0.501798 7:0.801027 8:0.000124 9:0.668822 
0.01200068332404363 1:0.993163 2:0.546246 3:0.336758 4:0.973146 5:0.452197 6:0.502223 7:0.799784 8:0.00458 9:0.668511 
0.0129315551218885 1:1.008263 2:0.606308 3:0.337802 4:0.946618 5:0.450705 6:0.502545 7:0.798622 8:0.009284 9:0.667978 
0.01109398154270506 1:0.99502 2:0.66192 3:0.339776 4:0.917536 5:0.449401 6:0.5028 7:0.797541 8:0.014608 9:0.667867 
0.01237935330320623 1:0.961861 2:0.712484 3:0.342582 4:0.886091 5:0.448297 6:0.503009 7:0.796568 8:0.020054 9:0.667356 
0.01321539102996091 1:0.919084 2:0.756187 3:0.346121 4:0.852564 5:0.447405 6:0.503109 7:0.795703 8:0.025873 9:0.666978 
0.01087522705811171 1:0.876502 2:0.791324 3:0.349984 4:0.817207 5:0.446733 6:0.503172 7:0.794946 8:0.031815 9:0.666911 
0.009186192539407988 1:0.839079 2:0.817337 3:0.353785 4:0.780148 5:0.446285 6:0.503202 7:0.794216 8:0.037757 9:0.666711 
0.01138812628264318 1:0.807032 2:0.83441 3:0.357134 4:0.741489 5:0.44606 6:0.503215 7:0.793568 8:0.043699 9:0.666733 
0.006566388933957515 1:0.777021 2:0.842921 3:0.359972 4:0.701391 5:0.446054 6:0.503219 7:0.792973 8:0.049517 9:0.666644 
0.01279559397954548 1:0.742559 2:0.844061 3:0.362029 4:0.660077 5:0.446263 6:0.503166 7:0.792486 8:0.055212 9:0.666222 
0.01190796754274548 1:0.69483 2:0.840239 3:0.363164 4:0.617787 5:0.446686 6:0.503059 7:0.792108 8:0.060906 9:0.666044 
0.01655758437709298 1:0.626509 2:0.834764 3:0.363409 4:0.57474 5:0.447318 6:0.502899 7:0.791838 8:0.066477 9:0.665711 
0.02049227664500804 1:0.533871 2:0.831264 3:0.362924 4:0.531352 5:0.448151 6:0.502691 7:0.791838 8:0.071676 9:0.665689 
0.02231287431292874 1:0.417495 2:0.832707 3:0.362005 4:0.48819 5:0.449174 6:0.502488 7:0.792027 8:0.076628 9:0.665733 
0.02300429862065207 1:0.283993 2:0.840117 3:0.361005 4:0.445719 5:0.450379 6:0.502313 7:0.792432 8:0.081332 9:0.665911 
0.02426704311213678 1:0.14516 2:0.852984 3:0.360101 4:0.404401 5:0.451757 6:0.502182 7:0.793027 8:0.085912 9:0.6662 
0.02331814355966243 1:0.011958 2:0.870048 3:0.359227 4:0.364593 5:0.453298 6:0.502122 7:0.793757 8:0.090121 9:0.666578 
0.02174034888764431 1:-0.108158 2:0.890265 3:0.358335 4:0.326593 5:0.454999 6:0.502156 7:0.794622 8:0.09433 9:0.667133 
0.01693689990632606 1:-0.20977 2:0.912765 3:0.357562 4:0.290703 5:0.456858 6:0.502338 7:0.795595 8:0.098663 9:0.668089 
0.01734268075759589 1:-0.288452 2:0.936254 3:0.356819 4:0.257197 5:0.458875 6:0.502734 7:0.796703 8:0.102872 9:0.668844 
0.01770301363570823 1:-0.368088 2:0.978323 3:0.355412 4:0.198227 5:0.463387 6:0.503805 7:0.799162 8:0.111414 9:0.669511 
0.0005980975113419266 1:-0.374125 2:0.993892 3:0.354919 4:0.173143 5:0.465881 6:0.504368 7:0.800487 8:0.115623 9:0.669022 
0.02265586977805441 1:-0.325566 2:1.014121 3:0.354282 4:0.1161 5:0.474298 6:0.505018 7:0.804486 8:0.127754 9:0.666378 
0.02791999572428932 1:0.157086 2:0.669016 3:0.349098 4:0.288088 5:0.495234 6:0.501019 7:0.919946 8:0.761203 9:0.640667 
0.004495392864519682 1:0.274262 2:0.582108 3:0.347431 4:0.331871 5:0.500073 6:0.50037 7:0.809919 8:0.049517 9:0.669644 
0.09400978575901425 1:0.188191 2:0.51835 3:0.34536 4:0.315378 5:0.500947 6:0.50635 7:0.808324 8:0.05484 9:0.676578 
0.1327546068258912 1:-0.020011 2:0.416841 3:0.345593 4:0.296537 5:0.501909 6:0.513129 7:0.807865 8:0.055335 9:0.6782 
0.6489350980677603 1:-0.096509 2:0.380649 3:0.345643 4:0.289787 5:0.502219 6:0.515536 7:0.807838 8:0.05484 9:0.678267 
0.0113568953304979 1:-0.292641 2:0.283314 3:0.345649 4:0.270129 5:0.502952 6:0.522395 7:0.808135 8:0.051622 9:0.676133 
0.003258954793922056 1:-0.344313 2:0.259007 3:0.345633 4:0.26424 5:0.503105 6:0.524244 7:0.808351 8:0.050136 9:0.674844 
0.003086703778519267 1:-0.387696 2:0.240043 3:0.3457 4:0.259012 5:0.503203 6:0.525817 7:0.808703 8:0.048651 9:0.673667 
0.02313017128221249 1:-0.445914 2:0.221348 3:0.34618 4:0.248367 5:0.503141 6:0.528786 7:0.809757 8:0.043947 9:0.669133 
0.003428546376397728 1:-0.369411 2:0.285609 3:0.340281 4:0.244612 5:0.502313 6:0.528934 7:0.811 8:0.038995 9:0.665 
0.009256974455525369 1:-0.335596 2:0.311732 3:0.327291 4:0.245318 5:0.50201 6:0.52849 7:0.811216 8:0.0385 9:0.664067 
0.006321447312901679 1:-0.296655 2:0.339613 3:0.308155 4:0.246479 5:0.501693 6:0.527892 7:0.811432 8:0.038252 9:0.663533 
0.01809114968120098 1:-0.197279 2:0.43773 3:0.17965 4:0.267642 5:0.499696 6:0.521899 7:0.813568 8:0.037633 9:0.659 
0.001011535788463226 1:-0.183461 2:0.442325 3:0.166608 4:0.274461 5:0.499348 6:0.520207 7:0.814027 8:0.037385 9:0.657578 
0.01297478563021782 1:-0.111813 2:0.451642 3:0.149822 4:0.29102 5:0.49864 6:0.516653 7:0.814811 8:0.037385 9:0.658622 
0.01381578970766184 1:-0.052712 2:0.458064 3:0.145429 4:0.300466 5:0.498293 6:0.515004 7:0.815081 8:0.037633 9:0.658867 
0.007013728259400039 1:0.019056 2:0.465244 3:0.143133 4:0.310487 5:0.497958 6:0.513401 7:0.815324 8:0.038004 9:0.659022 
0.01404735376520149 1:0.099808 2:0.472008 3:0.14239 4:0.320978 5:0.49764 6:0.511815 7:0.815486 8:0.0385 9:0.659 
0.01344729751826352 1:0.185614 2:0.477434 3:0.142776 4:0.331713 5:0.497339 6:0.510209 7:0.815513 8:0.038995 9:0.659489 
0.01421632489595324 1:0.271477 2:0.481272 3:0.143893 4:0.342431 5:0.497059 6:0.508904 7:0.815459 8:0.039614 9:0.660533 
0.01036734366757456 1:0.351573 2:0.483593 3:0.14543 4:0.35292 5:0.496799 6:0.507507 7:0.815324 8:0.040109 9:0.659333 
0.01458363902629352 1:0.420179 2:0.484488 3:0.147208 4:0.363029 5:0.496561 6:0.505897 7:0.815135 8:0.040728 9:0.6586 
0.009068658841565696 1:0.509614 2:0.482272 3:0.150363 4:0.381821 5:0.496148 6:0.502148 7:0.81473 8:0.041718 9:0.656622 
0.00649507128861907 1:0.53037 2:0.479893 3:0.15135 4:0.390482 5:0.495965 6:0.499975 7:0.814487 8:0.04209 9:0.655889 
0.002733527284688709 1:0.538252 2:0.47642 3:0.152566 4:0.420374 5:0.495375 6:0.491521 7:0.813676 8:0.043451 9:0.6572 
0.002545198225292051 1:0.543736 2:0.477829 3:0.152524 4:0.426699 5:0.495255 6:0.48968 7:0.813459 8:0.043699 9:0.658533 
0.02125787994547207 1:0.616359 2:0.5161 3:0.15278 4:0.452346 5:0.494755 6:0.484946 7:0.811838 8:0.045556 9:0.667822 
0.001014708266122441 1:0.551432 2:0.576458 3:0.152 4:0.457363 5:0.494732 6:0.487974 7:0.810946 8:0.047908 9:0.672467 
0.01724159492202283 1:0.522309 2:0.600443 3:0.152029 4:0.457499 5:0.49479 6:0.489281 7:0.810784 8:0.048898 9:0.673311 
0.010080400119986 1:0.466589 2:0.654713 3:0.153689 4:0.45673 5:0.49503 6:0.492383 7:0.810513 8:0.05125 9:0.674444 
0.01407753654835008 1:0.427337 2:0.707566 3:0.169778 4:0.454858 5:0.495442 6:0.495447 7:0.810297 8:0.053355 9:0.673378 
0.003724042306126361 1:0.402234 2:0.748651 3:0.199553 4:0.452154 5:0.496015 6:0.497852 7:0.810189 8:0.055459 9:0.671289 
0.008058622611825278 1:0.387563 2:0.761707 3:0.217133 4:0.450726 5:0.496359 6:0.498649 7:0.810189 8:0.05645 9:0.669711 
0.01160620492039667 1:0.34752 2:0.770202 3:0.253028 4:0.44788 5:0.497157 6:0.499182 7:0.810189 8:0.05843 9:0.665911 
0.009537430478796158 1:0.290784 2:0.75025 3:0.284671 4:0.445161 5:0.498085 6:0.497921 7:0.81027 8:0.059792 9:0.661467 
0.002747347665508931 1:0.251873 2:0.728253 3:0.297744 4:0.444082 5:0.498577 6:0.49667 7:0.810405 8:0.06004 9:0.659933 
0.02091633454575384 1:0.205207 2:0.699861 3:0.308801 4:0.443332 5:0.499076 6:0.495114 7:0.810541 8:0.060163 9:0.658489 
1 1:0.019718 2:0.564304 3:0.33871 4:0.445001 5:0.501533 6:0.48582 7:0.811459 8:0.059297 9:0.658711 
1 1:0.034282 2:0.549123 3:0.340915 4:0.446724 5:0.501995 6:0.484259 7:0.811649 8:0.058925 9:0.659556 
0.007939185395466383 1:0.217457 2:0.516012 3:0.34355 4:0.453448 5:0.503307 6:0.480032 7:0.811784 8:0.057935 9:0.660133 
0.02013507599131779 1:0.311614 2:0.504731 3:0.34371 4:0.455559 5:0.503716 6:0.478722 7:0.811676 8:0.05744 9:0.660644 
0.01851854183874559 1:0.416032 2:0.491358 3:0.343796 4:0.45729 5:0.504103 6:0.477517 7:0.811459 8:0.056821 9:0.661067 
0.02007177140490278 1:0.526462 2:0.476023 3:0.344054 4:0.458391 5:0.504465 6:0.476345 7:0.811135 8:0.056078 9:0.660956 
0.01947946709364448 1:0.637809 2:0.459276 3:0.344605 4:0.458637 5:0.504797 6:0.475134 7:0.810703 8:0.055335 9:0.660844 
0.01707963312347543 1:0.743104 2:0.441408 3:0.345444 4:0.45782 5:0.505099 6:0.473926 7:0.810189 8:0.054469 9:0.660889 
0.01508817855004298 1:0.833196 2:0.42245 3:0.346382 4:0.455761 5:0.505368 6:0.472724 7:0.809622 8:0.053479 9:0.660822 
0.008556677377390156 1:0.934934 2:0.381537 3:0.348088 4:0.447586 5:0.505798 6:0.47034 7:0.808432 8:0.051498 9:0.661267 
0.01358812077827156 1:0.938252 2:0.359768 3:0.348625 4:0.44151 5:0.505952 6:0.469264 7:0.807865 8:0.05026 9:0.6618 
0.01069526438702023 1:0.858884 2:0.318538 3:0.348515 4:0.425348 5:0.50611 6:0.467524 7:0.806649 8:0.047413 9:0.663089 
0.01404874778811569 1:0.785032 2:0.3021 3:0.347909 4:0.415119 5:0.506101 6:0.466879 7:0.806 8:0.04568 9:0.664111 
0.01869518822512949 1:0.692436 2:0.290671 3:0.346828 4:0.403476 5:0.506031 6:0.466495 7:0.805432 8:0.04407 9:0.665533 
0.02028442880512539 1:0.58477 2:0.285119 3:0.345332 4:0.390637 5:0.5059 6:0.466428 7:0.804973 8:0.042461 9:0.667244 
0.021089652050788 1:0.467473 2:0.28565 3:0.34354 4:0.377022 5:0.505708 6:0.466733 7:0.80473 8:0.040852 9:0.669 
0.02142123853681998 1:0.346337 2:0.292231 3:0.341555 4:0.362989 5:0.505458 6:0.46739 7:0.804595 8:0.039366 9:0.670644 
0.02290854217325387 1:0.226836 2:0.304145 3:0.339523 4:0.348811 5:0.505152 6:0.468372 7:0.804622 8:0.037881 9:0.672044 
0.008309261368122139 1:0.113985 2:0.320453 3:0.337634 4:0.33477 5:0.504797 6:0.469633 7:0.804703 8:0.036643 9:0.6734 
0.001967448312303736 1:0.011746 2:0.340093 3:0.33609 4:0.32104 5:0.504399 6:0.471184 7:0.804892 8:0.035652 9:0.674756 
0.2560300543875235 1:-0.077342 2:0.361824 3:0.336327 4:0.307818 5:0.503963 6:0.47296 7:0.805162 8:0.034662 9:0.675533 
0.1903418945949282 1:-0.09988 2:0.478169 3:0.427119 4:0.243463 5:0.500049 6:0.485598 7:0.80827 8:0.029958 9:0.673111 
0.8583839186520588 1:-0.003196 2:0.482787 3:0.443354 4:0.23791 5:0.499419 6:0.486838 7:0.808459 8:0.029958 9:0.672089 
0.100415437795037 1:0.090364 2:0.487267 3:0.457898 4:0.232711 5:0.498794 6:0.487859 7:0.808595 8:0.030205 9:0.671022 
0.01575202634853199 1:0.210355 2:0.515134 3:0.490193 4:0.219308 5:0.497056 6:0.489798 7:0.809162 8:0.032681 9:0.668911 
0.01122156245459889 1:-0.204984 2:0.616872 3:0.511931 4:0.214682 5:0.495015 6:0.493981 7:0.812189 8:0.042956 9:0.672511 
0.02394337106418922 1:-0.305259 2:0.631556 3:0.514844 4:0.231543 5:0.494801 6:0.49848 7:0.814351 8:0.046546 9:0.6746 
0.0124932546364204 1:-0.177421 2:0.640879 3:0.51554 4:0.262191 5:0.494903 6:0.503594 7:0.816081 8:0.048774 9:0.6748 
0.01285080720489474 1:-0.092712 2:0.646937 3:0.515419 4:0.274667 5:0.494984 6:0.505257 7:0.816459 8:0.04927 9:0.674444 
0.03118735073146528 1:0.006944 2:0.654494 3:0.515047 4:0.287879 5:0.495084 6:0.506826 7:0.81673 8:0.049765 9:0.673911 
0.02225850995170583 1:0.117117 2:0.663556 3:0.514863 4:0.30154 5:0.495202 6:0.508279 7:0.816838 8:0.050136 9:0.673333 
0.02020458900333561 1:0.232384 2:0.673985 3:0.514714 4:0.315239 5:0.495337 6:0.509579 7:0.816757 8:0.050631 9:0.672422 
0.02035359208480643 1:0.345636 2:0.685151 3:0.514531 4:0.328524 5:0.49549 6:0.510691 7:0.816486 8:0.051127 9:0.671689 
0.01617678316324189 1:0.449041 2:0.695881 3:0.514287 4:0.341074 5:0.495662 6:0.51165 7:0.816108 8:0.051622 9:0.670778 
0.01728288449398459 1:0.536111 2:0.705119 3:0.514086 4:0.352699 5:0.495852 6:0.512389 7:0.815676 8:0.052117 9:0.669644 
0.001317394348407343 1:0.602411 2:0.712162 3:0.514142 4:0.363268 5:0.49606 6:0.512893 7:0.815216 8:0.052612 9:0.668578 
0.01870276506011477 1:0.67887 2:0.713436 3:0.514471 4:0.388409 5:0.496792 6:0.512974 7:0.813757 8:0.053974 9:0.665267 
0.01192823199480529 1:0.624636 2:0.683856 3:0.51468 4:0.403663 5:0.497641 6:0.514472 7:0.812378 8:0.054593 9:0.661911 
0.5491092086799657 1:-0.028807 2:0.505597 3:0.347777 4:0.333401 5:0.5 6:0.5 7:0.810838 8:0.046794 9:0.666667 
1 1:-0.028563 2:0.505621 3:0.347763 4:0.333439 5:0.500001 6:0.5 7:0.810838 8:0.046794 9:0.666667 
1 1:-0.028286 2:0.505642 3:0.34775 4:0.333482 5:0.500002 6:0.5 7:0.810838 8:0.046794 9:0.666667 
1 1:-0.027996 2:0.505657 3:0.347735 4:0.333524 5:0.500003 6:0.5 7:0.810838 8:0.046794 9:0.666667 
1 1:-0.027708 2:0.505656 3:0.347739 4:0.333569 5:0.500004 6:0.5 7:0.810838 8:0.046794 9:0.666667 
1 1:-0.02741 2:0.505607 3:0.347767 4:0.333617 5:0.500005 6:0.5 7:0.810838 8:0.046794 9:0.666667 
-1 1:-0.094907 2:0.408803 3:0.346363 4:0.253282 5:0.504259 6:0.495075 7:0.811973 8:0.04927 9:0.652933 
-1 1:-0.071904 2:0.417499 3:0.34638 4:0.256066 5:0.504338 6:0.492582 7:0.812081 8:0.048527 9:0.656333 
-0.7037953252118723 1:-0.050992 2:0.427906 3:0.346373 4:0.259063 5:0.504388 6:0.49074 7:0.812162 8:0.047784 9:0.659311 
-0.6519369193530978 1:-0.017002 2:0.4512 3:0.346508 4:0.265526 5:0.50441 6:0.489021 7:0.81227 8:0.046422 9:0.665289 
-1 1:-0.003808 2:0.462854 3:0.346624 4:0.268912 5:0.504386 6:0.488945 7:0.812324 8:0.045803 9:0.667289 
-1 1:0.007584 2:0.473945 3:0.346743 4:0.272364 5:0.504341 6:0.489259 7:0.812324 8:0.045308 9:0.668978 
-1 1:0.017481 2:0.484131 3:0.346863 4:0.275848 5:0.504277 6:0.489903 7:0.812351 8:0.044813 9:0.670511 
-1 1:0.026068 2:0.493039 3:0.347031 4:0.279344 5:0.504197 6:0.490827 7:0.812351 8:0.044442 9:0.671578 
-0.7541638366718962 1:0.033878 2:0.500412 3:0.347192 4:0.282829 5:0.504105 6:0.491909 7:0.812324 8:0.044194 9:0.672133 
-0.7661629765903523 1:0.052522 2:0.51947 3:0.34779 4:0.298582 5:0.503493 6:0.497764 7:0.812027 8:0.04308 9:0.671356 
-1 1:0.0485 2:0.52096 3:0.347843 4:0.30127 5:0.503353 6:0.498656 7:0.811946 8:0.042956 9:0.670489 
-1 1:0.042571 2:0.521835 3:0.347813 4:0.303831 5:0.50321 6:0.499382 7:0.811919 8:0.042956 9:0.669867 
-1 1:0.036232 2:0.522196 3:0.347792 4:0.306284 5:0.503065 6:0.500011 7:0.811865 8:0.042832 9:0.669556 
-1 1:0.030359 2:0.522249 3:0.347736 4:0.30864 5:0.502918 6:0.500564 7:0.811811 8:0.042832 9:0.668956 
-1 1:0.025504 2:0.522013 3:0.347689 4:0.310873 5:0.502768 6:0.500948 7:0.811757 8:0.042832 9:0.668089 
-1 1:0.02132 2:0.521356 3:0.347607 4:0.312967 5:0.502619 6:0.501175 7:0.811703 8:0.042832 9:0.667467 
-1 1:0.016972 2:0.520218 3:0.347526 4:0.314934 5:0.50247 6:0.501287 7:0.811649 8:0.042832 9:0.666844 
-1 1:0.012404 2:0.518655 3:0.347476 4:0.3168 5:0.502322 6:0.501268 7:0.811595 8:0.042832 9:0.666356 
-1 1:0.008313 2:0.516874 3:0.347348 4:0.318563 5:0.502172 6:0.501167 7:0.811568 8:0.042709 9:0.666044 
-1 1:0.005073 2:0.515269 3:0.347214 4:0.320234 5:0.50202 6:0.501056 7:0.811513 8:0.042709 9:0.666133 
-1 1:0.002891 2:0.514004 3:0.347079 4:0.321849 5:0.501865 6:0.500924 7:0.811513 8:0.042585 9:0.666 
-1 1:0.00245 2:0.513158 3:0.346945 4:0.323404 5:0.501706 6:0.500786 7:0.811486 8:0.042461 9:0.666022 
-1 1:0.003895 2:0.512814 3:0.346786 4:0.324884 5:0.501544 6:0.500636 7:0.811432 8:0.042461 9:0.665822 
-1 1:0.006825 2:0.512938 3:0.346727 4:0.326274 5:0.50138 6:0.500421 7:0.811405 8:0.042337 9:0.665489 
-1 1:0.011069 2:0.513379 3:0.346673 4:0.327567 5:0.501214 6:0.50018 7:0.811351 8:0.042337 9:0.665578 
-1 1:0.016267 2:0.514161 3:0.346633 4:0.328749 5:0.501046 6:0.499977 7:0.811297 8:0.042213 9:0.6658 
-1 1:0.021589 2:0.515274 3:0.346654 4:0.329819 5:0.500876 6:0.499817 7:0.811243 8:0.042213 9:0.665956 
-1 1:0.026053 2:0.516752 3:0.346772 4:0.330778 5:0.500704 6:0.499641 7:0.811216 8:0.042213 9:0.665778 
-1 1:0.02885 2:0.518568 3:0.346827 4:0.331618 5:0.500532 6:0.499491 7:0.811162 8:0.042213 9:0.666156 
-1 1:0.029244 2:0.52064 3:0.346972 4:0.332347 5:0.50036 6:0.499404 7:0.811108 8:0.042213 9:0.666244 
-1 1:0.027092 2:0.522883 3:0.347096 4:0.332984 5:0.500189 6:0.499308 7:0.811081 8:0.042213 9:0.666156 
-1 1:0.022887 2:0.525237 3:0.34721 4:0.33356 5:0.500021 6:0.499187 7:0.811054 8:0.042337 9:0.666022 
-1 1:0.017175 2:0.527632 3:0.347332 4:0.33408 5:0.499855 6:0.499062 7:0.811027 8:0.042337 9:0.666067 
-1 1:0.009546 2:0.530018 3:0.34744 4:0.334557 5:0.499692 6:0.498927 7:0.811027 8:0.042461 9:0.666089 
-0.1710207530839725 1:-0.042572 2:0.547068 3:0.347261 4:0.338759 5:0.498695 6:0.498844 7:0.811189 8:0.043699 9:0.6674 
-1 1:-0.03031 2:0.535802 3:0.347357 4:0.349694 5:0.497923 6:0.500861 7:0.811351 8:0.04568 9:0.667022 
-1 1:-0.034651 2:0.532916 3:0.347305 4:0.350968 5:0.497882 6:0.500937 7:0.811378 8:0.04568 9:0.667044 
-1 1:-0.038617 2:0.530076 3:0.347264 4:0.352308 5:0.497844 6:0.501013 7:0.811405 8:0.045803 9:0.666978 
-1 1:-0.040709 2:0.527446 3:0.347191 4:0.35373 5:0.497808 6:0.50108 7:0.811459 8:0.045927 9:0.667111 
-1 1:-0.04025 2:0.524883 3:0.347152 4:0.355257 5:0.497774 6:0.501197 7:0.811513 8:0.045927 9:0.667311 
-1 1:-0.037308 2:0.522406 3:0.347061 4:0.356871 5:0.497743 6:0.501307 7:0.811541 8:0.045927 9:0.667089 
-1 1:-0.032411 2:0.520249 3:0.346988 4:0.358516 5:0.497712 6:0.501382 7:0.811541 8:0.045927 9:0.666867 
-1 1:-0.025955 2:0.518629 3:0.34699 4:0.360169 5:0.497681 6:0.501384 7:0.811541 8:0.045927 9:0.666556 
-1 1:-0.01815 2:0.517614 3:0.347016 4:0.361812 5:0.49765 6:0.501364 7:0.811513 8:0.045927 9:0.666578 
-1 1:-0.009886 2:0.517131 3:0.347123 4:0.363398 5:0.497619 6:0.501306 7:0.811486 8:0.045927 9:0.666244 
-1 1:-0.002039 2:0.51693 3:0.347274 4:0.364909 5:0.497589 6:0.501212 7:0.811459 8:0.045927 9:0.666178 
-1 1:0.004993 2:0.516842 3:0.347387 4:0.366337 5:0.497559 6:0.501104 7:0.811405 8:0.046051 9:0.666133 
-1 1:0.01097 2:0.516854 3:0.347528 4:0.367676 5:0.49753 6:0.50099 7:0.811378 8:0.046051 9:0.666111 
-1 1:0.015657 2:0.517011 3:0.347641 4:0.368908 5:0.4975 6:0.500873 7:0.811324 8:0.046051 9:0.666111 
-1 1:0.019012 2:0.5173 3:0.347773 4:0.370017 5:0.497471 6:0.500757 7:0.81127 8:0.046051 9:0.666111 
-1 1:0.020584 2:0.517757 3:0.34786 4:0.370982 5:0.497442 6:0.500627 7:0.811216 8:0.046051 9:0.665867 
-1 1:0.020052 2:0.518338 3:0.347928 4:0.371829 5:0.497413 6:0.500467 7:0.811162 8:0.046051 9:0.666044 
-1 1:0.017973 2:0.518934 3:0.347995 4:0.37259 5:0.497385 6:0.500345 7:0.811135 8:0.046051 9:0.666133 
-1 1:0.015394 2:0.519647 3:0.348055 4:0.373279 5:0.497356 6:0.500241 7:0.811108 8:0.046051 9:0.6662 
-1 1:0.013032 2:0.520634 3:0.34811 4:0.37388 5:0.497328 6:0.500152 7:0.811054 8:0.046051 9:0.666267 
-1 1:0.010639 2:0.521966 3:0.348241 4:0.374387 5:0.4973 6:0.500097 7:0.811 8:0.046051 9:0.666533 
-0.7634244940565393 1:-0.001124 2:0.523403 3:0.347771 4:0.375493 5:0.497627 6:0.500772 7:0.81073 8:0.048155 9:0.666956 
