svm_type c_svc
kernel_type rbf
gamma 153
nr_class 2
total_sv 257
rho -0.90371
label 0 1
nr_sv 204 53
SV
1 1:0.519794 2:0.493682 3:0.205717 4:0.353983 5:0.493682 6:0.493682 7:0.092577 8:0.045326 9:0.588327 
1 1:0.519791 2:0.493675 3:0.205717 4:0.353988 5:0.493675 6:0.493675 7:0.092577 8:0.045326 9:0.588327 
1 1:0.519792 2:0.493682 3:0.205719 4:0.354 5:0.493682 6:0.493682 7:0.092577 8:0.045326 9:0.588327 
1 1:0.519804 2:0.493697 3:0.205728 4:0.354015 5:0.493697 6:0.493697 7:0.092577 8:0.045326 9:0.588357 
1 1:0.519834 2:0.493719 3:0.205736 4:0.354035 5:0.493719 6:0.493719 7:0.092577 8:0.045326 9:0.588357 
1 1:0.51988 2:0.493753 3:0.205747 4:0.354059 5:0.493753 6:0.493753 7:0.092577 8:0.045326 9:0.588387 
1 1:0.519948 2:0.493799 3:0.205755 4:0.354087 5:0.493799 6:0.493799 7:0.0927 8:0.045326 9:0.588387 
1 1:0.520037 2:0.493845 3:0.205761 4:0.354118 5:0.493845 6:0.493845 7:0.0927 8:0.045326 9:0.588417 
1 1:0.520142 2:0.493884 3:0.205766 4:0.354148 5:0.493884 6:0.493884 7:0.0927 8:0.045326 9:0.588447 
1 1:0.520253 2:0.493922 3:0.205769 4:0.35418 5:0.493922 6:0.493922 7:0.0927 8:0.045326 9:0.588447 
1 1:0.520365 2:0.493953 3:0.205773 4:0.354213 5:0.493953 6:0.493953 7:0.0927 8:0.045326 9:0.588477 
1 1:0.520476 2:0.493985 3:0.205761 4:0.354246 5:0.493985 6:0.493985 7:0.0927 8:0.045326 9:0.588507 
1 1:0.520601 2:0.494031 3:0.205855 4:0.354283 5:0.494031 6:0.494031 7:0.0927 8:0.045326 9:0.588507 
1 1:0.520719 2:0.494137 3:0.205829 4:0.354324 5:0.494137 6:0.494137 7:0.0927 8:0.045326 9:0.588537 
1 1:0.520837 2:0.494348 3:0.205463 4:0.354374 5:0.494348 6:0.494348 7:0.0927 8:0.045326 9:0.588566 
1 1:0.520969 2:0.494677 3:0.205108 4:0.354429 5:0.494677 6:0.494677 7:0.0927 8:0.045326 9:0.588626 
1 1:0.52108 2:0.495118 3:0.204897 4:0.354493 5:0.495118 6:0.495118 7:0.0927 8:0.045326 9:0.588656 
1 1:0.521166 2:0.495614 3:0.204791 4:0.354557 5:0.495614 6:0.495614 7:0.0927 8:0.045326 9:0.588686 
1 1:0.52123 2:0.496118 3:0.204778 4:0.354618 5:0.496118 6:0.496118 7:0.0927 8:0.045326 9:0.588716 
1 1:0.521281 2:0.496606 3:0.204826 4:0.35468 5:0.496606 6:0.496606 7:0.0927 8:0.045326 9:0.588776 
1 1:0.521323 2:0.497059 3:0.204936 4:0.354737 5:0.497059 6:0.497059 7:0.0927 8:0.045326 9:0.588806 
1 1:0.521372 2:0.497478 3:0.205083 4:0.354791 5:0.497478 6:0.497478 7:0.0927 8:0.045326 9:0.588836 
0.6959191539037904 1:0.521429 2:0.49788 3:0.205227 4:0.354844 5:0.49788 6:0.49788 7:0.0927 8:0.045326 9:0.588866 
0.4379157238131959 1:0.532005 2:0.521775 3:0.216705 4:0.353338 5:0.521775 6:0.521775 7:0.091961 8:0.045326 9:0.587848 
1 1:0.530738 2:0.534668 3:0.214676 4:0.353047 5:0.534668 6:0.534668 7:0.091838 8:0.045326 9:0.587668 
1 1:0.527457 2:0.542653 3:0.212587 4:0.352724 5:0.542653 6:0.542653 7:0.091838 8:0.045209 9:0.587488 
1 1:0.523056 2:0.542803 3:0.210654 4:0.352408 5:0.542803 6:0.542803 7:0.091961 8:0.044974 9:0.587309 
1 1:0.51861 2:0.535667 3:0.208559 4:0.352177 5:0.535667 6:0.535667 7:0.092207 8:0.044857 9:0.587189 
1 1:0.515103 2:0.52413 3:0.206718 4:0.352087 5:0.52413 6:0.52413 7:0.092577 8:0.044739 9:0.587189 
1 1:0.512415 2:0.511547 3:0.205147 4:0.352178 5:0.511547 6:0.511547 7:0.092946 8:0.044622 9:0.587279 
1 1:0.51 2:0.50087 3:0.203984 4:0.352436 5:0.50087 6:0.50087 7:0.093315 8:0.044504 9:0.587488 
1 1:0.507842 2:0.494402 3:0.210319 4:0.352778 5:0.494402 6:0.494402 7:0.093315 8:0.044622 9:0.587698 
0.08933883803678046 1:0.505908 2:0.493616 3:0.475461 4:0.353141 5:0.493616 6:0.493616 7:0.093315 8:0.044622 9:0.587908 
0.09557662652542476 1:0.504276 2:0.498274 3:0.766847 4:0.353488 5:0.498274 6:0.498274 7:0.093315 8:0.044622 9:0.548708 
0.07838472010400634 1:0.503102 2:0.506994 3:0.931647 4:0.353882 5:0.506994 6:0.506994 7:0.093561 8:0.04427 9:0.487408 
0.042265680540346 1:0.502333 2:0.518578 3:1 4:0.354377 5:0.518578 6:0.518578 7:0.093685 8:0.0438 9:0.434582 
0.03508889848232484 1:0.501891 2:0.532582 3:0.997825 4:0.354818 5:0.532582 6:0.532582 7:0.093315 8:0.043448 9:0.388405 
0.05616844597404511 1:0.501661 2:0.548765 3:0.947324 4:0.354958 5:0.548765 6:0.548765 7:0.09233 8:0.043213 9:0.345671 
0.06923733261682266 1:0.501764 2:0.566704 3:0.867215 4:0.354166 5:0.566704 6:0.566704 7:0.088883 8:0.042978 9:0.304106 
0.07402100310981886 1:0.502123 2:0.58438 3:0.771756 4:0.35146 5:0.58438 6:0.58438 7:0.084328 8:0.04286 9:0.26266 
0.07277615796452447 1:0.502708 2:0.597102 3:0.671576 4:0.34688 5:0.597102 6:0.597102 7:0.080635 8:0.042743 9:0.221094 
0.06813549517599701 1:0.503502 2:0.600117 3:0.574317 4:0.340825 5:0.600117 6:0.600117 7:0.077927 8:0.042626 9:0.180367 
0.06430693916485608 1:0.504415 2:0.591503 3:0.48507 4:0.333731 5:0.591503 6:0.591503 7:0.07608 8:0.042626 9:0.141736 
0.06024304668314887 1:0.505313 2:0.57223 3:0.406744 4:0.326052 5:0.57223 6:0.57223 7:0.074972 8:0.042508 9:0.10607 
0.05751344953998351 1:0.506124 2:0.545124 3:0.340777 4:0.317631 5:0.545124 6:0.545124 7:0.072756 8:0.041804 9:0.073938 
0.05316994375673115 1:0.507145 2:0.513147 3:0.287291 4:0.308082 5:0.513147 6:0.513147 7:0.070171 8:0.040512 9:0.045998 
0.05271007920836635 1:0.509606 2:0.477624 3:0.245636 4:0.297452 5:0.477624 6:0.477624 7:0.068078 8:0.03969 9:0.023179 
0.05196739131375972 1:0.51493 2:0.438351 3:0.214625 4:0.286151 5:0.438351 6:0.438351 7:0.06734 8:0.039573 9:0.007786 
0.05493707519916954 1:0.523689 2:0.395185 3:0.192735 4:0.274824 5:0.395185 6:0.395185 7:0.067955 8:0.040042 9:0 
0.05390965837025187 1:0.5351 2:0.349679 3:0.178402 4:0.264052 5:0.349679 6:0.349679 7:0.069679 8:0.040747 9:0.000329 
0.0520548478945875 1:0.547423 2:0.305218 3:0.170182 4:0.254273 5:0.305218 6:0.305218 7:0.072264 8:0.041569 9:0.008535 
0.04242284987002386 1:0.558779 2:0.265948 3:0.166662 4:0.245769 5:0.265948 6:0.265948 7:0.075342 8:0.042391 9:0.025005 
0.03671825910017392 1:0.567747 2:0.235789 3:0.166593 4:0.238694 5:0.235789 6:0.235789 7:0.078542 8:0.04333 9:0.049262 
0.01632495730774354 1:0.573473 2:0.217381 3:0.16884 4:0.23311 5:0.217381 6:0.217381 7:0.081866 8:0.044152 9:0.080226 
0.04142158146584338 1:0.575743 2:0.211736 3:0.172533 4:0.229026 5:0.211736 6:0.211736 7:0.08519 8:0.044974 9:0.11733 
0.01849187451868041 1:0.574653 2:0.218385 3:0.177078 4:0.226396 5:0.218385 6:0.218385 7:0.088268 8:0.045796 9:0.158926 
0.04558543649186581 1:0.57053 2:0.235652 3:0.181923 4:0.225165 5:0.235652 6:0.235652 7:0.091346 8:0.046618 9:0.203306 
0.04522454675644785 1:0.563825 2:0.261309 3:0.18667 4:0.225318 5:0.261309 6:0.261309 7:0.094423 8:0.047205 9:0.249513 
0.05089185512016393 1:0.555101 2:0.293196 3:0.191033 4:0.226768 5:0.293196 6:0.293196 7:0.097132 8:0.047792 9:0.29593 
0.05498129354637554 1:0.545058 2:0.329277 3:0.194864 4:0.229343 5:0.329277 6:0.329277 7:0.099348 8:0.04791 9:0.341838 
0.04920632601944008 1:0.534526 2:0.367437 3:0.198089 4:0.232875 5:0.367437 6:0.367437 7:0.101317 8:0.047792 9:0.386308 
0.06599156877944029 1:0.524539 2:0.405703 3:0.200752 4:0.237171 5:0.405703 6:0.405703 7:0.102795 8:0.04744 9:0.428473 
0.2587741201360223 1:0.509938 2:0.475278 3:0.204474 4:0.247332 5:0.475278 6:0.475278 7:0.104641 8:0.046853 9:0.503788 
0.08782305796861378 1:0.50651 2:0.503584 3:0.20564 4:0.252882 5:0.503584 6:0.503584 7:0.10501 8:0.046736 9:0.535951 
0.03494825477860821 1:0.505661 2:0.526502 3:0.206443 4:0.258557 5:0.526502 6:0.526502 7:0.105134 8:0.046853 9:0.563052 
1 1:0.506772 2:0.543856 3:0.206858 4:0.264232 5:0.543856 6:0.543856 7:0.10501 8:0.04697 9:0.585033 
1 1:0.508934 2:0.555852 3:0.207004 4:0.269795 5:0.555852 6:0.555852 7:0.104764 8:0.047205 9:0.602671 
1 1:0.522867 2:0.491122 3:0.206128 4:0.3841 5:0.491122 6:0.491122 7:0.09073 8:0.045092 9:0.610697 
1 1:0.523971 2:0.494785 3:0.206079 4:0.383266 5:0.494785 6:0.494785 7:0.09073 8:0.045209 9:0.610877 
1 1:0.524888 2:0.498193 3:0.20598 4:0.382425 5:0.498193 6:0.498193 7:0.09073 8:0.045209 9:0.610697 
1 1:0.525497 2:0.500046 3:0.205828 4:0.381563 5:0.500046 6:0.500046 7:0.090607 8:0.045326 9:0.610427 
1 1:0.525621 2:0.497759 3:0.205638 4:0.380722 5:0.497759 6:0.497759 7:0.09073 8:0.045326 9:0.609948 
1 1:0.525238 2:0.48852 3:0.205466 4:0.379948 5:0.48852 6:0.48852 7:0.090976 8:0.045444 9:0.609739 
1 1:0.524427 2:0.470331 3:0.205366 4:0.37927 5:0.470331 6:0.470331 7:0.091222 8:0.045444 9:0.609679 
1 1:0.523342 2:0.442582 3:0.205369 4:0.37877 5:0.442582 6:0.442582 7:0.091715 8:0.045444 9:0.609709 
0.03819007391824359 1:0.522125 2:0.405958 3:0.205471 4:0.378586 5:0.405958 6:0.405958 7:0.092577 8:0.045326 9:0.610248 
0.01888942537195621 1:0.52089 2:0.362049 3:0.205645 4:0.378867 5:0.362049 6:0.362049 7:0.093808 8:0.045326 9:0.611386 
0.07151202871328959 1:0.519685 2:0.313064 3:0.205848 4:0.379807 5:0.313064 6:0.313064 7:0.095531 8:0.045209 9:0.612733 
0.05674952559863648 1:0.518547 2:0.261617 3:0.206013 4:0.381668 5:0.261617 6:0.261617 7:0.09787 8:0.045092 9:0.61426 
0.05903253195904586 1:0.517527 2:0.21055 3:0.206154 4:0.384592 5:0.21055 6:0.21055 7:0.100332 8:0.044974 9:0.616207 
0.05372581362418254 1:0.516706 2:0.162423 3:0.206225 4:0.388715 5:0.162423 6:0.162423 7:0.103164 8:0.044739 9:0.617914 
0.04716780213267119 1:0.516318 2:0.119244 3:0.206264 4:0.394195 5:0.119244 6:0.119244 7:0.106242 8:0.044504 9:0.62022 
0.03738558091616628 1:0.516608 2:0.082281 3:0.206301 4:0.401129 5:0.082281 6:0.082281 7:0.109565 8:0.04427 9:0.623394 
0.04083868217419508 1:0.517605 2:0.052161 3:0.206319 4:0.409547 5:0.052161 6:0.052161 7:0.112889 8:0.044152 9:0.627826 
0.006283874639845926 1:0.519233 2:0.02908 3:0.206344 4:0.419477 5:0.02908 6:0.02908 7:0.116213 8:0.044035 9:0.633666 
0.01995693490063152 1:0.521467 2:0.012951 3:0.206377 4:0.430931 5:0.012951 6:0.012951 7:0.119537 8:0.0438 9:0.640344 
0.005556153363329189 1:0.524285 2:0.003492 3:0.206365 4:0.443832 5:0.003492 6:0.003492 7:0.122615 8:0.043682 9:0.64828 
0.04453417114272017 1:0.527516 2:0 3:0.20636 4:0.458041 5:0 6:0 7:0.125323 8:0.043682 9:0.656814 
0.02585655753952377 1:0.537878 2:0.01379 3:0.20608 4:0.507658 5:0.01379 6:0.01379 7:0.132586 8:0.043682 9:0.688258 
0.004191052649810519 1:0.541477 2:0.022845 3:0.205986 4:0.526217 5:0.022845 6:0.022845 7:0.134679 8:0.0438 9:0.700326 
0.04692596124212033 1:0.544843 2:0.033171 3:0.205952 4:0.545898 5:0.033171 6:0.033171 7:0.137634 8:0.043917 9:0.713413 
0.001122644802045061 1:0.546724 2:0.045611 3:0.205996 4:0.566965 5:0.045611 6:0.045611 7:0.140712 8:0.044035 9:0.727518 
0.04273964043068 1:0.545231 2:0.06216 3:0.20598 4:0.589373 5:0.06216 6:0.06216 7:0.14342 8:0.04427 9:0.742431 
0.03149564004968614 1:0.538359 2:0.085238 3:0.205845 4:0.612931 5:0.085238 6:0.085238 7:0.145759 8:0.044504 9:0.758033 
0.0497160307541096 1:0.524591 2:0.116616 3:0.205494 4:0.637375 5:0.116616 6:0.116616 7:0.147359 8:0.044739 9:0.773905 
0.05690690917471813 1:0.503431 2:0.156765 3:0.204949 4:0.662308 5:0.156765 6:0.156765 7:0.147852 8:0.044622 9:0.789836 
0.06618659538523515 1:0.4752 2:0.204731 3:0.2044 4:0.687426 5:0.204731 6:0.204731 7:0.148344 8:0.044387 9:0.805468 
0.07175408492690181 1:0.440821 2:0.258361 3:0.204053 4:0.712834 5:0.258361 6:0.258361 7:0.149083 8:0.043682 9:0.82119 
0.07336884385505607 1:0.40155 2:0.314844 3:0.203857 4:0.738436 5:0.314844 6:0.314844 7:0.149206 8:0.042508 9:0.837002 
0.07323171553343563 1:0.358939 2:0.371447 3:0.203767 4:0.763988 5:0.371447 6:0.371447 7:0.148714 8:0.041217 9:0.852544 
0.06997900357997977 1:0.314765 2:0.425772 3:0.203801 4:0.789121 5:0.425772 6:0.425772 7:0.147359 8:0.039573 9:0.867158 
0.0656946207129175 1:0.270647 2:0.475823 3:0.203938 4:0.813484 5:0.475823 6:0.475823 7:0.14539 8:0.037811 9:0.881352 
0.05738821211176376 1:0.227859 2:0.520111 3:0.20416 4:0.836766 5:0.520111 6:0.520111 7:0.142681 8:0.035932 9:0.894978 
0.05231842505264923 1:0.187515 2:0.557689 3:0.204489 4:0.858813 5:0.557689 6:0.557689 7:0.13985 8:0.033936 9:0.908214 
0.03784983135294686 1:0.150484 2:0.588228 3:0.204868 4:0.879514 5:0.588228 6:0.588228 7:0.136772 8:0.031822 9:0.920642 
0.04429588164973894 1:0.117307 2:0.612031 3:0.205202 4:0.898791 5:0.612031 6:0.612031 7:0.133571 8:0.029474 9:0.932141 
0.01473180277268143 1:0.0882 2:0.629889 3:0.205492 4:0.916505 5:0.629889 6:0.629889 7:0.129878 8:0.027008 9:0.942892 
0.03665468475276767 1:0.063318 2:0.642346 3:0.205734 4:0.932575 5:0.642346 6:0.642346 7:0.126308 8:0.024542 9:0.953104 
0.008317502483903011 1:0.042756 2:0.649598 3:0.205922 4:0.946962 5:0.649598 6:0.649598 7:0.122492 8:0.021959 9:0.962687 
0.0009783663587217026 1:0.02637 2:0.651955 3:0.206079 4:0.959616 5:0.651955 6:0.651955 7:0.118552 8:0.019493 9:0.971132 
0.009386352137785769 1:0 2:0.633755 3:0.206158 4:0.992737 5:0.633755 6:0.633755 7:0.103287 8:0.010568 9:0.993741 
0.06378157560192954 1:0.005177 2:0.630555 3:0.205977 4:0.996757 5:0.630555 6:0.630555 7:0.099717 8:0.008924 9:0.996167 
0.02671390569321173 1:0.064954 2:0.664048 3:0.205285 4:0.999246 5:0.664048 6:0.664048 7:0.08913 8:0.003523 9:0.99979 
0.04952676680192029 1:0.099252 2:0.692442 3:0.205104 4:0.996748 5:0.692442 6:0.692442 7:0.084944 8:0.002114 9:0.997514 
0.0520294228094384 1:0.13904 2:0.728043 3:0.204925 4:0.992287 5:0.728043 6:0.728043 7:0.080389 8:0.000939 9:0.992993 
0.05853841942158557 1:0.182839 2:0.768616 3:0.204752 4:0.985694 5:0.768616 6:0.768616 7:0.075588 8:0.000235 9:0.986674 
0.05941106768720055 1:0.22868 2:0.811346 3:0.204661 4:0.976833 5:0.811346 6:0.811346 7:0.070417 8:0 9:0.979127 
0.05765363283595216 1:0.274906 2:0.853514 3:0.204688 4:0.965587 5:0.853514 6:0.853514 7:0.065001 8:0.000117 9:0.970443 
0.05381942118638783 1:0.320337 2:0.892583 3:0.204791 4:0.95189 5:0.892583 6:0.892583 7:0.059584 8:0.000587 9:0.96068 
0.04867625653648117 1:0.364101 2:0.926564 3:0.204953 4:0.935733 5:0.926564 6:0.926564 7:0.054167 8:0.001292 9:0.949301 
0.04255781752868563 1:0.405474 2:0.954214 3:0.205122 4:0.91718 5:0.954214 6:0.954214 7:0.048997 8:0.002466 9:0.936394 
0.03412465888725589 1:0.443909 2:0.974991 3:0.205356 4:0.896335 5:0.974991 6:0.974991 7:0.044072 8:0.003875 9:0.922169 
0.03830762928061645 1:0.479157 2:0.989068 3:0.205606 4:0.873297 5:0.989068 6:0.989068 7:0.039271 8:0.005636 9:0.906717 
0.01926577963581095 1:0.511041 2:0.997159 3:0.2059 4:0.848095 5:0.997159 6:0.997159 7:0.03447 8:0.007633 9:0.889707 
0.04206574273131561 1:0.539337 2:1 3:0.206184 4:0.820732 5:1 6:1 7:0.029792 8:0.009981 9:0.871171 
0.01984735724919585 1:0.563975 2:0.998313 3:0.206318 4:0.791253 5:0.998313 6:0.998313 7:0.024991 8:0.01233 9:0.850747 
0.03371828114543488 1:0.584856 2:0.992708 3:0.206324 4:0.759641 5:0.992708 6:0.992708 7:0.020313 8:0.014913 9:0.829066 
0.03559346538959301 1:0.601712 2:0.983565 3:0.206209 4:0.725947 5:0.983565 6:0.983565 7:0.015881 8:0.017614 9:0.806367 
0.02843066837960052 1:0.614562 2:0.971379 3:0.206028 4:0.69035 5:0.971379 6:0.971379 7:0.011941 8:0.020315 9:0.78235 
0.04195976112089222 1:0.623815 2:0.956613 3:0.205777 4:0.653036 5:0.956613 6:0.956613 7:0.008248 8:0.022898 9:0.757404 
0.0353062648857 1:0.630741 2:0.938599 3:0.205518 4:0.614199 5:0.938599 6:0.938599 7:0.005171 8:0.025481 9:0.73186 
0.04806378793830075 1:0.637539 2:0.915579 3:0.205243 4:0.574089 5:0.915579 6:0.915579 7:0.002708 8:0.028182 9:0.705387 
0.05040668313948383 1:0.646465 2:0.885675 3:0.204938 4:0.532996 5:0.885675 6:0.885675 7:0.000862 8:0.031235 9:0.678495 
0.0611238876577783 1:0.659243 2:0.847793 3:0.204637 4:0.491301 5:0.847793 6:0.847793 7:0 8:0.034523 9:0.651544 
0.06647447907157458 1:0.676698 2:0.80195 3:0.204359 4:0.44941 5:0.80195 6:0.80195 7:0.000123 8:0.037929 9:0.624742 
0.07210752794109229 1:0.698802 2:0.749506 3:0.204172 4:0.407765 5:0.749506 6:0.749506 7:0.001108 8:0.041451 9:0.611565 
0.07124592008052043 1:0.724909 2:0.692928 3:0.204206 4:0.366863 5:0.692928 6:0.692928 7:0.003324 8:0.045209 9:0.600305 
0.07208223055529744 1:0.754112 2:0.635159 3:0.204428 4:0.327117 5:0.635159 6:0.635159 7:0.006278 8:0.049084 9:0.585931 
0.07240430886769367 1:0.785322 2:0.578948 3:0.204769 4:0.288999 5:0.578948 6:0.578948 7:0.010464 8:0.053311 9:0.567844 
0.0677065976687351 1:0.817444 2:0.52668 3:0.205199 4:0.25274 5:0.52668 6:0.52668 7:0.014404 8:0.057539 9:0.546222 
0.0618313791657146 1:0.849456 2:0.480198 3:0.205663 4:0.218166 5:0.480198 6:0.480198 7:0.017851 8:0.061766 9:0.521307 
0.05489413241694253 1:0.880284 2:0.440671 3:0.206089 4:0.185142 5:0.440671 6:0.440671 7:0.021298 8:0.065993 9:0.493517 
0.04745269998499968 1:0.908912 2:0.408505 3:0.206446 4:0.153647 5:0.408505 6:0.408505 7:0.024621 8:0.070221 9:0.46372 
0.0440629582159118 1:0.934453 2:0.383429 3:0.206699 4:0.123704 5:0.383429 6:0.383429 7:0.028192 8:0.074213 9:0.432845 
0.02724761349924887 1:0.956264 2:0.364633 3:0.206823 4:0.095382 5:0.364633 6:0.364633 7:0.031885 8:0.078323 9:0.402539 
0.04905201042095776 1:0.973884 2:0.35105 3:0.20685 4:0.06877 5:0.35105 6:0.35105 7:0.035701 8:0.082198 9:0.373551 
0.008881607235082205 1:0.987027 2:0.341874 3:0.206835 4:0.043933 5:0.341874 6:0.341874 7:0.039764 8:0.085956 9:0.34639 
0.08324528664459711 1:1 2:0.334244 3:0.206711 4:0 5:0.334244 6:0.334244 7:0.048258 8:0.093001 9:0.300183 
0.09639348236808663 1:0.559686 2:0.339655 3:0.206249 4:0.148952 5:0.339655 6:0.339655 7:1 8:1 9:0.542 
0.08210322988319277 1:0.007639 2:0.346345 3:0.205721 4:0.353779 5:0.346345 6:0.346345 7:0.091715 8:0.046383 9:0.588267 
0.04803263031694344 1:0.070958 2:0.383512 3:0.205933 4:0.349759 5:0.383512 6:0.383512 7:0.090853 8:0.046853 9:0.563951 
0.02308172387289077 1:0.106945 2:0.399803 3:0.206031 4:0.349038 5:0.399803 6:0.399803 7:0.091099 8:0.046618 9:0.554338 
0.04287830395403005 1:0.147918 2:0.417836 3:0.206106 4:0.348466 5:0.417836 6:0.417836 7:0.091469 8:0.046383 9:0.544515 
0.03398255259855187 1:0.191649 2:0.436953 3:0.206171 4:0.348038 5:0.436953 6:0.436953 7:0.091715 8:0.046148 9:0.534813 
0.03957826310109402 1:0.236172 2:0.456303 3:0.206255 4:0.347716 5:0.456303 6:0.456303 7:0.091961 8:0.046031 9:0.52487 
0.03675382529092379 1:0.279735 2:0.474933 3:0.206309 4:0.347479 5:0.474933 6:0.474933 7:0.092084 8:0.046031 9:0.514779 
0.03503884229499392 1:0.32097 2:0.492032 3:0.206375 4:0.347307 5:0.492032 6:0.492032 7:0.092207 8:0.045914 9:0.504687 
0.1767737646424072 1:0.392791 2:0.519798 3:0.206429 4:0.347064 5:0.519798 6:0.519798 7:0.09233 8:0.045796 9:0.485042 
0.2082285216246694 1:0.42232 2:0.530278 3:0.206382 4:0.346932 5:0.530278 6:0.530278 7:0.092207 8:0.045679 9:0.475669 
0.02559695528774532 1:0.5238 2:0.539298 3:0.205652 4:0.343554 5:0.539298 6:0.539298 7:0.091346 8:0.045092 9:0.417932 
0.07415609803763813 1:0.526591 2:0.499878 3:0.20243 4:0.342812 5:0.499878 6:0.499878 7:0.094054 8:0.044857 9:0.393376 
0.05746337991124605 1:0.505676 2:0.526043 3:0.101331 4:0.348083 5:0.526043 6:0.526043 7:0.095901 8:0.047792 9:0.403258 
0.06044745419367837 1:0.463655 2:0.536314 3:0.035802 4:0.360673 5:0.536314 6:0.536314 7:0.102671 8:0.04838 9:0.430809 
0.06350225909016373 1:0.435291 2:0.582332 3:0.01051 4:0.376103 5:0.582332 6:0.582332 7:0.104149 8:0.048027 9:0.464379 
0.0005125560112307946 1:0.428165 2:0.602153 3:0.00588 4:0.38098 5:0.602153 6:0.602153 7:0.102425 8:0.047675 9:0.476866 
0.07654291410987818 1:0.41583 2:0.640801 3:0.000101 4:0.389773 5:0.640801 6:0.640801 7:0.095901 8:0.046266 9:0.514389 
0.007829538734838647 1:0.424778 2:0.612024 3:0.001172 4:0.392052 5:0.612024 6:0.612024 7:0.093561 8:0.04427 9:0.560117 
0.03642218458874676 1:0.434036 2:0.594033 3:0.00204 4:0.392512 5:0.594033 6:0.594033 7:0.093808 8:0.043565 9:0.576827 
0.06888482079823413 1:0.4762 2:0.561393 3:0.004908 4:0.397282 5:0.561393 6:0.561393 7:0.099101 8:0.041804 9:0.619681 
0.009259102006622536 1:0.509223 2:0.582099 3:0.006441 4:0.404391 5:0.582099 6:0.582099 7:0.101194 8:0.040864 9:0.643967 
0.03990382049510592 1:0.524401 2:0.606021 3:0.006934 4:0.408312 5:0.606021 6:0.606021 7:0.101194 8:0.040512 9:0.654598 
0.02760231406841472 1:0.537743 2:0.635157 3:0.007352 4:0.412031 5:0.635157 6:0.635157 7:0.100209 8:0.04016 9:0.663552 
0.02990541137940049 1:0.549167 2:0.665377 3:0.007598 4:0.415032 5:0.665377 6:0.665377 7:0.09824 8:0.040042 9:0.67041 
0.08164384740428764 1:0.574245 2:0.721654 3:0.007603 4:0.418034 5:0.721654 6:0.721654 7:0.091469 8:0.039455 9:0.681131 
0.02127398795431911 1:0.60847 2:0.672594 3:0.007565 4:0.41162 5:0.672594 6:0.672594 7:0.087775 8:0.039103 9:0.679035 
0.02516061396836438 1:0.619189 2:0.650758 3:0.006674 4:0.409386 5:0.650758 6:0.650758 7:0.087529 8:0.03922 9:0.677118 
0.01976855767703865 1:0.667356 2:0.595919 3:0.006609 4:0.398139 5:0.595919 6:0.595919 7:0.087652 8:0.041217 9:0.662175 
0.05760349873571281 1:0.67195 2:0.596497 3:0.007136 4:0.39591 5:0.596497 6:0.596497 7:0.087652 8:0.041686 9:0.658252 
0.04000893695731843 1:0.67079 2:0.633863 3:0.072085 4:0.386519 5:0.633863 6:0.633863 7:0.090853 8:0.042743 9:0.644476 
0.02145916524233465 1:0.674659 2:0.659875 3:0.135572 4:0.382318 5:0.659875 6:0.659875 7:0.089376 8:0.043213 9:0.654928 
0.04065545982238709 1:0.676296 2:0.6589 3:0.148547 4:0.380769 5:0.6589 6:0.6589 7:0.088883 8:0.043565 9:0.658072 
0.02301253355687361 1:0.673 2:0.621811 3:0.184543 4:0.372939 5:0.621811 6:0.621811 7:0.087899 8:0.045209 9:0.673614 
0.008536148382008899 1:0.668476 2:0.608262 3:0.189977 4:0.370819 5:0.608262 6:0.608262 7:0.087899 8:0.045561 9:0.678525 
0.04527416327883343 1:0.662759 2:0.595362 3:0.194274 4:0.368711 5:0.595362 6:0.595362 7:0.087899 8:0.045914 9:0.684006 
0.03022282627899222 1:0.617848 2:0.549008 3:0.204348 4:0.356694 5:0.549008 6:0.549008 7:0.088514 8:0.047792 9:0.725751 
0.1674378057504405 1:0.609597 2:0.545756 3:0.204565 4:0.354854 5:0.545756 6:0.545756 7:0.088514 8:0.048027 9:0.733507 
0.03152692339979875 1:0.559247 2:0.537719 3:0.203526 4:0.343445 5:0.537719 6:0.537719 7:0.089376 8:0.048614 9:0.778636 
0.006332222406392765 1:0.555043 2:0.537575 3:0.203237 4:0.341971 5:0.537575 6:0.537575 7:0.089253 8:0.048497 9:0.783248 
0.01452203204048533 1:0.552213 2:0.537192 3:0.202987 4:0.340447 5:0.537192 6:0.537192 7:0.08913 8:0.048497 9:0.787321 
0.009945871024834279 1:0.575237 2:0.51043 3:0.203211 4:0.329213 5:0.51043 6:0.51043 7:0.09073 8:0.045796 9:0.805738 
0.03600483535575871 1:0.583158 2:0.508951 3:0.203412 4:0.328443 5:0.508951 6:0.508951 7:0.091099 8:0.045444 9:0.805049 
0.04355051014479486 1:0.633998 2:0.555532 3:0.324149 4:0.324884 5:0.555532 6:0.555532 7:0.091469 8:0.0438 9:0.734615 
0.0271657895450592 1:0.636549 2:0.551555 3:0.34222 4:0.324369 5:0.551555 6:0.551555 7:0.091469 8:0.044152 9:0.724313 
0.002796389133969653 1:0.640594 2:0.532295 3:0.371561 4:0.323591 5:0.532295 6:0.532295 7:0.092084 8:0.045209 9:0.701973 
0.04254461952799144 1:0.640368 2:0.520277 3:0.382601 4:0.323451 5:0.520277 6:0.520277 7:0.092454 8:0.045679 9:0.690324 
0.04978629108012681 1:0.61783 2:0.489043 3:0.406716 4:0.325799 5:0.489043 6:0.489043 7:0.095531 8:0.04697 9:0.64244 
0.01877625289894546 1:0.608984 2:0.490264 3:0.408973 4:0.327324 5:0.490264 6:0.490264 7:0.096393 8:0.047205 9:0.63115 
0.03057131250765187 1:0.582276 2:0.540616 3:0.410575 4:0.336472 5:0.540616 6:0.540616 7:0.098486 8:0.047323 9:0.593118 
0.03401222887357066 1:0.57962 2:0.559887 3:0.410134 4:0.339218 5:0.559887 6:0.559887 7:0.098732 8:0.047205 9:0.585901 
0.006940718315292267 1:0.578808 2:0.578974 3:0.409626 4:0.342036 5:0.578974 6:0.578974 7:0.098855 8:0.047205 9:0.579612 
0.01253851476176401 1:0.579657 2:0.596795 3:0.409128 4:0.344882 5:0.596795 6:0.596795 7:0.098855 8:0.047205 9:0.573893 
0.0785925828791021 1:0.590561 2:0.652739 3:0.407495 4:0.363617 5:0.652739 6:0.652739 7:0.097378 8:0.047792 9:0.554188 
0.03419775481402852 1:0.55802 2:0.605025 3:0.407473 4:0.37451 5:0.605025 6:0.605025 7:0.093192 8:0.046266 9:0.548019 
0.01605393238935508 1:0.558731 2:0.601002 3:0.407357 4:0.374734 5:0.601002 6:0.601002 7:0.092946 8:0.046148 9:0.551014 
-1 1:0.511228 2:0.562973 3:0.207024 4:0.275189 5:0.562973 6:0.562973 7:0.104272 8:0.047558 9:0.616027 
-1 1:0.512975 2:0.565945 3:0.206936 4:0.280359 5:0.565945 6:0.565945 7:0.103779 8:0.047792 9:0.625251 
-0.9106737381283216 1:0.513689 2:0.565535 3:0.206797 4:0.285279 5:0.565535 6:0.565535 7:0.103164 8:0.048145 9:0.630791 
-0.6214294382969208 1:0.499921 2:0.528779 3:0.206259 4:0.305754 5:0.528779 6:0.528779 7:0.100456 8:0.048614 9:0.621118 
-1 1:0.495591 2:0.518033 3:0.206088 4:0.30928 5:0.518033 6:0.518033 7:0.100209 8:0.048497 9:0.615129 
-1 1:0.491639 2:0.508043 3:0.205962 4:0.312686 5:0.508043 6:0.508043 7:0.099963 8:0.048262 9:0.609619 
-1 1:0.488308 2:0.499421 3:0.205906 4:0.315963 5:0.499421 6:0.499421 7:0.099717 8:0.048027 9:0.604198 
-1 1:0.485693 2:0.492471 3:0.205909 4:0.319113 5:0.492471 6:0.492471 7:0.099471 8:0.04791 9:0.598299 
-1 1:0.483821 2:0.487213 3:0.20595 4:0.322157 5:0.487213 6:0.487213 7:0.099224 8:0.047675 9:0.59243 
-0.4222009089028883 1:0.482578 2:0.483521 3:0.206006 4:0.325117 5:0.483521 6:0.483521 7:0.098978 8:0.04744 9:0.58671 
-1 1:0.484016 2:0.479924 3:0.206079 4:0.338758 5:0.479924 6:0.479924 7:0.098363 8:0.046031 9:0.579133 
-1 1:0.486004 2:0.481571 3:0.206141 4:0.341333 5:0.481571 6:0.481571 7:0.09824 8:0.045796 9:0.577516 
-1 1:0.488614 2:0.484133 3:0.206195 4:0.343844 5:0.484133 6:0.484133 7:0.097993 8:0.045444 9:0.5753 
-1 1:0.491717 2:0.487522 3:0.206237 4:0.346224 5:0.487522 6:0.487522 7:0.097624 8:0.045209 9:0.572875 
-1 1:0.495261 2:0.491169 3:0.206239 4:0.348475 5:0.491169 6:0.491169 7:0.097378 8:0.044974 9:0.570688 
-1 1:0.499171 2:0.494515 3:0.206188 4:0.350631 5:0.494515 6:0.494515 7:0.097255 8:0.044857 9:0.569371 
-1 1:0.503206 2:0.497336 3:0.206075 4:0.352732 5:0.497336 6:0.497336 7:0.097132 8:0.044857 9:0.568922 
-1 1:0.507087 2:0.499829 3:0.205989 4:0.354796 5:0.499829 6:0.499829 7:0.097132 8:0.044857 9:0.569491 
-1 1:0.510407 2:0.502368 3:0.205932 4:0.356849 5:0.502368 6:0.502368 7:0.097132 8:0.044739 9:0.571048 
-1 1:0.512978 2:0.505348 3:0.205919 4:0.358911 5:0.505348 6:0.505348 7:0.097132 8:0.044739 9:0.573144 
-1 1:0.514825 2:0.509113 3:0.205913 4:0.360964 5:0.509113 6:0.509113 7:0.097008 8:0.044739 9:0.576109 
-1 1:0.516143 2:0.513777 3:0.20584 4:0.362946 5:0.513777 6:0.513777 7:0.096885 8:0.044622 9:0.579882 
-1 1:0.517152 2:0.5191 3:0.205715 4:0.364798 5:0.5191 6:0.5191 7:0.096516 8:0.044622 9:0.584104 
-1 1:0.517958 2:0.524465 3:0.205586 4:0.366476 5:0.524465 6:0.524465 7:0.096024 8:0.044504 9:0.587878 
-1 1:0.518672 2:0.529181 3:0.205475 4:0.367939 5:0.529181 6:0.529181 7:0.095531 8:0.044504 9:0.591112 
-1 1:0.519352 2:0.53272 3:0.20545 4:0.369181 5:0.53272 6:0.53272 7:0.095039 8:0.044504 9:0.594436 
-1 1:0.520065 2:0.534778 3:0.205487 4:0.370224 5:0.534778 6:0.534778 7:0.094669 8:0.044504 9:0.59776 
-1 1:0.520896 2:0.535283 3:0.205551 4:0.371072 5:0.535283 6:0.535283 7:0.094177 8:0.044504 9:0.600904 
-0.1025651601119909 1:0.5219 2:0.534209 3:0.205638 4:0.37171 5:0.534209 6:0.534209 7:0.093808 8:0.044504 9:0.6033 
-0.4689171088534992 1:0.52512 2:0.521855 3:0.205652 4:0.372894 5:0.521855 6:0.521855 7:0.093192 8:0.044622 9:0.609349 
-1 1:0.525911 2:0.515942 3:0.205569 4:0.373215 5:0.515942 6:0.515942 7:0.093315 8:0.044622 9:0.610966 
-1 1:0.526633 2:0.51035 3:0.205485 4:0.373564 5:0.51035 6:0.51035 7:0.093315 8:0.044622 9:0.612224 
-1 1:0.52746 2:0.505689 3:0.205478 4:0.373892 5:0.505689 6:0.505689 7:0.093315 8:0.044622 9:0.613512 
-1 1:0.528553 2:0.502004 3:0.205495 4:0.3742 5:0.502004 6:0.502004 7:0.093192 8:0.044622 9:0.61432 
-1 1:0.529993 2:0.499076 3:0.205514 4:0.37448 5:0.499076 6:0.499076 7:0.093192 8:0.044739 9:0.615069 
-1 1:0.531737 2:0.49662 3:0.20551 4:0.374712 5:0.49662 6:0.49662 7:0.093069 8:0.044857 9:0.615518 
-1 1:0.533616 2:0.494303 3:0.205434 4:0.374892 5:0.494303 6:0.494303 7:0.092946 8:0.044974 9:0.615878 
-1 1:0.535489 2:0.491861 3:0.205332 4:0.375028 5:0.491861 6:0.491861 7:0.092823 8:0.045092 9:0.616447 
-1 1:0.537302 2:0.489232 3:0.205201 4:0.375133 5:0.489232 6:0.489232 7:0.092823 8:0.045209 9:0.616716 
-1 1:0.538895 2:0.486423 3:0.205091 4:0.375225 5:0.486423 6:0.486423 7:0.092823 8:0.045326 9:0.616596 
-1 1:0.540063 2:0.483372 3:0.205017 4:0.375326 5:0.483372 6:0.483372 7:0.092823 8:0.045561 9:0.615997 
-1 1:0.540666 2:0.480031 3:0.204989 4:0.37547 5:0.480031 6:0.480031 7:0.092946 8:0.045679 9:0.614859 
-1 1:0.540693 2:0.47648 3:0.205073 4:0.375673 5:0.47648 6:0.47648 7:0.093069 8:0.045796 9:0.613182 
-0.03786397201680126 1:0.540228 2:0.473049 3:0.205213 4:0.375952 5:0.473049 6:0.473049 7:0.093315 8:0.045914 9:0.611445 
-0.9486583447240104 1:0.5368 2:0.466805 3:0.205443 4:0.37724 5:0.466805 6:0.466805 7:0.093808 8:0.046031 9:0.607403 
-1 1:0.527289 2:0.476696 3:0.205502 4:0.382177 5:0.476696 6:0.476696 7:0.094669 8:0.045914 9:0.595065 
-1 1:0.526214 2:0.48014 3:0.205713 4:0.383136 5:0.48014 6:0.48014 7:0.094669 8:0.045796 9:0.593298 
-1 1:0.525378 2:0.483096 3:0.205917 4:0.384079 5:0.483096 6:0.483096 7:0.094669 8:0.045796 9:0.591891 
-1 1:0.524775 2:0.485293 3:0.206066 4:0.385005 5:0.485293 6:0.485293 7:0.094669 8:0.045679 9:0.590992 
-1 1:0.524473 2:0.486738 3:0.206148 4:0.385929 5:0.486738 6:0.486738 7:0.094669 8:0.045679 9:0.590034 
-1 1:0.524457 2:0.487699 3:0.20615 4:0.386867 5:0.487699 6:0.487699 7:0.094669 8:0.045679 9:0.589435 
-1 1:0.524732 2:0.488517 3:0.206137 4:0.38781 5:0.488517 6:0.488517 7:0.094669 8:0.045679 9:0.588716 
-0.3714520560477336 1:0.52522 2:0.489448 3:0.206106 4:0.388752 5:0.489448 6:0.489448 7:0.094669 8:0.045796 9:0.588357 
