svm_type c_svc
kernel_type rbf
gamma 0.111111
nr_class 2
total_sv 247
rho -1.79914
label 0 1
nr_sv 127 120
SV
1 1:0.488433 2:0.52955 3:0.201492 4:0.397108 5:0.52955 6:0.52955 7:0.466035 8:0.442623 9:0.731476 
1 1:0.488514 2:0.529536 3:0.201493 4:0.397144 5:0.529536 6:0.529536 7:0.466035 8:0.442623 9:0.731476 
1 1:0.488645 2:0.529493 3:0.201497 4:0.397194 5:0.529493 6:0.529493 7:0.466035 8:0.442623 9:0.731516 
1 1:0.488797 2:0.529423 3:0.201493 4:0.397243 5:0.529423 6:0.529423 7:0.466035 8:0.442623 9:0.731516 
1 1:0.488891 2:0.529268 3:0.201338 4:0.397302 5:0.529268 6:0.529268 7:0.466035 8:0.442623 9:0.731516 
1 1:0.488917 2:0.528988 3:0.201183 4:0.397387 5:0.528988 6:0.528988 7:0.466035 8:0.442623 9:0.731555 
1 1:0.48896 2:0.528649 3:0.201098 4:0.397491 5:0.528649 6:0.528649 7:0.467615 8:0.442623 9:0.731555 
1 1:0.489019 2:0.52832 3:0.201057 4:0.397622 5:0.52832 6:0.52832 7:0.467615 8:0.442623 9:0.731594 
1 1:0.489087 2:0.528036 3:0.201061 4:0.397762 5:0.528036 6:0.528036 7:0.467615 8:0.442623 9:0.731634 
1 1:0.489152 2:0.527802 3:0.201088 4:0.397897 5:0.527802 6:0.527802 7:0.467615 8:0.442623 9:0.731634 
1 1:0.489204 2:0.527637 3:0.201136 4:0.398037 5:0.527637 6:0.527637 7:0.467615 8:0.442623 9:0.731673 
1 1:0.489224 2:0.527548 3:0.201196 4:0.398168 5:0.527548 6:0.527548 7:0.467615 8:0.442623 9:0.731712 
1 1:0.489185 2:0.52753 3:0.201238 4:0.398298 5:0.52753 6:0.52753 7:0.467615 8:0.442623 9:0.731712 
1 1:0.489103 2:0.527589 3:0.201301 4:0.398429 5:0.527589 6:0.527589 7:0.467615 8:0.442623 9:0.731751 
1 1:0.489064 2:0.527726 3:0.201367 4:0.398564 5:0.527726 6:0.527726 7:0.467615 8:0.442623 9:0.731791 
1 1:0.489027 2:0.527928 3:0.201427 4:0.398704 5:0.527928 6:0.527928 7:0.467615 8:0.442623 9:0.731791 
1 1:0.489002 2:0.528162 3:0.201448 4:0.398839 5:0.528162 6:0.528162 7:0.467615 8:0.442623 9:0.73183 
1 1:0.488981 2:0.528388 3:0.201475 4:0.398975 5:0.528388 6:0.528388 7:0.467615 8:0.442623 9:0.731869 
1 1:0.488971 2:0.528619 3:0.201483 4:0.399101 5:0.528619 6:0.528619 7:0.467615 8:0.442623 9:0.731869 
1 1:0.488967 2:0.528842 3:0.201484 4:0.399223 5:0.528842 6:0.528842 7:0.466035 8:0.442623 9:0.731909 
1 1:0.488979 2:0.529034 3:0.201493 4:0.399322 5:0.529034 6:0.529034 7:0.466035 8:0.442623 9:0.731909 
1 1:0.488963 2:0.529193 3:0.201506 4:0.399403 5:0.529193 6:0.529193 7:0.466035 8:0.442623 9:0.731948 
1 1:0.488851 2:0.529346 3:0.201524 4:0.399471 5:0.529346 6:0.529346 7:0.466035 8:0.442623 9:0.731948 
1 1:0.4886 2:0.529495 3:0.201537 4:0.399534 5:0.529495 6:0.529495 7:0.466035 8:0.442623 9:0.731948 
1 1:0.488214 2:0.529609 3:0.201531 4:0.399583 5:0.529609 6:0.529609 7:0.466035 8:0.442623 9:0.731948 
1 1:0.487784 2:0.529702 3:0.201524 4:0.399624 5:0.529702 6:0.529702 7:0.466035 8:0.442623 9:0.731987 
1 1:0.487353 2:0.529788 3:0.201524 4:0.39966 5:0.529788 6:0.529788 7:0.466035 8:0.442623 9:0.731987 
1 1:0.486825 2:0.529859 3:0.201523 4:0.399692 5:0.529859 6:0.529859 7:0.466035 8:0.442623 9:0.731987 
1 1:0.486353 2:0.529896 3:0.201493 4:0.39971 5:0.529896 6:0.529896 7:0.466035 8:0.442623 9:0.731987 
1 1:0.485893 2:0.529911 3:0.201452 4:0.39971 5:0.529911 6:0.529911 7:0.466035 8:0.442623 9:0.731987 
1 1:0.485361 2:0.529891 3:0.201394 4:0.399687 5:0.529891 6:0.529891 7:0.466035 8:0.442623 9:0.731987 
1 1:0.484811 2:0.529796 3:0.201374 4:0.399651 5:0.529796 6:0.529796 7:0.466035 8:0.442623 9:0.731948 
1 1:0.484329 2:0.529644 3:0.201428 4:0.399597 5:0.529644 6:0.529644 7:0.466035 8:0.442623 9:0.731948 
1 1:0.484021 2:0.529479 3:0.201595 4:0.399534 5:0.529479 6:0.529479 7:0.466035 8:0.442623 9:0.731948 
1 1:0.483779 2:0.529318 3:0.201976 4:0.399457 5:0.529318 6:0.529318 7:0.466035 8:0.442623 9:0.731909 
1 1:0.483616 2:0.529147 3:0.202459 4:0.399376 5:0.529147 6:0.529147 7:0.466035 8:0.442623 9:0.731909 
1 1:0.483874 2:0.529005 3:0.202689 4:0.399331 5:0.529005 6:0.529005 7:0.466035 8:0.442623 9:0.731909 
1 1:0.484476 2:0.528801 3:0.202419 4:0.399308 5:0.528801 6:0.528801 7:0.466035 8:0.442623 9:0.731909 
1 1:0.484883 2:0.528437 3:0.20174 4:0.399281 5:0.528437 6:0.528437 7:0.466035 8:0.442623 9:0.731909 
1 1:0.484665 2:0.527924 3:0.200844 4:0.39925 5:0.527924 6:0.527924 7:0.466035 8:0.442623 9:0.731909 
1 1:0.483843 2:0.527308 3:0.199734 4:0.399205 5:0.527308 6:0.527308 7:0.466035 8:0.442623 9:0.731869 
1 1:0.48272 2:0.526758 3:0.198286 4:0.399164 5:0.526758 6:0.526758 7:0.466035 8:0.442623 9:0.731869 
1 1:0.481285 2:0.526245 3:0.196731 4:0.39911 5:0.526245 6:0.526245 7:0.466035 8:0.442623 9:0.731869 
1 1:0.480183 2:0.525912 3:0.195475 4:0.399056 5:0.525912 6:0.525912 7:0.466035 8:0.442623 9:0.731869 
1 1:0.479 2:0.525861 3:0.194608 4:0.399029 5:0.525861 6:0.525861 7:0.466035 8:0.442623 9:0.73183 
1 1:0.477346 2:0.52582 3:0.194336 4:0.398997 5:0.52582 6:0.52582 7:0.466035 8:0.45082 9:0.73183 
1 1:0.475371 2:0.525811 3:0.19475 4:0.398921 5:0.525811 6:0.525811 7:0.464455 8:0.45082 9:0.73183 
1 1:0.471674 2:0.525662 3:0.195982 4:0.398731 5:0.525662 6:0.525662 7:0.464455 8:0.45082 9:0.731751 
1 1:0.465766 2:0.52396 3:0.197902 4:0.398407 5:0.52396 6:0.52396 7:0.462875 8:0.45082 9:0.731712 
1 1:0.457638 2:0.519741 3:0.200352 4:0.397978 5:0.519741 6:0.519741 7:0.462875 8:0.45082 9:0.731594 
1 1:0.447414 2:0.51302 3:0.202816 4:0.3975 5:0.51302 6:0.51302 7:0.462875 8:0.45082 9:0.731516 
1 1:0.436785 2:0.504078 3:0.205211 4:0.397031 5:0.504078 6:0.504078 7:0.462875 8:0.45082 9:0.731437 
1 1:0.427894 2:0.492817 3:0.20745 4:0.396607 5:0.492817 6:0.492817 7:0.462875 8:0.442623 9:0.731359 
1 1:0.421748 2:0.479004 3:0.209048 4:0.396265 5:0.479004 6:0.479004 7:0.464455 8:0.442623 9:0.73128 
1 1:0.418953 2:0.462521 3:0.210102 4:0.396116 5:0.462521 6:0.462521 7:0.466035 8:0.442623 9:0.73128 
1 1:0.420626 2:0.443204 3:0.210548 4:0.396337 5:0.443204 6:0.443204 7:0.469194 8:0.442623 9:0.731359 
1 1:0.424317 2:0.421995 3:0.210447 4:0.397103 5:0.421995 6:0.421995 7:0.473934 8:0.442623 9:0.731594 
1 1:0.427481 2:0.402063 3:0.209991 4:0.398411 5:0.402063 6:0.402063 7:0.477093 8:0.442623 9:0.731869 
1 1:0.428137 2:0.386828 3:0.209272 4:0.400102 5:0.386828 6:0.386828 7:0.478673 8:0.442623 9:0.732223 
1 1:0.424815 2:0.378834 3:0.208292 4:0.402023 5:0.378834 6:0.378834 7:0.480253 8:0.442623 9:0.732616 
1 1:0.416947 2:0.379375 3:0.207121 4:0.403984 5:0.379375 6:0.379375 7:0.478673 8:0.434426 9:0.732969 
1 1:0.403569 2:0.388541 3:0.224313 4:0.40581 5:0.388541 6:0.388541 7:0.477093 8:0.434426 9:0.733323 
1 1:0.382136 2:0.405074 3:0.516813 4:0.407375 5:0.405074 6:0.405074 7:0.475513 8:0.42623 9:0.733598 
0.667116456927613 1:0.352318 2:0.426943 3:0.791267 4:0.408592 5:0.426943 6:0.426943 7:0.472354 8:0.418033 9:0.662253 
1 1:0.467292 2:0.53039 3:0.201694 4:0.525877 5:0.53039 6:0.53039 7:0.447077 8:0.368852 9:0.755559 
1 1:0.468069 2:0.531276 3:0.201713 4:0.523131 5:0.531276 6:0.531276 7:0.447077 8:0.368852 9:0.755638 
1 1:0.469135 2:0.532598 3:0.201737 4:0.520449 5:0.532598 6:0.532598 7:0.447077 8:0.360656 9:0.755598 
1 1:0.470396 2:0.53381 3:0.201741 4:0.517788 5:0.53381 6:0.53381 7:0.447077 8:0.360656 9:0.753988 
1 1:0.47133 2:0.533129 3:0.201735 4:0.51511 5:0.533129 6:0.533129 7:0.447077 8:0.368852 9:0.752652 
1 1:0.471946 2:0.527555 3:0.201701 4:0.512526 5:0.527555 6:0.527555 7:0.448657 8:0.368852 9:0.751827 
1 1:0.472275 2:0.514003 3:0.201662 4:0.510163 5:0.514003 6:0.514003 7:0.451817 8:0.377049 9:0.751355 
1 1:0.472409 2:0.49055 3:0.201544 4:0.508364 5:0.49055 6:0.49055 7:0.456556 8:0.377049 9:0.751748 
1 1:0.472563 2:0.45689 3:0.201416 4:0.507634 5:0.45689 6:0.45689 7:0.466035 8:0.377049 9:0.75222 
1 1:0.473055 2:0.414307 3:0.201277 4:0.508509 5:0.414307 6:0.414307 7:0.478673 8:0.377049 9:0.752927 
1 1:0.473976 2:0.365088 3:0.201241 4:0.511543 5:0.365088 6:0.365088 7:0.496051 8:0.377049 9:0.754341 
1 1:0.474978 2:0.312017 3:0.201211 4:0.517446 5:0.312017 6:0.312017 7:0.518167 8:0.377049 9:0.756266 
1 1:0.475545 2:0.257952 3:0.201191 4:0.526919 5:0.257952 6:0.257952 7:0.546603 8:0.377049 9:0.759173 
1 1:0.475448 2:0.205745 3:0.201116 4:0.540884 5:0.205745 6:0.205745 7:0.579779 8:0.377049 9:0.763259 
0.7620794138982419 1:0.436742 2:0.002221 3:0.201373 4:1 5:0.002221 6:0.002221 7:1 8:0.303279 9:0.85849 
0.2904472175277463 1:0.447251 2:0.716017 3:0.200392 4:0.439606 5:0.716017 6:0.716017 7:0.494471 8:0.442623 9:0.408973 
1 1:0.448312 2:0.665416 3:0.200682 4:0.44352 5:0.665416 6:0.665416 7:0.491311 8:0.442623 9:0.373262 
1 1:0.450548 2:0.62126 3:0.200992 4:0.446883 5:0.62126 6:0.62126 7:0.488152 8:0.434426 9:0.347293 
1 1:0.453964 2:0.583958 3:0.201331 4:0.449733 5:0.583958 6:0.583958 7:0.483412 8:0.42623 9:0.329968 
1 1:0.458231 2:0.553336 3:0.20167 4:0.452109 5:0.553336 6:0.553336 7:0.480253 8:0.42623 9:0.319596 
1 1:0.510473 2:0.513807 3:0.201537 4:0.397189 5:0.513807 6:0.513807 7:0.467615 8:0.442623 9:0.731437 
1 1:0.511642 2:0.513623 3:0.201867 4:0.397771 5:0.513623 6:0.513623 7:0.472354 8:0.401639 9:0.735523 
1 1:0.510968 2:0.514115 3:0.202546 4:0.398934 5:0.514115 6:0.514115 7:0.475513 8:0.377049 9:0.745973 
0.9273310480132618 1:0.507141 2:0.515236 3:0.204189 4:0.400643 5:0.515236 6:0.515236 7:0.480253 8:0.319672 9:0.759645 
1 1:0.486295 2:0.518431 3:0.169181 4:0.409057 5:0.518431 6:0.518431 7:0.492891 8:0.336066 9:0.782627 
1 1:0.480869 2:0.518635 3:0.148704 4:0.413773 5:0.518635 6:0.518635 7:0.505529 8:0.368852 9:0.786674 
1 1:0.479354 2:0.520044 3:0.127071 4:0.42065 5:0.520044 6:0.520044 7:0.522907 8:0.409836 9:0.790249 
1 1:0.480878 2:0.524548 3:0.105688 4:0.430281 5:0.524548 6:0.524548 7:0.543444 8:0.467213 9:0.792488 
1 1:0.482127 2:0.533861 3:0.085513 4:0.443091 5:0.533861 6:0.533861 7:0.567141 8:0.52459 9:0.793078 
1 1:0.478877 2:0.549025 3:0.067311 4:0.459743 5:0.549025 6:0.549025 7:0.595577 8:0.598361 9:0.792606 
1 1:0.467218 2:0.570432 3:0.051403 4:0.480377 5:0.570432 6:0.570432 7:0.622433 8:0.663934 9:0.792567 
1 1:0.444972 2:0.597985 3:0.038005 4:0.504775 5:0.597985 6:0.597985 7:0.64613 8:0.729508 9:0.791546 
1 1:0.41153 2:0.630854 3:0.027044 4:0.532226 5:0.630854 6:0.630854 7:0.665087 8:0.795082 9:0.789581 
1 1:0.36702 2:0.667366 3:0.018318 4:0.56195 5:0.667366 6:0.667366 7:0.677725 8:0.860656 9:0.787656 
1 1:0.31261 2:0.705504 3:0.011613 4:0.592945 5:0.705504 6:0.705504 7:0.680885 8:0.901639 9:0.785653 
1 1:0.250494 2:0.742715 3:0.00664 4:0.622881 5:0.742715 6:0.742715 7:0.660348 8:0.901639 9:0.784592 
0.1963121613607655 1:0.374563 2:0.59754 3:0.004435 4:0.619842 5:0.59754 6:0.59754 7:0.361769 8:0.385246 9:0.765656 
1 1:0.479032 2:0.56749 3:0.005624 4:0.605052 5:0.56749 6:0.56749 7:0.366509 8:0.352459 9:0.761059 
1 1:0.584532 2:0.547138 3:0.00814 4:0.591493 5:0.547138 6:0.547138 7:0.377567 8:0.327869 9:0.75772 
1 1:0.687034 2:0.537363 3:0.01011 4:0.579891 5:0.537363 6:0.537363 7:0.393365 8:0.311475 9:0.754223 
1 1:0.782256 2:0.538291 3:0.011631 4:0.570477 5:0.538291 6:0.538291 7:0.409163 8:0.295082 9:0.750766 
1 1:0.864555 2:0.548919 3:0.012581 4:0.563469 5:0.548919 6:0.548919 7:0.42654 8:0.295082 9:0.748723 
1 1:0.929064 2:0.56729 3:0.013087 4:0.558609 5:0.56729 6:0.56729 7:0.436019 8:0.295082 9:0.74617 
1 1:0.973305 2:0.591087 3:0.013192 4:0.554379 5:0.591087 6:0.591087 7:0.436019 8:0.311475 9:0.743066 
1 1:0.99685 2:0.617417 3:0.012977 4:0.549699 5:0.617417 6:0.617417 7:0.43128 8:0.336066 9:0.739569 
1 1:1 2:0.642708 3:0.012595 4:0.544383 5:0.642708 6:0.642708 7:0.42654 8:0.368852 9:0.736741 
0.1802942297230431 1:0.983936 2:0.663847 3:0.012035 4:0.538512 5:0.663847 6:0.663847 7:0.423381 8:0.385246 9:0.734069 
0.02210020405797611 1:0.951398 2:0.678993 3:0.011426 4:0.532316 5:0.678993 6:0.678993 7:0.423381 8:0.401639 9:0.732184 
0.2210077293589149 1:0.801516 2:0.688804 3:0.011407 4:0.514884 5:0.688804 6:0.688804 7:0.4297 8:0.393443 9:0.731791 
0.02037242900579356 1:0.919558 2:0.545464 3:0.392532 4:0.289337 5:0.545464 6:0.545464 7:0.447077 8:0.868852 9:0.819125 
1 1:0.889951 2:0.536998 3:0.397949 4:0.287272 5:0.536998 6:0.536998 7:0.456556 8:0.901639 9:0.803214 
1 1:0.848652 2:0.53182 3:0.401813 4:0.286478 5:0.53182 6:0.53182 7:0.464455 8:0.934426 9:0.788442 
1 1:0.800224 2:0.530412 3:0.404383 4:0.287042 5:0.530412 6:0.530412 7:0.473934 8:0.959016 9:0.775045 
1 1:0.74868 2:0.532932 3:0.405955 4:0.288981 5:0.532932 6:0.532932 7:0.484992 8:0.97541 9:0.762081 
1 1:0.697503 2:0.539165 3:0.406755 4:0.292281 5:0.539165 6:0.539165 7:0.492891 8:0.983607 9:0.750805 
1 1:0.649222 2:0.548417 3:0.406945 4:0.296827 5:0.548417 6:0.548417 7:0.50237 8:0.991803 9:0.740591 
1 1:0.604848 2:0.559691 3:0.406698 4:0.302558 5:0.559691 6:0.559691 7:0.510269 8:1 9:0.73238 
0.6095277336340471 1:0.564132 2:0.572021 3:0.406182 4:0.309416 5:0.572021 6:0.572021 7:0.516588 8:1 9:0.726173 
0.7588304331234547 1:0.248227 2:0.664903 3:0.397471 4:0.414977 5:0.664903 6:0.664903 7:0.549763 8:0.795082 9:0.716469 
1 1:0.228495 2:0.670727 3:0.396715 4:0.426877 5:0.670727 6:0.670727 7:0.548183 8:0.762295 9:0.71474 
1 1:0.210547 2:0.675094 3:0.396398 4:0.438456 5:0.675094 6:0.675094 7:0.545024 8:0.729508 9:0.712383 
1 1:0.191774 2:0.677217 3:0.396527 4:0.449634 5:0.677217 6:0.677217 7:0.541864 8:0.688525 9:0.709594 
0.344580943369142 1:0.170691 2:0.67651 3:0.396962 4:0.460316 5:0.67651 6:0.67651 7:0.538705 8:0.639344 9:0.706254 
-1 1:0.398333 2:0.453341 3:0.202984 4:0.055682 5:0.453341 6:0.453341 7:0.548183 8:0.442623 9:0.745345 
-1 1:0.414446 2:0.460828 3:0.202902 4:0.067947 5:0.460828 6:0.460828 7:0.552923 8:0.442623 9:0.75383 
-1 1:0.429851 2:0.466516 3:0.202799 4:0.080901 5:0.466516 6:0.466516 7:0.557662 8:0.434426 9:0.758702 
-1 1:0.444781 2:0.470665 3:0.202653 4:0.094433 5:0.470665 6:0.470665 7:0.560821 8:0.434426 9:0.761059 
-1 1:0.459545 2:0.473645 3:0.202485 4:0.108438 5:0.473645 6:0.473645 7:0.563981 8:0.434426 9:0.761727 
-1 1:0.474184 2:0.475739 3:0.202311 4:0.122822 5:0.475739 6:0.475739 7:0.567141 8:0.434426 9:0.76047 
-1 1:0.488569 2:0.477284 3:0.20217 4:0.137661 5:0.477284 6:0.477284 7:0.5703 8:0.42623 9:0.75772 
-1 1:0.502938 2:0.478883 3:0.202032 4:0.153006 5:0.478883 6:0.478883 7:0.57346 8:0.42623 9:0.75387 
-1 1:0.517447 2:0.481281 3:0.201895 4:0.168778 5:0.481281 6:0.481281 7:0.576619 8:0.434426 9:0.749273 
-1 1:0.531813 2:0.484913 3:0.201716 4:0.184822 5:0.484913 6:0.484913 7:0.578199 8:0.434426 9:0.744127 
-1 1:0.545436 2:0.489778 3:0.201565 4:0.201018 5:0.489778 6:0.489778 7:0.578199 8:0.442623 9:0.738509 
-1 1:0.55787 2:0.4957 3:0.201432 4:0.217269 5:0.4957 6:0.4957 7:0.578199 8:0.45082 9:0.733244 
-1 1:0.568838 2:0.502389 3:0.201298 4:0.233452 5:0.502389 6:0.502389 7:0.578199 8:0.459016 9:0.728923 
-1 1:0.57822 2:0.509544 3:0.201177 4:0.249463 5:0.509544 6:0.509544 7:0.576619 8:0.467213 9:0.72578 
-1 1:0.586201 2:0.516952 3:0.201093 4:0.265218 5:0.516952 6:0.516952 7:0.57346 8:0.47541 9:0.723148 
-1 1:0.593376 2:0.524481 3:0.201032 4:0.28063 5:0.524481 6:0.524481 7:0.57188 8:0.483607 9:0.721262 
-1 1:0.599985 2:0.53196 3:0.20103 4:0.295555 5:0.53196 6:0.53196 7:0.567141 8:0.5 9:0.72028 
-1 1:0.605703 2:0.539096 3:0.201062 4:0.309835 5:0.539096 6:0.539096 7:0.562401 8:0.516393 9:0.719848 
-1 1:0.609847 2:0.545419 3:0.201128 4:0.32334 5:0.545419 6:0.545419 7:0.556082 8:0.52459 9:0.720044 
-1 1:0.611993 2:0.550489 3:0.201203 4:0.335965 5:0.550489 6:0.550489 7:0.549763 8:0.540984 9:0.720633 
-1 1:0.611606 2:0.554038 3:0.201273 4:0.347689 5:0.554038 6:0.554038 7:0.543444 8:0.557377 9:0.721498 
-1 1:0.60843 2:0.556082 3:0.201314 4:0.358515 5:0.556082 6:0.556082 7:0.537125 8:0.57377 9:0.722205 
-1 1:0.602583 2:0.556892 3:0.201311 4:0.368462 5:0.556892 6:0.556892 7:0.532385 8:0.581967 9:0.723383 
-1 1:0.594544 2:0.556723 3:0.201289 4:0.377525 5:0.556723 6:0.556723 7:0.526066 8:0.590164 9:0.725308 
-1 1:0.584736 2:0.555682 3:0.201276 4:0.385732 5:0.555682 6:0.555682 7:0.519747 8:0.598361 9:0.727037 
-1 1:0.573652 2:0.553904 3:0.20125 4:0.393104 5:0.553904 6:0.553904 7:0.513428 8:0.606557 9:0.728373 
-1 1:0.561714 2:0.551506 3:0.201273 4:0.399656 5:0.551506 6:0.551506 7:0.508689 8:0.614754 9:0.729551 
-1 1:0.549406 2:0.548536 3:0.201246 4:0.405427 5:0.548536 6:0.548536 7:0.503949 8:0.614754 9:0.730573 
-1 1:0.536985 2:0.544994 3:0.201263 4:0.410531 5:0.544994 6:0.544994 7:0.49921 8:0.614754 9:0.731791 
-1 1:0.524923 2:0.541082 3:0.201297 4:0.415058 5:0.541082 6:0.541082 7:0.496051 8:0.614754 9:0.733087 
-1 1:0.513774 2:0.537143 3:0.201408 4:0.419099 5:0.537143 6:0.537143 7:0.492891 8:0.614754 9:0.734148 
-1 1:0.503864 2:0.533388 3:0.201523 4:0.422697 5:0.533388 6:0.533388 7:0.489731 8:0.606557 9:0.734934 
-1 1:0.49476 2:0.529916 3:0.201648 4:0.425889 5:0.529916 6:0.529916 7:0.486572 8:0.606557 9:0.735326 
-1 1:0.486126 2:0.526759 3:0.201782 4:0.428712 5:0.526759 6:0.526759 7:0.484992 8:0.606557 9:0.735877 
-1 1:0.478334 2:0.523952 3:0.20192 4:0.431255 5:0.523952 6:0.523952 7:0.483412 8:0.598361 9:0.736977 
-1 1:0.472273 2:0.521622 3:0.20204 4:0.433541 5:0.521622 6:0.521622 7:0.480253 8:0.590164 9:0.738587 
-1 1:0.468486 2:0.519763 3:0.202136 4:0.435606 5:0.519763 6:0.519763 7:0.480253 8:0.581967 9:0.740709 
-1 1:0.467023 2:0.51823 3:0.202195 4:0.437482 5:0.51823 6:0.51823 7:0.478673 8:0.57377 9:0.743537 
-1 1:0.467594 2:0.516818 3:0.202254 4:0.439204 5:0.516818 6:0.516818 7:0.477093 8:0.57377 9:0.746012 
-1 1:0.469906 2:0.515307 3:0.202274 4:0.44081 5:0.515307 6:0.515307 7:0.477093 8:0.565574 9:0.74837 
-1 1:0.473305 2:0.513547 3:0.20231 4:0.442343 5:0.513547 6:0.513547 7:0.477093 8:0.565574 9:0.75108 
-1 1:0.476942 2:0.511433 3:0.202309 4:0.443831 5:0.511433 6:0.511433 7:0.477093 8:0.557377 9:0.753713 
-1 1:0.480075 2:0.509025 3:0.202294 4:0.445364 5:0.509025 6:0.509025 7:0.477093 8:0.54918 9:0.756541 
-1 1:0.482498 2:0.506626 3:0.20228 4:0.447046 5:0.506626 6:0.506626 7:0.478673 8:0.540984 9:0.75937 
-1 1:0.484442 2:0.50456 3:0.202271 4:0.448962 5:0.50456 6:0.50456 7:0.480253 8:0.532787 9:0.761727 
-1 1:0.486431 2:0.502992 3:0.20229 4:0.451081 5:0.502992 6:0.502992 7:0.481833 8:0.52459 9:0.763259 
-1 1:0.48904 2:0.501985 3:0.202301 4:0.453372 5:0.501985 6:0.501985 7:0.481833 8:0.516393 9:0.76432 
-1 1:0.492417 2:0.501502 3:0.202339 4:0.455798 5:0.501502 6:0.501502 7:0.483412 8:0.508197 9:0.765224 
-1 1:0.496104 2:0.501482 3:0.202384 4:0.458341 5:0.501482 6:0.501482 7:0.483412 8:0.5 9:0.765341 
-1 1:0.499386 2:0.501745 3:0.202421 4:0.461073 5:0.501745 6:0.501745 7:0.486572 8:0.491803 9:0.765106 
-1 1:0.501738 2:0.502301 3:0.202451 4:0.464094 5:0.502301 6:0.502301 7:0.488152 8:0.491803 9:0.764674 
-1 1:0.503057 2:0.503301 3:0.202509 4:0.46744 5:0.503301 6:0.503301 7:0.489731 8:0.483607 9:0.763849 
-1 1:0.503647 2:0.504854 3:0.202582 4:0.471083 5:0.504854 6:0.504854 7:0.491311 8:0.47541 9:0.763023 
-1 1:0.504309 2:0.506825 3:0.20268 4:0.47493 5:0.506825 6:0.506825 7:0.492891 8:0.467213 9:0.762002 
-1 1:0.50624 2:0.509014 3:0.202786 4:0.47892 5:0.509014 6:0.509014 7:0.494471 8:0.459016 9:0.760509 
-1 1:0.5102 2:0.511308 3:0.202806 4:0.482996 5:0.511308 6:0.511308 7:0.494471 8:0.45082 9:0.758309 
-1 1:0.516325 2:0.513684 3:0.202794 4:0.487095 5:0.513684 6:0.513684 7:0.494471 8:0.442623 9:0.75603 
-1 1:0.524395 2:0.515945 3:0.202716 4:0.491153 5:0.515945 6:0.515945 7:0.494471 8:0.434426 9:0.753516 
-1 1:0.534149 2:0.517858 3:0.202707 4:0.495144 5:0.517858 6:0.517858 7:0.492891 8:0.434426 9:0.750805 
-1 1:0.545099 2:0.519287 3:0.202651 4:0.499076 5:0.519287 6:0.519287 7:0.492891 8:0.434426 9:0.747859 
-1 1:0.556383 2:0.520291 3:0.20257 4:0.502976 5:0.520291 6:0.520291 7:0.492891 8:0.434426 9:0.745109 
-1 1:0.567303 2:0.520943 3:0.202458 4:0.506858 5:0.520943 6:0.520943 7:0.492891 8:0.442623 9:0.74283 
-1 1:0.577277 2:0.521314 3:0.202349 4:0.510745 5:0.521314 6:0.521314 7:0.492891 8:0.442623 9:0.740787 
-1 1:0.585583 2:0.521497 3:0.202235 4:0.514695 5:0.521497 6:0.521497 7:0.494471 8:0.45082 9:0.738823 
-1 1:0.591546 2:0.521804 3:0.20213 4:0.518749 5:0.521804 6:0.521804 7:0.494471 8:0.459016 9:0.73678 
-1 1:0.594584 2:0.522431 3:0.202003 4:0.52287 5:0.522431 6:0.522431 7:0.494471 8:0.459016 9:0.734698 
-1 1:0.594166 2:0.523471 3:0.20185 4:0.527 5:0.523471 6:0.523471 7:0.494471 8:0.467213 9:0.732498 
-1 1:0.590221 2:0.524867 3:0.201708 4:0.531121 5:0.524867 6:0.524867 7:0.494471 8:0.47541 9:0.730808 
-1 1:0.583354 2:0.526554 3:0.201536 4:0.535216 5:0.526554 6:0.526554 7:0.494471 8:0.47541 9:0.729276 
-1 1:0.57473 2:0.528497 3:0.201458 4:0.539251 5:0.528497 6:0.528497 7:0.492891 8:0.47541 9:0.727469 
-1 1:0.565583 2:0.530673 3:0.201369 4:0.543161 5:0.530673 6:0.530673 7:0.492891 8:0.47541 9:0.725701 
-1 1:0.557209 2:0.532901 3:0.201279 4:0.546863 5:0.532901 6:0.532901 7:0.491311 8:0.47541 9:0.724326 
-1 1:0.550766 2:0.534923 3:0.201228 4:0.550308 5:0.534923 6:0.534923 7:0.489731 8:0.47541 9:0.723226 
-1 1:0.5468 2:0.536532 3:0.201186 4:0.553541 5:0.536532 6:0.536532 7:0.488152 8:0.47541 9:0.722951 
-1 1:0.544731 2:0.537804 3:0.201159 4:0.556544 5:0.537804 6:0.537804 7:0.486572 8:0.483607 9:0.72303 
-1 1:0.543966 2:0.538871 3:0.201224 4:0.559285 5:0.538871 6:0.538871 7:0.484992 8:0.483607 9:0.723816 
-1 1:0.543719 2:0.539779 3:0.201314 4:0.561788 5:0.539779 6:0.539779 7:0.481833 8:0.491803 9:0.724405 
-1 1:0.543276 2:0.540444 3:0.201376 4:0.564029 5:0.540444 6:0.540444 7:0.480253 8:0.5 9:0.725308 
-1 1:0.541734 2:0.540801 3:0.201396 4:0.565977 5:0.540801 6:0.540801 7:0.478673 8:0.508197 9:0.726605 
-1 1:0.53839 2:0.540855 3:0.20141 4:0.56764 5:0.540855 6:0.540855 7:0.477093 8:0.516393 9:0.72798 
-1 1:0.533021 2:0.5407 3:0.201493 4:0.56907 5:0.5407 6:0.5407 7:0.475513 8:0.516393 9:0.729198 
-1 1:0.525588 2:0.540526 3:0.201592 4:0.570332 5:0.540526 6:0.540526 7:0.473934 8:0.52459 9:0.730612 
-1 1:0.515708 2:0.540507 3:0.201718 4:0.57146 5:0.540507 6:0.540507 7:0.473934 8:0.52459 9:0.732262 
-1 1:0.50334 2:0.540748 3:0.201786 4:0.572461 5:0.540748 6:0.540748 7:0.472354 8:0.52459 9:0.733951 
-1 1:0.489361 2:0.541246 3:0.201874 4:0.573313 5:0.541246 6:0.541246 7:0.470774 8:0.52459 9:0.73568 
-1 1:0.475125 2:0.541896 3:0.201956 4:0.573935 5:0.541896 6:0.541896 7:0.469194 8:0.516393 9:0.737173 
-1 1:0.46171 2:0.542534 3:0.202064 4:0.57426 5:0.542534 6:0.542534 7:0.467615 8:0.508197 9:0.73843 
-1 1:0.449673 2:0.543006 3:0.202154 4:0.574278 5:0.543006 6:0.543006 7:0.466035 8:0.5 9:0.739491 
-1 1:0.439237 2:0.543167 3:0.202194 4:0.574093 5:0.543167 6:0.543167 7:0.464455 8:0.491803 9:0.740669 
-1 1:0.430668 2:0.543171 3:0.202208 4:0.573723 5:0.543171 6:0.543171 7:0.462875 8:0.483607 9:0.742398 
-1 1:0.424123 2:0.543258 3:0.202222 4:0.573173 5:0.543258 6:0.543258 7:0.461295 8:0.47541 9:0.744048 
-1 1:0.419744 2:0.54358 3:0.202205 4:0.572474 5:0.54358 6:0.54358 7:0.461295 8:0.459016 9:0.745895 
-1 1:0.417449 2:0.544107 3:0.202143 4:0.571622 5:0.544107 6:0.544107 7:0.459716 8:0.45082 9:0.747898 
-1 1:0.417131 2:0.544832 3:0.202068 4:0.570576 5:0.544832 6:0.544832 7:0.458136 8:0.442623 9:0.749273 
-1 1:0.418867 2:0.545714 3:0.202014 4:0.569282 5:0.545714 6:0.545714 7:0.456556 8:0.42623 9:0.750766 
-1 1:0.422896 2:0.546653 3:0.201984 4:0.567685 5:0.546653 6:0.546653 7:0.453397 8:0.418033 9:0.752063 
-1 1:0.429164 2:0.547447 3:0.201948 4:0.565765 5:0.547447 6:0.547447 7:0.451817 8:0.418033 9:0.753516 
-1 1:0.436722 2:0.547807 3:0.201921 4:0.563546 5:0.547807 6:0.547807 7:0.450237 8:0.409836 9:0.754616 
-1 1:0.444428 2:0.547487 3:0.201867 4:0.561066 5:0.547487 6:0.547487 7:0.448657 8:0.409836 9:0.755598 
-1 1:0.451202 2:0.546436 3:0.201852 4:0.558433 5:0.546436 6:0.546436 7:0.447077 8:0.409836 9:0.756934 
-1 1:0.456513 2:0.544869 3:0.201839 4:0.55566 5:0.544869 6:0.544869 7:0.447077 8:0.409836 9:0.758702 
-1 1:0.460345 2:0.542943 3:0.201839 4:0.552747 5:0.542943 6:0.542943 7:0.445498 8:0.409836 9:0.759763 
-1 1:0.46274 2:0.540706 3:0.201837 4:0.549721 5:0.540706 6:0.540706 7:0.445498 8:0.409836 9:0.759331 
-1 1:0.46358 2:0.538212 3:0.201796 4:0.546637 5:0.538212 6:0.538212 7:0.443918 8:0.401639 9:0.759291 
-1 1:0.463321 2:0.53571 3:0.201723 4:0.543557 5:0.53571 6:0.53571 7:0.445498 8:0.393443 9:0.759173 
-1 1:0.462844 2:0.533558 3:0.201713 4:0.540545 5:0.533558 6:0.533558 7:0.445498 8:0.393443 9:0.758466 
-1 1:0.463052 2:0.531997 3:0.201755 4:0.537533 5:0.531997 6:0.531997 7:0.445498 8:0.385246 9:0.757563 
-1 1:0.463978 2:0.530964 3:0.201787 4:0.534521 5:0.530964 6:0.530964 7:0.445498 8:0.385246 9:0.756973 
-1 1:0.465239 2:0.530303 3:0.201756 4:0.531532 5:0.530303 6:0.530303 7:0.445498 8:0.377049 9:0.756502 
-1 1:0.466426 2:0.53006 3:0.201696 4:0.528669 5:0.53006 6:0.53006 7:0.447077 8:0.377049 9:0.755873 
-1 1:0.462764 2:0.528943 3:0.201953 4:0.454021 5:0.528943 6:0.528943 7:0.477093 8:0.42623 9:0.315275 
-1 1:0.466625 2:0.510244 3:0.202152 4:0.455487 5:0.510244 6:0.510244 7:0.473934 8:0.42623 9:0.3161 
-1 1:0.468905 2:0.496478 3:0.202214 4:0.456483 5:0.496478 6:0.496478 7:0.470774 8:0.42623 9:0.320696 
-1 1:0.461243 2:0.488765 3:0.202173 4:0.450387 5:0.488765 6:0.488765 7:0 8:0.516393 9:0.317278 
-1 1:0.38784 2:0.507302 3:0.201498 4:0.397108 5:0.507302 6:0.507302 7:0.466035 8:0.442623 9:0.731476 
-1 1:0.36917 2:0.513242 3:0.201504 4:0.397004 5:0.513242 6:0.513242 7:0.466035 8:0.442623 9:0.731162 
-1 1:0.326809 2:0.500795 3:0.201534 4:0.397058 5:0.500795 6:0.500795 7:0.466035 8:0.434426 9:0.731476 
-1 1:0.448617 2:0.484577 3:0.201528 4:0.39709 5:0.484577 6:0.484577 7:0.467615 8:0.442623 9:0.730219 
-1 1:0.472289 2:0.491545 3:0.201498 4:0.397126 5:0.491545 6:0.491545 7:0.466035 8:0.45082 9:0.732419 
-1 1:0.499128 2:0.509315 3:0.201503 4:0.397162 5:0.509315 6:0.509315 7:0.466035 8:0.442623 9:0.73128 
