svm_type c_svc
kernel_type rbf
gamma 67
nr_class 2
total_sv 149
rho -0.939194
label 0 1
nr_sv 117 32
SV
1 1:0.661516 2:0.42939 3:0.200431 4:0.063048 5:0.42939 6:0.42939 7:0.897324 8:0.169769 9:0.686272 
1 1:0.661515 2:0.429387 3:0.200446 4:0.06305 5:0.429387 6:0.429387 7:0.897324 8:0.169769 9:0.686272 
1 1:0.661531 2:0.429347 3:0.20052 4:0.06305 5:0.429347 6:0.429347 7:0.897324 8:0.169769 9:0.686272 
1 1:0.661589 2:0.429224 3:0.200726 4:0.063043 5:0.429224 6:0.429224 7:0.897324 8:0.169769 9:0.686272 
1 1:0.661763 2:0.429004 3:0.201072 4:0.06303 5:0.429004 6:0.429004 7:0.897324 8:0.169769 9:0.686272 
1 1:0.662085 2:0.428761 3:0.201299 4:0.063019 5:0.428761 6:0.428761 7:0.897324 8:0.169769 9:0.686272 
1 1:0.662463 2:0.428577 3:0.201373 4:0.063006 5:0.428577 6:0.428577 7:0.897324 8:0.169769 9:0.686272 
1 1:0.662889 2:0.428413 3:0.201374 4:0.062997 5:0.428413 6:0.428413 7:0.897324 8:0.169769 9:0.686241 
1 1:0.66338 2:0.428216 3:0.201363 4:0.062993 5:0.428216 6:0.428216 7:0.897324 8:0.169769 9:0.686241 
0.7469184085949183 1:0.663885 2:0.428011 3:0.201328 4:0.062986 5:0.428011 6:0.428011 7:0.897324 8:0.169769 9:0.686241 
0.4476089697299746 1:0.665602 2:0.427565 3:0.200881 4:0.063023 5:0.427565 6:0.427565 7:0.897324 8:0.169769 9:0.686272 
1 1:0.665846 2:0.427592 3:0.200775 4:0.063039 5:0.427592 6:0.427592 7:0.897324 8:0.169769 9:0.686272 
1 1:0.666065 2:0.427684 3:0.200666 4:0.06305 5:0.427684 6:0.427684 7:0.897324 8:0.169769 9:0.686272 
1 1:0.66624 2:0.427741 3:0.2002 4:0.063048 5:0.427741 6:0.427741 7:0.897324 8:0.169769 9:0.686272 
1 1:0.666534 2:0.427443 3:0.199362 4:0.063032 5:0.427443 6:0.427443 7:0.897324 8:0.169769 9:0.686272 
0.05914571530237728 1:0.645799 2:0.384435 3:0.649652 4:0.0635 5:0.384435 6:0.384435 7:0.897977 8:0.168641 9:0.63739 
0.05049465060182181 1:0.642425 2:0.392531 3:0.866406 4:0.063564 5:0.392531 6:0.392531 7:0.896672 8:0.170333 9:0.572706 
0.01032158829837518 1:0.641237 2:0.405537 3:0.973992 4:0.06265 5:0.405537 6:0.405537 7:0.894279 8:0.172025 9:0.514041 
0.03668571665542206 1:0.641793 2:0.421752 3:1 4:0.060028 5:0.421752 6:0.421752 7:0.890146 8:0.168641 9:0.461187 
0.005776924692209916 1:0.643375 2:0.438102 3:0.968584 4:0.055181 5:0.438102 6:0.438102 7:0.885795 8:0.164693 9:0.411372 
0.02847270070062087 1:0.646953 2:0.451759 3:0.899885 4:0.04827 5:0.451759 6:0.451759 7:0.88188 8:0.164693 9:0.364266 
0.03589546318922005 1:0.6512 2:0.459405 3:0.810033 4:0.039808 5:0.459405 6:0.459405 7:0.880357 8:0.166385 9:0.319748 
0.04226374122081811 1:0.652312 2:0.455339 3:0.711252 4:0.031695 5:0.455339 6:0.455339 7:0.88275 8:0.166949 9:0.205279 
0.03526830790440962 1:0.650704 2:0.442552 3:0.612151 4:0.025015 5:0.442552 6:0.442552 7:0.886013 8:0.166385 9:0.112693 
0.02892675693410035 1:0.648032 2:0.427108 3:0.518924 4:0.020115 5:0.427108 6:0.427108 7:0.889493 8:0.165257 9:0.049965 
0.02780756754818968 1:0.645509 2:0.414072 3:0.435447 4:0.017058 5:0.414072 6:0.414072 7:0.892974 8:0.163565 9:0.013455 
0.001538004147418304 1:0.643974 2:0.406764 3:0.363778 4:0.015626 5:0.406764 6:0.406764 7:0.896019 8:0.162437 9:0 
0.04388663208081377 1:0.643975 2:0.406246 3:0.304595 4:0.015507 5:0.406246 6:0.406246 7:0.898194 8:0.160744 9:0.006231 
1 1:0.659877 2:0.46039 3:0.167707 4:0.025499 5:0.46039 6:0.46039 7:0.90298 8:0.163565 9:0.225145 
1 1:0.664225 2:0.45207 3:0.202329 4:0.10872 5:0.45207 6:0.45207 7:0.897977 8:0.174845 9:0.680432 
1 1:0.665129 2:0.453719 3:0.202767 4:0.108964 5:0.453719 6:0.453719 7:0.897759 8:0.174845 9:0.681636 
1 1:0.663591 2:0.453864 3:0.20313 4:0.109149 5:0.453864 6:0.453864 7:0.897542 8:0.174281 9:0.683201 
1 1:0.659178 2:0.452404 3:0.203396 4:0.1093 5:0.452404 6:0.452404 7:0.897542 8:0.173717 9:0.684706 
1 1:0.651836 2:0.449815 3:0.203575 4:0.109439 5:0.449815 6:0.449815 7:0.897542 8:0.173153 9:0.686603 
1 1:0.641503 2:0.446739 3:0.203617 4:0.109566 5:0.446739 6:0.446739 7:0.897542 8:0.171461 9:0.68874 
1 1:0.628837 2:0.443581 3:0.203581 4:0.109698 5:0.443581 6:0.443581 7:0.897542 8:0.169205 9:0.690907 
1 1:0.616783 2:0.440658 3:0.20303 4:0.109837 5:0.440658 6:0.440658 7:0.897542 8:0.166949 9:0.693104 
1 1:0.613135 2:0.438344 3:0.201767 4:0.11001 5:0.438344 6:0.438344 7:0.897759 8:0.166949 9:0.690516 
1 1:0.617168 2:0.436048 3:0.200666 4:0.110256 5:0.436048 6:0.436048 7:0.897977 8:0.166385 9:0.688017 
1 1:0.625457 2:0.432073 3:0.19982 4:0.110621 5:0.432073 6:0.432073 7:0.898194 8:0.166949 9:0.686332 
0.04656304351726874 1:0.684653 2:0.243404 3:0.200034 4:0.123792 5:0.243404 6:0.243404 7:0.910594 8:0.170333 9:0.691659 
0.007430865812550163 1:0.688927 2:0.196828 3:0.20039 4:0.13325 5:0.196828 6:0.196828 7:0.921035 8:0.171461 9:0.700689 
0.02996402642744229 1:0.692994 2:0.151108 3:0.20072 4:0.148269 5:0.151108 6:0.151108 7:0.932347 8:0.172025 9:0.711615 
0.02121010487704678 1:0.696991 2:0.109051 3:0.201028 4:0.169164 5:0.109051 6:0.109051 7:0.943876 8:0.173153 9:0.723384 
0.01184933659977419 1:0.700833 2:0.072494 3:0.201189 4:0.195856 5:0.072494 6:0.072494 7:0.955188 8:0.173717 9:0.735996 
0.02896271906680925 1:0.704235 2:0.042378 3:0.201126 4:0.228177 5:0.042378 6:0.042378 7:0.96563 8:0.174281 9:0.74924 
0.02706018397873212 1:0.705808 2:0.004579 3:0.20073 4:0.307323 5:0.004579 6:0.004579 7:0.982597 8:0.176537 9:0.778708 
0.003166313377957467 1:0.700198 2:0 3:0.200465 4:0.352585 5:0 6:0 7:0.988906 8:0.177101 9:0.79463 
0.02432139089001392 1:0.687649 2:0.007401 3:0.200028 4:0.400855 5:0.007401 6:0.007401 7:0.994562 8:0.177101 9:0.811004 
0.01808629526853788 1:0.665313 2:0.029285 3:0.199427 4:0.451887 5:0.029285 6:0.029285 7:0.998912 8:0.170333 9:0.82768 
0.0337269225610066 1:0.62713 2:0.07098 3:0.19891 4:0.504128 5:0.07098 6:0.07098 7:1 8:0.153412 9:0.842669 
0.03625665975958078 1:0.57611 2:0.126778 3:0.198839 4:0.556599 5:0.126778 6:0.126778 7:0.999782 8:0.135928 9:0.858502 
0.03826040806377025 1:0.517669 2:0.188722 3:0.199009 4:0.608708 5:0.188722 6:0.188722 7:0.998477 8:0.119007 9:0.875207 
0.0374407354692048 1:0.456232 2:0.250877 3:0.19934 4:0.659881 5:0.250877 6:0.250877 7:0.996084 8:0.101523 9:0.892243 
0.03576976610873983 1:0.395157 2:0.309064 3:0.199861 4:0.709485 5:0.309064 6:0.309064 7:0.992386 8:0.084602 9:0.90937 
0.03039090716054927 1:0.336985 2:0.360632 3:0.200381 4:0.757004 5:0.360632 6:0.360632 7:0.987818 8:0.06881 9:0.925744 
0.02951664320591877 1:0.283296 2:0.404272 3:0.200843 4:0.802013 5:0.404272 6:0.404272 7:0.982815 8:0.054146 9:0.940553 
0.02147884846793359 1:0.234847 2:0.439661 3:0.201383 4:0.844229 5:0.439661 6:0.439661 7:0.976941 8:0.039481 9:0.954188 
0.02141676024163349 1:0.192185 2:0.466851 3:0.201939 4:0.883483 5:0.466851 6:0.466851 7:0.971068 8:0.023689 9:0.965987 
0.01615387556401695 1:0.159401 2:0.490014 3:0.202452 4:0.919112 5:0.490014 6:0.490014 7:0.961279 8:0.00846 9:0.976432 
0.02401165351654891 1:0.152035 2:0.525548 3:0.201487 4:0.947788 5:0.525548 6:0.525548 7:0.945834 8:0 9:0.985823 
0.02651355094276324 1:0.166296 2:0.574703 3:0.190778 4:0.969362 5:0.574703 6:0.574703 7:0.933652 8:0.009024 9:0.992746 
0.03365263757759489 1:0.191831 2:0.633109 3:0.171891 4:0.985027 5:0.633109 6:0.633109 7:0.922341 8:0.024817 9:0.997351 
0.03385743012148904 1:0.224483 2:0.696694 3:0.153012 4:0.995122 5:0.696694 6:0.696694 7:0.911899 8:0.048505 9:0.999819 
0.03510671534924431 1:0.260684 2:0.762343 3:0.138711 4:1 5:0.762343 6:0.762343 7:0.901893 8:0.075014 9:1 
0.03301822622230499 1:0.296972 2:0.827175 3:0.131407 4:0.999673 5:0.827175 6:0.827175 7:0.891451 8:0.100959 9:0.997743 
0.02968877401820751 1:0.330956 2:0.887886 3:0.131836 4:0.994021 5:0.887886 6:0.887886 7:0.881009 8:0.124647 9:0.993137 
0.02894387875545595 1:0.36238 2:0.939962 3:0.138371 4:0.98292 5:0.939962 6:0.939962 7:0.87035 8:0.14608 9:0.986154 
0.00291223192120435 1:0.391328 2:0.979353 3:0.14915 4:0.9664 5:0.979353 6:0.979353 7:0.859691 8:0.164693 9:0.976703 
0.03562863584676785 1:0.420124 2:1 3:0.169377 4:0.944114 5:1 6:1 7:0.846639 8:0.183869 9:0.964513 
0.01489027687285042 1:0.46247 2:0.981255 3:0.19786 4:0.914225 5:0.981255 6:0.981255 7:0.831412 8:0.205302 9:0.943353 
0.04237441322762354 1:0.5193 2:0.927152 3:0.218694 4:0.87706 5:0.927152 6:0.927152 7:0.81836 8:0.22617 9:0.921651 
0.04657682429405914 1:0.58596 2:0.850408 3:0.232527 4:0.833778 5:0.850408 6:0.850408 7:0.807483 8:0.245347 9:0.9004 
0.05070944253788394 1:0.658086 2:0.761661 3:0.240617 4:0.785471 5:0.761661 6:0.761661 7:0.798564 8:0.263959 9:0.879541 
0.05061526243288787 1:0.732041 2:0.669293 3:0.24423 4:0.733228 5:0.669293 6:0.669293 7:0.792038 8:0.28088 9:0.858893 
0.04882720930469509 1:0.804981 2:0.57958 3:0.244396 4:0.678047 5:0.57958 6:0.57958 7:0.787035 8:0.297236 9:0.839268 
0.04653192977121008 1:0.874852 2:0.496885 3:0.242144 4:0.62082 5:0.496885 6:0.496885 7:0.78399 8:0.313029 9:0.820426 
0.03770081631352894 1:0.940198 2:0.423977 3:0.238413 4:0.56237 5:0.423977 6:0.423977 7:0.782249 8:0.328257 9:0.802396 
0.04974742588907485 1:1 2:0.362485 3:0.234022 4:0.503427 5:0.362485 6:0.362485 7:0.782032 8:0.342922 9:0.785209 
0.0608280022614912 1:0.115386 2:0.345797 3:0.20386 4:0.108248 5:0.345797 6:0.345797 7:0 8:1 9:0.660115 
0.05197635576124827 1:0 2:0.347616 3:0.200269 4:0.062309 5:0.347616 6:0.347616 7:0.895367 8:0.174845 9:0.684014 
0.02340586970136209 1:0.119586 2:0.352347 3:0.200219 4:0.050366 5:0.352347 6:0.352347 7:0.890363 8:0.172589 9:0.621979 
0.01917232165622334 1:0.177121 2:0.353946 3:0.20044 4:0.046653 5:0.353946 6:0.353946 7:0.889711 8:0.171461 9:0.60732 
0.01442068540992531 1:0.241866 2:0.355537 3:0.200632 4:0.042566 5:0.355537 6:0.355537 7:0.889058 8:0.170897 9:0.593414 
0.02188099379825417 1:0.310479 2:0.356722 3:0.20077 4:0.038283 5:0.356722 6:0.356722 7:0.888841 8:0.170333 9:0.579899 
0.02684299507096273 1:0.379516 2:0.357802 3:0.201068 4:0.034011 5:0.357802 6:0.357802 7:0.889058 8:0.169769 9:0.566836 
0.006458147543634555 1:0.444985 2:0.360018 3:0.201581 4:0.029959 5:0.360018 6:0.360018 7:0.889711 8:0.168641 9:0.524305 
0.006566492347747148 1:0.609424 2:0.370081 3:0.202186 4:0.019546 5:0.370081 6:0.370081 7:0.891451 8:0.161309 9:0.428318 
0.04240447513960976 1:0.653893 2:0.373018 3:0.202167 4:0.016757 5:0.373018 6:0.373018 7:0.892104 8:0.159052 9:0.409054 
0.1543224109349818 1:0.693466 2:0.375638 3:0.202039 4:0.014287 5:0.375638 6:0.375638 7:0.892756 8:0.156796 9:0.395088 
0.02294496715215446 1:0.849193 2:0.387226 3:0.189309 4:0.007601 5:0.387226 6:0.387226 7:0.89863 8:0.156232 9:0.395449 
0.0273212307183963 1:0.847473 2:0.408364 3:0.115325 4:0.011985 5:0.408364 6:0.408364 7:0.900587 8:0.170333 9:0.435933 
0.04103165804136181 1:0.82216 2:0.408377 3:0.075921 4:0.016531 5:0.408377 6:0.408377 7:0.90298 8:0.178229 9:0.461488 
0.01667938448527897 1:0.768226 2:0.403504 3:0.032135 4:0.029159 5:0.403504 6:0.403504 7:0.907983 8:0.187817 9:0.501671 
0.003155074724657134 1:0.706753 2:0.415402 3:0.009224 4:0.046413 5:0.415402 6:0.415402 7:0.908854 8:0.193457 9:0.540951 
0.02743364094772393 1:0.686652 2:0.421986 3:0.005211 4:0.052452 5:0.421986 6:0.421986 7:0.909506 8:0.194585 9:0.554736 
0.03665998085635932 1:0.59069 2:0.46953 3:0.001069 4:0.098801 5:0.46953 6:0.46953 7:0.912769 8:0.192893 9:0.638985 
0.1163848246576501 1:0.578967 2:0.480578 3:0.001843 4:0.106541 5:0.480578 6:0.480578 7:0.912334 8:0.190637 9:0.652861 
0.02102454782736288 1:0.553974 2:0.537484 3:0.006377 4:0.162363 5:0.537484 6:0.537484 7:0.915597 8:0.176537 9:0.737682 
0.02405921332315381 1:0.561086 2:0.561692 3:0.00654 4:0.182247 5:0.561692 6:0.561692 7:0.917772 8:0.173153 9:0.759594 
0.04568607312714752 1:0.569838 2:0.663472 3:0.006504 4:0.247233 5:0.663472 6:0.663472 7:0.905591 8:0.176537 9:0.811456 
0.01558415435458245 1:0.555929 2:0.608549 3:0.012483 4:0.258027 5:0.608549 6:0.608549 7:0.896019 8:0.173153 9:0.795383 
0.02892979440007922 1:0.616698 2:0.618528 3:0.138456 4:0.232627 5:0.618528 6:0.618528 7:0.88623 8:0.148336 9:0.78238 
0.01285211524437602 1:0.646259 2:0.592942 3:0.169524 4:0.21276 5:0.592942 6:0.592942 7:0.882532 8:0.141568 9:0.799657 
0.002972674257750329 1:0.655754 2:0.58125 3:0.176903 4:0.204997 5:0.58125 6:0.58125 7:0.881662 8:0.139312 9:0.807904 
0.01658234320576382 1:0.665145 2:0.568759 3:0.182865 4:0.196801 5:0.568759 6:0.568759 7:0.880792 8:0.13762 9:0.816753 
0.1856975454173649 1:0.722787 2:0.499515 3:0.198786 4:0.14149 5:0.499515 6:0.499515 7:0.878834 8:0.131416 9:0.874214 
0.1117744017195253 1:0.732031 2:0.490527 3:0.19939 4:0.132072 5:0.490527 6:0.490527 7:0.879052 8:0.13198 9:0.882401 
0.00373464123168569 1:0.772851 2:0.458749 3:0.200116 4:0.081954 5:0.458749 6:0.458749 7:0.883837 8:0.14326 9:0.91238 
0.0590688655684162 1:0.774607 2:0.458089 3:0.200142 4:0.075252 5:0.458089 6:0.458089 7:0.884707 8:0.14608 9:0.913975 
0.5176732334222151 1:0.616347 2:0.497804 3:0.21333 4:0.02146 5:0.497804 6:0.497804 7:0.894931 8:0.182177 9:0.858441 
0.2783951914598016 1:0.660192 2:0.483309 3:0.328808 4:0.010739 5:0.483309 6:0.483309 7:0.893409 8:0.161873 9:0.811546 
0.07311615462774904 1:0.676552 2:0.474687 3:0.345674 4:0.008774 5:0.474687 6:0.474687 7:0.893626 8:0.159616 9:0.800199 
0.0154444993290661 1:0.77631 2:0.45779 3:0.401994 4:0.000831 5:0.45779 6:0.45779 7:0.896889 8:0.175409 9:0.67974 
0.01378213062032468 1:0.771697 2:0.461412 3:0.401422 4:0.000595 5:0.461412 6:0.461412 7:0.896889 8:0.178793 9:0.669988 
0.08675713070414648 1:0.615026 2:0.509705 3:0.395042 4:0.018748 5:0.509705 6:0.509705 7:0.903415 8:0.191201 9:0.62827 
0.03758252138277911 1:0.626465 2:0.551608 3:0.396379 4:0.043403 5:0.551608 6:0.551608 7:0.902763 8:0.185561 9:0.660356 
-1 1:0.659268 2:0.470366 3:0.162148 4:0.028522 5:0.470366 6:0.470366 7:0.903415 8:0.164693 9:0.28703 
-1 1:0.656948 2:0.478174 3:0.160653 4:0.03173 5:0.478174 6:0.478174 7:0.90385 8:0.165257 9:0.345243 
-0.530232239713803 1:0.650124 2:0.488428 3:0.165545 4:0.038492 5:0.488428 6:0.488428 7:0.904068 8:0.166385 9:0.447822 
-0.5962565206497501 1:0.646739 2:0.491469 3:0.169949 4:0.041884 5:0.491469 6:0.491469 7:0.90385 8:0.166949 9:0.491256 
-1 1:0.640026 2:0.493935 3:0.184538 4:0.051531 5:0.493935 6:0.493935 7:0.903198 8:0.168641 9:0.593745 
-0.7845607246798811 1:0.638947 2:0.492979 3:0.188531 4:0.054434 5:0.492979 6:0.492979 7:0.902763 8:0.169205 9:0.61948 
-0.7177317266379528 1:0.639319 2:0.444731 3:0.200573 4:0.070941 5:0.444731 6:0.444731 7:0.897977 8:0.170333 9:0.725672 
-1 1:0.641787 2:0.441918 3:0.200458 4:0.071248 5:0.441918 6:0.441918 7:0.897977 8:0.170333 9:0.723535 
-1 1:0.644272 2:0.438806 3:0.200375 4:0.07162 5:0.438806 6:0.438806 7:0.898194 8:0.170333 9:0.721518 
-1 1:0.64677 2:0.435494 3:0.200368 4:0.072077 5:0.435494 6:0.435494 7:0.898194 8:0.170333 9:0.719441 
-1 1:0.649124 2:0.432288 3:0.200391 4:0.07256 5:0.432288 6:0.432288 7:0.898194 8:0.170897 9:0.717545 
-1 1:0.651209 2:0.429493 3:0.200372 4:0.073114 5:0.429493 6:0.429493 7:0.89863 8:0.170897 9:0.71598 
-1 1:0.653541 2:0.42818 3:0.200256 4:0.073975 5:0.42818 6:0.42818 7:0.899282 8:0.170897 9:0.714355 
-1 1:0.656224 2:0.428572 3:0.200147 4:0.075166 5:0.428572 6:0.428572 7:0.899935 8:0.170897 9:0.712579 
-1 1:0.659138 2:0.430101 3:0.200142 4:0.076647 5:0.430101 6:0.430101 7:0.900587 8:0.170897 9:0.710532 
-1 1:0.662016 2:0.432147 3:0.200149 4:0.078392 5:0.432147 6:0.432147 7:0.901022 8:0.170897 9:0.708455 
-1 1:0.664626 2:0.43443 3:0.200131 4:0.080315 5:0.43443 6:0.43443 7:0.90124 8:0.171461 9:0.706198 
-1 1:0.666862 2:0.436795 3:0.200201 4:0.082347 5:0.436795 6:0.436795 7:0.901457 8:0.171461 9:0.70388 
-1 1:0.66855 2:0.438968 3:0.200267 4:0.084472 5:0.438968 6:0.438968 7:0.901675 8:0.172025 9:0.701442 
-1 1:0.669656 2:0.440721 3:0.200263 4:0.086694 5:0.440721 6:0.440721 7:0.901675 8:0.172025 9:0.699184 
-1 1:0.670357 2:0.44212 3:0.20026 4:0.088953 5:0.44212 6:0.44212 7:0.901675 8:0.172025 9:0.696806 
-1 1:0.670823 2:0.443372 3:0.200392 4:0.091209 5:0.443372 6:0.443372 7:0.901675 8:0.172589 9:0.69479 
-1 1:0.671072 2:0.445033 3:0.200658 4:0.093457 5:0.445033 6:0.445033 7:0.901675 8:0.172589 9:0.690365 
-1 1:0.671107 2:0.447142 3:0.200845 4:0.09569 5:0.447142 6:0.447142 7:0.901675 8:0.173153 9:0.686874 
-1 1:0.670775 2:0.449595 3:0.201056 4:0.097817 5:0.449595 6:0.449595 7:0.90124 8:0.173717 9:0.684526 
-0.4331698196854975 1:0.666468 2:0.454087 3:0.201223 4:0.102926 5:0.454087 6:0.454087 7:0.900152 8:0.174281 9:0.680492 
-1 1:0.664251 2:0.453645 3:0.201177 4:0.104275 5:0.453645 6:0.453645 7:0.899717 8:0.174281 9:0.680071 
-1 1:0.662113 2:0.452475 3:0.201162 4:0.105424 5:0.452475 6:0.452475 7:0.899282 8:0.174281 9:0.680191 
-1 1:0.660493 2:0.450626 3:0.201086 4:0.106358 5:0.450626 6:0.450626 7:0.898847 8:0.174281 9:0.680523 
-1 1:0.659671 2:0.448453 3:0.201059 4:0.107118 5:0.448453 6:0.448453 7:0.89863 8:0.174281 9:0.680914 
-1 1:0.660374 2:0.448043 3:0.201358 4:0.107813 5:0.448043 6:0.448043 7:0.89863 8:0.174281 9:0.680101 
-1 1:0.662216 2:0.449695 3:0.201809 4:0.108362 5:0.449695 6:0.449695 7:0.898194 8:0.174281 9:0.67989 
