svm_type c_svc
kernel_type rbf
gamma 290
nr_class 2
total_sv 429
rho -0.887658
label 0 1
nr_sv 348 81
SV
0.1853828951091077 1:0.546725 2:0.522289 3:0.215821 4:0.36344 5:0.522289 6:0.522289 7:0.320819 8:0.050492 9:0.591882 
1 1:0.546644 2:0.522457 3:0.215797 4:0.363419 5:0.522457 6:0.522457 7:0.320819 8:0.050492 9:0.591882 
1 1:0.546569 2:0.522583 3:0.215859 4:0.363397 5:0.522583 6:0.522583 7:0.320819 8:0.050492 9:0.591851 
1 1:0.546515 2:0.522689 3:0.215953 4:0.36337 5:0.522689 6:0.522689 7:0.320819 8:0.050492 9:0.591851 
1 1:0.546502 2:0.522751 3:0.216137 4:0.363341 5:0.522751 6:0.522751 7:0.320819 8:0.050492 9:0.591821 
1 1:0.546523 2:0.5228 3:0.216279 4:0.363313 5:0.5228 6:0.5228 7:0.320819 8:0.050492 9:0.591821 
1 1:0.546603 2:0.522853 3:0.216312 4:0.363285 5:0.522853 6:0.522853 7:0.320819 8:0.050492 9:0.59179 
1 1:0.546784 2:0.5229 3:0.216211 4:0.363261 5:0.5229 6:0.5229 7:0.320819 8:0.050492 9:0.59179 
1 1:0.547037 2:0.522947 3:0.215824 4:0.363245 5:0.522947 6:0.522947 7:0.320819 8:0.050492 9:0.59176 
1 1:0.547308 2:0.523023 3:0.215163 4:0.36323 5:0.523023 6:0.523023 7:0.320819 8:0.050492 9:0.59176 
1 1:0.547611 2:0.523026 3:0.214725 4:0.363214 5:0.523026 6:0.523026 7:0.320819 8:0.050492 9:0.59176 
0.7547955452091318 1:0.530232 2:0.442685 3:0.180575 4:0.365449 5:0.442685 6:0.442685 7:0.321188 8:0.050098 9:0.593161 
0.01661410703485617 1:0.521779 2:0.464543 3:0.109707 4:0.365642 5:0.464543 6:0.464543 7:0.321096 8:0.049836 9:0.58411 
0.07601194958415214 1:0.513625 2:0.491359 3:0.066469 4:0.365843 5:0.491359 6:0.491359 7:0.32128 8:0.048393 9:0.509935 
0.0767910076318879 1:0.506922 2:0.521176 3:0.046037 4:0.366179 5:0.521176 6:0.521176 7:0.321465 8:0.046164 9:0.445511 
0.038095581765833 1:0.503382 2:0.552447 3:0.042584 4:0.366589 5:0.552447 6:0.552447 7:0.321465 8:0.044197 9:0.387548 
0.07738404429577585 1:0.504077 2:0.584509 3:0.050994 4:0.366925 5:0.584509 6:0.584509 7:0.321188 8:0.042623 9:0.3344 
0.08134564667814012 1:0.509555 2:0.616583 3:0.066991 4:0.367019 5:0.616583 6:0.616583 7:0.320727 8:0.041967 9:0.285153 
0.07587354633839247 1:0.519486 2:0.647204 3:0.087057 4:0.366804 5:0.647204 6:0.647204 7:0.320173 8:0.042754 9:0.239898 
0.07081763068263851 1:0.532218 2:0.674662 3:0.108664 4:0.366223 5:0.674662 6:0.674662 7:0.319528 8:0.044066 9:0.198421 
1 1:0.530202 2:0.50566 3:0.215236 4:0.363725 5:0.50566 6:0.50566 7:0.320819 8:0.050492 9:0.592064 
1 1:0.53018 2:0.505651 3:0.21524 4:0.363732 5:0.505651 6:0.505651 7:0.320819 8:0.050492 9:0.592064 
1 1:0.53015 2:0.505644 3:0.215247 4:0.363742 5:0.505644 6:0.505644 7:0.320819 8:0.050492 9:0.592064 
1 1:0.53013 2:0.505646 3:0.215253 4:0.363757 5:0.505646 6:0.505646 7:0.320819 8:0.050492 9:0.592095 
1 1:0.53012 2:0.505655 3:0.21526 4:0.363774 5:0.505655 6:0.505655 7:0.320819 8:0.050492 9:0.592095 
1 1:0.530114 2:0.505677 3:0.215268 4:0.363794 5:0.505677 6:0.505677 7:0.320819 8:0.050492 9:0.592125 
1 1:0.530117 2:0.505726 3:0.215273 4:0.363818 5:0.505726 6:0.505726 7:0.320819 8:0.050492 9:0.592125 
1 1:0.53014 2:0.505801 3:0.215278 4:0.363845 5:0.505801 6:0.505801 7:0.320819 8:0.050492 9:0.592156 
1 1:0.530189 2:0.505891 3:0.215285 4:0.363874 5:0.505891 6:0.505891 7:0.320819 8:0.050492 9:0.592156 
1 1:0.530263 2:0.505961 3:0.215296 4:0.3639 5:0.505961 6:0.505961 7:0.320819 8:0.050492 9:0.592186 
1 1:0.530366 2:0.505991 3:0.215307 4:0.363919 5:0.505991 6:0.505991 7:0.320819 8:0.050492 9:0.592186 
0.5369774389529849 1:0.5305 2:0.505992 3:0.215315 4:0.363937 5:0.505992 6:0.505992 7:0.320819 8:0.050492 9:0.592186 
1 1:0.532546 2:0.508307 3:0.215396 4:0.364697 5:0.508307 6:0.508307 7:0.320911 8:0.050492 9:0.592643 
1 1:0.53268 2:0.508677 3:0.215338 4:0.364725 5:0.508677 6:0.508677 7:0.320819 8:0.050492 9:0.592674 
1 1:0.532845 2:0.50897 3:0.215275 4:0.364746 5:0.50897 6:0.50897 7:0.320819 8:0.050492 9:0.592674 
1 1:0.533057 2:0.509166 3:0.215273 4:0.364764 5:0.509166 6:0.509166 7:0.320819 8:0.050492 9:0.592704 
1 1:0.533268 2:0.509295 3:0.215327 4:0.36478 5:0.509295 6:0.509295 7:0.320819 8:0.050492 9:0.592704 
0.455694414167307 1:0.538967 2:0.447627 3:0.21159 4:0.364007 5:0.447627 6:0.447627 7:0.321096 8:0.050492 9:0.592278 
0.01341418475066625 1:0.516593 2:0.417368 3:0.214513 4:0.365413 5:0.417368 6:0.417368 7:0.321188 8:0.050361 9:0.593131 
1 1:0.511341 2:0.435215 3:0.233203 4:0.365595 5:0.435215 6:0.435215 7:0.321004 8:0.050361 9:0.593192 
0.1126828932935407 1:0.506783 2:0.460757 3:0.521822 4:0.3656 5:0.460757 6:0.460757 7:0.320635 8:0.05023 9:0.584598 
0.11248971279585 1:0.503326 2:0.491531 3:0.792483 4:0.365332 5:0.491531 6:0.491531 7:0.320081 8:0.050098 9:0.514933 
0.1061047081388398 1:0.500722 2:0.524525 3:0.94228 4:0.364658 5:0.524525 6:0.524525 7:0.319343 8:0.049574 9:0.454501 
0.08720032793371707 1:0.498537 2:0.556783 3:1 4:0.363449 5:0.556783 6:0.556783 7:0.318329 8:0.048918 9:0.400256 
0.07972083717371831 1:0.496746 2:0.586188 3:0.99134 4:0.361534 5:0.586188 6:0.586188 7:0.317129 8:0.048 9:0.350643 
0.09538213787035973 1:0.495667 2:0.611159 3:0.937784 4:0.358757 5:0.611159 6:0.611159 7:0.315377 8:0.047213 9:0.303346 
0.1035693469943438 1:0.495816 2:0.630333 3:0.856717 4:0.354501 5:0.630333 6:0.630333 7:0.312425 8:0.046951 9:0.257268 
0.1051335085080475 1:0.497521 2:0.641925 3:0.7618 4:0.348353 5:0.641925 6:0.641925 7:0.309473 8:0.047475 9:0.212287 
0.1045081167013583 1:0.50032 2:0.64337 3:0.663327 4:0.340595 5:0.64337 6:0.64337 7:0.307259 8:0.049049 9:0.169348 
0.1027135578534125 1:0.502594 2:0.633065 3:0.568436 4:0.331773 5:0.633065 6:0.633065 7:0.306245 8:0.051148 9:0.129731 
0.1005468934844459 1:0.502151 2:0.611733 3:0.48186 4:0.322586 5:0.611733 6:0.611733 7:0.305968 8:0.053115 9:0.094198 
0.09682766400715744 1:0.497343 2:0.582387 3:0.406265 4:0.313317 5:0.582387 6:0.582387 7:0.305876 8:0.054689 9:0.063631 
0.09100485630253326 1:0.487499 2:0.549212 3:0.342886 4:0.304112 5:0.549212 6:0.549212 7:0.306153 8:0.055738 9:0.038398 
0.08245730950975265 1:0.473142 2:0.515691 3:0.29174 4:0.29504 5:0.515691 6:0.515691 7:0.306245 8:0.056656 9:0.019199 
0.07342907435486716 1:0.455686 2:0.48358 3:0.252093 4:0.285791 5:0.48358 6:0.48358 7:0.305599 8:0.056656 9:0.00643 
0.06601892451010019 1:0.437123 2:0.452924 3:0.222753 4:0.276106 5:0.452924 6:0.452924 7:0.304953 8:0.055475 9:0 
0.06366129188827392 1:0.419993 2:0.422497 3:0.202296 4:0.26625 5:0.422497 6:0.422497 7:0.305046 8:0.05377 9:0.000457 
0.06380200403759227 1:0.407214 2:0.391201 3:0.189087 4:0.256672 5:0.391201 6:0.391201 7:0.305968 8:0.052328 9:0.008442 
0.06257050378813334 1:0.401082 2:0.359393 3:0.181625 4:0.248036 5:0.359393 6:0.359393 7:0.30809 8:0.051016 9:0.023984 
0.05931528603214022 1:0.402707 2:0.329445 3:0.178561 4:0.240874 5:0.329445 6:0.329445 7:0.31058 8:0.050098 9:0.046474 
0.05336306994591713 1:0.411886 2:0.305048 3:0.178678 4:0.235283 5:0.305048 6:0.305048 7:0.313163 8:0.049311 9:0.075456 
0.04756171206499071 1:0.427102 2:0.289612 3:0.18097 4:0.231294 5:0.289612 6:0.289612 7:0.315654 8:0.048918 9:0.110258 
0.05003471683307225 1:0.446168 2:0.285002 3:0.184607 4:0.228914 5:0.285002 6:0.285002 7:0.318329 8:0.048525 9:0.150027 
0.05711939567406192 1:0.466845 2:0.291465 3:0.188974 4:0.228124 5:0.291465 6:0.291465 7:0.320727 8:0.048393 9:0.193576 
0.06629293469431367 1:0.48722 2:0.30804 3:0.193506 4:0.22881 5:0.30804 6:0.30804 7:0.323033 8:0.048393 9:0.239044 
0.07898554042289611 1:0.505987 2:0.333012 3:0.197905 4:0.230835 5:0.333012 6:0.333012 7:0.325062 8:0.048393 9:0.285518 
0.05842056257466165 1:0.522313 2:0.364218 3:0.201973 4:0.233946 5:0.364218 6:0.364218 7:0.326538 8:0.048525 9:0.331505 
0.06153922134767564 1:0.535807 2:0.399009 3:0.205495 4:0.237908 5:0.399009 6:0.399009 7:0.327737 8:0.048787 9:0.375968 
0.0808335380832837 1:0.546397 2:0.43468 3:0.208425 4:0.242528 5:0.43468 6:0.43468 7:0.32866 8:0.048918 9:0.417809 
0.07943794082798541 1:0.554123 2:0.469122 3:0.210851 4:0.247595 5:0.469122 6:0.469122 7:0.329213 8:0.049049 9:0.45636 
0.07931718590164034 1:0.559192 2:0.50059 3:0.212704 4:0.252925 5:0.50059 6:0.50059 7:0.32949 8:0.049311 9:0.491315 
0.277144573859106 1:0.561983 2:0.5276 3:0.213955 4:0.258384 5:0.5276 6:0.5276 7:0.329674 8:0.049311 9:0.522643 
0.4026613859309683 1:0.562979 2:0.549243 3:0.214757 4:0.263893 5:0.549243 6:0.549243 7:0.329674 8:0.049443 9:0.549522 
0.04536368831833379 1:0.562649 2:0.565184 3:0.215313 4:0.26937 5:0.565184 6:0.565184 7:0.32949 8:0.049574 9:0.572073 
0.7271448804049107 1:0.558135 2:0.579379 3:0.215741 4:0.284417 5:0.579379 6:0.579379 7:0.328198 8:0.049443 9:0.61358 
1 1:0.556628 2:0.574848 3:0.215695 4:0.288828 5:0.574848 6:0.574848 7:0.327645 8:0.049443 9:0.62001 
1 1:0.554562 2:0.523815 3:0.215153 4:0.393604 5:0.523815 6:0.523815 7:0.318974 8:0.052066 9:0.609191 
1 1:0.55303 2:0.522031 3:0.215189 4:0.392505 5:0.522031 6:0.522031 7:0.319066 8:0.052066 9:0.610044 
1 1:0.551293 2:0.520007 3:0.215176 4:0.391455 5:0.520007 6:0.520007 7:0.319159 8:0.052066 9:0.61105 
1 1:0.549341 2:0.517233 3:0.215199 4:0.390424 5:0.517233 6:0.517233 7:0.319159 8:0.051934 9:0.612147 
1 1:0.547193 2:0.511853 3:0.215195 4:0.389433 5:0.511853 6:0.511853 7:0.319251 8:0.051934 9:0.613061 
1 1:0.545089 2:0.501293 3:0.215312 4:0.388496 5:0.501293 6:0.501293 7:0.319343 8:0.051934 9:0.614067 
1 1:0.543286 2:0.483261 3:0.215381 4:0.387669 5:0.483261 6:0.483261 7:0.31962 8:0.051934 9:0.615195 
0.5098213478649726 1:0.541903 2:0.456775 3:0.215369 4:0.387039 5:0.456775 6:0.456775 7:0.319989 8:0.051803 9:0.616444 
0.005155028081086003 1:0.539862 2:0.381511 3:0.21549 4:0.386923 5:0.381511 6:0.381511 7:0.321649 8:0.051803 9:0.619705 
0.04327772508331502 1:0.538753 2:0.336513 3:0.215456 4:0.387819 5:0.336513 6:0.336513 7:0.322941 8:0.051672 9:0.620619 
0.04748149299922268 1:0.537634 2:0.289968 3:0.215407 4:0.38953 5:0.289968 6:0.289968 7:0.324232 8:0.051541 9:0.621899 
0.04787499883865089 1:0.53662 2:0.244326 3:0.215374 4:0.392149 5:0.244326 6:0.244326 7:0.3258 8:0.05141 9:0.623545 
0.04427823016416368 1:0.535723 2:0.20126 3:0.215384 4:0.395834 5:0.20126 6:0.20126 7:0.327737 8:0.051279 9:0.625617 
0.04221319733038913 1:0.53503 2:0.161763 3:0.215421 4:0.400746 5:0.161763 6:0.161763 7:0.329767 8:0.051016 9:0.627415 
0.0360992257524685 1:0.534591 2:0.126682 3:0.215497 4:0.406969 5:0.126682 6:0.126682 7:0.331888 8:0.050885 9:0.629396 
0.03157784251866235 1:0.53437 2:0.096752 3:0.215581 4:0.414491 5:0.096752 6:0.096752 7:0.333918 8:0.050623 9:0.632352 
0.02662690240518593 1:0.534447 2:0.072201 3:0.215638 4:0.423286 5:0.072201 6:0.072201 7:0.335947 8:0.050492 9:0.636497 
0.02301710074345703 1:0.535049 2:0.05291 3:0.215646 4:0.433349 5:0.05291 6:0.05291 7:0.337976 8:0.050361 9:0.640763 
0.003180784378876381 1:0.536387 2:0.038729 3:0.215691 4:0.444686 5:0.038729 6:0.038729 7:0.340098 8:0.050098 9:0.646858 
0.04186360546001295 1:0.538464 2:0.029701 3:0.215691 4:0.457344 5:0.029701 6:0.029701 7:0.342219 8:0.049967 9:0.654172 
0.02723175849555219 1:0.553769 2:0.036534 3:0.215786 4:0.522216 5:0.036534 6:0.036534 7:0.352089 8:0.049574 9:0.694124 
0.04208777157715187 1:0.558853 2:0.044951 3:0.2158 4:0.542324 5:0.044951 6:0.044951 7:0.354211 8:0.049705 9:0.707015 
0.03034844981405082 1:0.562354 2:0.056425 3:0.21582 4:0.563653 5:0.056425 6:0.056425 7:0.356056 8:0.049836 9:0.72082 
0.05029476930219449 1:0.561775 2:0.072958 3:0.215744 4:0.58602 5:0.072958 6:0.072958 7:0.357532 8:0.049967 9:0.735113 
0.05958069541450223 1:0.55469 2:0.09658 3:0.215521 4:0.609153 5:0.09658 6:0.09658 7:0.358546 8:0.049967 9:0.749711 
0.07723699779028234 1:0.539525 2:0.128361 3:0.215186 4:0.632967 5:0.128361 6:0.128361 7:0.359838 8:0.049967 9:0.764156 
0.09005156142427663 1:0.515891 2:0.168193 3:0.214765 4:0.657747 5:0.168193 6:0.168193 7:0.361498 8:0.049705 9:0.778357 
0.0988029866975161 1:0.484324 2:0.214763 3:0.214244 4:0.683457 5:0.214763 6:0.214763 7:0.362789 8:0.04918 9:0.792741 
0.1034361544494572 1:0.446073 2:0.266075 3:0.213828 4:0.709762 5:0.266075 6:0.266075 7:0.363435 8:0.048525 9:0.807369 
0.1051373798293582 1:0.402866 2:0.319727 3:0.213542 4:0.736209 5:0.319727 6:0.319727 7:0.363158 8:0.047475 9:0.82154 
0.1047990523788827 1:0.356641 2:0.373509 3:0.213476 4:0.762329 5:0.373509 6:0.373509 7:0.362328 8:0.046164 9:0.834491 
0.1029575164721501 1:0.309172 2:0.42559 3:0.213555 4:0.787694 5:0.42559 6:0.42559 7:0.36076 8:0.04459 9:0.847474 
0.09900551389234477 1:0.26213 2:0.474238 3:0.213803 4:0.812081 5:0.474238 6:0.474238 7:0.359284 8:0.042623 9:0.86134 
0.0928577039857279 1:0.21699 2:0.518068 3:0.214169 4:0.835554 5:0.518068 6:0.518068 7:0.357808 8:0.040393 9:0.875114 
0.0835326951980514 1:0.174794 2:0.556126 3:0.214697 4:0.85809 5:0.556126 6:0.556126 7:0.35624 8:0.037902 9:0.888797 
0.07027421852669297 1:0.136484 2:0.58777 3:0.215163 4:0.879598 5:0.58777 6:0.58777 7:0.354488 8:0.035541 9:0.902267 
0.06081906043705297 1:0.102821 2:0.612644 3:0.215695 4:0.899883 5:0.612644 6:0.612644 7:0.352366 8:0.032918 9:0.915432 
0.04060403902263435 1:0.073905 2:0.631017 3:0.216171 4:0.918724 5:0.631017 6:0.631017 7:0.349875 8:0.030295 9:0.927988 
0.05213351217126518 1:0.04998 2:0.643531 3:0.21666 4:0.935934 5:0.643531 6:0.643531 7:0.347108 8:0.027148 9:0.939995 
0.04077559399274459 1:0.017032 2:0.654157 3:0.21751 4:0.964631 5:0.654157 6:0.654157 7:0.340467 8:0.020984 9:0.961206 
0.05110265758553451 1:0.002822 2:0.640167 3:0.218494 4:0.995634 5:0.640167 6:0.640167 7:0.326815 8:0.010098 9:0.988999 
0.02456969896519243 1:0.01162 2:0.638046 3:0.21841 4:0.998579 5:0.638046 6:0.638046 7:0.324324 8:0.007607 9:0.993174 
0.03009465298028666 1:0.052048 2:0.654018 3:0.218008 4:0.999946 5:0.654018 6:0.654018 7:0.319528 8:0.003541 9:0.998811 
0.06518679711013084 1:0.084251 2:0.67455 3:0.217685 4:0.998358 5:0.67455 6:0.67455 7:0.316945 8:0.001967 9:0.999878 
0.07460854592577129 1:0.123417 2:0.703187 3:0.217436 4:0.995046 5:0.703187 6:0.703187 7:0.313993 8:0.000787 9:1 
0.08601543451638816 1:0.167846 2:0.738316 3:0.217142 4:0.989866 5:0.738316 6:0.738316 7:0.310949 8:0.000131 9:0.998598 
0.09054032403849274 1:0.215615 2:0.777574 3:0.216944 4:0.982681 5:0.777574 6:0.777574 7:0.307628 8:0 9:0.994789 
0.09227159842226744 1:0.264996 2:0.818397 3:0.216699 4:0.973402 5:0.818397 6:0.818397 7:0.304123 8:0.000131 9:0.988999 
0.08961929693822819 1:0.314262 2:0.858434 3:0.216332 4:0.961886 5:0.858434 6:0.858434 7:0.300434 8:0.000656 9:0.981167 
0.08400814498446002 1:0.362007 2:0.895624 3:0.216001 4:0.948051 5:0.895624 6:0.895624 7:0.296652 8:0.001574 9:0.971506 
0.07618413264941663 1:0.406993 2:0.928154 3:0.215615 4:0.931884 5:0.928154 6:0.928154 7:0.292962 8:0.003016 9:0.959621 
0.06601708217472534 1:0.448158 2:0.954868 3:0.215133 4:0.913443 5:0.954868 6:0.954868 7:0.289364 8:0.004721 9:0.946151 
0.05840110341084082 1:0.484807 2:0.975368 3:0.214632 4:0.892739 5:0.975368 6:0.975368 7:0.285675 8:0.00682 9:0.93134 
0.04729806235341702 1:0.516478 2:0.989535 3:0.2142 4:0.869708 5:0.989535 6:0.989535 7:0.281893 8:0.009049 9:0.915036 
0.04762205552304461 1:0.543091 2:0.997527 3:0.213761 4:0.844382 5:0.997527 6:0.997527 7:0.278295 8:0.01141 9:0.897117 
0.03925730346722223 1:0.564824 2:1 3:0.213346 4:0.816857 5:1 6:1 7:0.274882 8:0.013902 9:0.87743 
0.04805903948577391 1:0.581978 2:0.997937 3:0.213793 4:0.787257 5:0.997937 6:0.997937 7:0.271562 8:0.016656 9:0.856525 
0.04237602375768687 1:0.595535 2:0.99343 3:0.21661 4:0.755678 5:0.99343 6:0.99343 7:0.268425 8:0.019541 9:0.8344 
0.05209382391340459 1:0.607369 2:0.988201 3:0.219535 4:0.722111 5:0.988201 6:0.988201 7:0.265289 8:0.02282 9:0.811026 
0.04864725370482396 1:0.617899 2:0.981496 3:0.221781 4:0.686638 5:0.981496 6:0.981496 7:0.262337 8:0.02623 9:0.786219 
0.05733937809792646 1:0.626342 2:0.972097 3:0.222938 4:0.649457 5:0.972097 6:0.972097 7:0.259755 8:0.029639 9:0.759645 
0.05915023313140749 1:0.633049 2:0.958771 3:0.223119 4:0.610774 5:0.958771 6:0.958771 7:0.257541 8:0.033311 9:0.732127 
0.0691203366851737 1:0.639443 2:0.939844 3:0.222424 4:0.570877 5:0.939844 6:0.939844 7:0.25588 8:0.036852 9:0.703998 
0.07897778786802816 1:0.647582 2:0.913469 3:0.220999 4:0.530212 5:0.913469 6:0.913469 7:0.255235 8:0.040393 9:0.675657 
0.09071555425796346 1:0.659384 2:0.878479 3:0.219095 4:0.48955 5:0.878479 6:0.878479 7:0.255696 8:0.043803 9:0.64762 
0.09954294704198421 1:0.676257 2:0.834842 3:0.216852 4:0.449341 5:0.834842 6:0.834842 7:0.256711 8:0.047475 9:0.62001 
0.104671308414489 1:0.698585 2:0.783856 3:0.21467 4:0.409927 5:0.783856 6:0.783856 7:0.258187 8:0.051148 9:0.593253 
0.1072731393196681 1:0.725607 2:0.727696 3:0.212728 4:0.37143 5:0.727696 6:0.727696 7:0.259478 8:0.055082 9:0.567502 
0.1082598221812232 1:0.756105 2:0.668879 3:0.211044 4:0.333678 5:0.668879 6:0.668879 7:0.260769 8:0.059148 9:0.542695 
0.1071408025680299 1:0.788723 2:0.610107 3:0.209784 4:0.296953 5:0.610107 6:0.610107 7:0.262799 8:0.063344 9:0.519077 
0.1052339367373952 1:0.82205 2:0.553831 3:0.209053 4:0.261441 5:0.553831 6:0.553831 7:0.264551 8:0.067541 9:0.496465 
0.1005230094417259 1:0.854703 2:0.502032 3:0.208669 4:0.226956 5:0.502032 6:0.502032 7:0.266119 8:0.071607 9:0.474736 
0.09371115963363168 1:0.885464 2:0.456064 3:0.208529 4:0.193481 5:0.456064 6:0.456064 7:0.267872 8:0.075672 9:0.454196 
0.08237653497950097 1:0.913424 2:0.416805 3:0.208728 4:0.16112 5:0.416805 6:0.416805 7:0.269717 8:0.079738 9:0.434449 
0.07153634388551706 1:0.937935 2:0.38458 3:0.209098 4:0.130028 5:0.38458 6:0.38458 7:0.271931 8:0.083672 9:0.41528 
0.05736841170964453 1:0.958532 2:0.359194 3:0.209628 4:0.100386 5:0.359194 6:0.359194 7:0.274421 8:0.087607 9:0.396843 
0.05083938227681412 1:0.974942 2:0.340149 3:0.210134 4:0.072469 5:0.340149 6:0.340149 7:0.277465 8:0.09141 9:0.379655 
0.0421168852216781 1:0.987165 2:0.32669 3:0.210649 4:0.046469 5:0.32669 6:0.32669 7:0.280509 8:0.095082 9:0.364113 
0.09508573215249966 1:1 2:0.313675 3:0.211856 4:0 5:0.313675 6:0.313675 7:0.286413 8:0.102033 9:0.336686 
0.1122338875391295 1:0.795083 2:0.320487 3:0.212979 4:0.066602 5:0.320487 6:0.320487 7:1 8:1 9:0.558999 
0.09536943426951548 1:0.07233 2:0.348246 3:0.215225 4:0.363552 5:0.348246 6:0.348246 7:0.320173 8:0.051279 9:0.59176 
0.04236224072960276 1:0.099743 2:0.371315 3:0.215156 4:0.358811 5:0.371315 6:0.371315 7:0.317867 8:0.052066 9:0.554337 
0.04978637946163474 1:0.123294 2:0.385608 3:0.215254 4:0.356878 5:0.385608 6:0.385608 7:0.317591 8:0.051803 9:0.533827 
0.04522255672984104 1:0.153563 2:0.401669 3:0.215365 4:0.354808 5:0.401669 6:0.401669 7:0.317406 8:0.05141 9:0.518833 
0.05491061022377052 1:0.18922 2:0.41824 3:0.215493 4:0.352695 5:0.41824 6:0.41824 7:0.317406 8:0.051148 9:0.507223 
0.0525369555560978 1:0.22866 2:0.434505 3:0.215709 4:0.350607 5:0.434505 6:0.434505 7:0.317498 8:0.050754 9:0.497471 
0.05414152154551329 1:0.27017 2:0.449916 3:0.215959 4:0.348593 5:0.449916 6:0.449916 7:0.317683 8:0.050492 9:0.488816 
0.05426497435444434 1:0.312137 2:0.464174 3:0.216138 4:0.346733 5:0.464174 6:0.464174 7:0.31796 8:0.050098 9:0.481167 
0.04496891727479824 1:0.353288 2:0.477369 3:0.216155 4:0.345119 5:0.477369 6:0.477369 7:0.318513 8:0.049836 9:0.473548 
0.06093408405837478 1:0.392698 2:0.489716 3:0.216108 4:0.343853 5:0.489716 6:0.489716 7:0.319066 8:0.049705 9:0.46596 
0.05868370324297484 1:0.5174 2:0.535782 3:0.215665 4:0.34313 5:0.535782 6:0.535782 7:0.322018 8:0.049443 9:0.43707 
0.04008167991995785 1:0.554819 2:0.559282 3:0.215488 4:0.345417 5:0.559282 6:0.559282 7:0.323217 8:0.049443 9:0.42491 
0.02691691306750067 1:0.567584 2:0.571173 3:0.215407 4:0.347007 5:0.571173 6:0.571173 7:0.323586 8:0.049574 9:0.419089 
0.08885934547965274 1:0.585344 2:0.607274 3:0.2151 4:0.356444 5:0.607274 6:0.607274 7:0.323955 8:0.051279 9:0.395837 
0.002104078275430389 1:0.550329 2:0.5943 3:0.213518 4:0.365238 5:0.5943 6:0.5943 7:0.323217 8:0.052197 9:0.387335 
0.02136104971940334 1:0.541368 2:0.588371 3:0.203681 4:0.366648 5:0.588371 6:0.588371 7:0.322941 8:0.052459 9:0.387213 
0.03262027715339315 1:0.53256 2:0.579992 3:0.171975 4:0.367925 5:0.579992 6:0.579992 7:0.322848 8:0.053246 9:0.381758 
0.05939843686322241 1:0.523275 2:0.568532 3:0.134521 4:0.369243 5:0.568532 6:0.568532 7:0.323033 8:0.053902 9:0.372433 
0.02336317823658522 1:0.513144 2:0.555776 3:0.102543 4:0.370725 5:0.555776 6:0.555776 7:0.323402 8:0.054557 9:0.365819 
0.02447874637739737 1:0.502101 2:0.543767 3:0.076373 4:0.372376 5:0.543767 6:0.543767 7:0.323586 8:0.054951 9:0.361827 
0.04394224601340564 1:0.478613 2:0.527755 3:0.039618 4:0.37575 5:0.527755 6:0.527755 7:0.323402 8:0.055213 9:0.364722 
0.006754880615104302 1:0.456283 2:0.522218 3:0.016632 4:0.37861 5:0.522218 6:0.522218 7:0.322941 8:0.055082 9:0.380356 
0.04385237881033584 1:0.446788 2:0.521031 3:0.007428 4:0.379898 5:0.521031 6:0.521031 7:0.322848 8:0.054951 9:0.392912 
0.009094731028954285 1:0.439118 2:0.520332 3:0.002197 4:0.3812 5:0.520332 6:0.520332 7:0.322941 8:0.054689 9:0.407814 
0.04623997397931357 1:0.429328 2:0.5214 3:0 4:0.384226 5:0.5214 6:0.5214 7:0.323679 8:0.053639 9:0.444414 
0.04541535621121404 1:0.428067 2:0.529199 3:0.003933 4:0.388208 5:0.529199 6:0.529199 7:0.324232 8:0.052328 9:0.485281 
0.05398720759996143 1:0.435666 2:0.546254 3:0.009865 4:0.392238 5:0.546254 6:0.546254 7:0.323863 8:0.051279 9:0.524106 
0.008771785348521646 1:0.441872 2:0.556546 3:0.012749 4:0.394078 5:0.556546 6:0.556546 7:0.323679 8:0.050623 9:0.54364 
0.02083214217835219 1:0.448949 2:0.566491 3:0.015494 4:0.395849 5:0.566491 6:0.566491 7:0.323679 8:0.050098 9:0.561803 
0.03661829501484314 1:0.456623 2:0.575458 3:0.017916 4:0.397629 5:0.575458 6:0.575458 7:0.323771 8:0.049705 9:0.578899 
0.02498356072796206 1:0.47297 2:0.591501 3:0.021528 4:0.401596 5:0.591501 6:0.591501 7:0.324232 8:0.048918 9:0.613945 
0.01668763124383838 1:0.480907 2:0.600098 3:0.022846 4:0.403771 5:0.600098 6:0.600098 7:0.324324 8:0.048525 9:0.63031 
0.04583402055390342 1:0.495379 2:0.619511 3:0.024425 4:0.40795 5:0.619511 6:0.619511 7:0.323863 8:0.048 9:0.660115 
0.0149141572516061 1:0.501646 2:0.629166 3:0.024693 4:0.409745 5:0.629166 6:0.629166 7:0.323494 8:0.047738 9:0.672975 
0.06958007663469545 1:0.522414 2:0.656416 3:0.024349 4:0.419603 5:0.656416 6:0.656416 7:0.322664 8:0.047475 9:0.71695 
0.02882016894144401 1:0.512234 2:0.666829 3:0.023079 4:0.421703 5:0.666829 6:0.666829 7:0.320173 8:0.047475 9:0.699945 
0.002403922644078287 1:0.510043 2:0.66644 3:0.022799 4:0.421188 5:0.66644 6:0.66644 7:0.319804 8:0.047475 9:0.693332 
0.002811648781373048 1:0.523683 2:0.649214 3:0.076818 4:0.41405 5:0.649214 6:0.649214 7:0.318605 8:0.045246 9:0.642409 
0.04990460429909917 1:0.531247 2:0.648729 3:0.092755 4:0.412694 5:0.648729 6:0.648729 7:0.318605 8:0.044852 9:0.633327 
0.03796602916045493 1:0.55981 2:0.644981 3:0.138519 4:0.408447 5:0.644981 6:0.644981 7:0.318329 8:0.044197 9:0.622234 
0.006352866219438087 1:0.570024 2:0.642291 3:0.151679 4:0.406853 5:0.642291 6:0.642291 7:0.318144 8:0.044066 9:0.624185 
0.01690814865141712 1:0.579921 2:0.638241 3:0.163444 4:0.405173 5:0.638241 6:0.638241 7:0.318052 8:0.044197 9:0.628787 
0.008904161721018704 1:0.589225 2:0.632637 3:0.173659 4:0.403419 5:0.632637 6:0.632637 7:0.31796 8:0.044197 9:0.635247 
0.02912492512906143 1:0.597872 2:0.625685 3:0.182431 4:0.401609 5:0.625685 6:0.625685 7:0.317867 8:0.044459 9:0.643932 
0.03109192577764473 1:0.611847 2:0.609284 3:0.195883 4:0.397917 5:0.609284 6:0.609284 7:0.317867 8:0.045246 9:0.668678 
0.001009754454164086 1:0.616476 2:0.600828 3:0.200789 4:0.396065 5:0.600828 6:0.600828 7:0.317867 8:0.045639 9:0.682544 
0.0567747261149192 1:0.619235 2:0.592823 3:0.20466 4:0.394262 5:0.592823 6:0.592823 7:0.31796 8:0.046164 9:0.696684 
0.001222713573484442 1:0.613551 2:0.576554 3:0.212746 4:0.388193 5:0.576554 6:0.576554 7:0.31879 8:0.048 9:0.761321 
0.06772624198226347 1:0.598776 2:0.585454 3:0.215173 4:0.378757 5:0.585454 6:0.585454 7:0.318236 8:0.049311 9:0.830743 
0.03077638212266293 1:0.636138 2:0.564975 3:0.215244 4:0.360349 5:0.564975 6:0.564975 7:0.317406 8:0.05141 9:0.835954 
0.02826207113881946 1:0.638486 2:0.562556 3:0.215314 4:0.358189 5:0.562556 6:0.562556 7:0.317314 8:0.051672 9:0.831901 
0.05218711004860471 1:0.629918 2:0.528723 3:0.274334 4:0.339639 5:0.528723 6:0.528723 7:0.316945 8:0.05141 9:0.775553 
0.02818473742037538 1:0.632136 2:0.525634 3:0.294898 4:0.337203 5:0.525634 6:0.525634 7:0.316945 8:0.051672 9:0.764216 
0.0006056748190456627 1:0.635354 2:0.521369 3:0.315276 4:0.334812 5:0.521369 6:0.521369 7:0.317037 8:0.052066 9:0.751326 
0.06231442539343398 1:0.638532 2:0.516155 3:0.334414 4:0.332521 5:0.516155 6:0.516155 7:0.317222 8:0.05259 9:0.737673 
0.03824134675653634 1:0.641603 2:0.506218 3:0.366725 4:0.328532 5:0.506218 6:0.506218 7:0.318052 8:0.053639 9:0.707686 
0.04767895199840393 1:0.637493 2:0.502837 3:0.389382 4:0.325636 5:0.502837 6:0.502837 7:0.318974 8:0.054951 9:0.676632 
0.02279008956427658 1:0.626451 2:0.507757 3:0.402898 4:0.324023 5:0.507757 6:0.507757 7:0.320173 8:0.056 9:0.646218 
0.03001947948637249 1:0.61857 2:0.512611 3:0.407016 4:0.323807 5:0.512611 6:0.512611 7:0.320819 8:0.056393 9:0.63223 
0.0006435120635711116 1:0.609158 2:0.518892 3:0.409744 4:0.324051 5:0.518892 6:0.518892 7:0.321649 8:0.056787 9:0.619278 
0.04929726653789573 1:0.598379 2:0.526789 3:0.411387 4:0.324783 5:0.526789 6:0.526789 7:0.322387 8:0.056918 9:0.607607 
0.05233147704325988 1:0.574901 2:0.54753 3:0.412222 4:0.327651 5:0.54753 6:0.54753 7:0.323863 8:0.056918 9:0.587371 
0.005209221919966586 1:0.563307 2:0.560217 3:0.41185 4:0.329724 5:0.560217 6:0.560217 7:0.324417 8:0.056787 9:0.579174 
0.04722201963302312 1:0.552407 2:0.574122 3:0.411133 4:0.332156 5:0.574122 6:0.574122 7:0.32497 8:0.056525 9:0.572378 
0.02288095079693914 1:0.542768 2:0.588865 3:0.410284 4:0.334905 5:0.588865 6:0.588865 7:0.325431 8:0.056131 9:0.566831 
0.02938289590886911 1:0.534935 2:0.603889 3:0.40939 4:0.337943 5:0.603889 6:0.603889 7:0.325985 8:0.055869 9:0.562412 
0.02962996394829034 1:0.519196 2:0.669303 3:0.406875 4:0.358169 5:0.669303 6:0.669303 7:0.330966 8:0.054164 9:0.561254 
0.03433529999478362 1:0.51907 2:0.692858 3:0.406643 4:0.364367 5:0.692858 6:0.692858 7:0.330505 8:0.053508 9:0.563753 
0.04006964686129719 1:0.521242 2:0.718006 3:0.406439 4:0.370056 5:0.718006 6:0.718006 7:0.329398 8:0.052852 9:0.566313 
0.009604980311035367 1:0.525974 2:0.741155 3:0.406308 4:0.374948 5:0.741155 6:0.741155 7:0.327922 8:0.052459 9:0.568934 
0.06944276596928214 1:0.540261 2:0.767287 3:0.406019 4:0.382064 5:0.767287 6:0.767287 7:0.325247 8:0.051934 9:0.573444 
0.02571895546842583 1:0.547839 2:0.766628 3:0.405865 4:0.384516 5:0.766628 6:0.766628 7:0.324324 8:0.051672 9:0.576035 
0.001867408325114846 1:0.55875 2:0.741899 3:0.405825 4:0.388091 5:0.741899 6:0.741899 7:0.323217 8:0.050885 9:0.582312 
0.05203011975769456 1:0.561351 2:0.722572 3:0.405991 4:0.389544 5:0.722572 6:0.722572 7:0.323033 8:0.050361 9:0.585543 
0.04227682166528181 1:0.563185 2:0.683372 3:0.406342 4:0.392131 5:0.683372 6:0.683372 7:0.322664 8:0.049443 9:0.591211 
0.02689470240013498 1:0.563639 2:0.667369 3:0.40646 4:0.393149 5:0.667369 6:0.667369 7:0.322203 8:0.049311 9:0.59432 
0.05180557790314895 1:0.567387 2:0.633389 3:0.406138 4:0.393796 5:0.633389 6:0.633389 7:0.319804 8:0.050754 9:0.6027 
0.05609108070679734 1:0.54502 2:0.697469 3:0.130079 4:0.36522 5:0.697469 6:0.697469 7:0.318882 8:0.045508 9:0.161212 
0.05446035921745912 1:0.555198 2:0.714521 3:0.149986 4:0.363788 5:0.714521 6:0.714521 7:0.318236 8:0.04682 9:0.128543 
0.01813356555265871 1:0.560895 2:0.725102 3:0.167641 4:0.361961 5:0.725102 6:0.725102 7:0.317591 8:0.048131 9:0.100506 
0.04571310827285272 1:0.561533 2:0.729062 3:0.182623 4:0.359775 5:0.729062 6:0.729062 7:0.317037 8:0.04918 9:0.077132 
0.05158314986417512 1:0.55002 2:0.719764 3:0.204657 4:0.354492 5:0.719764 6:0.719764 7:0.316115 8:0.051016 9:0.045925 
0.04895382189159684 1:0.530114 2:0.69313 3:0.2169 4:0.347713 5:0.69313 6:0.69313 7:0.314362 8:0.052328 9:0.039861 
0.03703375568813996 1:0.519713 2:0.673554 3:0.22018 4:0.343327 5:0.673554 6:0.673554 7:0.313071 8:0.052721 9:0.046413 
0.05622628181601107 1:0.510237 2:0.64931 3:0.222024 4:0.338087 5:0.64931 6:0.64931 7:0.311687 8:0.053115 9:0.058877 
0.06443343460940129 1:0.502389 2:0.620103 3:0.222774 4:0.33199 5:0.620103 6:0.620103 7:0.310396 8:0.053246 9:0.077345 
0.07566700374415943 1:0.496571 2:0.5861 3:0.222755 4:0.325245 5:0.5861 6:0.5861 7:0.309566 8:0.053246 9:0.10529 
0.07961668995977191 1:0.493076 2:0.548375 3:0.222197 4:0.318169 5:0.548375 6:0.548375 7:0.309381 8:0.052984 9:0.135857 
0.08251347944794889 1:0.492215 2:0.508985 3:0.221332 4:0.311131 5:0.508985 6:0.508985 7:0.309658 8:0.052721 9:0.168952 
0.07890558411735836 1:0.494128 2:0.470679 3:0.220232 4:0.304334 5:0.470679 6:0.470679 7:0.310211 8:0.052328 9:0.204212 
0.07237685426221897 1:0.498713 2:0.43626 3:0.219084 4:0.297937 5:0.43626 6:0.43626 7:0.310949 8:0.051934 9:0.241391 
0.06397341791467942 1:0.505681 2:0.407719 3:0.217991 4:0.292072 5:0.407719 6:0.407719 7:0.311872 8:0.051541 9:0.279667 
0.05091159557625132 1:0.514651 2:0.386269 3:0.216927 4:0.286836 5:0.386269 6:0.386269 7:0.312886 8:0.051148 9:0.31834 
0.004126094584060024 1:0.525202 2:0.372328 3:0.216059 4:0.282259 5:0.372328 6:0.372328 7:0.313993 8:0.051016 9:0.356433 
0.05346824509029239 1:0.536793 2:0.365452 3:0.215413 4:0.278357 5:0.365452 6:0.365452 7:0.3151 8:0.051016 9:0.392972 
0.02254053016776551 1:0.548681 2:0.364798 3:0.214909 4:0.275149 5:0.364798 6:0.364798 7:0.316207 8:0.051148 9:0.427836 
0.04875072125357824 1:0.560219 2:0.369478 3:0.214579 4:0.272623 5:0.369478 6:0.369478 7:0.317222 8:0.05141 9:0.460474 
0.03578404226732953 1:0.570844 2:0.378688 3:0.214411 4:0.270683 5:0.378688 6:0.378688 7:0.318144 8:0.051934 9:0.490644 
0.02763473457519365 1:0.579927 2:0.391056 3:0.214351 4:0.269224 5:0.391056 6:0.391056 7:0.318882 8:0.052328 9:0.517858 
0.06604835096579358 1:0.586951 2:0.404856 3:0.214297 4:0.268224 5:0.404856 6:0.404856 7:0.31962 8:0.052984 9:0.541537 
0.3603663976696113 1:0.590285 2:0.458956 3:0.214561 4:0.267992 5:0.458956 6:0.458956 7:0.321742 8:0.055213 9:0.603584 
1 1:0.585956 2:0.470228 3:0.214646 4:0.268693 5:0.470228 6:0.470228 7:0.322203 8:0.055607 9:0.60657 
1 1:0.546544 2:0.497191 3:0.215246 4:0.404188 5:0.497191 6:0.497191 7:0.320358 8:0.050492 9:0.604346 
1 1:0.549382 2:0.497534 3:0.21526 4:0.403953 5:0.497534 6:0.497534 7:0.320542 8:0.050492 9:0.604163 
1 1:0.552174 2:0.498722 3:0.215235 4:0.40382 5:0.498722 6:0.498722 7:0.320635 8:0.050492 9:0.60465 
1 1:0.55449 2:0.500019 3:0.21523 4:0.403754 5:0.500019 6:0.500019 7:0.320727 8:0.050623 9:0.605504 
1 1:0.555629 2:0.499284 3:0.215158 4:0.403764 5:0.499284 6:0.499284 7:0.320911 8:0.050754 9:0.606784 
1 1:0.55523 2:0.493512 3:0.215165 4:0.403858 5:0.493512 6:0.493512 7:0.321004 8:0.051016 9:0.608307 
0.7939507887786428 1:0.549392 2:0.45787 3:0.215286 4:0.404451 5:0.45787 6:0.45787 7:0.321649 8:0.051279 9:0.612025 
0.0860255569516942 1:0.544421 2:0.426518 3:0.215333 4:0.405186 5:0.426518 6:0.426518 7:0.322387 8:0.051279 9:0.614098 
0.03820362577635679 1:0.538559 2:0.387516 3:0.215406 4:0.406399 5:0.387516 6:0.387516 7:0.323217 8:0.051279 9:0.616078 
0.05735604288405422 1:0.532264 2:0.342906 3:0.215505 4:0.408224 5:0.342906 6:0.342906 7:0.324324 8:0.051148 9:0.618669 
0.04720365642394086 1:0.525927 2:0.294979 3:0.215536 4:0.410824 5:0.294979 6:0.294979 7:0.325708 8:0.050885 9:0.621564 
0.04811110585493 1:0.519985 2:0.246087 3:0.215633 4:0.414403 5:0.246087 6:0.246087 7:0.327461 8:0.050492 9:0.624611 
0.04849530718170345 1:0.514772 2:0.198545 3:0.215736 4:0.419097 5:0.198545 6:0.198545 7:0.329305 8:0.050098 9:0.628329 
0.04485114383797529 1:0.510455 2:0.154334 3:0.215737 4:0.424938 5:0.154334 6:0.154334 7:0.33115 8:0.049574 9:0.633297 
0.04191946259098907 1:0.507222 2:0.114968 3:0.215708 4:0.432033 5:0.114968 6:0.114968 7:0.333364 8:0.04918 9:0.638508 
0.03059068160300261 1:0.505271 2:0.081562 3:0.215737 4:0.440672 5:0.081562 6:0.081562 7:0.336131 8:0.048787 9:0.643536 
0.03321849041044467 1:0.504685 2:0.05442 3:0.21578 4:0.451115 5:0.05442 6:0.05442 7:0.339175 8:0.048262 9:0.649784 
0.04250060210991041 1:0.508033 2:0.017779 3:0.215953 4:0.477689 5:0.017779 6:0.017779 7:0.345171 8:0.047475 9:0.666941 
0.008507746497192617 1:0.51195 2:0.00737 3:0.216142 4:0.493669 5:0.00737 6:0.00737 7:0.347846 8:0.047082 9:0.676053 
0.08406691947568805 1:0.522644 2:0 3:0.216356 4:0.530139 5:0 6:0 7:0.352182 8:0.046951 9:0.699884 
0.1123293380025347 1:0.507274 2:0.537836 3:0.215735 4:0.444073 5:0.537836 6:0.537836 7:0 8:0.150164 9:0.595843 
0.09296819356979961 1:0.491248 2:0.966013 3:0.215196 4:0.364051 5:0.966013 6:0.966013 7:0.321649 8:0.051016 9:0.591912 
0.02896467396467182 1:0.489403 2:0.939192 3:0.215121 4:0.365746 5:0.939192 6:0.939192 7:0.322664 8:0.051803 9:0.583989 
0.07569673311666074 1:0.487152 2:0.908955 3:0.215102 4:0.366967 5:0.908955 6:0.908955 7:0.322848 8:0.052066 9:0.577436 
0.08176761042926146 1:0.484183 2:0.868438 3:0.215106 4:0.368293 5:0.868438 6:0.868438 7:0.323033 8:0.052066 9:0.567928 
0.09166467810939528 1:0.480961 2:0.820962 3:0.215096 4:0.369647 5:0.820962 6:0.820962 7:0.322941 8:0.052066 9:0.557171 
0.09356145677582439 1:0.477938 2:0.7702 3:0.215059 4:0.370964 5:0.7702 6:0.7702 7:0.322848 8:0.052066 9:0.545682 
0.0929723810185008 1:0.475605 2:0.71927 3:0.214918 4:0.372152 5:0.71927 6:0.71927 7:0.322572 8:0.052066 9:0.533522 
0.0881841192574018 1:0.474229 2:0.670303 3:0.214815 4:0.373171 5:0.670303 6:0.670303 7:0.322295 8:0.052066 9:0.521058 
0.08265258393922603 1:0.473688 2:0.624731 3:0.214753 4:0.374059 5:0.624731 6:0.624731 7:0.322203 8:0.052197 9:0.508716 
0.06838758345836687 1:0.473684 2:0.583595 3:0.214665 4:0.374881 5:0.583595 6:0.583595 7:0.322111 8:0.052066 9:0.496434 
0.1210202454884414 1:0.473991 2:0.547628 3:0.21474 4:0.375686 5:0.547628 6:0.547628 7:0.322111 8:0.052066 9:0.48397 
0.1364585231552934 1:0.474463 2:0.51729 3:0.214852 4:0.376494 5:0.51729 6:0.51729 7:0.322111 8:0.051934 9:0.472055 
0.05361978780099268 1:0.475144 2:0.492824 3:0.214955 4:0.377299 5:0.492824 6:0.492824 7:0.322111 8:0.05141 9:0.461023 
0.2985941487244407 1:0.478609 2:0.460627 3:0.214988 4:0.378737 5:0.460627 6:0.460627 7:0.321834 8:0.049836 9:0.440879 
0.1933704710313268 1:0.48232 2:0.451677 3:0.215009 4:0.379326 5:0.451677 6:0.451677 7:0.321649 8:0.048787 9:0.431401 
0.1114362581304686 1:0.53541 2:0.447457 3:0.215083 4:0.381134 5:0.447457 6:0.447457 7:0.321188 8:0.045246 9:0.400652 
1 1:0.55108 2:0.451577 3:0.215047 4:0.381333 5:0.451577 6:0.451577 7:0.321096 8:0.045377 9:0.39797 
1 1:0.5664 2:0.456462 3:0.21505 4:0.381477 5:0.456462 6:0.456462 7:0.321004 8:0.04577 9:0.396355 
1 1:0.580148 2:0.461481 3:0.215049 4:0.381591 5:0.461481 6:0.461481 7:0.321004 8:0.046295 9:0.395685 
0.112246842810069 1:0.532043 2:0.496408 3:0.214509 4:0.370986 5:0.496408 6:0.496408 7:0.304492 8:0.377836 9:0.591485 
1 1:0.529349 2:0.483146 3:0.215024 4:0.363702 5:0.483146 6:0.483146 7:0.320727 8:0.049836 9:0.592034 
1 1:0.529398 2:0.483322 3:0.212062 4:0.363611 5:0.483322 6:0.483322 7:0.320635 8:0.04918 9:0.591973 
0.0009226999274115738 1:0.532262 2:0.4843 3:0.114002 4:0.361932 5:0.4843 6:0.4843 7:0.320266 8:0.050361 9:0.582069 
0.04139331116145493 1:0.530984 2:0.480595 3:0.092446 4:0.361701 5:0.480595 6:0.480595 7:0.320727 8:0.050623 9:0.578686 
0.03909070183864827 1:0.522105 2:0.476676 3:0.044818 4:0.3628 5:0.476676 6:0.476676 7:0.321834 8:0.051279 9:0.569696 
0.009506357872200182 1:0.518304 2:0.480936 3:0.034465 4:0.363485 5:0.480936 6:0.480936 7:0.321926 8:0.051541 9:0.568446 
0.007719963489406112 1:0.51006 2:0.494663 3:0.020936 4:0.364998 5:0.494663 6:0.494663 7:0.322111 8:0.051934 9:0.569178 
0.007198072689021544 1:0.5056 2:0.501695 3:0.01708 4:0.365869 5:0.501695 6:0.501695 7:0.322295 8:0.052066 9:0.570976 
0.02937731615081249 1:0.501133 2:0.50776 3:0.0147 4:0.366876 5:0.50776 6:0.50776 7:0.322572 8:0.052066 9:0.573749 
0.002247958988764508 1:0.497018 2:0.512936 3:0.013405 4:0.368037 5:0.512936 6:0.512936 7:0.322756 8:0.052197 9:0.577315 
0.03163675421862666 1:0.489976 2:0.522339 3:0.013199 4:0.370672 5:0.522339 6:0.522339 7:0.323033 8:0.052066 9:0.584568 
0.002018847992348151 1:0.484713 2:0.535464 3:0.015336 4:0.375313 5:0.535464 6:0.535464 7:0.323679 8:0.05141 9:0.594411 
0.03255073837351605 1:0.485271 2:0.539794 3:0.016286 4:0.377156 5:0.539794 6:0.539794 7:0.323863 8:0.051148 9:0.59694 
0.007206518894029449 1:0.494813 2:0.554869 3:0.018578 4:0.383484 5:0.554869 6:0.554869 7:0.324509 8:0.050492 9:0.601938 
0.0043674982328893 1:0.500249 2:0.560754 3:0.019091 4:0.38584 5:0.560754 6:0.560754 7:0.324693 8:0.050361 9:0.603462 
0.01488754379800107 1:0.506441 2:0.567173 3:0.019564 4:0.388295 5:0.567173 6:0.567173 7:0.324786 8:0.050361 9:0.605321 
0.009777590794515666 1:0.513259 2:0.574283 3:0.019968 4:0.390813 5:0.574283 6:0.574283 7:0.324878 8:0.050098 9:0.607728 
0.03866866345096071 1:0.528751 2:0.591339 3:0.020372 4:0.396101 5:0.591339 6:0.591339 7:0.325155 8:0.050098 9:0.61294 
0.02760831797302741 1:0.544454 2:0.613563 3:0.020512 4:0.401446 5:0.613563 6:0.613563 7:0.325062 8:0.050492 9:0.618547 
0.04777351656730974 1:0.556127 2:0.638551 3:0.020448 4:0.406577 5:0.638551 6:0.638551 7:0.324786 8:0.051016 9:0.624368 
0.074872355578696 1:0.555188 2:0.681541 3:0.020473 4:0.415957 5:0.681541 6:0.681541 7:0.322848 8:0.052721 9:0.633906 
0.01478012332542197 1:0.549915 2:0.68227 3:0.020566 4:0.417116 5:0.68227 6:0.68227 7:0.322479 8:0.052852 9:0.635156 
0.02327368595200953 1:0.560593 2:0.636707 3:0.11084 4:0.414822 5:0.636707 6:0.636707 7:0.318698 8:0.047607 9:0.656976 
0.008155841859183562 1:0.570142 2:0.631602 3:0.125873 4:0.413409 5:0.631602 6:0.631602 7:0.318421 8:0.04682 9:0.661913 
0.0347075848634996 1:0.59097 2:0.61879 3:0.152681 4:0.410114 5:0.61879 6:0.61879 7:0.31796 8:0.045639 9:0.674682 
0.009538127724336676 1:0.61193 2:0.603908 3:0.174034 4:0.406268 5:0.603908 6:0.603908 7:0.317498 8:0.04459 9:0.691229 
0.02234360908393607 1:0.639465 2:0.579579 3:0.195841 4:0.399596 5:0.579579 6:0.579579 7:0.317037 8:0.044721 9:0.719937 
0.02229269857388469 1:0.645748 2:0.571245 3:0.200731 4:0.397201 5:0.571245 6:0.571245 7:0.316945 8:0.045115 9:0.729536 
0.04430684210817614 1:0.651605 2:0.555171 3:0.207797 4:0.392321 5:0.555171 6:0.555171 7:0.316945 8:0.046164 9:0.748339 
0.004740057624437861 1:0.647421 2:0.540923 3:0.212088 4:0.387532 5:0.540923 6:0.540923 7:0.317037 8:0.047344 9:0.765466 
0.03275425198936248 1:0.642118 2:0.534935 3:0.213507 4:0.385211 5:0.534935 6:0.534935 7:0.317129 8:0.047738 9:0.773968 
0.004564038553161857 1:0.635308 2:0.529733 3:0.214531 4:0.383004 5:0.529733 6:0.529733 7:0.317406 8:0.047869 9:0.782075 
0.08656073578099399 1:0.599983 2:0.518611 3:0.217424 4:0.366089 5:0.518611 6:0.518611 7:0.318882 8:0.048525 9:0.823764 
0.00994378915568082 1:0.584937 2:0.571558 3:0.220829 4:0.358752 5:0.571558 6:0.571558 7:0.320266 8:0.05482 9:0.781496 
0.03242576636040154 1:0.575863 2:0.578804 3:0.231245 4:0.358347 5:0.578804 6:0.578804 7:0.320081 8:0.054951 9:0.775736 
0.05749577125537011 1:0.56029 2:0.592921 3:0.265993 4:0.35726 5:0.592921 6:0.592921 7:0.319804 8:0.054951 9:0.762083 
0.04876859036233064 1:0.551028 2:0.602844 3:0.307735 4:0.355918 5:0.602844 6:0.602844 7:0.319712 8:0.054689 9:0.744073 
0.04948139907258838 1:0.548317 2:0.607617 3:0.346207 4:0.354545 5:0.607617 6:0.607617 7:0.319804 8:0.054426 9:0.720546 
0.03784971879508355 1:0.551184 2:0.611064 3:0.375998 4:0.35357 5:0.611064 6:0.611064 7:0.320266 8:0.054426 9:0.693058 
0.01240777358498295 1:0.553626 2:0.613713 3:0.387283 4:0.353294 5:0.613713 6:0.613713 7:0.32045 8:0.054426 9:0.678491 
0.05649913593143633 1:0.559154 2:0.619995 3:0.403058 4:0.353195 5:0.619995 6:0.619995 7:0.321004 8:0.054426 9:0.650485 
0.001959375884667173 1:0.563462 2:0.627428 3:0.411412 4:0.353523 5:0.627428 6:0.627428 7:0.321096 8:0.054426 9:0.623971 
0.005212676360426698 1:0.563853 2:0.638024 3:0.413285 4:0.354466 5:0.638024 6:0.638024 7:0.32128 8:0.054426 9:0.566923 
0.03220556328343233 1:0.56029 2:0.635462 3:0.412352 4:0.354814 5:0.635462 6:0.635462 7:0.321465 8:0.054557 9:0.559426 
0.01005102093286088 1:0.506763 2:0.62557 3:0.409816 4:0.360118 5:0.62557 6:0.62557 7:0.322848 8:0.051934 9:0.538124 
0.005246536877486724 1:0.49861 2:0.628218 3:0.411143 4:0.361436 5:0.628218 6:0.628218 7:0.322941 8:0.05141 9:0.538063 
0.01323410772705524 1:0.485357 2:0.637792 3:0.412398 4:0.365634 5:0.637792 6:0.637792 7:0.323125 8:0.049574 9:0.542908 
0.05872868286491676 1:0.484515 2:0.640211 3:0.412274 4:0.367022 5:0.640211 6:0.640211 7:0.323033 8:0.048918 9:0.545438 
0.01550712446501175 1:0.521147 2:0.615401 3:0.409958 4:0.370532 5:0.615401 6:0.615401 7:0.319712 8:0.045902 9:0.580545 
-1 1:0.5554 2:0.567183 3:0.215598 4:0.292958 5:0.567183 6:0.567183 7:0.327276 8:0.049443 9:0.623545 
-1 1:0.554432 2:0.557473 3:0.215445 4:0.296874 5:0.557473 6:0.557473 7:0.326999 8:0.049443 9:0.624642 
-0.4319135976586322 1:0.553576 2:0.546852 3:0.215369 4:0.300626 5:0.546852 6:0.546852 7:0.326723 8:0.049574 9:0.623667 
-0.1581072996290339 1:0.548546 2:0.508657 3:0.215206 4:0.318054 5:0.508657 6:0.508657 7:0.326261 8:0.050098 9:0.602974 
-1 1:0.547238 2:0.506769 3:0.215282 4:0.321414 5:0.506769 6:0.506769 7:0.326169 8:0.05023 9:0.59819 
-1 1:0.545731 2:0.506914 3:0.215301 4:0.324723 5:0.506914 6:0.506914 7:0.326077 8:0.050492 9:0.593832 
-1 1:0.543956 2:0.508809 3:0.215384 4:0.327983 5:0.508809 6:0.508809 7:0.325985 8:0.050623 9:0.589901 
-1 1:0.541696 2:0.512048 3:0.215417 4:0.331188 5:0.512048 6:0.512048 7:0.325892 8:0.050754 9:0.586609 
-1 1:0.538879 2:0.516306 3:0.2154 4:0.334355 5:0.516306 6:0.516306 7:0.325892 8:0.050885 9:0.583897 
-1 1:0.535619 2:0.521375 3:0.215424 4:0.337476 5:0.521375 6:0.521375 7:0.3258 8:0.051016 9:0.581916 
-1 1:0.532028 2:0.526888 3:0.215402 4:0.340529 5:0.526888 6:0.526888 7:0.325708 8:0.051016 9:0.580362 
-1 1:0.523373 2:0.524629 3:0.215122 4:0.365652 5:0.524629 6:0.524629 7:0.322018 8:0.049967 9:0.591089 
-1 1:0.525329 2:0.523422 3:0.215197 4:0.366405 5:0.523422 6:0.523422 7:0.322018 8:0.049836 9:0.591912 
-1 1:0.527016 2:0.52377 3:0.215287 4:0.367197 5:0.52377 6:0.52377 7:0.322111 8:0.049836 9:0.592948 
-1 1:0.528419 2:0.525378 3:0.215334 4:0.368016 5:0.525378 6:0.525378 7:0.322111 8:0.049705 9:0.594198 
-1 1:0.529726 2:0.527628 3:0.215456 4:0.368834 5:0.527628 6:0.527628 7:0.322111 8:0.049705 9:0.594959 
-1 1:0.531069 2:0.529944 3:0.215557 4:0.369639 5:0.529944 6:0.529944 7:0.322111 8:0.049705 9:0.595965 
-0.243133114075743 1:0.532453 2:0.531809 3:0.215545 4:0.37044 5:0.531809 6:0.531809 7:0.322111 8:0.049574 9:0.59694 
-0.2950446552058586 1:0.536434 2:0.528399 3:0.214974 4:0.374745 5:0.528399 6:0.528399 7:0.322295 8:0.049443 9:0.603462 
-1 1:0.53693 2:0.525471 3:0.214836 4:0.375669 5:0.525471 6:0.525471 7:0.322295 8:0.049443 9:0.604529 
-1 1:0.53749 2:0.522081 3:0.214767 4:0.376609 5:0.522081 6:0.522081 7:0.322295 8:0.049311 9:0.60529 
-1 1:0.538195 2:0.518465 3:0.214727 4:0.377551 5:0.518465 6:0.518465 7:0.322295 8:0.049311 9:0.606083 
-1 1:0.539047 2:0.514629 3:0.214668 4:0.378509 5:0.514629 6:0.514629 7:0.322387 8:0.049311 9:0.606814 
-1 1:0.540025 2:0.510769 3:0.214677 4:0.379537 5:0.510769 6:0.510769 7:0.322572 8:0.04918 9:0.607515 
-1 1:0.541056 2:0.507324 3:0.214716 4:0.380642 5:0.507324 6:0.507324 7:0.322664 8:0.04918 9:0.608307 
-1 1:0.5422 2:0.504581 3:0.214695 4:0.381841 5:0.504581 6:0.504581 7:0.322848 8:0.049049 9:0.609374 
-1 1:0.543504 2:0.502738 3:0.214661 4:0.383161 5:0.502738 6:0.502738 7:0.323033 8:0.049049 9:0.610563 
-1 1:0.544911 2:0.501889 3:0.214713 4:0.384632 5:0.501889 6:0.501889 7:0.32331 8:0.049049 9:0.611233 
-1 1:0.546349 2:0.502101 3:0.214742 4:0.386282 5:0.502101 6:0.502101 7:0.323586 8:0.048918 9:0.612117 
-1 1:0.547946 2:0.503481 3:0.214776 4:0.388119 5:0.503481 6:0.503481 7:0.323955 8:0.048918 9:0.612787 
-1 1:0.549837 2:0.506198 3:0.214891 4:0.390108 5:0.506198 6:0.506198 7:0.32414 8:0.048787 9:0.613366 
-1 1:0.55192 2:0.510081 3:0.215006 4:0.392207 5:0.510081 6:0.510081 7:0.324232 8:0.048787 9:0.613854 
-0.6271402349653018 1:0.554098 2:0.514806 3:0.215045 4:0.394401 5:0.514806 6:0.514806 7:0.324417 8:0.048787 9:0.614463 
-1 1:0.575474 2:0.548016 3:0.21543 4:0.412738 5:0.548016 6:0.548016 7:0.32331 8:0.049836 9:0.608094 
-0.2542574011711919 1:0.576533 2:0.547024 3:0.215353 4:0.414184 5:0.547024 6:0.547024 7:0.323033 8:0.050098 9:0.606845 
-1 1:0.567346 2:0.518368 3:0.215217 4:0.42135 5:0.518368 6:0.518368 7:0.321465 8:0.051803 9:0.597397 
-0.8294174452049388 1:0.565866 2:0.517822 3:0.215185 4:0.421692 5:0.517822 6:0.517822 7:0.32128 8:0.051934 9:0.596605 
-0.1496033515960534 1:0.556141 2:0.525852 3:0.215033 4:0.395975 5:0.525852 6:0.525852 7:0.318882 8:0.051934 9:0.607728 
-1 1:0.555641 2:0.525078 3:0.215073 4:0.394772 5:0.525078 6:0.525078 7:0.318882 8:0.052066 9:0.608429 
-1 1:0.580288 2:0.480128 3:0.21474 4:0.26965 5:0.480128 6:0.480128 7:0.322572 8:0.056 9:0.606205 
-1 1:0.573596 2:0.48861 3:0.214787 4:0.27083 5:0.48861 6:0.48861 7:0.322848 8:0.056262 9:0.603249 
-0.4961604033761484 1:0.495699 2:0.537152 3:0.216332 4:0.303269 5:0.537152 6:0.537152 7:0.32497 8:0.055213 9:0.550923 
-0.4450020393470753 1:0.521907 2:0.520119 3:0.215172 4:0.343571 5:0.520119 6:0.520119 7:0.322203 8:0.047344 9:0.561559 
-1 1:0.521059 2:0.513204 3:0.215236 4:0.344379 5:0.513204 6:0.513204 7:0.322111 8:0.047213 9:0.561407 
-1 1:0.519398 2:0.505179 3:0.215251 4:0.345187 5:0.505179 6:0.505179 7:0.322111 8:0.047213 9:0.561833 
-1 1:0.516973 2:0.496233 3:0.215298 4:0.346053 5:0.496233 6:0.496233 7:0.322295 8:0.047082 9:0.563052 
-1 1:0.51396 2:0.486945 3:0.215405 4:0.346999 5:0.486945 6:0.486945 7:0.322387 8:0.047082 9:0.565247 
-0.814494598213329 1:0.510543 2:0.47793 3:0.215454 4:0.348048 5:0.47793 6:0.47793 7:0.322572 8:0.046951 9:0.568081 
-1 1:0.497091 2:0.45145 3:0.215867 4:0.355725 5:0.45145 6:0.45145 7:0.32414 8:0.046033 9:0.585695 
-0.5500676045321605 1:0.49709 2:0.452156 3:0.215826 4:0.357875 5:0.452156 6:0.452156 7:0.324417 8:0.045902 9:0.589626 
-1 1:0.507508 2:0.48309 3:0.215436 4:0.370879 5:0.48309 6:0.48309 7:0.325339 8:0.045377 9:0.598525 
-1 1:0.510694 2:0.490925 3:0.215362 4:0.373696 5:0.490925 6:0.490925 7:0.325339 8:0.045377 9:0.601573 
-1 1:0.513997 2:0.498104 3:0.215345 4:0.376505 5:0.498104 6:0.498104 7:0.325339 8:0.045377 9:0.60657 
-1 1:0.540243 2:0.50132 3:0.215184 4:0.405577 5:0.50132 6:0.50132 7:0.319804 8:0.050754 9:0.606357 
-1 1:0.541758 2:0.499058 3:0.21521 4:0.405013 5:0.499058 6:0.499058 7:0.319989 8:0.050623 9:0.605626 
-1 1:0.5439 2:0.497677 3:0.215207 4:0.404544 5:0.497677 6:0.497677 7:0.320173 8:0.050492 9:0.604803 
-1 1:0.591247 2:0.466118 3:0.215048 4:0.381703 5:0.466118 6:0.466118 7:0.321004 8:0.04682 9:0.395654 
-1 1:0.599138 2:0.470225 3:0.215171 4:0.381848 5:0.470225 6:0.470225 7:0.321096 8:0.047344 9:0.396081 
-0.5811024939968948 1:0.603752 2:0.473925 3:0.215249 4:0.382047 5:0.473925 6:0.473925 7:0.321188 8:0.047738 9:0.396965 
-0.1190802426132159 1:0.604169 2:0.479485 3:0.215206 4:0.382463 5:0.479485 6:0.479485 7:0.321004 8:0.048787 9:0.400012 
-1 1:0.565402 2:0.462249 3:0.215192 4:0.382933 5:0.462249 6:0.462249 7:0.321096 8:0.050885 9:0.425306 
-1 1:0.557751 2:0.456562 3:0.21524 4:0.383139 5:0.456562 6:0.456562 7:0.321188 8:0.051016 9:0.433595 
-0.8050211834232733 1:0.550645 2:0.45113 3:0.215322 4:0.383462 5:0.45113 6:0.45113 7:0.321465 8:0.051148 9:0.44289 
-0.5588181869597836 1:0.528563 2:0.436682 3:0.215673 4:0.3866 5:0.436682 6:0.436682 7:0.322756 8:0.05141 9:0.487962 
-0.5444467025404003 1:0.524445 2:0.435444 3:0.2157 4:0.387876 5:0.435444 6:0.435444 7:0.323033 8:0.051279 9:0.500975 
-0.03906692845569911 1:0.516165 2:0.437519 3:0.215705 4:0.392818 5:0.437519 6:0.437519 7:0.323955 8:0.051016 9:0.540257 
-1 1:0.514777 2:0.439827 3:0.215687 4:0.394823 5:0.439827 6:0.439827 7:0.32414 8:0.050885 9:0.552843 
-0.1687404947234207 1:0.513998 2:0.442749 3:0.215654 4:0.396966 5:0.442749 6:0.442749 7:0.324324 8:0.050754 9:0.56482 
-0.5958742367001196 1:0.514709 2:0.453554 3:0.215455 4:0.403969 5:0.453554 6:0.453554 7:0.324786 8:0.05023 9:0.598921 
-1 1:0.515681 2:0.457493 3:0.215386 4:0.406471 5:0.457493 6:0.457493 7:0.324878 8:0.05023 9:0.609191 
-1 1:0.516653 2:0.461469 3:0.215375 4:0.40902 5:0.461469 6:0.461469 7:0.324878 8:0.050098 9:0.618212 
-0.04029939570334708 1:0.517497 2:0.465279 3:0.215405 4:0.411542 5:0.465279 6:0.465279 7:0.324878 8:0.050098 9:0.626348 
-0.5943527546280226 1:0.525574 2:0.481576 3:0.215634 4:0.428381 5:0.481576 6:0.481576 7:0.324601 8:0.049049 9:0.664838 
-0.2498417156853341 1:0.536874 2:0.502668 3:0.21649 4:0.448545 5:0.502668 6:0.502668 7:0.322664 8:0.047738 9:0.675809 
-0.8168633865763989 1:0.534425 2:0.505562 3:0.216272 4:0.452114 5:0.505562 6:0.505562 7:0.321742 8:0.047344 9:0.672944 
-1 1:0.531245 2:0.514176 3:0.214178 4:0.387358 5:0.514176 6:0.514176 7:0.317129 8:0.049836 9:0.602395 
-1 1:0.531805 2:0.511679 3:0.214253 4:0.385062 5:0.511679 6:0.511679 7:0.317129 8:0.049967 9:0.60139 
-1 1:0.532406 2:0.509226 3:0.214307 4:0.382743 5:0.509226 6:0.509226 7:0.317129 8:0.05023 9:0.600079 
-1 1:0.533055 2:0.506772 3:0.214362 4:0.380447 5:0.506772 6:0.506772 7:0.317222 8:0.050361 9:0.599043 
-1 1:0.533439 2:0.504312 3:0.214331 4:0.37822 5:0.504312 6:0.504312 7:0.317314 8:0.050623 9:0.598373 
-1 1:0.533395 2:0.501987 3:0.21431 4:0.376057 5:0.501987 6:0.501987 7:0.317406 8:0.050885 9:0.597672 
