svm_type c_svc
kernel_type rbf
gamma 101
nr_class 2
total_sv 243
rho -0.707362
label 0 1
nr_sv 180 63
SV
1 1:0.255147 2:0.503965 3:0.489079 4:0.529088 5:0.503965 6:0.503965 7:0.901339 8:0.213586 9:0.734589 
1 1:0.255206 2:0.503943 3:0.48889 4:0.529141 5:0.503943 6:0.503943 7:0.901339 8:0.213586 9:0.734626 
1 1:0.255334 2:0.503908 3:0.488548 4:0.529222 5:0.503908 6:0.503908 7:0.901339 8:0.213586 9:0.734626 
1 1:0.25549 2:0.503871 3:0.488137 4:0.529316 5:0.503871 6:0.503871 7:0.901339 8:0.213586 9:0.734662 
1 1:0.255602 2:0.503847 3:0.487671 4:0.529421 5:0.503847 6:0.503847 7:0.901666 8:0.213586 9:0.734662 
0.3431855928196399 1:0.255631 2:0.503868 3:0.487219 4:0.529551 5:0.503868 6:0.503868 7:0.901666 8:0.213586 9:0.734699 
0.5380562233103999 1:0.238838 2:0.526377 3:0.488995 4:0.53303 5:0.526377 6:0.526377 7:0.901013 8:0.214239 9:0.73536 
1 1:0.238072 2:0.527122 3:0.490078 4:0.53292 5:0.527122 6:0.527122 7:0.901339 8:0.214239 9:0.73536 
1 1:0.237709 2:0.527971 3:0.491817 4:0.532811 5:0.527971 6:0.527971 7:0.901013 8:0.214239 9:0.735323 
1 1:0.237765 2:0.528966 3:0.493659 4:0.532648 5:0.528966 6:0.528966 7:0.901013 8:0.214239 9:0.735287 
1 1:0.23788 2:0.529914 3:0.495117 4:0.532437 5:0.529914 6:0.529914 7:0.901013 8:0.214239 9:0.73525 
1 1:0.237751 2:0.5308 3:0.495883 4:0.532193 5:0.5308 6:0.5308 7:0.901013 8:0.214239 9:0.735176 
1 1:0.237637 2:0.531772 3:0.496195 4:0.531938 5:0.531772 6:0.531772 7:0.901013 8:0.214239 9:0.73514 
1 1:0.23767 2:0.532909 3:0.495731 4:0.531682 5:0.532909 6:0.532909 7:0.901013 8:0.214239 9:0.735103 
1 1:0.238116 2:0.534193 3:0.494951 4:0.531406 5:0.534193 6:0.534193 7:0.900686 8:0.213586 9:0.73503 
1 1:0.238555 2:0.535319 3:0.494264 4:0.531049 5:0.535319 6:0.535319 7:0.900686 8:0.213586 9:0.734956 
1 1:0.238711 2:0.536001 3:0.493941 4:0.53059 5:0.536001 6:0.536001 7:0.900686 8:0.213586 9:0.734846 
1 1:0.238719 2:0.536207 3:0.493526 4:0.530026 5:0.536207 6:0.536207 7:0.900359 8:0.213586 9:0.734736 
1 1:0.239461 2:0.535502 3:0.493315 4:0.529368 5:0.535502 6:0.535502 7:0.900359 8:0.214239 9:0.734589 
1 1:0.327818 2:0.462605 3:0.502925 4:0.526052 5:0.462605 6:0.462605 7:0.901339 8:0.215545 9:0.734002 
0.1699918449957409 1:0.367961 2:0.445365 3:0.504818 4:0.526243 5:0.445365 6:0.445365 7:0.901993 8:0.216199 9:0.734038 
0.1059794360443065 1:0.476162 2:0.434641 3:0.501501 4:0.528297 5:0.434641 6:0.434641 7:0.902319 8:0.216199 9:0.734479 
0.02504338565343367 1:0.495897 2:0.449675 3:0.498044 4:0.528897 5:0.449675 6:0.449675 7:0.901993 8:0.216199 9:0.734589 
0.08973010603805671 1:0.507321 2:0.471985 3:0.494348 4:0.529255 5:0.471985 6:0.471985 7:0.901666 8:0.216199 9:0.734626 
0.07604208060819147 1:0.509829 2:0.499777 3:0.490861 4:0.529303 5:0.499777 6:0.499777 7:0.901013 8:0.216199 9:0.734626 
0.3378602759340662 1:0.503029 2:0.531375 3:0.48808 4:0.528995 5:0.531375 6:0.531375 7:0.900686 8:0.215545 9:0.734516 
0.02099921737557664 1:0.485425 2:0.565359 3:0.48587 4:0.528301 5:0.565359 6:0.565359 7:0.900033 8:0.215545 9:0.734332 
0.2677863932467807 1:0.457957 2:0.600248 3:0.483369 4:0.527221 5:0.600248 6:0.600248 7:0.899379 8:0.214892 9:0.734075 
0.1713953611452053 1:0.422587 2:0.63444 3:0.482242 4:0.525078 5:0.63444 6:0.63444 7:0.895786 8:0.214892 9:0.662261 
0.1766506589667394 1:0.383038 2:0.666499 3:0.482365 4:0.519427 5:0.666499 6:0.666499 7:0.888599 8:0.214239 9:0.580828 
0.1554365729231491 1:0.343242 2:0.696244 3:0.48322 4:0.508528 5:0.696244 6:0.696244 7:0.879451 8:0.213586 9:0.50648 
0.1450024547270783 1:0.305284 2:0.721501 3:0.484435 4:0.492024 5:0.721501 6:0.721501 7:0.870957 8:0.213586 9:0.438595 
0.1225421450638812 1:0.270681 2:0.737744 3:0.485602 4:0.470599 5:0.737744 6:0.737744 7:0.864097 8:0.212933 9:0.375151 
0.1123263984998812 1:0.240855 2:0.741759 3:0.486611 4:0.44585 5:0.741759 6:0.741759 7:0.860176 8:0.212933 9:0.316298 
0.1119336025557786 1:0.216484 2:0.733255 3:0.487369 4:0.419104 5:0.733255 6:0.733255 7:0.857563 8:0.212933 9:0.261923 
0.1139231484620252 1:0.196936 2:0.714621 3:0.48807 4:0.391169 5:0.714621 6:0.714621 7:0.856256 8:0.212933 9:0.212028 
0.1191412448887617 1:0.181333 2:0.68942 3:0.488816 4:0.362503 5:0.68942 6:0.68942 7:0.855276 8:0.212933 9:0.166428 
0.1193278080450782 1:0.168207 2:0.66121 3:0.489529 4:0.333329 5:0.66121 6:0.66121 7:0.854623 8:0.212933 9:0.125307 
0.1072538099566834 1:0.156459 2:0.632431 3:0.490234 4:0.303746 5:0.632431 6:0.632431 7:0.853969 8:0.213586 9:0.088997 
0.1169996354067479 1:0.14548 2:0.604268 3:0.490962 4:0.273894 5:0.604268 6:0.604268 7:0.853643 8:0.214239 9:0.057385 
0.08521474604753625 1:0.135501 2:0.57695 3:0.491376 4:0.24399 5:0.57695 6:0.57695 7:0.853969 8:0.214892 9:0.031832 
0.1146938464414111 1:0.126749 2:0.550009 3:0.491529 4:0.214188 5:0.550009 6:0.550009 7:0.853969 8:0.214892 9:0.01307 
0.07698684231112803 1:0.119632 2:0.522314 3:0.491603 4:0.184572 5:0.522314 6:0.522314 7:0.854623 8:0.214239 9:0.002313 
0.1146658410087154 1:0.11472 2:0.492847 3:0.491618 4:0.155662 5:0.492847 6:0.492847 7:0.856256 8:0.213586 9:0 
0.09508083578970394 1:0.112899 2:0.461316 3:0.4916 4:0.12808 5:0.461316 6:0.461316 7:0.85887 8:0.214239 9:0.006462 
0.111423100054822 1:0.114851 2:0.428575 3:0.491487 4:0.10232 5:0.428575 6:0.428575 7:0.862137 8:0.214892 9:0.021625 
0.109673222584665 1:0.120401 2:0.396366 3:0.49127 4:0.078651 5:0.396366 6:0.396366 7:0.865403 8:0.216199 9:0.045563 
0.09920526438622743 1:0.12848 2:0.366641 3:0.490949 4:0.057425 5:0.366641 6:0.366641 7:0.86965 8:0.217505 9:0.077064 
0.1098402352868343 1:0.137383 2:0.34122 3:0.490531 4:0.039139 5:0.34122 6:0.34122 7:0.874878 8:0.218811 9:0.115762 
0.08400566550019749 1:0.145088 2:0.32152 3:0.490033 4:0.02427 5:0.32152 6:0.32152 7:0.880431 8:0.218811 9:0.160884 
0.1004647942740133 1:0.150321 2:0.308629 3:0.489631 4:0.013046 5:0.308629 6:0.308629 7:0.886312 8:0.219464 9:0.210669 
0.08181112146161514 1:0.153202 2:0.303167 3:0.489196 4:0.005451 5:0.303167 6:0.303167 7:0.892192 8:0.218811 9:0.263392 
0.09862874514088536 1:0.155255 2:0.305371 3:0.488636 4:0.001222 5:0.305371 6:0.305371 7:0.897092 8:0.218158 9:0.317583 
0.0853804143080778 1:0.159015 2:0.314752 3:0.48824 4:0 5:0.314752 6:0.314752 7:0.901666 8:0.216852 9:0.3717 
0.1210838876175557 1:0.166469 2:0.329804 3:0.487864 4:0.00162 5:0.329804 6:0.329804 7:0.90624 8:0.216199 9:0.425047 
0.06865994112070616 1:0.177254 2:0.348486 3:0.487586 4:0.006 5:0.348486 6:0.348486 7:0.910487 8:0.215545 9:0.476558 
0.1639949518088359 1:0.190512 2:0.369131 3:0.487193 4:0.013022 5:0.369131 6:0.369131 7:0.914407 8:0.215545 9:0.525168 
0.2253449204227499 1:0.220965 2:0.411997 3:0.486738 4:0.034097 5:0.411997 6:0.411997 7:0.921268 8:0.216199 9:0.611448 
0.01280431190457478 1:0.236073 2:0.432822 3:0.486649 4:0.047582 5:0.432822 6:0.432822 7:0.924208 8:0.217505 9:0.647832 
0.4875227795606225 1:0.26546 2:0.48695 3:0.486279 4:0.097047 5:0.48695 6:0.48695 7:0.930415 8:0.220118 9:0.726622 
1 1:0.267954 2:0.501394 3:0.486133 4:0.115931 5:0.501394 6:0.501394 7:0.932048 8:0.220771 9:0.743033 
1 1:0.216753 2:0.515386 3:0.488457 4:0.668027 5:0.515386 6:0.515386 7:0.894479 8:0.218158 9:0.746962 
1 1:0.212623 2:0.513985 3:0.488469 4:0.663748 5:0.513985 6:0.513985 7:0.894479 8:0.216199 9:0.74531 
1 1:0.211008 2:0.512761 3:0.48852 4:0.65949 5:0.512761 6:0.512761 7:0.894479 8:0.215545 9:0.744025 
1 1:0.212272 2:0.511268 3:0.488664 4:0.655264 5:0.511268 6:0.511268 7:0.894806 8:0.214239 9:0.74329 
1 1:0.21629 2:0.507771 3:0.488726 4:0.651124 5:0.507771 6:0.507771 7:0.894806 8:0.213586 9:0.74307 
1 1:0.222608 2:0.499399 3:0.488593 4:0.647276 5:0.499399 6:0.499399 7:0.895459 8:0.212933 9:0.74307 
1 1:0.230702 2:0.483516 3:0.488437 4:0.644012 5:0.483516 6:0.483516 7:0.896766 8:0.212933 9:0.743841 
1 1:0.239956 2:0.45872 3:0.488313 4:0.641463 5:0.45872 6:0.45872 7:0.898073 8:0.212933 9:0.744686 
0.208038356067308 1:0.259674 2:0.382854 3:0.488305 4:0.639596 5:0.382854 6:0.382854 7:0.902319 8:0.213586 9:0.748357 
0.1134416011037194 1:0.269295 2:0.334915 3:0.488202 4:0.641321 5:0.334915 6:0.334915 7:0.905913 8:0.213586 9:0.751074 
0.1631351660115626 1:0.278238 2:0.28379 3:0.488115 4:0.645685 5:0.28379 6:0.28379 7:0.910487 8:0.213586 9:0.754085 
0.1410684645990483 1:0.285971 2:0.232249 3:0.488334 4:0.653174 5:0.232249 6:0.232249 7:0.916041 8:0.212933 9:0.757536 
0.1456314995126085 1:0.291974 2:0.182631 3:0.488665 4:0.66458 5:0.182631 6:0.182631 7:0.922901 8:0.21228 9:0.761317 
0.121792832740162 1:0.295732 2:0.137071 3:0.488953 4:0.680622 5:0.137071 6:0.137071 7:0.930742 8:0.211626 9:0.766017 
0.1234720782576636 1:0.297355 2:0.097225 3:0.489251 4:0.701592 5:0.097225 6:0.097225 7:0.938582 8:0.210973 9:0.771781 
0.08056026659996281 1:0.297144 2:0.064071 3:0.48956 4:0.727591 5:0.064071 6:0.064071 7:0.946749 8:0.210973 9:0.778683 
0.1095325898764835 1:0.295345 2:0.038065 3:0.489962 4:0.758762 5:0.038065 6:0.038065 7:0.954917 8:0.21032 9:0.786614 
0.06379419276693778 1:0.29203 2:0.019212 3:0.490348 4:0.795181 5:0.019212 6:0.019212 7:0.963737 8:0.21032 9:0.795095 
0.07448133959362163 1:0.287177 2:0.007 3:0.490598 4:0.837181 5:0.007 6:0.007 7:0.972558 8:0.209667 9:0.804531 
0.1356308125104594 1:0.281153 2:0.000798 3:0.4906 4:0.88506 5:0.000798 6:0.000798 7:0.982359 8:0.209667 9:0.814701 
0.2541761282267311 1:0.267797 2:0.003777 3:0.490467 4:0.99808 5:0.003777 6:0.003777 7:1 8:0.209014 9:0.838198 
0.2922117137934551 1:0.262225 2:0.120516 3:0.490246 4:1 5:0.120516 6:0.120516 7:0 8:0.005225 9:0.738114 
0.2525801594848519 1:0.272442 2:1 3:0.489219 4:0.529843 5:1 6:1 7:0.904606 8:0.215545 9:0.734956 
0.1459431957336441 1:0.254314 2:0.936121 3:0.489745 4:0.54882 5:0.936121 6:0.936121 7:0.910487 8:0.224037 9:0.710651 
0.1256409206100904 1:0.239378 2:0.894663 3:0.489708 4:0.55434 5:0.894663 6:0.894663 7:0.909833 8:0.22469 9:0.697984 
0.1608439410279866 1:0.220123 2:0.845454 3:0.489744 4:0.559394 5:0.845454 6:0.845454 7:0.908853 8:0.224037 9:0.68418 
0.1605539274718794 1:0.198134 2:0.79144 3:0.489943 4:0.563677 5:0.79144 6:0.79144 7:0.907547 8:0.22273 9:0.669787 
0.1818567478479281 1:0.175535 2:0.735127 3:0.490096 4:0.567127 5:0.735127 6:0.735127 7:0.90624 8:0.221424 9:0.654551 
0.1291709763601297 1:0.154227 2:0.678642 3:0.490427 4:0.569802 5:0.678642 6:0.678642 7:0.904933 8:0.220118 9:0.638837 
0.2724154105717331 1:0.135902 2:0.62405 3:0.490789 4:0.571872 5:0.62405 6:0.62405 7:0.90428 8:0.219464 9:0.623196 
0.08103556641141424 1:0.121758 2:0.573242 3:0.491041 4:0.573439 5:0.573242 6:0.573242 7:0.903626 8:0.219464 9:0.608107 
0.6659838956376876 1:0.111616 2:0.527504 3:0.491095 4:0.574779 5:0.527504 6:0.527504 7:0.903626 8:0.220118 9:0.593494 
0.2681895423111791 1:0.10402 2:0.487882 3:0.490885 4:0.576211 5:0.487882 6:0.487882 7:0.903953 8:0.220771 9:0.579836 
0.01760804692872433 1:0.073334 2:0.406123 3:0.489271 4:0.584504 5:0.406123 6:0.406123 7:0.904933 8:0.216852 9:0.533098 
0.2233111583008952 1:0.082037 2:0.459848 3:0.488989 4:0.598403 5:0.459848 6:0.459848 7:0.904606 8:0.216852 9:0.48581 
1 1:0.084622 2:0.472053 3:0.488985 4:0.600412 5:0.472053 6:0.472053 7:0.904606 8:0.217505 9:0.483203 
1 1:0.085582 2:0.483815 3:0.488995 4:0.602284 5:0.483815 6:0.483815 7:0.90428 8:0.218811 9:0.481734 
0.3805500607819495 1:0.207028 2:0.507246 3:0.489703 4:0.543555 5:0.507246 6:0.507246 7:0.855276 8:0.706074 9:0.723795 
1 1:0.237487 2:0.512412 3:0.489227 4:0.529121 5:0.512412 6:0.512412 7:0.901339 8:0.214892 9:0.734295 
0.1585375664006073 1:0.292853 2:0.522213 3:0.322878 4:0.531995 5:0.522213 6:0.522213 7:0.901666 8:0.21032 9:0.73257 
0.1568948533872595 1:0.306539 2:0.525244 3:0.225567 4:0.532116 5:0.525244 6:0.525244 7:0.901339 8:0.214239 9:0.731909 
0.1102606399040256 1:0.311924 2:0.525211 3:0.149524 4:0.532023 5:0.525211 6:0.525211 7:0.901013 8:0.220118 9:0.731542 
0.0496196116740398 1:0.30779 2:0.521989 3:0.092378 4:0.531999 5:0.521989 6:0.521989 7:0.901666 8:0.226649 9:0.731615 
0.1287413206803269 1:0.292791 2:0.516082 3:0.051597 4:0.532344 5:0.516082 6:0.516082 7:0.902319 8:0.233181 9:0.732423 
0.0005100743631989425 1:0.266156 2:0.5085 3:0.024667 4:0.533111 5:0.5085 6:0.5085 7:0.902973 8:0.239059 9:0.732753 
0.134385634533825 1:0.228069 2:0.500434 3:0.008719 4:0.534507 5:0.500434 6:0.500434 7:0.904606 8:0.242325 9:0.732827 
0.0240049905188804 1:0.180951 2:0.492999 3:0.001204 4:0.537345 5:0.492999 6:0.492999 7:0.90722 8:0.243632 9:0.733267 
0.1497104713895111 1:0.12967 2:0.487653 3:0 4:0.542126 5:0.487653 6:0.487653 7:0.910813 8:0.242978 9:0.735323 
0.02473280463080465 1:0.079987 2:0.48611 3:0.003001 4:0.549449 5:0.48611 6:0.48611 7:0.915387 8:0.239059 9:0.737673 
0.05808838402513505 1:0.038144 2:0.489969 3:0.009035 4:0.560239 5:0.489969 6:0.489969 7:0.921594 8:0.233181 9:0.7405 
0.1214809106440448 1:0.010234 2:0.500618 3:0.016696 4:0.57499 5:0.500618 6:0.500618 7:0.928128 8:0.228609 9:0.743731 
0.0271624616874873 1:0 2:0.519155 3:0.024813 4:0.593796 5:0.519155 6:0.519155 7:0.934335 8:0.225343 9:0.747439 
0.1031991087745893 1:0.007449 2:0.54582 3:0.032806 4:0.616406 5:0.54582 6:0.54582 7:0.939889 8:0.225343 9:0.752359 
0.1256409117474806 1:0.02733 2:0.579954 3:0.040202 4:0.642027 5:0.579954 6:0.579954 7:0.944136 8:0.226649 9:0.757866 
0.1374409551584455 1:0.051442 2:0.619973 3:0.046758 4:0.669695 5:0.619973 6:0.619973 7:0.946096 8:0.229262 9:0.762823 
0.1313076340764 1:0.071695 2:0.663322 3:0.052152 4:0.697537 5:0.663322 6:0.663322 7:0.944463 8:0.230568 9:0.767192 
0.1357853721299343 1:0.081779 2:0.706717 3:0.056373 4:0.722919 5:0.706717 6:0.706717 7:0.938255 8:0.228609 9:0.770826 
0.00195525353454584 1:0.08045 2:0.745622 3:0.059688 4:0.743463 5:0.745622 6:0.745622 7:0.929435 8:0.22469 9:0.774498 
0.2488087868105152 1:0.064876 2:0.788888 3:0.063712 4:0.767294 5:0.788888 6:0.788888 7:0.91212 8:0.214239 9:0.779858 
0.06765936287458696 1:0.123216 2:0.742406 3:0.062564 4:0.780649 5:0.742406 6:0.742406 7:0.90918 8:0.201176 9:0.78397 
0.1206954401296776 1:0.175365 2:0.712819 3:0.060601 4:0.785463 5:0.712819 6:0.712819 7:0.908527 8:0.195297 9:0.785696 
0.1371099176068765 1:0.240374 2:0.68695 3:0.059542 4:0.789725 5:0.68695 6:0.68695 7:0.907547 8:0.188766 9:0.787311 
0.1342898790740106 1:0.314486 2:0.668121 3:0.059131 4:0.792871 5:0.668121 6:0.668121 7:0.904933 8:0.182887 9:0.788486 
0.138813166672979 1:0.394648 2:0.656658 3:0.059158 4:0.794024 5:0.656658 6:0.656658 7:0.901339 8:0.179621 9:0.789331 
0.1424674964055906 1:0.47833 2:0.650896 3:0.059574 4:0.792713 5:0.650896 6:0.650896 7:0.897419 8:0.178315 9:0.790028 
0.1317715120264013 1:0.561823 2:0.648122 3:0.060009 4:0.789153 5:0.648122 6:0.648122 7:0.894152 8:0.178315 9:0.790506 
0.1349050318519432 1:0.64055 2:0.64612 3:0.060368 4:0.783917 5:0.64612 6:0.64612 7:0.891865 8:0.179621 9:0.790689 
0.08983727079579301 1:0.710871 2:0.643786 3:0.060834 4:0.777081 5:0.643786 6:0.643786 7:0.889252 8:0.180928 9:0.790322 
0.1145868425324909 1:0.77021 2:0.640549 3:0.061173 4:0.768849 5:0.640549 6:0.640549 7:0.887618 8:0.182887 9:0.789845 
0.07973561610893401 1:0.817144 2:0.636389 3:0.061459 4:0.759756 5:0.636389 6:0.636389 7:0.886312 8:0.184193 9:0.789 
0.2008759729620077 1:0.902365 2:0.624947 3:0.063808 4:0.721766 5:0.624947 6:0.624947 7:0.886965 8:0.187459 9:0.785329 
0.155504179329019 1:0.937704 2:0.660703 3:0.150757 4:0.695065 5:0.660703 6:0.660703 7:0.891539 8:0.186153 9:0.789514 
0.03704361867735632 1:0.949704 2:0.67737 3:0.185756 4:0.688217 5:0.67737 6:0.67737 7:0.889252 8:0.186806 9:0.791497 
0.09623399694607661 1:0.962803 2:0.692905 3:0.222235 4:0.679948 5:0.692905 6:0.692905 7:0.886965 8:0.188112 9:0.79359 
0.0466244273918178 1:0.976111 2:0.704046 3:0.25861 4:0.670227 5:0.704046 6:0.704046 7:0.884678 8:0.189419 9:0.795976 
0.08988973986616121 1:0.987916 2:0.708612 3:0.293755 4:0.659108 5:0.708612 6:0.708612 7:0.882718 8:0.191378 9:0.799134 
0.02217323288877315 1:0.996372 2:0.705725 3:0.326612 4:0.646911 5:0.705725 6:0.705725 7:0.881411 8:0.193991 9:0.803209 
0.1156625397387803 1:1 2:0.695836 3:0.356653 4:0.633909 5:0.695836 6:0.695836 7:0.880105 8:0.19595 9:0.808165 
0.151554612912806 1:0.989507 2:0.660738 3:0.406782 4:0.605543 5:0.660738 6:0.660738 7:0.877818 8:0.199869 9:0.820612 
0.005796069952102742 1:0.975697 2:0.638617 3:0.427003 4:0.590427 5:0.638617 6:0.638617 7:0.876838 8:0.201176 9:0.827918 
0.1628790116476374 1:0.957638 2:0.615161 3:0.443958 4:0.574937 5:0.615161 6:0.615161 7:0.876511 8:0.203135 9:0.835775 
0.008838506377015897 1:0.936949 2:0.591637 3:0.45791 4:0.559345 5:0.591637 6:0.591637 7:0.876511 8:0.204442 9:0.841356 
0.1319465491476771 1:0.914476 2:0.569297 3:0.469356 4:0.543884 5:0.569297 6:0.569297 7:0.876838 8:0.205095 9:0.845871 
0.06860919507101386 1:0.890874 2:0.548969 3:0.478481 4:0.528723 5:0.548969 6:0.548969 7:0.877491 8:0.206401 9:0.851195 
0.008968902863942621 1:0.866756 2:0.531066 3:0.4855 4:0.514171 5:0.531066 6:0.531066 7:0.878798 8:0.207707 9:0.85784 
0.1577959348675359 1:0.842695 2:0.515951 3:0.49086 4:0.500353 5:0.515951 6:0.515951 7:0.880105 8:0.208361 9:0.865808 
0.01207293466940169 1:0.797551 2:0.494702 3:0.497693 4:0.475324 5:0.494702 6:0.494702 7:0.883045 8:0.21032 9:0.884716 
0.1125869286960183 1:0.777476 2:0.488599 3:0.499411 4:0.464303 5:0.488599 6:0.488599 7:0.884678 8:0.210973 9:0.895253 
0.1378318696335246 1:0.72631 2:0.48734 3:0.500895 4:0.436323 5:0.48734 6:0.48734 7:0.888272 8:0.210973 9:0.929141 
0.1571139137661823 1:0.683536 2:0.510314 3:0.495921 4:0.381484 5:0.510314 6:0.510314 7:0.896766 8:0.22469 9:0.997503 
0.033616621860264 1:0.675066 2:0.512562 3:0.495539 4:0.379068 5:0.512562 6:0.512562 7:0.898073 8:0.229262 9:1 
0.0438035354476842 1:0.603906 2:0.52147 3:0.495021 4:0.376259 5:0.52147 6:0.52147 7:0.901666 8:0.239713 9:0.982377 
0.1176354710734246 1:0.567777 2:0.524797 3:0.494867 4:0.376613 5:0.524797 6:0.524797 7:0.902319 8:0.241672 9:0.981826 
0.1479294204522997 1:0.489793 2:0.530775 3:0.49459 4:0.378127 5:0.530775 6:0.530775 7:0.902973 8:0.244938 9:0.983515 
0.01682779909267443 1:0.452856 2:0.532588 3:0.49466 4:0.379072 5:0.532588 6:0.532588 7:0.902646 8:0.245591 9:0.983956 
0.1924371775372065 1:0.37114 2:0.531016 3:0.500593 4:0.381098 5:0.531016 6:0.531016 7:0.902319 8:0.245591 9:0.977604 
0.1024891122572458 1:0.343649 2:0.524888 3:0.588144 4:0.382673 5:0.524888 6:0.524888 7:0.901993 8:0.241019 9:0.956713 
0.08132080580120406 1:0.339691 2:0.525845 3:0.636773 4:0.38301 5:0.525845 6:0.525845 7:0.901666 8:0.238406 9:0.945956 
0.09829366049253577 1:0.336692 2:0.528088 3:0.688529 4:0.383192 5:0.528088 6:0.528088 7:0.901339 8:0.235794 9:0.933693 
0.07052931835861326 1:0.335162 2:0.530723 3:0.73976 4:0.383201 5:0.530723 6:0.530723 7:0.901339 8:0.233834 9:0.919521 
0.1012339945802003 1:0.334955 2:0.533135 3:0.788448 4:0.383067 5:0.533135 6:0.533135 7:0.901013 8:0.232528 9:0.904285 
0.06612676838127624 1:0.335514 2:0.535179 3:0.833219 4:0.382803 5:0.535179 6:0.535179 7:0.900686 8:0.230568 9:0.888277 
0.05519035888839115 1:0.335068 2:0.536793 3:0.872769 4:0.382494 5:0.536793 6:0.536793 7:0.901013 8:0.229262 9:0.871462 
0.09527880648426508 1:0.332315 2:0.538148 3:0.906352 4:0.382291 5:0.538148 6:0.538148 7:0.901013 8:0.227956 9:0.853875 
0.06524630984183351 1:0.320848 2:0.540651 3:0.955657 4:0.382559 5:0.540651 6:0.540651 7:0.901993 8:0.225996 9:0.817234 
0.09168337661909223 1:0.311679 2:0.541843 3:0.972199 4:0.383172 5:0.541843 6:0.541843 7:0.902646 8:0.22469 9:0.799391 
0.1915012947625309 1:0.268136 2:0.556048 3:1 4:0.394246 5:0.556048 6:0.556048 7:0.906893 8:0.219464 9:0.717884 
0.006061588531875561 1:0.304527 2:0.574478 3:0.995375 4:0.406829 5:0.574478 6:0.574478 7:0.90918 8:0.218811 9:0.682454 
0.2286600524340178 1:0.386706 2:0.578238 3:0.983923 4:0.439737 5:0.578238 6:0.578238 7:0.91506 8:0.222077 9:0.653156 
0.03886042644325377 1:0.320336 2:0.556551 3:0.979796 4:0.500166 5:0.556551 6:0.556551 7:0.926495 8:0.218158 9:0.659838 
0.05621949670256347 1:0.297195 2:0.559491 3:0.979623 4:0.516813 5:0.559491 6:0.559491 7:0.929108 8:0.214892 9:0.665492 
0.1275655516532043 1:0.268497 2:0.577646 3:0.979563 4:0.553561 5:0.577646 6:0.577646 7:0.931722 8:0.208361 9:0.677901 
0.03634122785662338 1:0.268523 2:0.592592 3:0.97948 4:0.572643 5:0.592592 6:0.592592 7:0.931722 8:0.204442 9:0.684143 
0.0009235727206364965 1:0.278979 2:0.610426 3:0.979525 4:0.591523 5:0.610426 6:0.610426 7:0.931068 8:0.201176 9:0.690348 
0.1680874425130103 1:0.29885 2:0.629901 3:0.97966 4:0.609797 5:0.629901 6:0.629901 7:0.929762 8:0.19791 9:0.69736 
0.008256448079171967 1:0.327083 2:0.64967 3:0.979829 4:0.627211 5:0.64967 6:0.64967 7:0.928128 8:0.194644 9:0.704593 
0.1239889394006577 1:0.36273 2:0.668653 3:0.979995 4:0.643594 5:0.668653 6:0.668653 7:0.926495 8:0.192031 9:0.712083 
0.1095288268884684 1:0.404417 2:0.686107 3:0.980042 4:0.658658 5:0.686107 6:0.686107 7:0.924208 8:0.190072 9:0.719352 
0.253281174163406 1:0.500788 2:0.713602 3:0.979638 4:0.683825 5:0.713602 6:0.713602 7:0.918654 8:0.187459 9:0.73312 
-1 1:0.26621 2:0.514109 3:0.486243 4:0.135736 5:0.514109 6:0.514109 7:0.933355 8:0.221424 9:0.755149 
-1 1:0.260317 2:0.525562 3:0.486258 4:0.156206 5:0.525562 6:0.525562 7:0.934335 8:0.220771 9:0.763337 
-0.2638293789345902 1:0.251394 2:0.536023 3:0.486276 4:0.177046 5:0.536023 6:0.536023 7:0.934662 8:0.220771 9:0.767853 
-1 1:0.214368 2:0.565504 3:0.487431 4:0.259712 5:0.565504 6:0.565504 7:0.933355 8:0.218158 9:0.758637 
-0.1141253250790147 1:0.20157 2:0.568761 3:0.488015 4:0.299114 5:0.568761 6:0.568761 7:0.932048 8:0.216852 9:0.746558 
-0.1085300085278278 1:0.198058 2:0.568004 3:0.488251 4:0.31814 5:0.568004 6:0.568004 7:0.931395 8:0.215545 9:0.740647 
-0.995116087743763 1:0.194397 2:0.561634 3:0.488979 4:0.372419 5:0.561634 6:0.561634 7:0.928781 8:0.21228 9:0.726328 
-1 1:0.241185 2:0.558807 3:0.489172 4:0.491131 5:0.558807 6:0.558807 7:0.920614 8:0.205095 9:0.71792 
-1 1:0.246863 2:0.558557 3:0.48905 4:0.503024 5:0.558557 6:0.558557 7:0.919634 8:0.204442 9:0.720344 
-1 1:0.25015 2:0.558453 3:0.489193 4:0.514317 5:0.558453 6:0.558453 7:0.918981 8:0.203788 9:0.723318 
-1 1:0.251591 2:0.558679 3:0.489393 4:0.525061 5:0.558679 6:0.558679 7:0.918001 8:0.203135 9:0.726622 
-1 1:0.252109 2:0.559386 3:0.489421 4:0.535246 5:0.559386 6:0.559386 7:0.917021 8:0.201829 9:0.729375 
-1 1:0.252606 2:0.560675 3:0.489382 4:0.544834 5:0.560675 6:0.560675 7:0.916041 8:0.201176 9:0.731835 
-1 1:0.253852 2:0.562462 3:0.48941 4:0.553809 5:0.562462 6:0.562462 7:0.91506 8:0.200523 9:0.734662 
-0.04387201054024946 1:0.256176 2:0.564583 3:0.489379 4:0.562175 5:0.564583 6:0.564583 7:0.91408 8:0.199869 9:0.737196 
-0.7945071838786246 1:0.354131 2:0.558896 3:0.488298 4:0.61082 5:0.558896 6:0.558896 7:0.904933 8:0.201176 9:0.77112 
-0.6630405689250638 1:0.278013 2:0.501623 3:0.489957 4:0.627146 5:0.501623 6:0.501623 7:0.90428 8:0.203135 9:0.752506 
-1 1:0.282665 2:0.498028 3:0.489917 4:0.629091 5:0.498028 6:0.498028 7:0.904606 8:0.203135 9:0.749532 
-1 1:0.292824 2:0.495406 3:0.489913 4:0.631319 5:0.495406 6:0.495406 7:0.90526 8:0.202482 9:0.746411 
-0.1308800177849789 1:0.40168 2:0.499207 3:0.489852 4:0.64769 5:0.499207 6:0.499207 7:0.907873 8:0.203788 9:0.740757 
-0.5134689470070392 1:0.428993 2:0.50282 3:0.489759 4:0.652005 5:0.50282 6:0.50282 7:0.908527 8:0.205095 9:0.741565 
-1 1:0.504818 2:0.526334 3:0.489458 4:0.677005 5:0.526334 6:0.526334 7:0.909507 8:0.215545 9:0.746742 
-0.3029910943698252 1:0.502784 2:0.529856 3:0.489483 4:0.682088 5:0.529856 6:0.529856 7:0.909507 8:0.217505 9:0.748798 
-0.9575996880488943 1:0.393376 2:0.538911 3:0.490415 4:0.738096 5:0.538911 6:0.538911 7:0.903626 8:0.231221 9:0.792855 
-0.1298638394004868 1:0.328984 2:0.529633 3:0.490678 4:0.74298 5:0.529633 6:0.529633 7:0.901993 8:0.233834 9:0.803503 
-0.09207441876744382 1:0.282199 2:0.531752 3:0.490681 4:0.742208 5:0.531752 6:0.531752 7:0.900033 8:0.233181 9:0.801704 
-0.6708516211398196 1:0.236843 2:0.522506 3:0.488043 4:0.689784 5:0.522506 6:0.522506 7:0.894479 8:0.222077 9:0.76576 
-1 1:0.23438 2:0.521406 3:0.487997 4:0.685465 5:0.521406 6:0.521406 7:0.894479 8:0.221424 9:0.760656 
-1 1:0.231012 2:0.519914 3:0.487974 4:0.681081 5:0.519914 6:0.519914 7:0.894479 8:0.220771 9:0.756141 
-1 1:0.226628 2:0.518387 3:0.488133 4:0.676693 5:0.518387 6:0.518387 7:0.894479 8:0.220118 9:0.752285 
-1 1:0.221751 2:0.516887 3:0.488334 4:0.672337 5:0.516887 6:0.516887 7:0.894479 8:0.218811 9:0.749348 
-1 1:0.08425 2:0.494499 3:0.48913 4:0.603911 5:0.494499 6:0.494499 7:0.903626 8:0.220771 9:0.481294 
-1 1:0.07951 2:0.503444 3:0.489203 4:0.605154 5:0.503444 6:0.503444 7:0.902973 8:0.223383 9:0.481367 
-1 1:0.069831 2:0.510198 3:0.489142 4:0.60588 5:0.510198 6:0.510198 7:0.901993 8:0.226649 9:0.481918 
-0.5413315459942424 1:0.038001 2:0.518579 3:0.488819 4:0.605746 5:0.518579 6:0.518579 7:0.900359 8:0.228609 9:0.484121 
-1 1:0.051856 2:0.525031 3:0.488889 4:0.588178 5:0.525031 6:0.525031 7:0.764783 8:0 9:0.470977 
-0.001134535360494092 1:0.147071 2:0.536281 3:0.48966 4:0.52878 5:0.536281 6:0.536281 7:0.901013 8:0.215545 9:0.731542 
-1 1:0.150658 2:0.534132 3:0.490321 4:0.528264 5:0.534132 6:0.534132 7:0.900033 8:0.216199 9:0.725961 
-0.007243799442081714 1:0.165468 2:0.522942 3:0.492311 4:0.525715 5:0.522942 6:0.522942 7:0.898726 8:0.216199 9:0.709513 
-0.3367870482197681 1:0.175637 2:0.514111 3:0.49316 4:0.524197 5:0.514111 6:0.514111 7:0.899053 8:0.215545 9:0.700371 
-0.6992707695590846 1:0.209649 2:0.484094 3:0.494871 4:0.521631 5:0.484094 6:0.484094 7:0.900686 8:0.212933 9:0.681536 
-1 1:0.267566 2:0.449129 3:0.4891 4:0.529157 5:0.449129 6:0.449129 7:0.901666 8:0.213586 9:0.734626 
-1 1:0.267181 2:0.449269 3:0.48959 4:0.529539 5:0.449269 6:0.449269 7:0.901993 8:0.211626 9:0.734809 
-0.434653091740741 1:0.266139 2:0.449677 3:0.490858 4:0.530241 5:0.449677 6:0.449677 7:0.902973 8:0.209667 9:0.73558 
-0.2896866148840359 1:0.19735 2:0.507806 3:0.488486 4:0.613353 5:0.507806 6:0.507806 7:0.905913 8:0.195297 9:0.767449 
-1 1:0.199788 2:0.508782 3:0.488224 4:0.616 5:0.508782 6:0.508782 7:0.90526 8:0.195297 9:0.768403 
-0.5777588205794978 1:0.203816 2:0.509907 3:0.488128 4:0.618204 5:0.509907 6:0.509907 7:0.904606 8:0.195297 9:0.769835 
-0.8143530872518292 1:0.232868 2:0.518399 3:0.489364 4:0.616199 5:0.518399 6:0.518399 7:0.898073 8:0.205748 9:0.771451 
-1 1:0.212016 2:0.517791 3:0.489272 4:0.595403 5:0.517791 6:0.517791 7:0.747468 8:1 9:0.754305 
-0.9041972848426694 1:0.221968 2:0.52149 3:0.497409 4:0.53357 5:0.52149 6:0.52149 7:0.901666 8:0.188766 9:0.755186 
-1 1:0.227905 2:0.520975 3:0.49674 4:0.533663 5:0.520975 6:0.520975 7:0.901339 8:0.188766 9:0.755296 
-1 1:0.232942 2:0.520455 3:0.496027 4:0.533525 5:0.520455 6:0.520455 7:0.901013 8:0.188766 9:0.755333 
-1 1:0.23318 2:0.514671 3:0.491969 4:0.530964 5:0.514671 6:0.514671 7:0.893826 8:0.562378 9:0.755149 
-1 1:0.230787 2:0.510336 3:0.489259 4:0.529129 5:0.510336 6:0.510336 7:0.901339 8:0.210973 9:0.734846 
-1 1:0.23044 2:0.510054 3:0.489775 4:0.529299 5:0.510054 6:0.510054 7:0.901666 8:0.208361 9:0.735874 
-1 1:0.229499 2:0.50959 3:0.490633 4:0.529571 5:0.50959 6:0.50959 7:0.901666 8:0.205748 9:0.735911 
-1 1:0.228097 2:0.508973 3:0.49199 4:0.529864 5:0.508973 6:0.508973 7:0.901993 8:0.203788 9:0.735433 
-1 1:0.226911 2:0.508228 3:0.493519 4:0.530282 5:0.508228 6:0.508228 7:0.901993 8:0.201829 9:0.734699 
-1 1:0.226161 2:0.507621 3:0.494613 4:0.530797 5:0.507621 6:0.507621 7:0.902319 8:0.199869 9:0.734919 
-1 1:0.225474 2:0.507175 3:0.495465 4:0.531422 5:0.507175 6:0.507175 7:0.902646 8:0.198563 9:0.735176 
-1 1:0.224772 2:0.506873 3:0.496002 4:0.532222 5:0.506873 6:0.506873 7:0.902646 8:0.197257 9:0.734516 
-1 1:0.223843 2:0.506812 3:0.49651 4:0.532997 5:0.506812 6:0.506812 7:0.902319 8:0.196604 9:0.734295 
-0.6276366656886524 1:0.222506 2:0.506828 3:0.496864 4:0.533614 5:0.506828 6:0.506828 7:0.902319 8:0.19595 9:0.733671 
