svm_type c_svc
kernel_type rbf
gamma 148
nr_class 2
total_sv 256
rho -0.822046
label 0 1
nr_sv 193 63
SV
1 1:-0.008546 2:0.510555 3:0.347858 4:0.334579 5:0.500056 6:0.5 7:0.810973 8:0.047165 9:0.666667 
1 1:-0.006818 2:0.510674 3:0.347918 4:0.335018 5:0.500069 6:0.5 7:0.811027 8:0.047165 9:0.666667 
1 1:-0.004471 2:0.510787 3:0.34795 4:0.335589 5:0.500083 6:0.5 7:0.811081 8:0.047165 9:0.666667 
1 1:-0.001518 2:0.5109 3:0.347969 4:0.336301 5:0.500097 6:0.5 7:0.811162 8:0.047165 9:0.666667 
1 1:-0.028936 2:0.494746 3:0.347825 4:0.333334 5:0.5 6:0.5 7:0.810811 8:0.046794 9:0.666667 
1 1:-0.028947 2:0.494738 3:0.347818 4:0.333339 5:0.5 6:0.5 7:0.810811 8:0.046794 9:0.666667 
1 1:-0.028919 2:0.494743 3:0.347809 4:0.333351 5:0.499999 6:0.5 7:0.810811 8:0.046794 9:0.666667 
1 1:-0.02881 2:0.494758 3:0.347801 4:0.33337 5:0.499999 6:0.5 7:0.810811 8:0.046794 9:0.666667 
1 1:-0.028579 2:0.494775 3:0.347793 4:0.333399 5:0.499999 6:0.5 7:0.810838 8:0.046794 9:0.666667 
0.09839963796138773 1:-0.026787 2:0.496609 3:0.3484 4:0.333692 5:0.499995 6:0.5 7:0.810838 8:0.046794 9:0.666667 
1 1:-0.019575 2:0.501926 3:0.35323 4:0.334018 5:0.499985 6:0.5 7:0.810865 8:0.046794 9:0.666667 
0.7860675711392269 1:0.055893 2:0.521561 3:0.355073 4:0.334633 5:0.499962 6:0.5 7:0.810865 8:0.046794 9:0.666667 
1 1:0.064318 2:0.526605 3:0.354816 4:0.334733 5:0.499963 6:0.5 7:0.810865 8:0.046794 9:0.666667 
1 1:0.077083 2:0.531673 3:0.354397 4:0.334806 5:0.499965 6:0.5 7:0.810838 8:0.046918 9:0.666667 
0.08542603727836941 1:0.216182 2:0.540333 3:0.371645 4:0.334261 5:0.499985 6:0.5 7:0.810649 8:0.046918 9:0.666667 
0.1190210116645614 1:0.270282 2:0.538561 3:0.495463 4:0.333833 5:0.499989 6:0.502657 7:0.810568 8:0.046918 9:0.705867 
0.08491999271768749 1:0.324725 2:0.535797 3:0.587854 4:0.333279 5:0.499992 6:0.511764 7:0.810513 8:0.046918 9:0.714911 
0.07081887576353833 1:0.376179 2:0.532817 3:0.636415 4:0.332567 5:0.499994 6:0.520367 7:0.810405 8:0.046918 9:0.709267 
0.05854851875754426 1:0.424707 2:0.530682 3:0.652104 4:0.331578 5:0.499998 6:0.52818 7:0.810243 8:0.046918 9:0.706378 
0.05340374774204686 1:0.470688 2:0.528966 3:0.644272 4:0.330222 5:0.500003 6:0.535254 7:0.810081 8:0.046918 9:0.701578 
0.06004623475749064 1:0.512443 2:0.526676 3:0.620711 4:0.328518 5:0.500008 6:0.541522 7:0.809919 8:0.046918 9:0.698822 
0.04718473955273541 1:0.547423 2:0.523654 3:0.587793 4:0.326466 5:0.500007 6:0.547647 7:0.80973 8:0.04667 9:0.698267 
0.06842055568352871 1:0.572786 2:0.52013 3:0.550619 4:0.324096 5:0.499997 6:0.553379 7:0.809595 8:0.046422 9:0.695289 
0.002333506670266713 1:0.587448 2:0.516586 3:0.512692 4:0.321461 5:0.499977 6:0.558454 7:0.809486 8:0.046051 9:0.691311 
0.09036850607388285 1:0.591123 2:0.513525 3:0.476516 4:0.318578 5:0.499944 6:0.562846 7:0.809378 8:0.045556 9:0.688667 
0.001929559864468188 1:0.583579 2:0.511081 3:0.443701 4:0.315458 5:0.499894 6:0.566743 7:0.80927 8:0.045061 9:0.685644 
0.02427255686683813 1:0.56553 2:0.509297 3:0.41511 4:0.31213 5:0.499826 6:0.570066 7:0.809162 8:0.044442 9:0.682578 
0.06845829959327977 1:0.539255 2:0.50842 3:0.391171 4:0.308611 5:0.49973 6:0.572659 7:0.809081 8:0.043451 9:0.678111 
0.09396015358698136 1:0.472052 2:0.511716 3:0.356868 4:0.301146 5:0.499411 6:0.575413 7:0.808946 8:0.040604 9:0.668844 
0.001793442072415623 1:0.434352 2:0.517 3:0.345824 4:0.297194 5:0.499173 6:0.575149 7:0.808865 8:0.038995 9:0.661756 
0.09086502725479986 1:0.394702 2:0.525575 3:0.338174 4:0.293068 5:0.498878 6:0.573583 7:0.808784 8:0.037385 9:0.655244 
0.02832846688277119 1:0.353061 2:0.537981 3:0.333345 4:0.288782 5:0.498534 6:0.570811 7:0.80873 8:0.036024 9:0.648911 
0.07474199469821216 1:0.309611 2:0.554189 3:0.33081 4:0.284412 5:0.498148 6:0.567116 7:0.808703 8:0.03491 9:0.645778 
0.04300379215996994 1:0.265666 2:0.573756 3:0.33007 4:0.280083 5:0.497728 6:0.562552 7:0.808757 8:0.034043 9:0.6396 
0.07146829924519681 1:0.2235 2:0.595912 3:0.330665 4:0.275924 5:0.497288 6:0.556976 7:0.808865 8:0.033795 9:0.6352 
0.4831583266798716 1:0.120818 2:0.662578 3:0.336546 4:0.26512 5:0.496005 6:0.537474 7:0.809324 8:0.035157 9:0.631911 
0.3146589000849357 1:0.096696 2:0.678803 3:0.339004 4:0.262164 5:0.495618 6:0.530832 7:0.809459 8:0.035776 9:0.631622 
0.6399933105128462 1:0.050559 2:0.697696 3:0.345541 4:0.254788 5:0.494584 6:0.512052 7:0.80973 8:0.037509 9:0.637911 
1 1:0.037649 2:0.696338 3:0.347337 4:0.252557 5:0.494275 6:0.506709 7:0.809757 8:0.038004 9:0.639511 
1 1:0.022484 2:0.69357 3:0.348941 4:0.250393 5:0.493981 6:0.501884 7:0.809784 8:0.038376 9:0.643222 
1 1:0.004192 2:0.691104 3:0.350303 4:0.248298 5:0.493704 6:0.49782 7:0.809838 8:0.038995 9:0.646889 
1 1:-0.016827 2:0.690331 3:0.351457 4:0.246333 5:0.49345 6:0.494317 7:0.809919 8:0.039738 9:0.649578 
0.1314139891276773 1:-0.039067 2:0.691997 3:0.352247 4:0.244584 5:0.493223 6:0.491333 7:0.810027 8:0.040604 9:0.652333 
1 1:-0.061151 2:0.695984 3:0.352716 4:0.243097 5:0.493028 6:0.488911 7:0.810162 8:0.041471 9:0.655578 
0.2752704978547669 1:-0.116164 2:0.729511 3:0.351977 4:0.241086 5:0.492557 6:0.486523 7:0.811027 8:0.046794 9:0.671867 
1 1:-0.104044 2:0.733546 3:0.351193 4:0.241619 5:0.492579 6:0.487715 7:0.811108 8:0.048032 9:0.673956 
1 1:0.075134 2:0.4133 3:0.351851 4:0.398982 5:0.503921 6:0.494433 7:0.811513 8:0.035776 9:0.667689 
1 1:0.059824 2:0.436954 3:0.355441 4:0.402452 5:0.502104 6:0.498107 7:0.810811 8:0.036643 9:0.672067 
1 1:0.021676 2:0.443602 3:0.354986 4:0.402368 5:0.501768 6:0.499119 7:0.810757 8:0.037138 9:0.671956 
1 1:-0.034967 2:0.449775 3:0.354328 4:0.402227 5:0.501448 6:0.500103 7:0.810757 8:0.037633 9:0.671556 
1 1:-0.108124 2:0.455001 3:0.353617 4:0.402158 5:0.501145 6:0.50097 7:0.810811 8:0.038128 9:0.671111 
1 1:-0.19338 2:0.458878 3:0.352975 4:0.402327 5:0.500858 6:0.501788 7:0.810973 8:0.038623 9:0.670756 
0.3575467071279729 1:-0.285573 2:0.46151 3:0.352441 4:0.402869 5:0.500585 6:0.502531 7:0.811162 8:0.038995 9:0.670422 
0.02382865821392221 1:-0.380259 2:0.463412 3:0.352038 4:0.403831 5:0.500323 6:0.5032 7:0.811378 8:0.039242 9:0.669911 
0.139245869911823 1:-0.47483 2:0.465165 3:0.351732 4:0.405271 5:0.500072 6:0.503664 7:0.811649 8:0.039614 9:0.668289 
0.1056160426381817 1:-0.567911 2:0.467535 3:0.351488 4:0.407308 5:0.499831 6:0.503824 7:0.811946 8:0.039861 9:0.666911 
0.1110925551001954 1:-0.65863 2:0.471336 3:0.351233 4:0.410147 5:0.499602 6:0.503807 7:0.812405 8:0.040357 9:0.666133 
0.1035616410650678 1:-0.745625 2:0.4772 3:0.351057 4:0.414048 5:0.49939 6:0.503612 7:0.812973 8:0.040852 9:0.665178 
0.09397738823513908 1:-0.82687 2:0.485802 3:0.350939 4:0.419099 5:0.499198 6:0.503259 7:0.813514 8:0.041471 9:0.664444 
0.09025354043837609 1:-0.900041 2:0.497636 3:0.350884 4:0.425326 5:0.49903 6:0.502813 7:0.814108 8:0.042213 9:0.664333 
0.06154177622804505 1:-0.962707 2:0.512433 3:0.350829 4:0.432814 5:0.498892 6:0.502385 7:0.81473 8:0.043204 9:0.664489 
0.07989903295460894 1:-1.01265 2:0.529403 3:0.350641 4:0.441727 5:0.498786 6:0.501922 7:0.815459 8:0.044194 9:0.663933 
0.01445318151894278 1:-1.049045 2:0.547243 3:0.350286 4:0.452207 5:0.498719 6:0.501434 7:0.816243 8:0.045432 9:0.664244 
0.01994212421506724 1:-1.072502 2:0.564242 3:0.349731 4:0.464313 5:0.498695 6:0.500974 7:0.817 8:0.046794 9:0.664244 
0.08927702825038789 1:-1.085029 2:0.579195 3:0.349005 4:0.477961 5:0.498718 6:0.500507 7:0.81773 8:0.048155 9:0.6644 
0.0414837459561935 1:-1.094041 2:0.617009 3:0.345852 4:0.546556 5:0.499271 6:0.500106 7:0.820486 8:0.054098 9:0.666978 
0.07401896047101734 1:-1.087968 2:0.618701 3:0.345083 4:0.567491 5:0.499553 6:0.500195 7:0.821243 8:0.055954 9:0.667311 
0.07458237735382588 1:-1.03408 2:0.601117 3:0.343199 4:0.613534 5:0.500294 6:0.500265 7:0.822432 8:0.059173 9:0.666533 
0.09033370165947703 1:-0.978884 2:0.578898 3:0.342062 4:0.638201 5:0.500737 6:0.500236 7:0.822865 8:0.060411 9:0.666556 
0.1159908106832066 1:-0.904507 2:0.54669 3:0.340931 4:0.663607 5:0.501216 6:0.50023 7:0.823135 8:0.061278 9:0.666711 
0.1331830573421674 1:-0.814696 2:0.504054 3:0.339915 4:0.689468 5:0.50172 6:0.50025 7:0.823324 8:0.061773 9:0.666844 
0.1422853833418047 1:-0.715645 2:0.451754 3:0.339148 4:0.715561 5:0.502228 6:0.500369 7:0.823351 8:0.061525 9:0.668022 
0.1451565247543204 1:-0.614186 2:0.391714 3:0.338737 4:0.741672 5:0.502716 6:0.500597 7:0.823351 8:0.060659 9:0.667289 
0.1433109631489634 1:-0.515684 2:0.326273 3:0.338752 4:0.767663 5:0.503165 6:0.500709 7:0.823243 8:0.059297 9:0.667333 
0.1371968391974779 1:-0.423582 2:0.258426 3:0.339132 4:0.793368 5:0.503561 6:0.50075 7:0.823054 8:0.057564 9:0.666489 
0.1280788062676198 1:-0.34023 2:0.191566 3:0.339832 4:0.81859 5:0.503892 6:0.500709 7:0.822784 8:0.055459 9:0.666422 
0.1151007326256029 1:-0.26675 2:0.128504 3:0.340772 4:0.843143 5:0.504151 6:0.50068 7:0.822432 8:0.053231 9:0.666733 
0.1027172379896633 1:-0.203232 2:0.071127 3:0.341955 4:0.8669 5:0.504327 6:0.500687 7:0.822027 8:0.050631 9:0.666289 
0.08657008894035419 1:-0.148326 2:0.020794 3:0.343271 4:0.889772 5:0.504409 6:0.500549 7:0.821568 8:0.04766 9:0.6658 
0.08279109945940555 1:-0.099401 2:-0.02171 3:0.344597 4:0.911637 5:0.504383 6:0.500399 7:0.821054 8:0.044442 9:0.666022 
0.06407751997566108 1:-0.053987 2:-0.056388 3:0.34581 4:0.932386 5:0.504245 6:0.500257 7:0.820486 8:0.041099 9:0.665778 
0.07384575890368859 1:-0.010433 2:-0.083691 3:0.346935 4:0.951866 5:0.503993 6:0.500079 7:0.819838 8:0.037757 9:0.665644 
0.04616949717835635 1:0.031901 2:-0.103925 3:0.347891 4:0.969944 5:0.503627 6:0.499816 7:0.819135 8:0.034291 9:0.665044 
0.06302138199421946 1:0.072426 2:-0.117418 3:0.348679 4:0.986541 5:0.503144 6:0.499543 7:0.818432 8:0.030948 9:0.665467 
0.05370127395779957 1:0.110249 2:-0.124752 3:0.349282 4:1.001609 5:0.502545 6:0.499339 7:0.817676 8:0.027482 9:0.665489 
0.01377848287887136 1:0.145262 2:-0.126281 3:0.349732 4:1.015021 5:0.501828 6:0.499085 7:0.816811 8:0.024016 9:0.665333 
0.08666829725264245 1:0.179013 2:-0.121954 3:0.350003 4:1.026597 5:0.500994 6:0.498843 7:0.815919 8:0.020673 9:0.665444 
0.0212308141579931 1:0.215729 2:-0.111031 3:0.35016 4:1.03623 5:0.500049 6:0.498723 7:0.814973 8:0.017455 9:0.666867 
0.08154615360042916 1:0.259929 2:-0.092626 3:0.350193 4:1.043869 5:0.498999 6:0.498836 7:0.814 8:0.014608 9:0.667533 
0.07628001148883208 1:0.314493 2:-0.066467 3:0.350203 4:1.04948 5:0.497858 6:0.498934 7:0.813027 8:0.012132 9:0.6668 
0.1013233022802348 1:0.380532 2:-0.032756 3:0.350208 4:1.053019 5:0.496637 6:0.49888 7:0.812 8:0.009903 9:0.665933 
0.1125262652902965 1:0.457673 2:0.00786 3:0.350195 4:1.05434 5:0.495353 6:0.498663 7:0.810892 8:0.008294 9:0.665422 
0.1239982933140236 1:0.543463 2:0.054368 3:0.350154 4:1.05324 5:0.49402 6:0.498457 7:0.809676 8:0.00718 9:0.665667 
0.1283895051524765 1:0.633964 2:0.105674 3:0.350096 4:1.049552 5:0.492656 6:0.498324 7:0.808405 8:0.006437 9:0.666556 
0.1301814351917353 1:0.725243 2:0.160623 3:0.34999 4:1.043238 5:0.491278 6:0.498466 7:0.807135 8:0.006313 9:0.6684 
0.1270123102591013 1:0.814004 2:0.217801 3:0.349836 4:1.034169 5:0.489903 6:0.498818 7:0.805784 8:0.006685 9:0.668178 
0.1203717194273178 1:0.897189 2:0.275536 3:0.349626 4:1.022301 5:0.488546 6:0.499017 7:0.804432 8:0.007304 9:0.667222 
0.1111188618856598 1:0.971984 2:0.33204 3:0.349374 4:1.007682 5:0.48722 6:0.499019 7:0.803135 8:0.008418 9:0.666133 
0.09494559090083217 1:1.035698 2:0.385386 3:0.349116 4:0.990378 5:0.48594 6:0.498846 7:0.801865 8:0.010151 9:0.665578 
0.08526096223253041 1:1.086223 2:0.433707 3:0.34888 4:0.970472 5:0.484727 6:0.498663 7:0.800622 8:0.012256 9:0.665644 
0.05420574450762042 1:1.12207 2:0.475528 3:0.348728 4:0.948062 5:0.483591 6:0.498438 7:0.799459 8:0.014731 9:0.665489 
0.06611110176811624 1:1.143157 2:0.51 3:0.348715 4:0.923266 5:0.482541 6:0.498276 7:0.798324 8:0.017207 9:0.666422 
0.03133804886734712 1:1.151059 2:0.536917 3:0.348883 4:0.896133 5:0.481579 6:0.498351 7:0.797216 8:0.019931 9:0.667622 
0.04004074447754071 1:1.148427 2:0.556828 3:0.349166 4:0.866717 5:0.480707 6:0.498495 7:0.796162 8:0.02253 9:0.666889 
0.06745457139392541 1:1.137738 2:0.570653 3:0.349501 4:0.835177 5:0.479926 6:0.498713 7:0.795189 8:0.025254 9:0.669022 
0.01624172250149025 1:1.12053 2:0.579286 3:0.349861 4:0.80169 5:0.479239 6:0.499056 7:0.79427 8:0.028101 9:0.667844 
0.0823251627895345 1:1.097918 2:0.583615 3:0.350196 4:0.766318 5:0.478654 6:0.49919 7:0.793378 8:0.031196 9:0.667067 
0.04106555438343833 1:1.070804 2:0.584631 3:0.35054 4:0.72912 5:0.478175 6:0.499278 7:0.792513 8:0.034291 9:0.666978 
0.07316893096803544 1:1.038825 2:0.583673 3:0.350888 4:0.690249 5:0.477801 6:0.499258 7:0.791784 8:0.037262 9:0.666222 
0.07170695631356232 1:0.998961 2:0.582855 3:0.35117 4:0.649952 5:0.477529 6:0.499131 7:0.791135 8:0.040357 9:0.665778 
0.09027275952230954 1:0.946575 2:0.584652 3:0.351284 4:0.608513 5:0.477363 6:0.498984 7:0.790676 8:0.043451 9:0.666267 
0.1084933953604191 1:0.877588 2:0.591201 3:0.351226 4:0.566316 5:0.477305 6:0.498973 7:0.790405 8:0.046794 9:0.666933 
0.1354352825938334 1:0.790114 2:0.604002 3:0.351038 4:0.523753 5:0.47736 6:0.499045 7:0.790351 8:0.050136 9:0.667067 
0.08408013435378768 1:0.684989 2:0.623948 3:0.350839 4:0.481212 5:0.477531 6:0.499027 7:0.790432 8:0.053479 9:0.666067 
0.05719424160612889 1:0.565446 2:0.651142 3:0.350713 4:0.439041 5:0.477821 6:0.498842 7:0.790703 8:0.057192 9:0.665578 
0.1623834392125209 1:0.436286 2:0.684748 3:0.350751 4:0.397636 5:0.47824 6:0.498684 7:0.791162 8:0.06103 9:0.665956 
0.162549965181237 1:0.302639 2:0.723382 3:0.351011 4:0.357384 5:0.478795 6:0.49854 7:0.791811 8:0.065239 9:0.665933 
0.1536240196114314 1:0.169884 2:0.765101 3:0.351476 4:0.318704 5:0.479494 6:0.498434 7:0.792649 8:0.069448 9:0.666333 
0.4314758456089549 1:0.043508 2:0.807839 3:0.352145 4:0.281908 5:0.480338 6:0.498437 7:0.793622 8:0.073781 9:0.667111 
0.2776423865491254 1:-0.071192 2:0.84968 3:0.352882 4:0.247246 5:0.481332 6:0.498604 7:0.794703 8:0.078237 9:0.667956 
0.09511432592060046 1:-0.169802 2:0.889162 3:0.353595 4:0.214909 5:0.482478 6:0.498951 7:0.795865 8:0.08257 9:0.669022 
0.1105196973920521 1:-0.249448 2:0.9251 3:0.354142 4:0.185007 5:0.483773 6:0.499499 7:0.797027 8:0.087026 9:0.670089 
0.07791736770710987 1:-0.308448 2:0.956673 3:0.354526 4:0.157553 5:0.485214 6:0.500239 7:0.798216 8:0.091112 9:0.671022 
0.01678519479207413 1:-0.346041 2:0.983402 3:0.354766 4:0.132507 5:0.486796 6:0.501173 7:0.799351 8:0.095197 9:0.6726 
0.08337191599186222 1:-0.363123 2:1.005012 3:0.354753 4:0.109804 5:0.488515 6:0.502499 7:0.800459 8:0.099282 9:0.673889 
0.1353741922250584 1:-0.318662 2:1.039127 3:0.353206 4:0.05504 5:0.494486 6:0.505624 7:0.803541 8:0.110919 9:0.670733 
0.1775131598956664 1:-0.394145 2:0.372625 3:0.349952 4:0.204962 5:0.498262 6:0.502769 7:0.965595 8:0.188289 9:0.631356 
0.1508239858451163 1:-0.474548 2:-0.163027 3:0.347872 4:0.33273 5:0.499991 6:0.500427 7:0.810324 8:0.046175 9:0.670844 
0.07864437096639106 1:-0.448695 2:-0.078462 3:0.348828 4:0.32305 5:0.499456 6:0.507653 7:0.809054 8:0.039614 9:0.678133 
0.08287697496760364 1:-0.43135 2:-0.019745 3:0.349161 4:0.319209 5:0.499186 6:0.509639 7:0.808919 8:0.038128 9:0.676289 
0.1021187816742133 1:-0.411493 2:0.05405 3:0.349612 4:0.315251 5:0.498875 6:0.51134 7:0.808919 8:0.037262 9:0.6748 
0.1153038162231317 1:-0.389757 2:0.14026 3:0.35011 4:0.311442 5:0.498543 6:0.512725 7:0.809027 8:0.03689 9:0.673178 
0.1144945354509499 1:-0.366559 2:0.233676 3:0.350537 4:0.307876 5:0.49821 6:0.513828 7:0.809162 8:0.037138 9:0.671778 
0.150512246817479 1:-0.341852 2:0.329125 3:0.350897 4:0.304607 5:0.497886 6:0.5147 7:0.809324 8:0.037509 9:0.670933 
0.5661301953384443 1:-0.289034 2:0.508969 3:0.35145 4:0.299001 5:0.497301 6:0.516025 7:0.809622 8:0.039119 9:0.668956 
1 1:-0.263346 2:0.58692 3:0.35167 4:0.296708 5:0.497054 6:0.516361 7:0.809784 8:0.040109 9:0.668 
1 1:-0.239804 2:0.653632 3:0.351981 4:0.294779 5:0.496843 6:0.516526 7:0.809973 8:0.041099 9:0.667089 
1 1:-0.219541 2:0.707703 3:0.35237 4:0.293231 5:0.496666 6:0.516509 7:0.810162 8:0.04209 9:0.666178 
0.2086475695282386 1:-0.140317 2:0.720865 3:0.35013 4:0.29862 5:0.496657 6:0.516685 7:0.811811 8:0.050508 9:0.668422 
1 1:-0.12659 2:0.698403 3:0.349526 4:0.300799 5:0.496789 6:0.517093 7:0.811892 8:0.050879 9:0.669333 
1 1:-0.112325 2:0.675358 3:0.348975 4:0.303121 5:0.496933 6:0.517683 7:0.811946 8:0.051127 9:0.670133 
1 1:-0.098143 2:0.652594 3:0.347555 4:0.305537 5:0.497087 6:0.518393 7:0.812 8:0.051374 9:0.670622 
1 1:-0.082564 2:0.63181 3:0.34337 4:0.308072 5:0.497247 6:0.519182 7:0.812054 8:0.051622 9:0.671 
0.2617808645388051 1:-0.063139 2:0.614344 3:0.335959 4:0.310637 5:0.497423 6:0.520108 7:0.812027 8:0.052241 9:0.671933 
1 1:-0.040821 2:0.599433 3:0.325532 4:0.313097 5:0.497629 6:0.521038 7:0.811946 8:0.053479 9:0.671133 
1 1:-0.020175 2:0.584532 3:0.312467 4:0.31541 5:0.497874 6:0.521786 7:0.811919 8:0.054345 9:0.670044 
0.4088382057044062 1:-0.005753 2:0.567673 3:0.297872 4:0.317774 5:0.498137 6:0.522313 7:0.812 8:0.054593 9:0.668889 
0.01279028398885955 1:0.033948 2:0.446603 3:0.214072 4:0.340127 5:0.499987 6:0.522458 7:0.812568 8:0.054593 9:0.663733 
0.1572644364734281 1:0.044035 2:0.437339 3:0.208444 4:0.343933 5:0.500252 6:0.521772 7:0.812703 8:0.054593 9:0.662311 
0.05163459480729801 1:0.153482 2:0.414971 3:0.198435 4:0.368209 5:0.501768 6:0.515246 7:0.813486 8:0.057069 9:0.657644 
0.0347414884572066 1:0.188548 2:0.407795 3:0.198567 4:0.373889 5:0.502119 6:0.513486 7:0.813595 8:0.057069 9:0.657244 
0.02974971683181511 1:0.257441 2:0.385878 3:0.199257 4:0.385739 5:0.502791 6:0.509966 7:0.813676 8:0.056078 9:0.657622 
0.06701328127006742 1:0.365918 2:0.325084 3:0.198442 4:0.410902 5:0.504082 6:0.502532 7:0.812324 8:0.052241 9:0.6612 
0.06656388446899345 1:0.360352 2:0.31667 3:0.197603 4:0.413569 5:0.504252 6:0.501573 7:0.811892 8:0.05125 9:0.662089 
0.05936165244861562 1:0.278052 2:0.30789 3:0.194349 4:0.417223 5:0.504535 6:0.499967 7:0.811027 8:0.047784 9:0.665378 
0.03567754987233211 1:0.238675 2:0.310771 3:0.193112 4:0.4175 5:0.50455 6:0.499763 7:0.810865 8:0.04667 9:0.665556 
0.02557817424444269 1:0.199807 2:0.316022 3:0.191847 4:0.417492 5:0.504525 6:0.499592 7:0.810757 8:0.045432 9:0.666178 
0.05891979782553165 1:0.164528 2:0.323143 3:0.190583 4:0.41727 5:0.504459 6:0.499522 7:0.810676 8:0.044318 9:0.666356 
0.1218239662042754 1:0.084936 2:0.363093 3:0.185941 4:0.416644 5:0.503815 6:0.498998 7:0.811054 8:0.040109 9:0.665111 
0.01202728025722086 1:0.166501 2:0.40819 3:0.184092 4:0.424109 5:0.50269 6:0.498898 7:0.812297 8:0.037262 9:0.667067 
0.04783397363439811 1:0.218595 2:0.417788 3:0.1841 4:0.42739 5:0.502356 6:0.498999 7:0.812486 8:0.036767 9:0.667244 
0.05771715296150422 1:0.27758 2:0.42612 3:0.184298 4:0.43101 5:0.502007 6:0.498998 7:0.812595 8:0.036395 9:0.666089 
0.06779294359783274 1:0.3387 2:0.433466 3:0.186292 4:0.434763 5:0.501643 6:0.498805 7:0.812622 8:0.0359 9:0.665667 
0.05310880130726594 1:0.397202 2:0.440656 3:0.192039 4:0.438621 5:0.50126 6:0.498655 7:0.812703 8:0.035281 9:0.665378 
0.08629703132006802 1:0.448507 2:0.449068 3:0.200847 4:0.442628 5:0.50086 6:0.498206 7:0.812784 8:0.03491 9:0.663333 
0.003785680446244471 1:0.489738 2:0.459461 3:0.211976 4:0.446853 5:0.500448 6:0.49742 7:0.812892 8:0.034538 9:0.661733 
0.08659808966276987 1:0.520423 2:0.471929 3:0.224553 4:0.45131 5:0.500029 6:0.496351 7:0.813 8:0.034414 9:0.660467 
0.01144436164649169 1:0.541804 2:0.486456 3:0.238173 4:0.455977 5:0.499604 6:0.495141 7:0.813081 8:0.034291 9:0.660089 
0.0173486354203256 1:0.556182 2:0.502839 3:0.252105 4:0.460756 5:0.499175 6:0.493803 7:0.813108 8:0.034167 9:0.659133 
0.06376060958095371 1:0.566457 2:0.520522 3:0.265753 4:0.465478 5:0.498747 6:0.492277 7:0.813027 8:0.034291 9:0.658133 
0.06086592307743365 1:0.588807 2:0.573285 3:0.301404 4:0.478028 5:0.497508 6:0.486952 7:0.812541 8:0.035157 9:0.657156 
0.1062665326360517 1:0.54115 2:0.669064 3:0.349972 4:0.4923 5:0.494909 6:0.473426 7:0.810892 8:0.04209 9:0.660822 
0.03978296306811473 1:0.611573 2:0.694259 3:0.354885 4:0.490122 5:0.494572 6:0.470073 7:0.810135 8:0.046794 9:0.6642 
0.1028981497646336 1:0.678014 2:0.688853 3:0.354972 4:0.483538 5:0.494775 6:0.469268 7:0.809351 8:0.050508 9:0.6658 
0.01639002727735399 1:0.565257 2:0.553521 3:0.345726 4:0.443308 5:0.496644 6:0.470331 7:0.808081 8:0.053602 9:0.669867 
0.05445585625090248 1:0.568795 2:0.548747 3:0.345046 4:0.437501 5:0.496874 6:0.470989 7:0.807946 8:0.053479 9:0.670422 
0.003738200171710434 1:0.634748 2:0.586305 3:0.355897 4:0.374909 5:0.499061 6:0.47926 7:0.806892 8:0.054964 9:0.672533 
0.1145141391431193 1:0.634843 2:0.581676 3:0.367349 4:0.366579 5:0.499342 6:0.480389 7:0.806703 8:0.055088 9:0.672711 
0.02677773227717182 1:0.594338 2:0.56122 3:0.402196 4:0.348623 5:0.499895 6:0.482884 7:0.806351 8:0.054717 9:0.6736 
0.05078492462746334 1:0.548755 2:0.549417 3:0.422225 4:0.339279 5:0.500164 6:0.48416 7:0.806324 8:0.054717 9:0.673156 
0.06381176927816722 1:0.491361 2:0.538218 3:0.442194 4:0.329997 5:0.500431 6:0.485392 7:0.806405 8:0.054593 9:0.673356 
0.07120275282858481 1:0.430545 2:0.528428 3:0.461105 4:0.320954 5:0.500696 6:0.486741 7:0.806541 8:0.054469 9:0.674244 
0.05549503159955111 1:0.375432 2:0.520933 3:0.478267 4:0.312243 5:0.500957 6:0.488158 7:0.806703 8:0.054469 9:0.673933 
0.0340487056575822 1:0.289843 2:0.515859 3:0.530311 4:0.274266 5:0.502315 6:0.495656 7:0.807676 8:0.055335 9:0.673111 
0.04901174256732213 1:0.299625 2:0.515696 3:0.534542 4:0.267984 5:0.502611 6:0.496708 7:0.807919 8:0.055583 9:0.671467 
0.04681891117571002 1:0.368004 2:0.504842 3:0.539154 4:0.252213 5:0.503535 6:0.498858 7:0.808649 8:0.055954 9:0.669422 
0.004830042189904598 1:0.401646 2:0.499016 3:0.538977 4:0.247907 5:0.50385 6:0.49934 7:0.808838 8:0.056078 9:0.668978 
0.08228257195023718 1:0.436639 2:0.492634 3:0.538387 4:0.244009 5:0.504168 6:0.499736 7:0.809027 8:0.056202 9:0.668467 
0.1235483034641737 1:0.532009 2:0.452929 3:0.535283 4:0.229906 5:0.505777 6:0.500479 7:0.809892 8:0.056202 9:0.666378 
0.03846108539622206 1:0.475202 2:0.393144 3:0.535936 4:0.224624 5:0.507271 6:0.498832 7:0.810676 8:0.054717 9:0.663667 
0.1352859618324835 1:0.506289 2:0.318166 3:0.542877 4:0.22459 5:0.508642 6:0.498257 7:0.810595 8:0.050755 9:0.6662 
0.09923404927429685 1:0.403061 2:0.331687 3:0.545282 4:0.222526 5:0.509186 6:0.497712 7:0.810676 8:0.050879 9:0.665844 
0.1515976293795518 1:0.307563 2:0.322071 3:0.546526 4:0.222529 5:0.509459 6:0.497555 7:0.810973 8:0.050631 9:0.667044 
-1 1:-0.084158 2:0.734627 3:0.350152 4:0.242329 5:0.492639 6:0.489243 7:0.811189 8:0.049146 9:0.675333 
-1 1:-0.059111 2:0.732191 3:0.348926 4:0.243181 5:0.492735 6:0.490955 7:0.811243 8:0.050136 9:0.675933 
-1 1:-0.031666 2:0.726136 3:0.347621 4:0.244152 5:0.492865 6:0.492689 7:0.811297 8:0.051003 9:0.675556 
-1 1:-0.004112 2:0.716928 3:0.346369 4:0.245221 5:0.493024 6:0.494277 7:0.811351 8:0.051869 9:0.674533 
-1 1:0.021959 2:0.705288 3:0.34532 4:0.246372 5:0.49321 6:0.495737 7:0.811378 8:0.052612 9:0.674067 
-1 1:0.045003 2:0.691973 3:0.34454 4:0.247556 5:0.49342 6:0.497011 7:0.811378 8:0.053231 9:0.672422 
-1 1:0.063222 2:0.677615 3:0.344127 4:0.24871 5:0.493649 6:0.497902 7:0.811351 8:0.053726 9:0.670422 
-1 1:0.074715 2:0.662801 3:0.344112 4:0.249772 5:0.493894 6:0.498446 7:0.811297 8:0.054221 9:0.668578 
-0.2445517968936399 1:0.077979 2:0.648174 3:0.344428 4:0.250714 5:0.494151 6:0.49865 7:0.811243 8:0.054469 9:0.667022 
-0.6024471646551578 1:-0.036542 2:0.57015 3:0.350196 4:0.257658 5:0.496078 6:0.497493 7:0.811459 8:0.054717 9:0.666578 
-1 1:0.065668 2:0.539094 3:0.349568 4:0.270852 5:0.498316 6:0.500265 7:0.811054 8:0.050631 9:0.667311 
-0.6662306393007407 1:0.059688 2:0.537921 3:0.350152 4:0.271276 5:0.49844 6:0.500345 7:0.810973 8:0.050136 9:0.6668 
-1 1:0.02152 2:0.534971 3:0.351826 4:0.271849 5:0.498633 6:0.500164 7:0.810919 8:0.049146 9:0.666022 
-1 1:-0.008895 2:0.534243 3:0.352785 4:0.272122 5:0.498702 6:0.500048 7:0.810946 8:0.048527 9:0.665978 
-1 1:-0.044032 2:0.53458 3:0.353756 4:0.272491 5:0.498753 6:0.499871 7:0.811027 8:0.048032 9:0.665422 
-1 1:-0.081317 2:0.536258 3:0.354634 4:0.273023 5:0.498787 6:0.499577 7:0.811108 8:0.047537 9:0.664778 
-0.3339753976578314 1:-0.118829 2:0.539449 3:0.355372 4:0.273749 5:0.498807 6:0.49918 7:0.811216 8:0.047165 9:0.664467 
-0.3503926993051924 1:-0.15529 2:0.544371 3:0.355923 4:0.274719 5:0.498816 6:0.498779 7:0.811351 8:0.046918 9:0.664644 
-0.3596571959325917 1:-0.236393 2:0.572238 3:0.355745 4:0.279803 5:0.498805 6:0.498441 7:0.811892 8:0.046794 9:0.667222 
-1 1:-0.246923 2:0.585804 3:0.354917 4:0.282254 5:0.498807 6:0.498571 7:0.812081 8:0.047041 9:0.667444 
-1 1:-0.248679 2:0.600621 3:0.35375 4:0.285043 5:0.498819 6:0.498738 7:0.812216 8:0.047289 9:0.667667 
-0.2803827960128705 1:-0.24312 2:0.615952 3:0.352388 4:0.288117 5:0.498844 6:0.498976 7:0.812351 8:0.047784 9:0.668311 
-0.3085707916387872 1:-0.217345 2:0.645142 3:0.349466 4:0.294991 5:0.498953 6:0.499787 7:0.812568 8:0.049022 9:0.668889 
-1 1:-0.198364 2:0.657273 3:0.34811 4:0.298789 5:0.499045 6:0.500232 7:0.812703 8:0.049889 9:0.669089 
-1 1:-0.175407 2:0.666582 3:0.346885 4:0.302809 5:0.499165 6:0.500691 7:0.812784 8:0.050755 9:0.668978 
-1 1:-0.148813 2:0.67225 3:0.345779 4:0.307033 5:0.499316 6:0.501076 7:0.812892 8:0.051622 9:0.668533 
-1 1:-0.119009 2:0.673463 3:0.344839 4:0.311423 5:0.499496 6:0.501404 7:0.812946 8:0.052488 9:0.668067 
-1 1:-0.08669 2:0.669752 3:0.344063 4:0.315918 5:0.499702 6:0.501626 7:0.812973 8:0.053231 9:0.667911 
-1 1:-0.053556 2:0.66103 3:0.3435 4:0.320402 5:0.49993 6:0.501848 7:0.812946 8:0.053726 9:0.667511 
-1 1:-0.022508 2:0.647627 3:0.343181 4:0.324764 5:0.500177 6:0.501901 7:0.812865 8:0.054345 9:0.666311 
-0.7490993454008553 1:0.00346 2:0.630349 3:0.343046 4:0.328949 5:0.500441 6:0.501735 7:0.812784 8:0.054717 9:0.665333 
-0.4256418511993751 1:0.032319 2:0.588172 3:0.343723 4:0.336759 5:0.501004 6:0.501129 7:0.812595 8:0.055212 9:0.665022 
-1 1:0.034185 2:0.565482 3:0.34457 4:0.340377 5:0.501292 6:0.500851 7:0.812514 8:0.055212 9:0.6656 
-1 1:0.028307 2:0.543479 3:0.34576 4:0.343799 5:0.501578 6:0.500751 7:0.812405 8:0.055088 9:0.666356 
-1 1:0.016248 2:0.523729 3:0.347204 4:0.347034 5:0.501856 6:0.500726 7:0.812324 8:0.05484 9:0.666933 
-1 1:0.000177 2:0.507618 3:0.348813 4:0.350094 5:0.502125 6:0.500773 7:0.812243 8:0.054593 9:0.666422 
-1 1:-0.017534 2:0.496218 3:0.350532 4:0.353011 5:0.502388 6:0.500611 7:0.812189 8:0.054345 9:0.6652 
-1 1:-0.034084 2:0.490249 3:0.352219 4:0.355804 5:0.502646 6:0.500236 7:0.812135 8:0.054345 9:0.664267 
-1 1:-0.046941 2:0.489501 3:0.353744 4:0.358499 5:0.502905 6:0.499723 7:0.812081 8:0.054469 9:0.663644 
-1 1:-0.054515 2:0.493023 3:0.35498 4:0.361131 5:0.503168 6:0.499064 7:0.812054 8:0.054593 9:0.662956 
-1 1:-0.056587 2:0.499762 3:0.355917 4:0.363677 5:0.503435 6:0.498391 7:0.812 8:0.054717 9:0.663178 
-0.3137261925348756 1:-0.053726 2:0.508652 3:0.35645 4:0.36612 5:0.503712 6:0.497708 7:0.811946 8:0.055088 9:0.662933 
-0.5564293841225432 1:-0.038261 2:0.527832 3:0.356123 4:0.37054 5:0.504327 6:0.496566 7:0.811784 8:0.056697 9:0.665067 
-0.6697887723431681 1:-0.001914 2:0.516321 3:0.348133 4:0.378243 5:0.506408 6:0.496033 7:0.811324 8:0.060782 9:0.666578 
-1 1:-0.000246 2:0.49795 3:0.345937 4:0.379189 5:0.50689 6:0.496132 7:0.811216 8:0.06103 9:0.667911 
-1 1:-0.001713 2:0.474707 3:0.343743 4:0.379916 5:0.507379 6:0.496453 7:0.811108 8:0.061154 9:0.668333 
-0.3768014992007429 1:-0.006526 2:0.447558 3:0.341656 4:0.380404 5:0.507868 6:0.496738 7:0.811 8:0.06103 9:0.668067 
-0.04385668501116315 1:-0.041311 2:0.358992 3:0.336975 4:0.380357 5:0.50923 6:0.49789 7:0.810649 8:0.058802 9:0.669067 
-0.9067016843927388 1:-0.058359 2:0.332921 3:0.336086 4:0.379901 5:0.509617 6:0.49837 7:0.810541 8:0.057564 9:0.669378 
-0.4314703110302215 1:-0.096475 2:0.292785 3:0.33553 4:0.378509 5:0.510255 6:0.499586 7:0.810432 8:0.054717 9:0.6702 
-0.4304304219643138 1:-0.165364 2:0.272418 3:0.337041 4:0.375097 5:0.510935 6:0.502551 7:0.810405 8:0.048898 9:0.670689 
-1 1:-0.172056 2:0.278306 3:0.337633 4:0.37429 5:0.510985 6:0.503343 7:0.810432 8:0.04766 9:0.670933 
-0.4004573310339175 1:-0.139605 2:0.378411 3:0.346099 4:0.369851 5:0.509728 6:0.505205 7:0.810757 8:0.038871 9:0.663378 
-0.3986588900985903 1:-0.143547 2:0.396402 3:0.346322 4:0.3698 5:0.509449 6:0.504504 7:0.810811 8:0.038376 9:0.662689 
-1 1:-0.192864 2:0.469302 3:0.343832 4:0.37361 5:0.507641 6:0.500254 7:0.811568 8:0.037757 9:0.662533 
-1 1:-0.191636 2:0.469265 3:0.343657 4:0.375404 5:0.50733 6:0.499457 7:0.811757 8:0.037633 9:0.662356 
-0.3409985411863024 1:-0.182761 2:0.466271 3:0.34363 4:0.377558 5:0.507017 6:0.498629 7:0.811919 8:0.037509 9:0.662622 
-0.8586645543321718 1:-0.107523 2:0.44557 3:0.344502 4:0.38541 5:0.506055 6:0.496382 7:0.812162 8:0.037138 9:0.662844 
-0.1040899197325137 1:-0.070165 2:0.436893 3:0.345098 4:0.38821 5:0.505722 6:0.495693 7:0.812135 8:0.03689 9:0.663289 
-0.3382487998437687 1:-0.031373 2:0.428604 3:0.34595 4:0.390898 5:0.50538 6:0.495161 7:0.812054 8:0.036643 9:0.664356 
-1 1:0.004853 2:0.421433 3:0.347128 4:0.393343 5:0.505028 6:0.494732 7:0.811919 8:0.036271 9:0.664667 
-1 1:0.035265 2:0.416098 3:0.348612 4:0.395508 5:0.504665 6:0.494462 7:0.811784 8:0.036024 9:0.665667 
-1 1:0.058602 2:0.413314 3:0.350239 4:0.397389 5:0.504295 6:0.494348 7:0.811649 8:0.0359 9:0.666556 
