svm_type c_svc
kernel_type rbf
gamma 136
nr_class 2
total_sv 244
rho -0.927552
label 0 1
nr_sv 214 30
SV
1 1:0.560527 2:0.559428 3:0.488647 4:0.640982 5:0.559428 6:0.559428 7:0.065541 8:0.042085 9:0.732131 
1 1:0.560542 2:0.559788 3:0.486821 4:0.640928 5:0.559788 6:0.559788 7:0.065416 8:0.042085 9:0.732092 
1 1:0.560558 2:0.560138 3:0.48532 4:0.640861 5:0.560138 6:0.560138 7:0.065416 8:0.042085 9:0.732054 
1 1:0.56059 2:0.560478 3:0.485157 4:0.640792 5:0.560478 6:0.560478 7:0.065416 8:0.042085 9:0.732016 
0.6985099917797971 1:0.56058 2:0.560798 3:0.486119 4:0.640725 5:0.560798 6:0.560798 7:0.065416 8:0.042206 9:0.732016 
0.2680995064342803 1:0.559927 2:0.557824 3:0.500136 4:0.639692 5:0.557824 6:0.557824 7:0.065291 8:0.042206 9:0.731518 
1 1:0.559711 2:0.556784 3:0.502055 4:0.639523 5:0.556784 6:0.556784 7:0.065291 8:0.042085 9:0.731441 
1 1:0.559879 2:0.554999 3:0.503515 4:0.639341 5:0.554999 6:0.554999 7:0.065291 8:0.042085 9:0.731364 
1 1:0.5621 2:0.510483 3:0.494987 4:0.638316 5:0.510483 6:0.510483 7:0.066041 8:0.041964 9:0.73102 
0.1153173560920721 1:0.552949 2:0.489271 3:0.492604 4:0.638783 5:0.489271 6:0.489271 7:0.066291 8:0.041843 9:0.73125 
0.05268077147230218 1:0.488927 2:0.476352 3:0.487454 4:0.640063 5:0.476352 6:0.476352 7:0.062664 8:0.040876 9:0.587681 
0.03347813352997145 1:0.479185 2:0.502078 3:0.488867 4:0.636322 5:0.502078 6:0.502078 7:0.058537 8:0.04015 9:0.521451 
0.03230745981286426 1:0.474061 2:0.53338 3:0.490378 4:0.629064 5:0.53338 6:0.53338 7:0.053909 8:0.039545 9:0.460622 
0.02468934320707847 1:0.473988 2:0.563162 3:0.49182 4:0.618339 5:0.563162 6:0.563162 7:0.049656 8:0.039182 9:0.402896 
0.0170772340482571 1:0.478122 2:0.585073 3:0.493031 4:0.604774 5:0.585073 6:0.585073 7:0.046779 8:0.03882 9:0.347008 
0.03752576993673584 1:0.485252 2:0.595776 3:0.494037 4:0.590133 5:0.595776 6:0.595776 7:0.047154 8:0.038699 9:0.292615 
0.01215194173480138 1:0.494361 2:0.595589 3:0.494957 4:0.576704 5:0.595589 6:0.595589 7:0.049531 8:0.039062 9:0.24006 
0.03325770051895 1:0.504333 2:0.589014 3:0.49577 4:0.565304 5:0.589014 6:0.589014 7:0.052158 8:0.039666 9:0.190761 
0.01440442451152391 1:0.521223 2:0.58001 3:0.496801 4:0.547973 5:0.58001 6:0.58001 7:0.056285 8:0.040634 9:0.104535 
0.01806134594342446 1:0.525847 2:0.583873 3:0.49689 4:0.541193 5:0.583873 6:0.583873 7:0.057286 8:0.040513 9:0.068069 
0.06124742106815197 1:0.531349 2:0.620883 3:0.49396 4:0.516865 5:0.620883 6:0.620883 7:0.058662 8:0.04015 9:0 
0.02434987572757729 1:0.552936 2:0.588343 3:0.488794 4:0.502749 5:0.588343 6:0.588343 7:0.063665 8:0.041238 9:0.091167 
0.006377694024459533 1:0.559481 2:0.575204 3:0.487904 4:0.501866 5:0.575204 6:0.575204 7:0.065041 8:0.041359 9:0.135601 
0.03118630228355081 1:0.565653 2:0.563985 3:0.487307 4:0.502024 5:0.563985 6:0.563985 7:0.066417 8:0.04148 9:0.186279 
0.01731717690314695 1:0.571309 2:0.555524 3:0.487018 4:0.503135 5:0.555524 6:0.555524 7:0.067542 8:0.041601 9:0.241324 
0.03300608665805903 1:0.576419 2:0.550043 3:0.487071 4:0.505121 5:0.550043 6:0.550043 7:0.068668 8:0.041722 9:0.29928 
0.02388783540808578 1:0.580976 2:0.547513 3:0.487313 4:0.50791 5:0.547513 6:0.547513 7:0.069543 8:0.041964 9:0.358577 
0.01744721392246713 1:0.584872 2:0.547706 3:0.487636 4:0.511336 5:0.547706 6:0.547706 7:0.070294 8:0.042206 9:0.41795 
0.02679993999566409 1:0.588012 2:0.550209 3:0.487927 4:0.515184 5:0.550209 6:0.550209 7:0.070669 8:0.042327 9:0.475255 
0.006687721668355839 1:0.590458 2:0.554271 3:0.488225 4:0.519306 5:0.554271 6:0.554271 7:0.070919 8:0.042448 9:0.529265 
0.04385210219917728 1:0.592358 2:0.558738 3:0.488577 4:0.523619 5:0.558738 6:0.558738 7:0.071169 8:0.04269 9:0.579024 
0.3218952980560343 1:0.590387 2:0.567953 3:0.490044 4:0.556617 5:0.567953 6:0.567953 7:0.071295 8:0.044383 9:0.777293 
1 1:0.587134 2:0.567413 3:0.490264 4:0.560957 5:0.567413 6:0.567413 7:0.071044 8:0.044624 9:0.784264 
1 1:0.58308 2:0.566491 3:0.490487 4:0.565129 5:0.566491 6:0.566491 7:0.070794 8:0.044745 9:0.787405 
1 1:0.578163 2:0.565192 3:0.490712 4:0.569175 5:0.565192 6:0.565192 7:0.070669 8:0.044987 9:0.787405 
1 1:0.636472 2:0.582196 3:0.49717 4:0.674866 5:0.582196 6:0.582196 7:0.062914 8:0.040271 9:0.734965 
1 1:0.629587 2:0.585633 3:0.497198 4:0.672829 5:0.585633 6:0.585633 7:0.062914 8:0.040513 9:0.736919 
0.9846752235519182 1:0.617504 2:0.588724 3:0.49701 4:0.670747 5:0.588724 6:0.588724 7:0.062789 8:0.040634 9:0.739064 
1 1:0.58315 2:0.590467 3:0.496862 4:0.666191 5:0.590467 6:0.590467 7:0.062414 8:0.040876 9:0.742741 
1 1:0.563562 2:0.584023 3:0.497247 4:0.663665 5:0.584023 6:0.584023 7:0.062164 8:0.040876 9:0.743469 
1 1:0.544001 2:0.568181 3:0.497866 4:0.661043 5:0.568181 6:0.568181 7:0.062164 8:0.040996 9:0.743048 
1 1:0.525512 2:0.540918 3:0.49852 4:0.658485 5:0.540918 6:0.540918 7:0.062414 8:0.041238 9:0.74186 
1 1:0.508832 2:0.502045 3:0.499011 4:0.65628 5:0.502045 6:0.502045 7:0.063039 8:0.041359 9:0.739677 
0.403919433022335 1:0.494437 2:0.453078 3:0.49934 4:0.654626 5:0.453078 6:0.453078 7:0.06379 8:0.041601 9:0.738298 
0.03887733294055569 1:0.473145 2:0.337519 3:0.498848 4:0.653821 5:0.337519 6:0.337519 7:0.066417 8:0.042085 9:0.733548 
0.04890569367984846 1:0.46605 2:0.278611 3:0.498312 4:0.655009 5:0.278611 6:0.278611 7:0.067667 8:0.042327 9:0.730445 
0.0438704581193949 1:0.460715 2:0.222868 3:0.497722 4:0.65705 5:0.222868 6:0.222868 7:0.068668 8:0.042448 9:0.728453 
0.03845933610872351 1:0.45648 2:0.17202 3:0.497093 4:0.659878 5:0.17202 6:0.17202 7:0.069669 8:0.042569 9:0.726155 
0.03737321301017956 1:0.452749 2:0.127001 3:0.49648 4:0.66351 5:0.127001 6:0.127001 7:0.070794 8:0.04269 9:0.723971 
0.02418877188771395 1:0.449368 2:0.088197 3:0.495954 4:0.668014 5:0.088197 6:0.088197 7:0.07192 8:0.04269 9:0.722209 
0.03354469292325681 1:0.446622 2:0.056149 3:0.495575 4:0.673445 5:0.056149 6:0.056149 7:0.073171 8:0.04269 9:0.721137 
0.000863988930143935 1:0.446535 2:0.00393 3:0.495404 4:0.694833 5:0.00393 6:0.00393 7:0.076173 8:0.04269 9:0.727151 
0.0529170099879416 1:0.450406 2:0 3:0.49552 4:0.703521 5:0 6:0 7:0.077298 8:0.04269 9:0.731633 
0.03081561033924254 1:0.506856 2:0.026433 3:0.495516 4:0.760241 5:0.026433 6:0.026433 7:0.082677 8:0.043657 9:0.765303 
0.002210215439142848 1:0.522901 2:0.036189 3:0.495394 4:0.773852 5:0.036189 6:0.036189 7:0.083302 8:0.043899 9:0.776105 
0.0276766375104109 1:0.53702 2:0.051206 3:0.494953 4:0.787745 5:0.051206 6:0.051206 7:0.083427 8:0.043899 9:0.787635 
0.01907131614768707 1:0.546652 2:0.074865 3:0.494031 4:0.801581 5:0.074865 6:0.074865 7:0.083177 8:0.043536 9:0.798629 
0.03700384481318857 1:0.549413 2:0.109548 3:0.492573 4:0.815121 5:0.109548 6:0.109548 7:0.082927 8:0.043173 9:0.810312 
0.04243161175910259 1:0.543625 2:0.155635 3:0.490742 4:0.828667 5:0.155635 6:0.155635 7:0.083052 8:0.043052 9:0.822301 
0.05099987929079672 1:0.528536 2:0.211367 3:0.488688 4:0.842268 5:0.211367 6:0.211367 7:0.082927 8:0.04281 9:0.835057 
0.05446812728181402 1:0.50437 2:0.273482 3:0.486698 4:0.855657 5:0.273482 6:0.273482 7:0.082552 8:0.042327 9:0.848502 
0.05613960433281822 1:0.472142 2:0.33835 3:0.485101 4:0.868544 5:0.33835 6:0.33835 7:0.081676 8:0.041601 9:0.862369 
0.05548620967156592 1:0.433335 2:0.402479 3:0.484014 4:0.880781 5:0.402479 6:0.402479 7:0.081051 8:0.040513 9:0.87658 
0.05312831594815481 1:0.389634 2:0.463067 3:0.483495 4:0.89281 5:0.463067 6:0.463067 7:0.080926 8:0.039062 9:0.889527 
0.05010253326930749 1:0.342887 2:0.518435 3:0.483586 4:0.904619 5:0.518435 6:0.518435 7:0.080425 8:0.037489 9:0.90213 
0.0439941251443724 1:0.294866 2:0.567608 3:0.484275 4:0.915868 5:0.567608 6:0.567608 7:0.07955 8:0.035675 9:0.914732 
0.04095951467861125 1:0.247199 2:0.609892 3:0.485435 4:0.926245 5:0.609892 6:0.609892 7:0.078174 8:0.03374 9:0.92676 
0.03165922556898926 1:0.201412 2:0.644821 3:0.486936 4:0.935488 5:0.644821 6:0.644821 7:0.076673 8:0.031685 9:0.937409 
0.03086722989494802 1:0.158865 2:0.671934 3:0.488788 4:0.943378 5:0.671934 6:0.671934 7:0.074797 8:0.029508 9:0.946219 
0.02349307348461716 1:0.120562 2:0.690979 3:0.49067 4:0.949751 5:0.690979 6:0.690979 7:0.07267 8:0.027331 9:0.952655 
0.06180255479413343 1:0 2:0.691012 3:0.495523 4:0.965612 5:0.691012 6:0.691012 7:0.070419 8:0.010642 9:0.95932 
0.01568007265831809 1:0.069428 2:0.721631 3:0.493908 4:0.986245 5:0.721631 6:0.721631 7:0.07217 8:0.003507 9:0.951046 
0.03372485195018574 1:0.11 2:0.745821 3:0.493161 4:0.991116 5:0.745821 6:0.745821 7:0.07142 8:0.002419 9:0.946794 
0.03362840783051931 1:0.158561 2:0.774942 3:0.492565 4:0.995242 5:0.774942 6:0.774942 7:0.070294 8:0.001451 9:0.941699 
0.0398326386369988 1:0.212936 2:0.806995 3:0.492027 4:0.998323 5:0.806995 6:0.806995 7:0.068668 8:0.000605 9:0.935877 
0.0377973473205704 1:0.270467 2:0.839939 3:0.491603 4:1 5:0.839939 6:0.839939 7:0.066667 8:0.000121 9:0.92925 
0.03856544195262528 1:0.328527 2:0.871788 3:0.491535 4:0.999856 5:0.871788 6:0.871788 7:0.06404 8:0 9:0.92178 
0.03424110802288535 1:0.384807 2:0.900721 3:0.49203 4:0.997459 5:0.900721 6:0.900721 7:0.060913 8:0.000121 9:0.914119 
0.02947238495549823 1:0.437465 2:0.925237 3:0.493056 4:0.992481 5:0.925237 6:0.925237 7:0.057286 8:0.000726 9:0.90573 
0.03133032068940947 1:0.485183 2:0.944682 3:0.494574 4:0.984635 5:0.944682 6:0.944682 7:0.053533 8:0.001693 9:0.896652 
0.01202741016654999 1:0.527313 2:0.959344 3:0.496462 4:0.973859 5:0.959344 6:0.959344 7:0.049781 8:0.003023 9:0.887076 
0.03627111996810644 1:0.563671 2:0.970146 3:0.498538 4:0.960034 5:0.970146 6:0.970146 7:0.045654 8:0.004716 9:0.876657 
0.03376108158353655 1:0.619723 2:0.984359 3:0.502775 4:0.922082 5:0.984359 6:0.984359 7:0.036398 8:0.008586 9:0.851337 
0.03771256875013509 1:0.656867 2:0.991933 3:0.505333 4:0.869152 5:0.991933 6:0.991933 7:0.026642 8:0.013303 9:0.820922 
0.002487001184474472 1:0.670022 2:0.992978 3:0.505702 4:0.837129 5:0.992978 6:0.992978 7:0.022139 8:0.015842 9:0.802881 
0.0289437884130817 1:0.680211 2:0.991723 3:0.50535 4:0.801792 5:0.991723 6:0.991723 7:0.018136 8:0.018503 9:0.783651 
0.02078990554503782 1:0.687928 2:0.988224 3:0.504315 4:0.763502 5:0.988224 6:0.988224 7:0.014509 8:0.021163 9:0.763234 
0.02251212414773016 1:0.694556 2:0.982067 3:0.502935 4:0.72254 5:0.982067 6:0.982067 7:0.011132 8:0.024187 9:0.741822 
0.02795859793677561 1:0.702406 2:0.971492 3:0.501282 4:0.679063 5:0.971492 6:0.971492 7:0.008005 8:0.027089 9:0.71972 
0.03063623192109665 1:0.714007 2:0.954353 3:0.499386 4:0.633299 5:0.954353 6:0.954353 7:0.005378 8:0.029992 9:0.696545 
0.0385490183252518 1:0.73126 2:0.928929 3:0.497228 4:0.585732 5:0.928929 6:0.928929 7:0.003377 8:0.033257 9:0.672872 
0.04572446704147745 1:0.754875 2:0.894445 3:0.494991 4:0.53695 5:0.894445 6:0.894445 7:0.002251 8:0.036764 9:0.63066 
0.04964555312800589 1:0.784461 2:0.851575 3:0.492667 4:0.487632 5:0.851575 6:0.851575 7:0.001751 8:0.040271 9:0.597525 
0.05257332209108918 1:0.818457 2:0.802219 3:0.490792 4:0.437608 5:0.802219 6:0.802219 7:0.000625 8:0.043536 9:0.573087 
0.05489550137793479 1:0.854509 2:0.748496 3:0.489479 4:0.386908 5:0.748496 6:0.748496 7:0 8:0.046922 9:0.554394 
0.05487176611050628 1:0.889906 2:0.692342 3:0.488644 4:0.336037 5:0.692342 6:0.692342 7:0.000125 8:0.050187 9:0.539991 
0.05416223481167265 1:0.921974 2:0.635648 3:0.487969 4:0.28558 5:0.635648 6:0.635648 7:0.001251 8:0.053453 9:0.528193 
0.05144150549039905 1:0.948714 2:0.58001 3:0.487359 4:0.236663 5:0.58001 6:0.58001 7:0.004253 8:0.056234 9:0.518348 
0.04769928914493868 1:0.969217 2:0.526942 3:0.486732 4:0.190823 5:0.526942 6:0.526942 7:0.008881 8:0.058774 9:0.509844 
0.04407792003418405 1:0.983402 2:0.47768 3:0.485971 4:0.148706 5:0.47768 6:0.47768 7:0.014009 8:0.061192 9:0.502222 
0.03774792134158993 1:0.992312 2:0.432855 3:0.485125 4:0.111671 5:0.432855 6:0.432855 7:0.022139 8:0.063248 9:0.496361 
0.03746925661777726 1:0.997477 2:0.392698 3:0.484148 4:0.081478 5:0.392698 6:0.392698 7:0.031019 8:0.065062 9:0.492262 
0.02320969451848101 1:0.999952 2:0.357074 3:0.482854 4:0.057958 5:0.357074 6:0.357074 7:0.039149 8:0.066755 9:0.489389 
0.03479735707867181 1:1 2:0.325552 3:0.481698 4:0.039587 5:0.325552 6:0.325552 7:0.044028 8:0.068932 9:0.487014 
0.01982295145866797 1:0.997787 2:0.297543 3:0.480841 4:0.024042 5:0.297543 6:0.297543 7:0.046904 8:0.071593 9:0.48441 
0.06192394670678165 1:0.993116 2:0.250312 3:0.480347 4:0 5:0.250312 6:0.250312 7:0.053158 8:0.078123 9:0.47966 
0.07248284562917197 1:0.89488 2:0.260868 3:0.483071 4:0.13616 5:0.260868 6:0.260868 7:1 8:1 9:0.766644 
0.0483747248565702 1:0.544611 2:0.358025 3:0.492067 4:0.639988 5:0.358025 6:0.358025 7:0.065291 8:0.04281 9:0.731594 
0.01626605215239612 1:0.571339 2:0.58541 3:0.483228 4:0.611814 5:0.58541 6:0.58541 7:0.060538 8:0.041601 9:0.554355 
0.03554917706496232 1:0.566165 2:0.600305 3:0.482505 4:0.60806 5:0.600305 6:0.600305 7:0.060788 8:0.041722 9:0.525358 
0.001821434933331201 1:0.549587 2:0.614552 3:0.481339 4:0.600677 5:0.614552 6:0.614552 7:0.060913 8:0.041722 9:0.465487 
0.02253056029592893 1:0.540514 2:0.616013 3:0.481059 4:0.597101 5:0.616013 6:0.616013 7:0.061038 8:0.041238 9:0.442274 
0.02278718841476934 1:0.528736 2:0.610744 3:0.480999 4:0.590373 5:0.610744 6:0.610744 7:0.061538 8:0.041117 9:0.409599 
0.002355344613956551 1:0.55129 2:0.545564 3:0.485667 4:0.558266 5:0.545564 6:0.545564 7:0.058412 8:0.041964 9:0.395886 
0.06140663755264585 1:0.560969 2:0.481545 3:0.489016 4:0.550207 5:0.481545 6:0.481545 7:0.066917 8:0.044383 9:0.428599 
0.007410185861632048 1:0.51211 2:0.543247 3:0.490395 4:0.56021 5:0.543247 6:0.543247 7:0.069919 8:0.043899 9:0.461312 
0.01413010282498022 1:0.458944 2:0.593435 3:0.493472 4:0.572587 5:0.593435 6:0.593435 7:0.07217 8:0.049462 9:0.48123 
0.00315481494531315 1:0.434311 2:0.603091 3:0.494233 4:0.578015 5:0.603091 6:0.603091 7:0.072795 8:0.051276 9:0.48824 
0.04099172563189471 1:0.402312 2:0.609602 3:0.494203 4:0.583905 5:0.609602 6:0.609602 7:0.073546 8:0.052122 9:0.495403 
0.006115095604023323 1:0.362192 2:0.612923 3:0.487258 4:0.59067 5:0.612923 6:0.612923 7:0.075047 8:0.052364 9:0.50272 
0.03462970088418337 1:0.313998 2:0.611746 3:0.467597 4:0.598433 5:0.611746 6:0.611746 7:0.075797 8:0.052122 9:0.509883 
0.03227007656214389 1:0.259013 2:0.603865 3:0.435285 4:0.606287 5:0.603865 6:0.603865 7:0.075297 8:0.051397 9:0.516663 
0.03790533699185849 1:0.201575 2:0.588708 3:0.393532 4:0.613581 5:0.588708 6:0.588708 7:0.074672 8:0.050308 9:0.524592 
0.0397077780587539 1:0.148594 2:0.56802 3:0.345646 4:0.620809 5:0.56802 6:0.56802 7:0.075297 8:0.049462 9:0.533556 
0.03269161544899898 1:0.106142 2:0.545059 3:0.295257 4:0.628895 5:0.545059 6:0.545059 7:0.076673 8:0.048857 9:0.543591 
0.03684289709540389 1:0.077246 2:0.524111 3:0.245424 4:0.638136 5:0.524111 6:0.524111 7:0.078049 8:0.048373 9:0.555313 
0.01188645165941402 1:0.06185 2:0.509493 3:0.198592 4:0.648285 5:0.509493 6:0.509493 7:0.079049 8:0.04789 9:0.567992 
0.03431093511936995 1:0.057961 2:0.504076 3:0.156385 4:0.658994 5:0.504076 6:0.504076 7:0.079425 8:0.047043 9:0.581131 
0.01048976403349577 1:0.063106 2:0.508385 3:0.11965 4:0.669755 5:0.508385 6:0.508385 7:0.0793 8:0.045834 9:0.594461 
0.02167323029409704 1:0.075056 2:0.520614 3:0.088756 4:0.680245 5:0.520614 6:0.520614 7:0.078799 8:0.044141 9:0.608404 
0.02523109878399195 1:0.092409 2:0.537698 3:0.063623 4:0.690378 5:0.537698 6:0.537698 7:0.078424 8:0.041722 9:0.622194 
0.02102324958521451 1:0.1151 2:0.556635 3:0.043938 4:0.700617 5:0.556635 6:0.556635 7:0.079049 8:0.039062 9:0.637363 
0.0248884405833364 1:0.144364 2:0.575791 3:0.029156 4:0.711365 5:0.575791 6:0.575791 7:0.079675 8:0.036764 9:0.653796 
0.02993339913455713 1:0.181596 2:0.595663 3:0.018446 4:0.722596 5:0.595663 6:0.595663 7:0.080175 8:0.035554 9:0.67111 
0.02963014285080851 1:0.226673 2:0.617651 3:0.011287 4:0.733891 5:0.617651 6:0.617651 7:0.079925 8:0.035917 9:0.688845 
0.0362588998082015 1:0.276513 2:0.6425 3:0.006596 4:0.744943 5:0.6425 6:0.6425 7:0.0798 8:0.036643 9:0.705968 
0.03145130259253578 1:0.326127 2:0.66998 3:0.003949 4:0.756056 5:0.66998 6:0.66998 7:0.079925 8:0.037127 9:0.722746 
0.036747932215945 1:0.371558 2:0.699573 3:0.00289 4:0.767506 5:0.699573 6:0.699573 7:0.0808 8:0.037731 9:0.739677 
0.03030168306269953 1:0.410717 2:0.730978 3:0.002938 4:0.779654 5:0.730978 6:0.730978 7:0.081551 8:0.038336 9:0.757029 
0.03617529364525984 1:0.443424 2:0.764403 3:0.003617 4:0.792261 5:0.764403 6:0.764403 7:0.081926 8:0.039062 9:0.773424 
0.03048439153514806 1:0.470735 2:0.799762 3:0.004338 4:0.804809 5:0.799762 6:0.799762 7:0.081301 8:0.039303 9:0.788669 
0.03693031642853753 1:0.494247 2:0.836308 3:0.004779 4:0.816413 5:0.836308 6:0.836308 7:0.079675 8:0.039062 9:0.80311 
0.02627992040511891 1:0.515802 2:0.872327 3:0.004921 4:0.826629 5:0.872327 6:0.872327 7:0.077799 8:0.03882 9:0.815981 
0.03667800295199319 1:0.537267 2:0.9055 3:0.004745 4:0.835603 5:0.9055 6:0.9055 7:0.076298 8:0.038457 9:0.826936 
0.01229242489345321 1:0.55996 2:0.934253 3:0.004193 4:0.843126 5:0.934253 6:0.934253 7:0.074171 8:0.038336 9:0.836474 
0.03837845226549775 1:0.583989 2:0.958052 3:0.003308 4:0.84902 5:0.958052 6:0.958052 7:0.072045 8:0.038094 9:0.844633 
0.0007320536677610554 1:0.608736 2:0.976609 3:0.0022 4:0.853313 5:0.976609 6:0.976609 7:0.070294 8:0.037973 9:0.851337 
0.02366343915890987 1:0.633282 2:0.989654 3:0.001108 4:0.856349 5:0.989654 6:0.989654 7:0.068543 8:0.037731 9:0.856125 
0.005224052772147374 1:0.657087 2:0.997381 3:0.000314 4:0.857867 5:0.997381 6:0.997381 7:0.066542 8:0.03761 9:0.859343 
0.006686443254909566 1:0.680157 2:1 3:0 4:0.858148 5:1 6:1 7:0.065541 8:0.038094 9:0.861947 
0.03000526612208756 1:0.702523 2:0.997337 3:0.000312 4:0.858023 5:0.997337 6:0.997337 7:0.065291 8:0.039182 9:0.864131 
0.022813804756796 1:0.756894 2:0.967902 3:0.00452 4:0.855687 5:0.967902 6:0.967902 7:0.062914 8:0.043294 9:0.866544 
0.0212546672101024 1:0.766477 2:0.954321 3:0.00682 4:0.852805 5:0.954321 6:0.954321 7:0.060663 8:0.044504 9:0.866084 
0.03328173280549236 1:0.768463 2:0.913913 3:0.012443 4:0.839737 5:0.913913 6:0.913913 7:0.053408 8:0.045834 9:0.853099 
0.03029115612145607 1:0.76253 2:0.880401 3:0.015725 4:0.829037 5:0.880401 6:0.880401 7:0.050156 8:0.045713 9:0.844212 
0.04593487295187808 1:0.754963 2:0.83419 3:0.019237 4:0.816232 5:0.83419 6:0.83419 7:0.04853 8:0.045592 9:0.834636 
0.05206701166840066 1:0.74789 2:0.775796 3:0.022631 4:0.803295 5:0.775796 6:0.775796 7:0.049406 8:0.045834 9:0.825864 
0.0549506436780649 1:0.742251 2:0.709956 3:0.026256 4:0.791572 5:0.709956 6:0.709956 7:0.051657 8:0.045955 9:0.818433 
0.05163087112033427 1:0.737685 2:0.6445 3:0.029888 4:0.782007 5:0.6445 6:0.6445 7:0.054659 8:0.045713 9:0.812763 
0.0438890515010566 1:0.733378 2:0.587389 3:0.03329 4:0.774735 5:0.587389 6:0.587389 7:0.057786 8:0.044866 9:0.80878 
0.02046610066744844 1:0.729086 2:0.544297 3:0.037733 4:0.769843 5:0.544297 6:0.544297 7:0.060663 8:0.043899 9:0.806175 
0.04880663023353461 1:0.725609 2:0.508123 3:0.071188 4:0.765358 5:0.508123 6:0.508123 7:0.063915 8:0.042085 9:0.804911 
0.0126066654159373 1:0.733224 2:0.527744 3:0.133407 4:0.763093 5:0.527744 6:0.527744 7:0.063915 8:0.040634 9:0.805639 
0.02920815444453623 1:0.739567 2:0.547606 3:0.170509 4:0.761667 5:0.547606 6:0.547606 7:0.063415 8:0.040271 9:0.805524 
0.0261450123083702 1:0.746596 2:0.567745 3:0.209158 4:0.759414 5:0.567745 6:0.567745 7:0.061789 8:0.040392 9:0.806405 
0.01823358064260302 1:0.753541 2:0.584488 3:0.247608 4:0.755889 5:0.584488 6:0.584488 7:0.060163 8:0.040634 9:0.808741 
0.01531812010555448 1:0.759136 2:0.595051 3:0.284579 4:0.751313 5:0.595051 6:0.595051 7:0.059162 8:0.04015 9:0.812687 
0.02518119482789965 1:0.762594 2:0.597896 3:0.319164 4:0.745993 5:0.597896 6:0.597896 7:0.058286 8:0.039182 9:0.817858 
0.01327598913399142 1:0.76452 2:0.593219 3:0.35073 4:0.740293 5:0.593219 6:0.593219 7:0.058286 8:0.038336 9:0.8246 
0.00261580308614439 1:0.766665 2:0.582845 3:0.378777 4:0.734923 5:0.582845 6:0.582845 7:0.058912 8:0.037731 9:0.83341 
0.03791811741247443 1:0.770373 2:0.569944 3:0.403138 4:0.729864 5:0.569944 6:0.569944 7:0.059037 8:0.037489 9:0.843561 
0.02354784270432399 1:0.782606 2:0.548523 3:0.440716 4:0.719654 5:0.548523 6:0.548523 7:0.058787 8:0.037006 9:0.866851 
0.008319110234369508 1:0.79726 2:0.539013 3:0.465228 4:0.708905 5:0.539013 6:0.539013 7:0.058537 8:0.036885 9:0.891404 
0.02388111991414004 1:0.809565 2:0.537554 3:0.483563 4:0.692563 5:0.537554 6:0.537554 7:0.058662 8:0.03761 9:0.926186 
0.0148376504754671 1:0.80784 2:0.538871 3:0.486386 4:0.687237 5:0.538871 6:0.538871 7:0.058787 8:0.037731 9:0.935992 
0.02398558089379722 1:0.772266 2:0.555155 3:0.489654 4:0.666889 5:0.555155 6:0.555155 7:0.059412 8:0.038336 9:0.970965 
0.0148019588054069 1:0.74401 2:0.572328 3:0.48899 4:0.657201 5:0.572328 6:0.572328 7:0.059037 8:0.038457 9:0.985023 
0.03601722368582842 1:0.71706 2:0.597973 3:0.488915 4:0.646782 5:0.597973 6:0.597973 7:0.058537 8:0.03882 9:0.994982 
0.00728748089054639 1:0.704804 2:0.612481 3:0.489331 4:0.641245 5:0.612481 6:0.612481 7:0.058286 8:0.038699 9:0.998276 
0.006929448640397323 1:0.69327 2:0.626974 3:0.490114 4:0.635464 5:0.626974 6:0.626974 7:0.057911 8:0.038699 9:0.999885 
0.004052765092132402 1:0.671939 2:0.650548 3:0.492239 4:0.622776 5:0.650548 6:0.650548 7:0.05666 8:0.038578 9:0.998353 
0.01991318297332484 1:0.66171 2:0.656848 3:0.493674 4:0.615574 5:0.656848 6:0.656848 7:0.056035 8:0.038941 9:0.995365 
0.02962029702316451 1:0.650672 2:0.658042 3:0.495272 4:0.608129 5:0.658042 6:0.658042 7:0.056035 8:0.039666 9:0.991803 
0.03962597010509228 1:0.568398 2:0.630616 3:0.499751 4:0.582283 5:0.630616 6:0.630616 7:0.057911 8:0.040996 9:0.975714 
0.02505688375075326 1:0.506562 2:0.618971 3:0.500224 4:0.5703 5:0.618971 6:0.618971 7:0.057786 8:0.040996 9:0.96407 
0.004200727372939562 1:0.476821 2:0.615373 3:0.500323 4:0.564279 5:0.615373 6:0.615373 7:0.057661 8:0.040755 9:0.957519 
0.02875094430881296 1:0.449791 2:0.612135 3:0.500549 4:0.558095 5:0.612135 6:0.612135 7:0.057536 8:0.040634 9:0.950739 
0.03502125503325178 1:0.393476 2:0.59314 3:0.502883 4:0.540978 5:0.59314 6:0.59314 7:0.058662 8:0.041238 9:0.933732 
0.02591644372982842 1:0.378762 2:0.564292 3:0.535564 4:0.531077 5:0.564292 6:0.564292 7:0.059912 8:0.040755 9:0.925381 
0.02562300556962023 1:0.379013 2:0.54204 3:0.571624 4:0.527221 5:0.54204 6:0.54204 7:0.061413 8:0.04015 9:0.921895 
0.03590476736113585 1:0.3848 2:0.515404 3:0.61694 4:0.524839 5:0.515404 6:0.515404 7:0.063665 8:0.039908 9:0.918908 
0.02752071553857529 1:0.394492 2:0.489859 3:0.666912 4:0.524223 5:0.489859 6:0.489859 7:0.065666 8:0.039908 9:0.916341 
0.0294441393064773 1:0.40594 2:0.472682 3:0.718492 4:0.524835 5:0.472682 6:0.472682 7:0.066792 8:0.039908 9:0.91343 
0.02099307771996665 1:0.417853 2:0.468601 3:0.768443 4:0.526123 5:0.468601 6:0.468601 7:0.067542 8:0.039787 9:0.909101 
0.02639912270094053 1:0.430055 2:0.478651 3:0.814827 4:0.528039 5:0.478651 6:0.478651 7:0.068793 8:0.039787 9:0.902819 
0.03132329121932073 1:0.443124 2:0.501555 3:0.856387 4:0.531581 5:0.501555 6:0.501555 7:0.07167 8:0.039787 9:0.894737 
0.03710195073637022 1:0.458088 2:0.536076 3:0.892441 4:0.537663 5:0.536076 6:0.536076 7:0.075047 8:0.040271 9:0.885735 
0.04691873082928085 1:0.475705 2:0.582117 3:0.922751 4:0.546206 5:0.582117 6:0.582117 7:0.077674 8:0.040996 9:0.875699 
0.05186632531744446 1:0.495762 2:0.638597 3:0.947293 4:0.555861 5:0.638597 6:0.638597 7:0.077924 8:0.041601 9:0.863863 
0.05409091205996697 1:0.517562 2:0.701555 3:0.966409 4:0.565056 5:0.701555 6:0.701555 7:0.076548 8:0.042327 9:0.850034 
0.05076848023158208 1:0.540169 2:0.764166 3:0.980535 4:0.572674 5:0.764166 6:0.764166 7:0.074171 8:0.043415 9:0.834253 
0.04263377452614857 1:0.561857 2:0.818375 3:0.990103 4:0.578617 5:0.818375 6:0.818375 7:0.072295 8:0.044504 9:0.816747 
0.01046370427087653 1:0.580139 2:0.857851 3:0.995989 4:0.58341 5:0.857851 6:0.857851 7:0.071295 8:0.045471 9:0.798169 
0.05529790225156704 1:0.596917 2:0.885944 3:1 4:0.591994 5:0.885944 6:0.885944 7:0.071044 8:0.046922 9:0.760706 
0.02140305810333896 1:0.563309 2:0.842817 3:0.993123 4:0.608858 5:0.842817 6:0.842817 7:0.075547 8:0.048253 9:0.711369 
0.02250447243568164 1:0.541222 2:0.823918 3:0.988765 4:0.61733 5:0.823918 6:0.823918 7:0.077298 8:0.048615 9:0.698805 
0.03963797952411509 1:0.489709 2:0.804228 3:0.978989 4:0.637648 5:0.804228 6:0.804228 7:0.078799 8:0.048736 9:0.679537 
0.04845409997761028 1:0.399394 2:0.817396 3:0.966274 4:0.663032 5:0.817396 6:0.817396 7:0.068918 8:0.049341 9:0.659695 
0.003366629301817286 1:0.363509 2:0.79342 3:0.964519 4:0.665578 5:0.79342 6:0.79342 7:0.066041 8:0.049462 9:0.660078 
0.03066666966804494 1:0.345793 2:0.772388 3:0.964275 4:0.666104 5:0.772388 6:0.772388 7:0.066542 8:0.048736 9:0.663104 
0.0009461499954397348 1:0.30621 2:0.723454 3:0.965154 4:0.672495 5:0.723454 6:0.723454 7:0.069543 8:0.044866 9:0.68218 
0.04983333101231777 1:0.303861 2:0.723079 3:0.966252 4:0.675616 5:0.723079 6:0.723079 7:0.069418 8:0.043415 9:0.689497 
0.004786727835600104 1:0.36808 2:0.761433 3:0.974101 4:0.679685 5:0.761433 6:0.761433 7:0.063915 8:0.041843 9:0.716272 
0.05346483604316973 1:0.400277 2:0.724404 3:0.973942 4:0.673722 5:0.724404 6:0.724404 7:0.062289 8:0.042569 9:0.730522 
-1 1:0.572479 2:0.563717 3:0.490731 4:0.573032 5:0.563717 6:0.563717 7:0.070419 8:0.045108 9:0.785222 
-1 1:0.566258 2:0.562285 3:0.49063 4:0.576662 5:0.562285 6:0.562285 7:0.070044 8:0.045108 9:0.781008 
-1 1:0.559735 2:0.56092 3:0.490488 4:0.580078 5:0.56092 6:0.56092 7:0.069794 8:0.045229 9:0.775416 
-1 1:0.553074 2:0.559562 3:0.490476 4:0.583318 5:0.559562 6:0.559562 7:0.069669 8:0.045229 9:0.769095 
-0.6695420926160964 1:0.546339 2:0.558179 3:0.490636 4:0.586425 5:0.558179 6:0.558179 7:0.069543 8:0.04535 9:0.76243 
-1 1:0.524543 2:0.562113 3:0.49243 4:0.625552 5:0.562113 6:0.562113 7:0.066542 8:0.043657 9:0.730905 
-1 1:0.525717 2:0.560961 3:0.492668 4:0.626254 5:0.560961 6:0.560961 7:0.066417 8:0.043536 9:0.731748 
-1 1:0.526539 2:0.559629 3:0.492962 4:0.626912 5:0.559629 6:0.559629 7:0.066417 8:0.043536 9:0.733203 
-1 1:0.526719 2:0.558396 3:0.493217 4:0.62754 5:0.558396 6:0.558396 7:0.066291 8:0.043536 9:0.733969 
-0.7342535778118224 1:0.525931 2:0.557311 3:0.493418 4:0.628112 5:0.557311 6:0.557311 7:0.066166 8:0.043536 9:0.734774 
-1 1:0.53261 2:0.531552 3:0.492705 4:0.638811 5:0.531552 6:0.531552 7:0.067417 8:0.042931 9:0.754501 
-1 1:0.53348 2:0.532464 3:0.492528 4:0.640312 5:0.532464 6:0.532464 7:0.067542 8:0.042931 9:0.756723 
-0.9799728803217724 1:0.532574 2:0.533076 3:0.492294 4:0.641826 5:0.533076 6:0.533076 7:0.067542 8:0.042931 9:0.759136 
-1 1:0.492792 2:0.502297 3:0.489901 4:0.6606 5:0.502297 6:0.502297 7:0.068668 8:0.04281 9:0.747453 
-0.612036330035546 1:0.493159 2:0.503603 3:0.489771 4:0.663064 5:0.503603 6:0.503603 7:0.068793 8:0.042931 9:0.743469 
-0.4761982561495693 1:0.440604 2:0.586862 3:0.489943 4:0.691183 5:0.586862 6:0.586862 7:0.068418 8:0.041359 9:0.707117 
-0.461639292003836 1:0.466991 2:0.629955 3:0.487804 4:0.698781 5:0.629955 6:0.629955 7:0.066667 8:0.040513 9:0.701371 
-0.8536401321314365 1:0.474286 2:0.631546 3:0.487916 4:0.699485 5:0.631546 6:0.631546 7:0.066291 8:0.040513 9:0.701908 
-0.4694631610412145 1:0.478697 2:0.555185 3:0.493164 4:0.701882 5:0.555185 6:0.555185 7:0.066291 8:0.04015 9:0.703172 
-1 1:0.448545 2:0.50813 3:0.494431 4:0.705055 5:0.50813 6:0.50813 7:0.066291 8:0.038941 9:0.742052 
-0.05890942242034913 1:0.446168 2:0.509938 3:0.493934 4:0.705588 5:0.509938 6:0.509938 7:0.066166 8:0.03882 9:0.745614 
-0.3276981963564955 1:0.523563 2:0.591775 3:0.49173 4:0.693751 5:0.591775 6:0.591775 7:0.062539 8:0.036522 9:0.742779 
-1 1:0.539186 2:0.590077 3:0.492305 4:0.691398 5:0.590077 6:0.590077 7:0.062539 8:0.036885 9:0.738796 
-1 1:0.556833 2:0.586382 3:0.49294 4:0.689039 5:0.586382 6:0.586382 7:0.062539 8:0.037127 9:0.735233 
-1 1:0.575298 2:0.581889 3:0.493657 4:0.68678 5:0.581889 6:0.581889 7:0.062789 8:0.03761 9:0.733395 
-1 1:0.593229 2:0.577914 3:0.494385 4:0.684684 5:0.577914 6:0.577914 7:0.062914 8:0.037973 9:0.731671 
-1 1:0.609472 2:0.575334 3:0.495013 4:0.682717 5:0.575334 6:0.575334 7:0.063039 8:0.038457 9:0.73056 
-1 1:0.622943 2:0.574606 3:0.49551 4:0.680782 5:0.574606 6:0.574606 7:0.063039 8:0.039062 9:0.73056 
-1 1:0.632612 2:0.575926 3:0.496081 4:0.678838 5:0.575926 6:0.575926 7:0.063039 8:0.039545 9:0.731556 
-1 1:0.637396 2:0.578756 3:0.496716 4:0.676865 5:0.578756 6:0.578756 7:0.063039 8:0.039908 9:0.732858 
