svm_type c_svc
kernel_type rbf
gamma 347
nr_class 6
total_sv 1152
rho -0.150844 -0.32603 -0.449612 -0.520074 -0.682382 -0.156375 -0.316502 -0.365837 -0.55851 -0.12539 -0.196569 -0.426 -0.0644024 -0.302482 -0.235838
label 0 1 2 4 3 5
nr_sv 369 410 122 136 68 47
SV
1 0 0 0 0 1:0.74281 2:0.466212 3:0.272403 4:0.631263 5:0.466212 6:0.466212 7:0.738146 8:0.568078 9:0.559763 
0.5501505876395955 0 0 0 0 1:0.742833 2:0.466187 3:0.272165 4:0.631157 5:0.466187 6:0.466187 7:0.738146 8:0.568078 9:0.559733 
1 0 0 0 0 1:0.742877 2:0.466035 3:0.268596 4:0.630929 5:0.466035 6:0.466035 7:0.738146 8:0.567568 9:0.559675 
1 0 0 0 0 1:0.742921 2:0.46563 3:0.266402 4:0.63079 5:0.46563 6:0.46563 7:0.738146 8:0.567568 9:0.559646 
1 0 0 0 0 1:0.742944 2:0.464965 3:0.264839 4:0.630602 5:0.464965 6:0.464965 7:0.738146 8:0.567568 9:0.559617 
1 0 0 0 0 1:0.742945 2:0.46385 3:0.264307 4:0.630441 5:0.46385 6:0.46385 7:0.738146 8:0.567568 9:0.559588 
1 0 0 0 0 1:0.743983 2:0.450401 3:0.266516 4:0.631309 5:0.450401 6:0.450401 7:0.741684 8:0.568078 9:0.559821 
0.3452762690799169 0 0 0 0 1:0.745273 2:0.443369 3:0.267826 4:0.632807 5:0.443369 6:0.443369 7:0.7431 8:0.568587 9:0.560199 
1 0 0 0 0 1:0.745476 2:0.441874 3:0.291394 4:0.643152 5:0.441874 6:0.441874 7:0.745931 8:0.568587 9:0.56244 
0.6442686957705042 0.5690119937582866 0.4803373152750946 0.4003285342761 0.2654954119396629 1:0.745069 2:0.446235 3:0.376049 4:0.644589 5:0.446235 6:0.446235 7:0.745223 8:0.568587 9:0.562731 
0.5647936540389299 0.4450415546216525 0.3625674108689523 0.3172016869660123 0.210361051488316 1:0.744712 2:0.451324 3:0.433998 4:0.64582 5:0.451324 6:0.451324 7:0.743807 8:0.568078 9:0.499141 
0.5914995905742143 0.4698595819101378 0.3844482741157321 0.334829705654719 0.2213856801916898 1:0.744451 2:0.456895 3:0.463526 4:0.646412 5:0.456895 6:0.456895 7:0.738854 8:0.567058 9:0.436076 
0.5105259949283598 0.4054355961787354 0.3299860285642993 0.2880974171439443 0.1912081927524679 1:0.74435 2:0.462501 3:0.472094 4:0.645669 5:0.462501 6:0.462501 7:0.731069 8:0.566548 9:0.378336 
0.5204221270313403 0.4128681672648363 0.3379984329963118 0.2943915709412599 0.1943870381858681 1:0.744391 2:0.467621 3:0.465205 4:0.642163 5:0.467621 6:0.467621 7:0.713376 8:0.566038 9:0.32403 
0.5051815943088386 0.4008754526755632 0.3267089503988077 0.2851373761250612 0.1892396638126204 1:0.744531 2:0.471696 3:0.448322 4:0.634636 5:0.471696 6:0.471696 7:0.694975 8:0.566038 9:0.273188 
0.4830761749554083 0.383485615958071 0.3146214410695152 0.2735152853075751 0.1801397673074578 1:0.744691 2:0.474137 3:0.425797 4:0.623475 5:0.474137 6:0.474137 7:0.680821 8:0.566038 9:0.225372 
0.4502978374833921 0.3572280737495058 0.2899252180704815 0.2548240416075032 0.1689567243052042 1:0.744823 2:0.47454 3:0.400673 4:0.6098 5:0.47454 6:0.47454 7:0.672328 8:0.566038 9:0.180786 
0.3978260398372743 0.3159540120890679 0.2602899041739676 0.2245514502321054 0.1486649975672644 1:0.744876 2:0.47292 3:0.375363 4:0.595079 5:0.47292 6:0.47292 7:0.670913 8:0.567058 9:0.140188 
0.3584868063298166 0.2846233007591501 0.2296771998844719 0.2030803426079011 0.134595722613844 1:0.744825 2:0.469783 3:0.351539 4:0.580685 5:0.469783 6:0.469783 7:0.674452 8:0.570117 9:0.104363 
0.2884924668716065 0.2283391086720215 0.1896868491657093 0.1622218433766958 0.106862639080497 1:0.744609 2:0.465975 3:0.330151 4:0.567387 5:0.465975 6:0.465975 7:0.680821 8:0.574197 9:0.073193 
0.1822854600839428 0.1456360268862689 0.1167753827012602 0.1040945810962945 0.06934454066157653 1:0.744113 2:0.462293 3:0.311824 4:0.555626 5:0.462293 6:0.462293 7:0.688606 8:0.577257 9:0.046972 
0.5708845519996782 0.4547836447073721 0.3713763279169588 0.3225781542098282 0.2148371067392255 1:0.739371 2:0.456655 3:0.268556 4:0.526923 5:0.456655 6:0.456655 7:0.722576 8:0.574707 9:0.004656 
0.1769899868550943 0.1352190390796179 0.108577116746025 0.09714552700634117 0.06001624948226993 1:0.736687 2:0.46072 3:0.259326 4:0.523572 5:0.46072 6:0.46072 7:0.743807 8:0.568587 9:0.048864 
0.2632841021720332 0.2170129283691928 0.1817378690416984 0.156649282876114 0.1093209738816588 1:0.736489 2:0.462629 3:0.258794 4:0.52538 5:0.462629 6:0.462629 7:0.750177 8:0.566548 9:0.077646 
0.1922620937428038 0.1462279607522249 0.112813658903971 0.09907343550946608 0.0612656357917794 1:0.736651 2:0.464605 3:0.259086 4:0.528391 5:0.464605 6:0.464605 7:0.755131 8:0.564508 9:0.112366 
0.2850343383187929 0.230986212306384 0.1955502368302425 0.1704923188079489 0.1156946749746092 1:0.737128 2:0.466537 3:0.259933 4:0.532443 5:0.466537 6:0.466537 7:0.759377 8:0.562978 9:0.150665 
0.2750642827628658 0.2133133967611428 0.1695231513103923 0.1472062904086721 0.09470059810990604 1:0.737868 2:0.468342 3:0.261118 4:0.537347 5:0.468342 6:0.468342 7:0.762916 8:0.561448 9:0.191118 
0.2906130133655511 0.2396523535702821 0.1956566176331475 0.1726317341756216 0.1181924442774511 1:0.738809 2:0.469943 3:0.262437 4:0.542885 5:0.469943 6:0.469943 7:0.765747 8:0.560428 9:0.233899 
0.1782324495811353 0.1254123506005528 0.1125540802499901 0.09079787968664649 0.05480544039227719 1:0.739881 2:0.471239 3:0.263835 4:0.54889 5:0.471239 6:0.471239 7:0.767162 8:0.559408 9:0.273246 
0.2157308210452992 0.1964785511792162 0.1638233557918208 0.1344812269034989 0.09565970499343303 1:0.741042 2:0.472137 3:0.265084 4:0.555268 5:0.472137 6:0.472137 7:0.769285 8:0.558899 9:0.311661 
0.2659830888982975 0.173843345969283 0.2858838975283357 0.12804675083004 0.07818391102273443 1:0.742241 2:0.472602 3:0.266183 4:0.561882 5:0.472602 6:0.472602 7:0.769285 8:0.558899 9:0.353395 
0 0 0.04930430631344815 0 0 1:0.74341 2:0.472618 3:0.267134 4:0.568548 5:0.472618 6:0.472618 7:0.769285 8:0.558899 9:0.396234 
0.8315104930710565 0.06693108866733674 0.4234656818636334 0.02600867435762933 0.0307506271477606 1:0.745445 2:0.471324 3:0.2688 4:0.581714 5:0.471324 6:0.471324 7:0.769285 8:0.559918 9:0.477547 
1 0.01938328485318505 0.2629943190693813 0 0 1:0.746281 2:0.470154 3:0.269385 4:0.588289 5:0.470154 6:0.470154 7:0.769285 8:0.560428 9:0.513518 
1 0.07308626190661861 0.3598788617439949 0 0.07546105448703096 1:0.747011 2:0.468814 3:0.269645 4:0.594861 5:0.468814 6:0.468814 7:0.769285 8:0.561448 9:0.545502 
1 0.07273124411905657 0.7455149256183071 0 0.03851635773726784 1:0.747638 2:0.46742 3:0.269647 4:0.601436 5:0.46742 6:0.46742 7:0.769285 8:0.562468 9:0.573033 
1 0.01039035043441809 0 0 0.02211622029474321 1:0.748144 2:0.466056 3:0.269367 4:0.607993 5:0.466056 6:0.466056 7:0.769285 8:0.563998 9:0.595268 
1 0.1284714609178533 0.7524778664861351 0 0.05661123625153576 1:0.748508 2:0.464794 3:0.268933 4:0.614543 5:0.464794 6:0.464794 7:0.769285 8:0.565528 9:0.613224 
1 0 0 0 0 1:0.748699 2:0.463678 3:0.268418 4:0.621149 5:0.463678 6:0.463678 7:0.769285 8:0.567058 9:0.626844 
1 0 0.4185569263659437 0 0 1:0.748694 2:0.462755 3:0.267911 4:0.627894 5:0.462755 6:0.462755 7:0.770701 8:0.568587 9:0.635866 
1 0 0 0 0 1:0.748487 2:0.462138 3:0.267484 4:0.634824 5:0.462138 6:0.462138 7:0.771408 8:0.569607 9:0.641017 
1 0.4339911744465836 0.273874645190494 0.7932073568578291 0.2030489820252794 1:0.749342 2:0.460968 3:0.264234 4:0.563365 5:0.460968 6:0.460968 7:0.805379 8:0.579806 9:0.690812 
1 0 0 0 0 1:0.748504 2:0.461832 3:0.264635 4:0.577465 5:0.461832 6:0.461832 7:0.80184 8:0.581336 9:0.688368 
0 0 0.0258265260093856 0 0 1:0.746079 2:0.462655 3:0.265538 4:0.603474 5:0.462655 6:0.462655 7:0.795471 8:0.583886 9:0.680423 
0 0.09048948463854174 0 0 0.05004655465016257 1:0.744673 2:0.462783 3:0.266016 4:0.615459 5:0.462783 6:0.462783 7:0.79264 8:0.584396 9:0.675592 
0 0.04260223646692521 0 0 0.02610792839493497 1:0.743267 2:0.462936 3:0.266405 4:0.62685 5:0.462936 6:0.462936 7:0.789809 8:0.584396 9:0.670469 
0 0.1224293073691658 0 0 0.03268814184655159 1:0.741952 2:0.463261 3:0.266654 4:0.63769 5:0.463261 6:0.463261 7:0.787686 8:0.583886 9:0.665376 
0 0 0 0.08136065784539601 0 1:0.740824 2:0.463799 3:0.266855 4:0.647974 5:0.463799 6:0.463799 7:0.784855 8:0.582866 9:0.660604 
0.128911665652465 0.1141367491105573 0.7809493710703459 0.1352818302464807 0.06838692674142041 1:0.739961 2:0.46448 3:0.267042 4:0.657627 5:0.46448 6:0.46448 7:0.782024 8:0.582356 9:0.656646 
1 0 0.4708489911418877 0 0 1:0.739423 2:0.465178 3:0.26725 4:0.666559 5:0.465178 6:0.465178 7:0.778485 8:0.581336 9:0.654055 
1 0 0.5212774583656639 0 0 1:0.739256 2:0.465781 3:0.267429 4:0.674759 5:0.465781 6:0.465781 7:0.774947 8:0.579806 9:0.65292 
1 0 0 0 0 1:0.73948 2:0.46619 3:0.267502 4:0.682229 5:0.46619 6:0.46619 7:0.771408 8:0.578786 9:0.653241 
1 0 0 0 0 1:0.740072 2:0.466301 3:0.267464 4:0.689001 5:0.466301 6:0.466301 7:0.768578 8:0.578276 9:0.65487 
0.3056182913430641 0 0 0 0 1:0.740955 2:0.466037 3:0.267421 4:0.695148 5:0.466037 6:0.466037 7:0.765747 8:0.577766 9:0.657926 
0 0.04581445185096776 0 0.06598481081943819 0.08437155272562584 1:0.743205 2:0.464264 3:0.267632 4:0.706097 5:0.464264 6:0.464264 7:0.762916 8:0.577257 9:0.66884 
0 0.1031004663416925 0 0.02093618545415116 0.0006221974196653584 1:0.744355 2:0.462885 3:0.267786 4:0.711401 5:0.462885 6:0.462885 7:0.763624 8:0.577257 9:0.675999 
1 0 0 0 0 1:0.747183 2:0.458917 3:0.269071 4:0.736852 5:0.458917 6:0.458917 7:0.772824 8:0.577257 9:0.71098 
1 0.4710499091374981 0.5357453097391103 0.3093666665168378 0.2222025173973186 1:0.747285 2:0.458796 3:0.26948 4:0.744467 5:0.458796 6:0.458796 7:0.774947 8:0.577766 9:0.719886 
1 0.5831545494063299 0.476567640188989 0.4157266268133168 0.2754153248538841 1:0.736782 2:0.471211 3:0.31543 4:0.873858 5:0.471211 6:0.471211 7:0.657466 8:0.594085 9:0.458689 
0.4169654104054838 0 0 0 0 1:0.738358 2:0.468959 3:0.316008 4:0.856177 5:0.468959 6:0.468959 7:0.657466 8:0.594595 9:0.443497 
0 0.3886760665026466 0.3151815333140619 0.273405560642327 0.1853684650463146 1:0.740382 2:0.46407 3:0.31287 4:0.821827 5:0.46407 6:0.46407 7:0.66242 8:0.594595 9:0.421175 
0.2980740962762984 0 0 0 0 1:0.740777 2:0.462057 3:0.309675 4:0.805557 5:0.462057 6:0.462057 7:0.665959 8:0.594085 9:0.414656 
0.2171635441393159 0 0 0 0 1:0.740848 2:0.460437 3:0.306095 4:0.790099 5:0.460437 6:0.460437 7:0.669498 8:0.593575 9:0.41064 
0.009144149614507024 0.3281916291203101 0.2824352942184767 0.2482700922507418 0.1508196355920871 1:0.740719 2:0.458999 3:0.302557 4:0.775593 5:0.458999 6:0.458999 7:0.674452 8:0.592555 9:0.41032 
0.2952564689124584 0 0 0.002641707870115197 0.02079704759120783 1:0.740479 2:0.457484 3:0.299203 4:0.762185 5:0.457484 6:0.457484 7:0.680113 8:0.591025 9:0.414016 
0 0.07587673184961602 0 0.03066476215707915 0.03080523227189482 1:0.740156 2:0.455808 3:0.295975 4:0.750002 5:0.455808 6:0.455808 7:0.685775 8:0.590005 9:0.420389 
0 0.1995089369490769 0.2040549393659992 0.0635800809211642 0.009859493525854812 1:0.739718 2:0.454033 3:0.293036 4:0.739109 5:0.454033 6:0.454033 7:0.691437 8:0.588985 9:0.428422 
0.464320382661451 0 0.08533505632026545 0.2088056234396163 0.1731357601039268 1:0.739109 2:0.452231 3:0.290273 4:0.729628 5:0.452231 6:0.452231 7:0.698514 8:0.587455 9:0.43756 
0.1011515932387682 0.1054586699139178 0.06262860050271526 0 0 1:0.738351 2:0.450533 3:0.287633 4:0.721673 5:0.450533 6:0.450533 7:0.705591 8:0.585926 9:0.44795 
0 0.2869691414004204 0 0 0 1:0.737492 2:0.449035 3:0.285186 4:0.715189 5:0.449035 6:0.449035 7:0.71196 8:0.583886 9:0.459678 
0 0 0.171682487907026 0.1431913265564677 0.1071560261082643 1:0.7366 2:0.447694 3:0.283058 4:0.710155 5:0.447694 6:0.447694 7:0.719038 8:0.581336 9:0.472309 
0 0 0.1298046495819247 0.1185532724721816 0.1015593213074397 1:0.735762 2:0.44644 3:0.28107 4:0.706646 5:0.44644 6:0.44644 7:0.726115 8:0.578786 9:0.485143 
0.07933571446459392 0 0 0 0 1:0.735046 2:0.445277 3:0.279064 4:0.70465 5:0.445277 6:0.445277 7:0.733192 8:0.576237 9:0.497686 
1 0 0 0 0 1:0.73451 2:0.444237 3:0.277255 4:0.704159 5:0.444237 6:0.444237 7:0.740269 8:0.573687 9:0.508513 
0.813265710409896 1 0 0 0 1:0.734243 2:0.442416 3:0.274275 4:0.707923 5:0.442416 6:0.442416 7:0.755131 8:0.568587 9:0.526003 
1 1 0.5250189501922374 0.29653745770028 0.2187542244476928 1:0.734554 2:0.441414 3:0.271291 4:0.711826 5:0.441414 6:0.441414 7:0.757962 8:0.567568 9:0.534676 
1 0 0 0 0 1:0.742987 2:0.464345 3:0.267899 4:0.631148 5:0.464345 6:0.464345 7:0.738854 8:0.567058 9:0.559733 
1 0 0 0 0 1:0.742985 2:0.464346 3:0.267894 4:0.631187 5:0.464346 6:0.464346 7:0.738854 8:0.567058 9:0.559763 
1 0 0 0 0 1:0.742983 2:0.464347 3:0.267887 4:0.63123 5:0.464347 6:0.464347 7:0.738854 8:0.567058 9:0.559763 
1 0 0 0 0 1:0.742979 2:0.464349 3:0.26788 4:0.631275 5:0.464349 6:0.464349 7:0.738854 8:0.567058 9:0.559763 
1 0 0 0 0 1:0.743259 2:0.432999 3:0.27053 4:0.642609 5:0.432999 6:0.432999 7:0.754423 8:0.569607 9:0.562527 
1 0 0 0 0 1:0.74374 2:0.434458 3:0.270385 4:0.646327 5:0.434458 6:0.434458 7:0.757254 8:0.570117 9:0.563371 
1 0 0 0 0 1:0.744473 2:0.437589 3:0.270647 4:0.650579 5:0.437589 6:0.437589 7:0.759377 8:0.570627 9:0.564303 
1 0.4203724956267513 0.2961696789237902 0.1295632888904416 0.08631782547686824 1:0.745565 2:0.442152 3:0.243078 4:0.655176 5:0.442152 6:0.442152 7:0.760793 8:0.572157 9:0.565321 
0.8198313812427406 0.6581702034035651 0.5493531769211941 0.4683250814797469 0.3247324704970209 1:0.747059 2:0.447712 3:0.129734 4:0.659895 5:0.447712 6:0.447712 7:0.760793 8:0.573687 9:0.564157 
0.7423371270562338 0.5894820736016579 0.4808284771037326 0.4196533023905472 0.2773709909848803 1:0.748743 2:0.453828 3:0.051572 4:0.664939 5:0.453828 6:0.453828 7:0.764331 8:0.575727 9:0.495795 
0.5796716639668177 0.4601908924262541 0.3755780796284867 0.3271424855877564 0.216755759922024 1:0.750247 2:0.460176 3:0.01145 4:0.67112 5:0.460176 6:0.460176 7:0.769993 8:0.576747 9:0.435203 
0.4667865486884737 0.3707059861151281 0.3031921767866043 0.2644329650823486 0.174273989233732 1:0.751296 2:0.466532 3:0 4:0.678502 5:0.466532 6:0.466532 7:0.774947 8:0.576747 9:0.380926 
0.4597551925155132 0.3653251617001148 0.2978654587595931 0.2595893314678294 0.1725722903751661 1:0.751654 2:0.472876 3:0.008695 4:0.686684 5:0.472876 6:0.472876 7:0.777778 8:0.575217 9:0.331946 
0.4736540352350717 0.3754308872332104 0.3069363600928081 0.2683642314219905 0.1762393689044121 1:0.751237 2:0.479249 3:0.030588 4:0.695036 5:0.479249 6:0.479249 7:0.77707 8:0.573177 9:0.286575 
0.4795436157638257 0.3820708987193182 0.3108722426118604 0.270227464811454 0.1807537673959453 1:0.750141 2:0.485538 3:0.060351 4:0.702906 5:0.485538 6:0.485538 7:0.772824 8:0.570627 9:0.244259 
0.4638355435234127 0.3659367190106563 0.2995922242169945 0.2631550699412193 0.1719231009501923 1:0.748589 2:0.491482 3:0.093466 4:0.709636 5:0.491482 6:0.491482 7:0.765747 8:0.568587 9:0.205407 
0.4502116189310433 0.3609283645862164 0.2943455936958044 0.2537333718315892 0.1707362334744019 1:0.74684 2:0.496736 3:0.126684 4:0.7142 5:0.496736 6:0.496736 7:0.7523 8:0.566548 9:0.170542 
0.4057947047372184 0.3150494343378563 0.2577711829056797 0.2292632551070354 0.1468051589420545 1:0.745099 2:0.500876 3:0.157921 4:0.715031 5:0.500876 6:0.500876 7:0.732484 8:0.565528 9:0.13981 
0.3645897414961998 0.3048143237857601 0.2484177871511493 0.2075148438281398 0.1469456389096225 1:0.7435 2:0.503341 3:0.185804 4:0.711438 5:0.503341 6:0.503341 7:0.71196 8:0.565528 9:0.115305 
0.1526388891009125 0.09154870090060906 0.07509531739256615 0.08268732765171395 0.03787921482345588 1:0.742114 2:0.503539 3:0.209814 4:0.703734 5:0.503539 6:0.503539 7:0.694975 8:0.565528 9:0.103955 
0.3905524811388225 0.3474085152984552 0.2839869599677827 0.2267688007538373 0.1712151004334488 1:0.740999 2:0.501098 3:0.229609 4:0.69264 5:0.501098 6:0.501098 7:0.680821 8:0.565528 9:0.103606 
0.06098617925962688 0.01993534214482228 0.01489481486048188 0.02731713662331594 0.000877127872486563 1:0.74018 2:0.496126 3:0.245174 4:0.679014 5:0.496126 6:0.496126 7:0.671621 8:0.571647 9:0.111667 
0.4261908912354809 0.3505004562081856 0.2881492956671542 0.2473851626385472 0.17205561161903 1:0.739577 2:0.489176 3:0.257041 4:0.663768 5:0.489176 6:0.489176 7:0.665959 8:0.586945 9:0.12293 
0.3124771783148469 0.2419595051788484 0.1995251766775291 0.1602455378882618 0.09933602454737202 1:0.737468 2:0.472413 3:0.270689 4:0.632203 5:0.472413 6:0.472413 7:0.668082 8:0.622132 9:0.132097 
0.01085885260956106 0.01369200309447849 0.002455111992777744 0.04360455383633843 0.03847850818739579 1:0.734858 2:0.464262 3:0.273656 4:0.617534 5:0.464262 6:0.464262 7:0.674452 8:0.63386 9:0.140159 
0.2397868114216977 0.1895089252088012 0.1758966711188356 0.08685784346178557 0.05036155820212899 1:0.730789 2:0.457196 3:0.275458 4:0.604435 5:0.457196 6:0.457196 7:0.682944 8:0.63998 9:0.151189 
0.2895412007433761 0.2286958191831353 0.1597919913815903 0.2001677622638774 0.1341626063160874 1:0.725806 2:0.452083 3:0.280839 4:0.593435 5:0.452083 6:0.452083 7:0.69356 8:0.63845 9:0.162684 
0.2141513228426906 0.1719198581247265 0.2137613408201017 0.08824229114371603 0.06134396639775377 1:0.718718 2:0.45088 3:0.295305 4:0.575875 5:0.45088 6:0.45088 7:0.702052 8:0.622132 9:0.193475 
0.2654189566756118 0.2090846402603463 0.005784990568122726 0.1747441516310237 0.1155368704619303 1:0.717666 2:0.453199 3:0.298959 4:0.568348 5:0.453199 6:0.453199 7:0.707006 8:0.614482 9:0.210791 
0 0 0.2268417286298516 0.03203779420824627 0 1:0.718057 2:0.456027 3:0.299596 4:0.562143 5:0.456027 6:0.456027 7:0.714084 8:0.606833 9:0.228748 
0.3351643402547075 0.2669493045086533 0.002743154123132944 0.09264927192269592 0.1187949266231556 1:0.719574 2:0.458799 3:0.297629 4:0.557573 5:0.458799 6:0.458799 7:0.721868 8:0.599694 9:0.246762 
0.029461900102224 0.02330376661444967 0.1457326467220533 0.1350364224422894 0.00768366998373563 1:0.721889 2:0.461352 3:0.29355 4:0.554713 5:0.461352 6:0.461352 7:0.729653 8:0.592555 9:0.265621 
0.1857618107732128 0.1455478906808438 0.09775085902210066 0.01625966107976303 0.08481286668674884 1:0.724713 2:0.463747 3:0.288131 4:0.553676 5:0.463747 6:0.463747 7:0.738146 8:0.585416 9:0.285818 
0.09284944311814179 0.07667396781350991 0.0303355336538161 0.0908585900565861 0.01929257520651216 1:0.7278 2:0.466136 3:0.282102 4:0.554497 5:0.466136 6:0.466136 7:0.746638 8:0.578786 9:0.307471 
0 0 0 0 0.006091674235222568 1:0.730936 2:0.468635 3:0.276019 4:0.557145 5:0.468635 6:0.468635 7:0.755131 8:0.572667 9:0.329996 
0.02238700650956849 0 0 0 0 1:0.733958 2:0.471305 3:0.270223 4:0.561612 5:0.471305 6:0.471305 7:0.763624 8:0.566548 9:0.353569 
0.01157688436269517 0.08328448184924714 0 0.0431468253837877 0.05950619007578323 1:0.736773 2:0.474183 3:0.265087 4:0.567745 5:0.474183 6:0.474183 7:0.770701 8:0.560938 9:0.379267 
0.2384685401927754 0.138861070229654 0.1376227025974227 0.120417143635592 0.01926720375026189 1:0.739338 2:0.477255 3:0.260809 4:0.575317 5:0.477255 6:0.477255 7:0.77707 8:0.555839 9:0.400367 
0.1373022716184429 0.1271734350482512 0.2374136850794621 0.07439024713505957 0.1148531963773494 1:0.741655 2:0.480454 3:0.257293 4:0.584297 5:0.480454 6:0.480454 7:0.78344 8:0.551249 9:0.422077 
0 0.2739889940375524 0.3681162031248897 0.2081024356279282 0.09005723220862427 1:0.743718 2:0.483716 3:0.254566 4:0.594594 5:0.483716 6:0.483716 7:0.789101 8:0.54666 9:0.448444 
0.03132647480236163 0 0 0 0 1:0.745516 2:0.487026 3:0.252714 4:0.605897 5:0.487026 6:0.487026 7:0.79264 8:0.54258 9:0.47746 
1 0.5051628899457511 1 0.382396357997735 0.3110685493826825 1:0.747065 2:0.490342 3:0.251842 4:0.617734 5:0.490342 6:0.490342 7:0.794055 8:0.539011 9:0.506999 
1 0 0 0 0 1:0.743902 2:0.463485 3:0.267898 4:0.631124 5:0.463485 6:0.463485 7:0.738854 8:0.567568 9:0.559733 
1 0 0 0 0 1:0.743905 2:0.463482 3:0.2679 4:0.631187 5:0.463482 6:0.463482 7:0.739561 8:0.567058 9:0.559763 
1 0 0 0 0 1:0.743909 2:0.463475 3:0.267906 4:0.631296 5:0.463475 6:0.463475 7:0.739561 8:0.566548 9:0.559792 
1 0 0 0 0 1:0.743914 2:0.463467 3:0.267919 4:0.631421 5:0.463467 6:0.463467 7:0.739561 8:0.566548 9:0.559821 
1 0 0 0 0 1:0.743918 2:0.463462 3:0.267935 4:0.63156 5:0.463462 6:0.463462 7:0.739561 8:0.567058 9:0.55985 
1 0 0 0 0 1:0.743921 2:0.463466 3:0.267946 4:0.631706 5:0.463466 6:0.463466 7:0.739561 8:0.567058 9:0.559879 
1 0 0 0 0 1:0.743922 2:0.463475 3:0.267958 4:0.631851 5:0.463475 6:0.463475 7:0.739561 8:0.567058 9:0.559908 
1 0 0 0 0 1:0.743923 2:0.463485 3:0.267971 4:0.631982 5:0.463485 6:0.463485 7:0.739561 8:0.567058 9:0.559937 
1 0 0 0 0 1:0.743736 2:0.46312 3:0.271235 4:0.6319 5:0.46312 6:0.46312 7:0.738146 8:0.568587 9:0.559879 
1 0 0 0 0 1:0.743864 2:0.46212 3:0.273075 4:0.6317 5:0.46212 6:0.46212 7:0.738146 8:0.569097 9:0.55985 
1 0 0 0 0 1:0.744085 2:0.460372 3:0.274964 4:0.631536 5:0.460372 6:0.460372 7:0.738146 8:0.569097 9:0.559821 
1 0 0 0 0 1:0.744373 2:0.457971 3:0.27645 4:0.631439 5:0.457971 6:0.457971 7:0.738854 8:0.569097 9:0.559792 
1 0 0 0 0 1:0.744744 2:0.455223 3:0.27716 4:0.631442 5:0.455223 6:0.455223 7:0.738854 8:0.569097 9:0.559821 
1 0 0 0 0 1:0.745129 2:0.452238 3:0.277153 4:0.631585 5:0.452238 6:0.452238 7:0.740269 8:0.569097 9:0.55985 
1 0 0 0 0 1:0.745473 2:0.448864 3:0.276727 4:0.631991 5:0.448864 6:0.448864 7:0.741684 8:0.569097 9:0.559966 
1 0 0 0 0 1:0.745738 2:0.445088 3:0.275729 4:0.632767 5:0.445088 6:0.445088 7:0.7431 8:0.569097 9:0.56017 
1 0 0 0 0 1:0.743727 2:0.445679 3:0.265722 4:0.644186 5:0.445679 6:0.445679 7:0.7431 8:0.568587 9:0.553709 
1 0.2680379234698091 0.3170994436287289 0.2341816218474789 0.1419822721105668 1:0.743521 2:0.450257 3:0.265705 4:0.644771 5:0.450257 6:0.450257 7:0.740269 8:0.571137 9:0.481301 
0.6867518322892817 0.4326987309066645 0.4323166751581419 0.2988511336941932 0.1972859829526308 1:0.743401 2:0.455359 3:0.266154 4:0.644522 5:0.455359 6:0.455359 7:0.735315 8:0.574197 9:0.416839 
0.4707784602639453 0.403382282707563 0.363269787368088 0.2899189888273404 0.1925773594324059 1:0.743319 2:0.460866 3:0.266929 4:0.643152 5:0.460866 6:0.460866 7:0.729653 8:0.580826 9:0.356713 
0.4932538279630234 0.3817115010165227 0.320691928503338 0.2697411943908544 0.1782122765419077 1:0.743141 2:0.466534 3:0.267575 4:0.640486 5:0.466534 6:0.466534 7:0.723284 8:0.589495 9:0.301068 
0.4151656620463025 0.3324870093219032 0.2722905439161492 0.2385081329909977 0.158207198672635 1:0.742581 2:0.471935 3:0.268127 4:0.636495 5:0.471935 6:0.471935 7:0.717622 8:0.596634 9:0.249469 
0.3817960368516622 0.3030272908170575 0.244858411888693 0.2133663292827165 0.1403988833136484 1:0.741347 2:0.47653 3:0.268684 4:0.631345 5:0.47653 6:0.47653 7:0.712668 8:0.601224 9:0.202643 
0.222218325880095 0.1749236677500664 0.1460689956906026 0.1271866027639586 0.084970591048073 1:0.739293 2:0.479903 3:0.269213 4:0.625337 5:0.479903 6:0.479903 7:0.709837 8:0.603774 9:0.160822 
0.3380092289130044 0.2728182797652484 0.2074092217680443 0.1814682838938634 0.1186022898458259 1:0.733067 2:0.482393 3:0.270089 4:0.612035 5:0.482393 6:0.482393 7:0.707006 8:0.603264 9:0.09438 
0.1250997614544062 0.09029400802618842 0.106852248162614 0.09154234953385336 0.06333259722013268 1:0.729418 2:0.481713 3:0.270258 4:0.604954 5:0.481713 6:0.481713 7:0.704883 8:0.600714 9:0.069497 
0.1473809373944164 0.1247402766382096 0.07256864886226362 0.06522945824537271 0.04132170792372688 1:0.725808 2:0.480091 3:0.270202 4:0.597296 5:0.480091 6:0.480091 7:0.702052 8:0.597144 9:0.050406 
0.2729209099813554 0.2135442102508504 0.1853192573726222 0.1602852203500408 0.1070378863896394 1:0.719793 2:0.475011 3:0.269767 4:0.579809 5:0.475011 6:0.475011 7:0.695683 8:0.589495 9:0.028986 
0.1071642466285811 0.08416429756223828 0.06460697705473228 0.05370632335998321 0.03503584730115357 1:0.716707 2:0.458254 3:0.267614 4:0.534505 5:0.458254 6:0.458254 7:0.706299 8:0.573687 9:0.087512 
0.1606585526269395 0.1274755459330987 0.1126315259376965 0.1022233452374654 0.06811251957713782 1:0.717944 2:0.455602 3:0.267106 4:0.528294 5:0.455602 6:0.455602 7:0.714084 8:0.571137 9:0.116993 
0.1270540008846186 0.1013409745726892 0.07531450412492204 0.06092390354465212 0.04036293190955131 1:0.719601 2:0.453761 3:0.266709 4:0.523766 5:0.453761 6:0.453761 7:0.721868 8:0.568587 9:0.150432 
0.144512547495127 0.1149499779685865 0.0951568029388125 0.08946462249716113 0.05807967792521578 1:0.721628 2:0.452947 3:0.266445 4:0.520955 5:0.452947 6:0.452947 7:0.729653 8:0.566548 9:0.187189 
0.1044874878389912 0.0810107599391184 0.0736853456852843 0.0549949041447241 0.03824469356604759 1:0.723994 2:0.45327 3:0.266355 4:0.519778 5:0.45327 6:0.45327 7:0.73673 8:0.564508 9:0.22607 
0.1025100107711067 0.08212515107059579 0.04871049277513834 0.05697871058643543 0.03491241389051184 1:0.726654 2:0.454701 3:0.266428 4:0.52013 5:0.454701 6:0.454701 7:0.743807 8:0.562978 9:0.266348 
0.101434794656827 0.0840809492139168 0.09403498366132634 0.06547744994819894 0.04558956780603206 1:0.729536 2:0.457076 3:0.266573 4:0.521913 5:0.457076 6:0.457076 7:0.750177 8:0.561958 9:0.307005 
0.195821557027054 0.1392499704169233 0.06365120966212616 0.08909872729435594 0.05977194166885925 1:0.732551 2:0.460132 3:0.266712 4:0.52497 5:0.460132 6:0.460132 7:0.755839 8:0.561958 9:0.34772 
0.09439046200981097 0.1281454999678638 0.08942726056247878 0.1023658333042867 0.06292401485563344 1:0.735581 2:0.463596 3:0.266789 4:0.529059 5:0.463596 6:0.463596 7:0.759377 8:0.561958 9:0.387125 
0.3695542531224044 0.1398850458841141 0.0996616494817176 0.08695719368364255 0.06720391712039789 1:0.738513 2:0.467205 3:0.266636 4:0.533856 5:0.467205 6:0.467205 7:0.762208 8:0.562978 9:0.424493 
0.2601831159820069 0.1333120788692612 0 0.1066909958728533 0.05710775460335445 1:0.741196 2:0.470667 3:0.266365 4:0.538991 5:0.470667 6:0.470667 7:0.762916 8:0.564508 9:0.459212 
0.6173421281495686 0.08255431267158148 0 0.08267033409314298 0.05032957882287467 1:0.743441 2:0.473762 3:0.266031 4:0.544192 5:0.473762 6:0.473762 7:0.762916 8:0.566038 9:0.49076 
0.2517695732853619 0.06878645291903528 0 0 0.02693802650926575 1:0.745051 2:0.476364 3:0.265763 4:0.549263 5:0.476364 6:0.476364 7:0.7615 8:0.568078 9:0.518902 
0 0.08779116236311471 0 0.3823434114997981 0.03151825937971323 1:0.745852 2:0.478351 3:0.265628 4:0.554021 5:0.478351 6:0.478351 7:0.760085 8:0.569607 9:0.543378 
0.2382165879914953 0 0 1 0 1:0.745814 2:0.47964 3:0.265603 4:0.558355 5:0.47964 6:0.47964 7:0.757962 8:0.570627 9:0.564332 
1 0 0 0.2693737627041725 0 1:0.745032 2:0.480252 3:0.265721 4:0.562164 5:0.480252 6:0.480252 7:0.755131 8:0.571137 9:0.58159 
1 0 0 0.02481289329846994 0 1:0.74367 2:0.480227 3:0.265834 4:0.565382 5:0.480227 6:0.480227 7:0.7523 8:0.571647 9:0.595268 
1 0.1919340151437892 0 1 0.08040273394045168 1:0.741905 2:0.479629 3:0.266083 4:0.567936 5:0.479629 6:0.479629 7:0.748762 8:0.571647 9:0.605396 
1 0 0 0 0 1:0.734046 2:0.460667 3:0.27384 4:0.668706 5:0.460667 6:0.460667 7:0.745931 8:0.551759 9:0.551934 
1 0 0 0 0 1:0.73388 2:0.461426 3:0.274068 4:0.670161 5:0.461426 6:0.461426 7:0.745223 8:0.550229 9:0.550479 
1 0 0 0 0 1:0.733963 2:0.462074 3:0.274234 4:0.67152 5:0.462074 6:0.462074 7:0.744515 8:0.5487 9:0.549024 
1 0 0 0 0 1:0.734234 2:0.462635 3:0.274333 4:0.672779 5:0.462635 6:0.462635 7:0.744515 8:0.54717 9:0.548325 
1 0 0 0 0 1:0.734611 2:0.463123 3:0.274261 4:0.674043 5:0.463123 6:0.463123 7:0.745223 8:0.54615 9:0.548703 
1 0 0 0 0 1:0.735001 2:0.463575 3:0.27403 4:0.675426 5:0.463575 6:0.463575 7:0.745931 8:0.54513 9:0.549955 
1 0 0 0.07817216587199742 0.05656657960805416 1:0.73534 2:0.464037 3:0.273684 4:0.676997 5:0.464037 6:0.464037 7:0.746638 8:0.54411 9:0.55272 
0.05943874376292867 0 0.198794089312388 0 0 1:0.735589 2:0.464516 3:0.273275 4:0.678811 5:0.464516 6:0.464516 7:0.748054 8:0.54309 9:0.557172 
0 0 0 0.03468511273860118 0.003749656303800404 1:0.735741 2:0.46499 3:0.272675 4:0.680876 5:0.46499 6:0.46499 7:0.748762 8:0.54156 9:0.563022 
0 0 0.2056750231296317 0 0 1:0.735727 2:0.465799 3:0.271348 4:0.685838 5:0.465799 6:0.465799 7:0.751592 8:0.539011 9:0.578417 
0 0.3593204148894685 0 0.01906043870316602 0.05860646589681038 1:0.735628 2:0.465961 3:0.270843 4:0.688658 5:0.465961 6:0.465961 7:0.7523 8:0.537481 9:0.587323 
0 0 0 0.04643759233324922 0 1:0.735587 2:0.465791 3:0.270515 4:0.691603 5:0.465791 6:0.465791 7:0.7523 8:0.535951 9:0.59748 
0.955171643680547 0 0 0.1376527914705681 0.08176733758445316 1:0.735719 2:0.465179 3:0.270463 4:0.694624 5:0.465179 6:0.465179 7:0.753008 8:0.534421 9:0.608626 
1 0 0.2661984706286171 0 0 1:0.736107 2:0.464097 3:0.270563 4:0.697793 5:0.464097 6:0.464097 7:0.753716 8:0.533401 9:0.621024 
0 0.1342105999473146 0 0.0524902141966784 0.04564646765051063 1:0.736799 2:0.462649 3:0.270888 4:0.701117 5:0.462649 6:0.462649 7:0.754423 8:0.531871 9:0.634237 
0 0.3601108161646187 0.3604996829988193 0.2044507812353594 0.1272208634135702 1:0.738987 2:0.459369 3:0.271829 4:0.708544 5:0.459369 6:0.459369 7:0.757254 8:0.530852 9:0.662059 
0 0 0.1611193371884348 0 0 1:0.740358 2:0.457912 3:0.272343 4:0.712787 5:0.457912 6:0.457912 7:0.759377 8:0.530852 9:0.675708 
1 0 0 0 0 1:0.744784 2:0.45493 3:0.273781 4:0.726686 5:0.45493 6:0.45493 7:0.760085 8:0.532891 9:0.713483 
1 0.4256938397062869 0.7923656388756358 0.2769247289645008 0.17671636268875 1:0.74632 2:0.454291 3:0.274139 4:0.731266 5:0.454291 6:0.454291 7:0.759377 8:0.533911 9:0.724368 
1 0.625130740059724 0 0.3452594733303596 0 1:0.74947 2:0.47841 3:0.266267 4:0.765263 5:0.47841 6:0.47841 7:0.744515 8:0.604284 9:0.59908 
1 0 0 0 0.4707913529841492 1:0.749344 2:0.47811 3:0.266236 4:0.765988 5:0.47811 6:0.47811 7:0.739561 8:0.605303 9:0.599662 
1 0 0 0 0 1:0.749268 2:0.477744 3:0.266222 4:0.765712 5:0.477744 6:0.477744 7:0.735315 8:0.606323 9:0.599866 
1 0 0 0 0 1:0.749249 2:0.477349 3:0.266206 4:0.764475 5:0.477349 6:0.477349 7:0.731069 8:0.607343 9:0.598615 
1 0 0 0 0 1:0.749343 2:0.477012 3:0.26608 4:0.762343 5:0.477012 6:0.477012 7:0.726822 8:0.608363 9:0.597276 
1 0 0 0 0 1:0.749643 2:0.47685 3:0.265855 4:0.759383 5:0.47685 6:0.47685 7:0.723284 8:0.609383 9:0.595792 
1 0 0 0 0 1:0.750207 2:0.476983 3:0.265585 4:0.755619 5:0.476983 6:0.476983 7:0.719745 8:0.610403 9:0.594337 
0.5398328691794719 0 0 0 0 1:0.751094 2:0.477432 3:0.265372 4:0.751058 5:0.477432 6:0.477432 7:0.716207 8:0.611933 9:0.593085 
0 0 0.5022679983018958 0 0 1:0.752331 2:0.478077 3:0.265134 4:0.745647 5:0.478077 6:0.478077 7:0.71196 8:0.613463 9:0.591863 
0 0 1 0 0 1:0.753927 2:0.478736 3:0.264912 4:0.739366 5:0.478736 6:0.478736 7:0.707714 8:0.615502 9:0.590349 
1 0.4622154210863543 1 0.3382399617297632 0.1582476773304503 1:0.755883 2:0.479263 3:0.264746 4:0.73223 5:0.479263 6:0.479263 7:0.704176 8:0.618052 9:0.588865 
1 0 0 0 0 1:0.74288 2:0.463732 3:0.267885 4:0.631114 5:0.463732 6:0.463732 7:0.738854 8:0.567058 9:0.559733 
1 0 0 0 0 1:0.742879 2:0.463726 3:0.267867 4:0.631117 5:0.463726 6:0.463726 7:0.738854 8:0.567058 9:0.559733 
1 0 0 0 0 1:0.742876 2:0.463719 3:0.267849 4:0.631127 5:0.463719 6:0.463719 7:0.738854 8:0.567058 9:0.559733 
1 0 0 0 0 1:0.742873 2:0.463711 3:0.267833 4:0.631145 5:0.463711 6:0.463711 7:0.738854 8:0.567058 9:0.559733 
1 0 0 0 0 1:0.74287 2:0.463703 3:0.26782 4:0.631175 5:0.463703 6:0.463703 7:0.738854 8:0.567058 9:0.559763 
1 0 0 0 0 1:0.742866 2:0.463693 3:0.267812 4:0.631214 5:0.463693 6:0.463693 7:0.738854 8:0.567058 9:0.559763 
1 0 0 0 0 1:0.742048 2:0.451342 3:0.267152 4:0.633019 5:0.451342 6:0.451342 7:0.739561 8:0.568078 9:0.56017 
0.8676097805622153 0 0 0 0 1:0.744698 2:0.437722 3:0.268994 4:0.641799 5:0.437722 6:0.437722 7:0.744515 8:0.568587 9:0.56212 
1 0 0 0 0 1:0.744868 2:0.441326 3:0.268052 4:0.642957 5:0.441326 6:0.441326 7:0.743807 8:0.568587 9:0.562353 
1 0 0 0 0 1:0.745038 2:0.445794 3:0.284044 4:0.643849 5:0.445794 6:0.445794 7:0.742392 8:0.568587 9:0.562527 
0.6482323541009057 0.5146442459625742 0.4204744521706331 0.3669487768848678 0.2426451410702672 1:0.745144 2:0.450805 3:0.553193 4:0.644453 5:0.450805 6:0.450805 7:0.740977 8:0.568587 9:0.562615 
0.8490407284879623 0.6737782688866959 0.5506934445670512 0.4797274472656382 0.3180029761830495 1:0.745113 2:0.456048 3:0.806024 4:0.644917 5:0.456048 6:0.456048 7:0.740977 8:0.566548 9:0.51864 
0.7970573812109137 0.6325696583075452 0.5167213804421821 0.4502073225294863 0.297935429348672 1:0.744931 2:0.461254 3:0.945867 4:0.645469 5:0.461254 6:0.461254 7:0.740977 8:0.562978 9:0.448095 
0.6412694255127359 0.5087266887544521 0.4154595058968229 0.362161143847716 0.2398070657994266 1:0.744686 2:0.466259 3:1 4:0.645359 5:0.466259 6:0.466259 7:0.733192 8:0.559918 9:0.383167 
0.6146620169582692 0.4879881351180724 0.3989291260984445 0.3477948565099417 0.2303561449922366 1:0.744455 2:0.47095 3:0.991961 4:0.642175 5:0.47095 6:0.47095 7:0.714084 8:0.558389 9:0.322517 
0.7449706498325769 0.5913031567638934 0.4828789495382264 0.4207006674530553 0.2788703778843668 1:0.744291 2:0.474984 3:0.941883 4:0.634481 5:0.474984 6:0.474984 7:0.692852 8:0.557879 9:0.265504 
0.79572103665161 0.6317975730329329 0.5162527393897369 0.4495858942235906 0.2980892186744958 1:0.744173 2:0.477757 3:0.866197 4:0.622459 5:0.477757 6:0.477757 7:0.674452 8:0.557879 9:0.212567 
0.808530355175417 0.6414803941819298 0.524329898559557 0.4568204482693163 0.30252096871656 1:0.744057 2:0.478765 3:0.777599 4:0.60701 5:0.478765 6:0.478765 7:0.661005 8:0.558389 9:0.164984 
0.8006935365638287 0.6353547002771153 0.5188474992445407 0.4525703230716987 0.2996716596279497 1:0.743875 2:0.477848 3:0.685667 4:0.589114 5:0.477848 6:0.477848 7:0.651805 8:0.559408 9:0.123308 
0.7720591006898941 0.6129929653701267 0.5007020576750205 0.4361544274954688 0.2889617262628846 1:0.743594 2:0.475225 3:0.597216 4:0.56964 5:0.475225 6:0.475225 7:0.646143 8:0.559918 9:0.08757 
0.7186722660007986 0.5701978466116003 0.4656211604054301 0.4060270714993158 0.2686139652378577 1:0.743215 2:0.471349 3:0.516614 4:0.54922 5:0.471349 6:0.471349 7:0.643312 8:0.559918 9:0.05806 
0.6361932948462472 0.5049040386819058 0.4121910055713572 0.3591162182653806 0.2376234312656907 1:0.742766 2:0.466735 3:0.446312 4:0.528331 5:0.466735 6:0.466735 7:0.641897 8:0.560428 9:0.034661 
0.5286944605510405 0.4192321456561606 0.3429545606341897 0.2995311297947837 0.1988318199452066 1:0.74231 2:0.461849 3:0.387247 4:0.507311 5:0.461849 6:0.461849 7:0.642604 8:0.560428 9:0.017112 
0.4190716170918749 0.3345760039667254 0.2710907498803342 0.2359191846100677 0.154362666339893 1:0.741924 2:0.45709 3:0.339571 4:0.486639 5:0.45709 6:0.45709 7:0.645435 8:0.560428 9:0.005297 
0.3278668588681513 0.2535953591424854 0.2126150314308203 0.1878471943755218 0.1291769805239295 1:0.741648 2:0.452718 3:0.302491 4:0.466859 5:0.452718 6:0.452718 7:0.650389 8:0.560938 9:0 
0.2337051387942857 0.2034545260505766 0.1540186990694898 0.124993044527633 0.07276232568353595 1:0.741482 2:0.448854 3:0.275008 4:0.448278 5:0.448854 6:0.448854 7:0.656051 8:0.561448 9:0.001106 
0.2716851245515045 0.179260852107069 0.1660363397826929 0.1655970988187742 0.1247178833209037 1:0.741411 2:0.445532 3:0.255769 4:0.431 5:0.445532 6:0.445532 7:0.66242 8:0.562978 9:0.008382 
0.1885739984666232 0.2014385811645716 0.1420228570853271 0.09325100634851635 0.04684136851524445 1:0.741407 2:0.442734 3:0.243338 4:0.41512 5:0.442734 6:0.442734 7:0.66879 8:0.565018 9:0.02174 
0.2684767052604062 0.1619597028568608 0.1503128222037128 0.1623857270096309 0.116589670112485 1:0.741432 2:0.44043 3:0.236391 4:0.400627 5:0.44043 6:0.44043 7:0.675159 8:0.567058 9:0.041268 
0.2631107833846847 0.2485217526752718 0.190866313240685 0.1428524997153586 0.09073334674028419 1:0.741417 2:0.438579 3:0.233588 4:0.387564 5:0.438579 6:0.438579 7:0.682236 8:0.569607 9:0.06682 
0.3194618973912433 0.2265435429621436 0.1931863538543336 0.1825929647220029 0.1219584314643009 1:0.741303 2:0.437159 3:0.233747 4:0.375943 5:0.437159 6:0.437159 7:0.688606 8:0.571647 9:0.096912 
0.3314963831356139 0.2799330573007532 0.2233725302166956 0.1880997992548659 0.1238598295710498 1:0.741081 2:0.436177 3:0.236037 4:0.365765 5:0.436177 6:0.436177 7:0.695683 8:0.574197 9:0.130875 
0.3606209623596002 0.2760819949516968 0.228864589415919 0.2014471772001596 0.1346418732448496 1:0.740757 2:0.435672 3:0.239569 4:0.357097 5:0.435672 6:0.435672 7:0.70276 8:0.576747 9:0.168098 
0.3609814053625996 0.2916139738399517 0.2361827104401139 0.2070067920079296 0.1348111868777764 1:0.740323 2:0.435686 3:0.243687 4:0.349973 5:0.435686 6:0.435686 7:0.709837 8:0.579296 9:0.206921 
0.3742668266929622 0.2945083735190911 0.2414995434345359 0.208337685284383 0.139463181978706 1:0.739784 2:0.436244 3:0.247927 4:0.344393 5:0.436244 6:0.436244 7:0.716914 8:0.580826 9:0.246937 
0.4031304356035553 0.2931090680871155 0.2385239121602427 0.2111155806347414 0.138988533513483 1:0.739172 2:0.437368 3:0.251948 4:0.340347 5:0.437368 6:0.437368 7:0.723992 8:0.581846 9:0.287593 
0.3460140972098752 0.2797588373299338 0.2281943945158403 0.1955193119883542 0.129316724917731 1:0.738539 2:0.439071 3:0.255582 4:0.337787 5:0.439071 6:0.439071 7:0.730361 8:0.582356 9:0.327202 
0.3619960360416095 0.264565457213862 0.2183660801189136 0.1930796899503524 0.1289002494896598 1:0.737941 2:0.441384 3:0.258612 4:0.336617 5:0.441384 6:0.441384 7:0.73673 8:0.582866 9:0.364803 
0.281793824086624 0.2654136150410163 0.2109646594372631 0.1847048820026477 0.1195567522967168 1:0.737411 2:0.444284 3:0.261126 4:0.336662 5:0.444284 6:0.444284 7:0.741684 8:0.582356 9:0.401182 
0.4209893751457998 0.2119568280815033 0.1929562773667707 0.1543448112993955 0.1079818115901413 1:0.736985 2:0.4476 3:0.263128 4:0.337748 5:0.4476 6:0.4476 7:0.745931 8:0.581846 9:0.435406 
0.06743057368215788 0.2818470042040011 0.2792043610013701 0.1995233419993063 0.12209235790274 1:0.736702 2:0.451097 3:0.264634 4:0.339701 5:0.451097 6:0.451097 7:0.749469 8:0.581336 9:0.466139 
0.6232956154098994 0.0262612544249283 0.01604401188844802 0.01722530270698077 0.02322092569988165 1:0.736582 2:0.454543 3:0.265752 4:0.342321 5:0.454543 6:0.454543 7:0.7523 8:0.580826 9:0.49335 
0 0.4066199314374066 0.3364344942904399 0.29109758362133 0.1858367975605252 1:0.736633 2:0.457707 3:0.266497 4:0.34536 5:0.457707 6:0.457707 7:0.753716 8:0.579806 9:0.517127 
0.1918793063912742 0 0 0 0 1:0.737125 2:0.46218 3:0.267224 4:0.351866 5:0.46218 6:0.46218 7:0.753716 8:0.578276 9:0.553505 
1 0 0 0 0 1:0.737481 2:0.462942 3:0.267451 4:0.355177 5:0.462942 6:0.462942 7:0.754423 8:0.577257 9:0.566573 
1 0 0 0 0 1:0.737845 2:0.46245 3:0.267688 4:0.358614 5:0.46245 6:0.46245 7:0.755131 8:0.576747 9:0.576322 
1 0.5862595131036066 0.478752919484607 0.4170006064370197 0.2768761574817103 1:0.738171 2:0.460775 3:0.267956 4:0.362247 5:0.460775 6:0.460775 7:0.755839 8:0.575727 9:0.58255 
1 0.4057429252516476 0 0.04567138038604143 0.02569717542327602 1:0.746762 2:0.452162 3:0.265534 4:0.677088 5:0.452162 6:0.452162 7:0.724699 8:0.568078 9:0.586974 
1 0 0 0 0 1:0.747742 2:0.454683 3:0.265375 4:0.674201 5:0.454683 6:0.454683 7:0.726822 8:0.568078 9:0.584878 
1 0 0 0 0 1:0.748676 2:0.457805 3:0.265265 4:0.671681 5:0.457805 6:0.457805 7:0.72753 8:0.568587 9:0.583074 
1 0 0 0 0 1:0.749639 2:0.461245 3:0.265146 4:0.669346 5:0.461245 6:0.461245 7:0.728238 8:0.569097 9:0.581939 
1 0 0 0 0 1:0.750689 2:0.46469 3:0.264999 4:0.667026 5:0.46469 6:0.46469 7:0.728238 8:0.569607 9:0.580978 
1 0 0 0 0 1:0.751781 2:0.467844 3:0.264813 4:0.664651 5:0.467844 6:0.467844 7:0.72753 8:0.570627 9:0.580629 
1 0 0 0 0 1:0.752808 2:0.470475 3:0.264732 4:0.662213 5:0.470475 6:0.470475 7:0.72753 8:0.572157 9:0.581299 
1 0 0 0 0 1:0.753645 2:0.472499 3:0.264867 4:0.659717 5:0.472499 6:0.472499 7:0.72753 8:0.574197 9:0.582783 
1 0 0 0.0490773555752988 0 1:0.754145 2:0.473937 3:0.265259 4:0.657169 5:0.473937 6:0.473937 7:0.726822 8:0.575727 9:0.585431 
1 0 0 0.06504355113540736 0.06065270544249478 1:0.754205 2:0.474749 3:0.265901 4:0.654564 5:0.474749 6:0.474749 7:0.726822 8:0.576747 9:0.589418 
1 0 0.526954494163085 0 0.00604655408150798 1:0.753788 2:0.474831 3:0.266701 4:0.651934 5:0.474831 6:0.474831 7:0.726822 8:0.578276 9:0.594977 
0.3400955559936789 0 1 0 0 1:0.75296 2:0.474152 3:0.267535 4:0.649426 5:0.474152 6:0.474152 7:0.72753 8:0.579296 9:0.602194 
0.02631459219873484 0 0 0 0 1:0.751827 2:0.472778 3:0.268353 4:0.647167 5:0.472778 6:0.472778 7:0.728945 8:0.580316 9:0.610605 
1 0 0 0 0 1:0.75049 2:0.470886 3:0.269158 4:0.645287 5:0.470886 6:0.470886 7:0.731069 8:0.580826 9:0.620209 
0.9451412441834618 0.1884420963669932 0 0.09782258005260208 0.09584228544123143 1:0.749072 2:0.46882 3:0.269813 4:0.643934 5:0.46882 6:0.46882 7:0.7339 8:0.580826 9:0.630424 
0 0.003858767391862698 0 0.0299051950717417 0 1:0.747658 2:0.466996 3:0.270279 4:0.643215 5:0.466996 6:0.466996 7:0.73673 8:0.580826 9:0.640988 
1 0 0.6730569964425654 0 0 1:0.741237 2:0.466146 3:0.270044 4:0.647255 5:0.466146 6:0.466146 7:0.745223 8:0.577766 9:0.697506 
1 0.4627573593625862 1 0.3269261716504977 0.2176940975557838 1:0.740269 2:0.466952 3:0.269847 4:0.648504 5:0.466952 6:0.466952 7:0.744515 8:0.576747 9:0.708361 
1 0.1436087243177624 1 0.0116648380118675 0.03166830261389982 1:0.751066 2:0.467819 3:0.265687 4:0.6251 5:0.467819 6:0.467819 7:0.741684 8:0.586945 9:0.517302 
1 0 0.2160353304865833 0 0 1:0.75094 2:0.469462 3:0.265427 4:0.625492 5:0.469462 6:0.469462 7:0.739561 8:0.587965 9:0.522133 
1 0.06859562637973805 0 0.1553671625995731 0.07117243624191423 1:0.75072 2:0.470935 3:0.265151 4:0.625443 5:0.470935 6:0.470935 7:0.737438 8:0.589495 9:0.527633 
1 0 0 0 0 1:0.750482 2:0.472237 3:0.264862 4:0.624861 5:0.472237 6:0.472237 7:0.734607 8:0.590515 9:0.53357 
0 0.2484848941905647 0 0 0 1:0.749716 2:0.483521 3:0.264721 4:0.611317 5:0.483521 6:0.483521 7:0.715499 8:0.595614 9:0.563138 
0 0.001919142832682947 0 0 0.1331501225198458 1:0.749338 2:0.48755 3:0.264963 4:0.605521 5:0.48755 6:0.48755 7:0.70913 8:0.596124 9:0.567678 
1 0 0.9114366589785091 0.08663305914182484 0.0008063987815202315 1:0.748797 2:0.491902 3:0.26532 4:0.598263 5:0.491902 6:0.491902 7:0.702052 8:0.596634 9:0.571404 
0.08911602701721251 0.2680651929291064 0 0.1906060325623194 0 1:0.748101 2:0.496297 3:0.265615 4:0.589408 5:0.496297 6:0.496297 7:0.694268 8:0.597144 9:0.574343 
0 0.002574618886978714 0 0.2151956890486024 0.1239771475184855 1:0.747282 2:0.500461 3:0.265818 4:0.578784 5:0.500461 6:0.500461 7:0.685775 8:0.597144 9:0.576206 
0 0.08837067296258536 0 0 0.04764184342856401 1:0.746394 2:0.504237 3:0.265916 4:0.566252 5:0.504237 6:0.504237 7:0.676575 8:0.597144 9:0.576991 
0.2707123999359325 0.2761562993647438 0.1296411546240865 0.2002900474783599 0 1:0.745489 2:0.507562 3:0.265886 4:0.55165 5:0.507562 6:0.507562 7:0.666667 8:0.597144 9:0.576555 
0.3390038348034142 0 0.2524758105354679 0.04174268929371831 0.1637197377498235 1:0.7446 2:0.510367 3:0.265804 4:0.534766 5:0.510367 6:0.510367 7:0.655343 8:0.596634 9:0.574838 
0.02126135356877882 0.295696745239098 0 0.1363515553988363 0.009404637341321432 1:0.743762 2:0.512576 3:0.265748 4:0.515426 5:0.512576 6:0.512576 7:0.64402 8:0.596124 9:0.571549 
0.3702167583923074 0.1001528403676983 0.2389689927996725 0.1573526475333924 0.1279327052868278 1:0.742993 2:0.514131 3:0.265695 4:0.493572 5:0.514131 6:0.514131 7:0.632696 8:0.595105 9:0.567096 
0.1898312513257711 0.2553999316546218 0.1280619713718174 0.106281904683336 0.07582057190645393 1:0.742301 2:0.515007 3:0.265774 4:0.469234 5:0.515007 6:0.515007 7:0.621373 8:0.594085 9:0.561392 
0.3025284062877479 0.1915446028185137 0.1892655008502684 0.1926529577723583 0.1150053727042112 1:0.741682 2:0.515204 3:0.265851 4:0.442488 5:0.515204 6:0.515204 7:0.61005 8:0.593065 9:0.554291 
0.2857850989160277 0.245859443383984 0.1928262812178099 0.1363955128610721 0.1013416451494266 1:0.741113 2:0.51473 3:0.266044 4:0.413434 5:0.51473 6:0.51473 7:0.599434 8:0.592045 9:0.546259 
0.3133806562899813 0.2437063806509854 0.1962668032790808 0.1998118754349417 0.123024778020052 1:0.74056 2:0.513652 3:0.266248 4:0.382224 5:0.513652 6:0.513652 7:0.590234 8:0.591025 9:0.537004 
0.3270455319423561 0.2587644949927421 0.2167164670030451 0.1638472132882931 0.1166902450478365 1:0.74 2:0.512158 3:0.266366 4:0.34903 5:0.512158 6:0.512158 7:0.581741 8:0.590005 9:0.526935 
0.3468241362323454 0.2781978634049171 0.2228735008491509 0.2173998574209482 0.1347599500816931 1:0.73942 2:0.510499 3:0.266404 4:0.314007 5:0.510499 6:0.510499 7:0.573248 8:0.588475 9:0.51637 
0.3563285386309809 0.2790193450327971 0.2300812945694047 0.1765298898564814 0.1289949648733934 1:0.738804 2:0.508762 3:0.266348 4:0.277193 5:0.508762 6:0.508762 7:0.564756 8:0.586945 9:0.505224 
0.3824217091442449 0.3069057182865552 0.2500411894646979 0.2498753889025795 0.1466186139958098 1:0.738164 2:0.506808 3:0.26634 4:0.238655 5:0.506808 6:0.506808 7:0.557679 8:0.585416 9:0.493292 
0.3733180496147884 0.2935887553757541 0.2398441451852445 0.1574464902408326 0.136771873290965 1:0.737562 2:0.504493 3:0.266554 4:0.198592 5:0.504493 6:0.504493 7:0.550602 8:0.583886 9:0.48069 
0.4292724046540927 0.3436778593437591 0.2801970054608927 0.3385926070348741 0.1625213108521287 1:0.737087 2:0.501804 3:0.266991 4:0.157101 5:0.501804 6:0.501804 7:0.544232 8:0.582356 9:0.467652 
0.3307927605378663 0.2598404325492567 0.2127962253647764 0.00504864588575582 0.1220635521699304 1:0.736826 2:0.498942 3:0.265806 4:0.114581 5:0.498942 6:0.498942 7:0.544232 8:0.578786 9:0.454469 
0.6901925351259721 0.5494242803415457 0.4485358168168387 0.7723500419882272 0.2589485917731993 1:0.737074 2:0.497384 3:0.25722 4:0.074834 5:0.497384 6:0.497384 7:0.571125 8:0.571137 9:0.442304 
0.2914036215736858 0 0 0 0 1:0.743103 2:0.467613 3:0.263696 4:0.628312 5:0.467613 6:0.467613 7:0.738146 8:0.568078 9:0.559122 
1 0 0 0 0 1:0.74323 2:0.46623 3:0.264724 4:0.627411 5:0.46623 6:0.46623 7:0.738146 8:0.568078 9:0.558919 
1 0 0 0 0 1:0.743182 2:0.464724 3:0.263977 4:0.627226 5:0.464724 6:0.464724 7:0.738146 8:0.568078 9:0.558889 
1 0 0 0 0 1:0.743125 2:0.462343 3:0.263241 4:0.627126 5:0.462343 6:0.462343 7:0.738854 8:0.567568 9:0.558889 
1 0 0 0 0 1:0.743027 2:0.459166 3:0.263364 4:0.627154 5:0.459166 6:0.459166 7:0.739561 8:0.567568 9:0.558889 
1 0 0 0 0 1:0.742838 2:0.45542 3:0.264539 4:0.627345 5:0.45542 6:0.45542 7:0.740269 8:0.568078 9:0.558948 
1 0 0 0 0 1:0.742553 2:0.451136 3:0.266379 4:0.627718 5:0.451136 6:0.451136 7:0.740977 8:0.568078 9:0.559064 
1 0 0 0 0 1:0.742219 2:0.446214 3:0.268213 4:0.628364 5:0.446214 6:0.446214 7:0.742392 8:0.568078 9:0.559239 
0.5950623867744089 0 0 0 0 1:0.741593 2:0.435981 3:0.270255 4:0.630699 5:0.435981 6:0.435981 7:0.745931 8:0.567568 9:0.559792 
1 0 0 0 0 1:0.741327 2:0.431973 3:0.270584 4:0.632355 5:0.431973 6:0.431973 7:0.747346 8:0.567568 9:0.56017 
1 0 0 0 0 1:0.741172 2:0.429486 3:0.270795 4:0.634265 5:0.429486 6:0.429486 7:0.748054 8:0.567568 9:0.560606 
1 0.2743074626216304 0.189442895729771 0.2352752618370365 0.1549386209627065 1:0.741157 2:0.428855 3:0.271096 4:0.636249 5:0.428855 6:0.428855 7:0.748054 8:0.567568 9:0.561014 
1 0 0 0 0 1:0.741248 2:0.43024 3:0.271484 4:0.638141 5:0.43024 6:0.43024 7:0.747346 8:0.567568 9:0.561392 
1 0 0 0 0 1:0.741374 2:0.43357 3:0.271869 4:0.63984 5:0.43357 6:0.43357 7:0.745931 8:0.567568 9:0.561742 
0.3713751309065954 0.03467094070052568 0.03387928971881197 0.08665079673239773 0.04752878806099055 1:0.741477 2:0.438535 3:0.299168 4:0.641241 5:0.438535 6:0.438535 7:0.744515 8:0.567568 9:0.562003 
0.643905504184097 0.5063311643925162 0.4121469783640024 0.3608007544101721 0.23843168550594 1:0.741564 2:0.444626 3:0.457369 4:0.642296 5:0.444626 6:0.444626 7:0.7431 8:0.567568 9:0.562207 
0.6205467998346988 0.4924679514770507 0.4017393249644897 0.3506117816535488 0.2321870959447031 1:0.74159 2:0.451257 3:0.575127 4:0.643361 5:0.451257 6:0.451257 7:0.745223 8:0.567568 9:0.506504 
0.6730676780775254 0.5339080631352169 0.4361413557282152 0.3802276401641521 0.2515093304532372 1:0.741484 2:0.457897 3:0.637127 4:0.645274 5:0.457897 6:0.457897 7:0.750177 8:0.567058 9:0.443846 
0.4779520707260302 0.3795965570289503 0.3100316464211584 0.2702448353819373 0.179045013805993 1:0.741149 2:0.464246 3:0.6572 4:0.648201 5:0.464246 6:0.464246 7:0.754423 8:0.566038 9:0.387154 
0.4912944340318193 0.3897947515668185 0.3186353358680493 0.2773863365157643 0.1833108714609719 1:0.740552 2:0.47034 3:0.647205 4:0.651983 5:0.47034 6:0.47034 7:0.757254 8:0.565018 9:0.335642 
0.5372912357129754 0.4265979881252943 0.3481104690820487 0.3037434473003353 0.2009307192423149 1:0.739773 2:0.476346 3:0.617019 4:0.656101 5:0.476346 6:0.476346 7:0.757962 8:0.563488 9:0.287797 
0.5660129883220932 0.4491298684394998 0.366959870024351 0.3198703393091491 0.2113491210760919 1:0.738929 2:0.482356 3:0.575034 4:0.659911 5:0.482356 6:0.482356 7:0.755131 8:0.562468 9:0.24327 
0.56814063637518 0.4503995189400138 0.3675269359792022 0.3205868444002317 0.2127660705707694 1:0.738128 2:0.488289 3:0.52751 4:0.662816 5:0.488289 6:0.488289 7:0.748762 8:0.560938 9:0.202322 
0.5544020110183302 0.4405793015565082 0.3592693174969033 0.3133705173588811 0.2074474914618142 1:0.737448 2:0.493824 3:0.479136 4:0.663708 5:0.493824 6:0.493824 7:0.735315 8:0.558899 9:0.164693 
0.513712957440937 0.4074634958814627 0.3340715165544457 0.2901959635856621 0.1917315454185143 1:0.736952 2:0.498433 3:0.43316 4:0.660781 5:0.498433 6:0.498433 7:0.714791 8:0.556859 9:0.130235 
0.4479272688913829 0.3564262631800049 0.2877843022473592 0.2534525534731908 0.1683010974164264 1:0.736683 2:0.501399 3:0.391619 4:0.653299 5:0.501399 6:0.501399 7:0.694268 8:0.554819 9:0.099706 
0.3859353220427617 0.302094462325028 0.2544755858978337 0.2158733457078454 0.141172493685167 1:0.736699 2:0.502036 3:0.355595 4:0.641696 5:0.502036 6:0.502036 7:0.677282 8:0.553289 9:0.073252 
0.3127463336812641 0.2607260783426562 0.1930841796278043 0.1827911727135042 0.1253873881919891 1:0.737007 2:0.500022 3:0.325524 4:0.626793 5:0.500022 6:0.500022 7:0.663836 8:0.551759 9:0.051366 
0.2538261743245833 0.1698358119702772 0.1846478415183972 0.1298808944726147 0.07606321303943846 1:0.737607 2:0.495457 3:0.301387 4:0.609621 5:0.495457 6:0.495457 7:0.656051 8:0.54972 9:0.035505 
0.2186979119845934 0.2375291901048739 0.1070814785043368 0.1472027785000058 0.116403160390933 1:0.738492 2:0.488757 3:0.282791 4:0.591412 5:0.488757 6:0.488757 7:0.654636 8:0.54768 9:0.026425 
0.1587776869360276 0.02482496943865234 0.1495387391646075 0.06075677424964904 0.008785573223267893 1:0.73964 2:0.480607 3:0.26907 4:0.573398 5:0.480607 6:0.480607 7:0.657466 8:0.54513 9:0.024388 
0.1876954248003581 0.2726813880042137 0.07275978137312517 0.1318427084385459 0.1290784830187398 1:0.741035 2:0.471862 3:0.25959 4:0.556208 5:0.471862 6:0.471862 7:0.661713 8:0.54258 9:0.029248 
0.1641840657475779 0.0119014126680242 0.1457654145787645 0.07490297216250613 0.003672712349802711 1:0.742673 2:0.463364 3:0.253616 4:0.540137 5:0.463364 6:0.463364 7:0.668082 8:0.539521 9:0.040482 
0.1440851188035404 0.2051471948289701 0.06756321850898048 0.0921048488433753 0.1018862784503266 1:0.744566 2:0.455771 3:0.2504 4:0.525507 5:0.455771 6:0.455771 7:0.675159 8:0.537481 9:0.057682 
0.287390391875237 0.1702966577705136 0.2020049567520991 0.1574163281916551 0.07384061237562627 1:0.746701 2:0.449489 3:0.249235 4:0.512597 5:0.449489 6:0.449489 7:0.683652 8:0.534931 9:0.0814 
0.2100094444670509 0.1999170163908566 0.1254370132264391 0.1203607303776796 0.09981948480530747 1:0.749061 2:0.444742 3:0.24954 4:0.501621 5:0.444742 6:0.444742 7:0.692852 8:0.533401 9:0.110067 
0.317886570818854 0.235011150711571 0.2133013885190857 0.1793490478032157 0.1067808874858748 1:0.751603 2:0.441613 3:0.250747 4:0.492638 5:0.441613 6:0.441613 7:0.702052 8:0.531871 9:0.143156 
0.2978788430331724 0.2447281025433226 0.1895983592649814 0.1686769443905572 0.1184478803385408 1:0.754231 2:0.440063 3:0.252433 4:0.485738 5:0.440063 6:0.440063 7:0.71196 8:0.531362 9:0.179855 
0.3463999011409664 0.2708129657714756 0.2244356361089668 0.196163400290331 0.1249124624427418 1:0.756841 2:0.439965 3:0.254341 4:0.480971 5:0.439965 6:0.439965 7:0.721868 8:0.530852 9:0.219144 
0.3432741488898071 0.2746927105118079 0.2262613029203162 0.1940775818818107 0.1322590170792764 1:0.759356 2:0.441134 3:0.2563 4:0.478299 5:0.441134 6:0.441134 7:0.731069 8:0.531362 9:0.26015 
0.3595735335144017 0.2816921126218322 0.2268854567444026 0.201602254875745 0.1306432598143158 1:0.761721 2:0.443386 3:0.258175 4:0.47758 5:0.443386 6:0.443386 7:0.739561 8:0.532891 9:0.301767 
0.3248276274880732 0.2624556838329066 0.218430026925668 0.1848170160249601 0.1244413689923304 1:0.763865 2:0.446487 3:0.259837 4:0.478572 5:0.446487 6:0.446487 7:0.747346 8:0.535441 9:0.343151 
0.3306289621629669 0.2535767449007018 0.2148213770552017 0.1848510070622787 0.1214908865309843 1:0.765672 2:0.450119 3:0.261255 4:0.481028 5:0.450119 6:0.450119 7:0.753008 8:0.537991 9:0.383371 
0.2779207604987182 0.2344640204765447 0.1874822454415503 0.1586481751171104 0.1045112114164609 1:0.767014 2:0.453931 3:0.262548 4:0.484671 5:0.453931 6:0.453931 7:0.757962 8:0.54105 9:0.421408 
0.280349316850883 0.2084508329721795 0.198027920163378 0.1621059694196293 0.1085458941831606 1:0.767818 2:0.457602 3:0.263645 4:0.489217 5:0.457602 6:0.457602 7:0.7615 8:0.54462 9:0.45671 
0.6262207242827708 0.2005839372689974 0.1677718120398781 0.1327561031418596 0.08198883960120819 1:0.768068 2:0.460891 3:0.264556 4:0.494455 5:0.460891 6:0.460891 7:0.764331 8:0.54819 9:0.488955 
0.8549375766142108 0.01725869954747694 0.01960015564040613 0 0.01746372886786918 1:0.767777 2:0.463679 3:0.265275 4:0.500217 5:0.463679 6:0.463679 7:0.766454 8:0.552269 9:0.51768 
0.3176455274228167 0 0.0044834237090871 0 0 1:0.766971 2:0.465933 3:0.265803 4:0.506404 5:0.465933 6:0.465933 7:0.76787 8:0.555329 9:0.542446 
0 0.04797272244837161 0.115786638974516 0 0.01479971834342625 1:0.765713 2:0.467669 3:0.266057 4:0.512933 5:0.467669 6:0.467669 7:0.769285 8:0.558389 9:0.563313 
0 0.2778264649343195 0 0 0.1406557984622346 1:0.764101 2:0.46893 3:0.266162 4:0.519745 5:0.46893 6:0.46893 7:0.770701 8:0.561448 9:0.580251 
0 0 0.2427630254337721 0 0 1:0.762235 2:0.469797 3:0.266129 4:0.526829 5:0.469797 6:0.469797 7:0.772116 8:0.563998 9:0.593376 
1 0 0 0 0 1:0.758247 2:0.470682 3:0.266068 4:0.541763 5:0.470682 6:0.470682 7:0.774239 8:0.566548 9:0.61078 
1 0 0 0 0 1:0.756384 2:0.470757 3:0.266135 4:0.549548 5:0.470757 6:0.470757 7:0.774947 8:0.567058 9:0.615727 
1 0.3064341342121616 0.3538716657581119 0.1734921335087974 0.1430894084549855 1:0.75077 2:0.462434 3:0.266777 4:0.518556 5:0.462434 6:0.462434 7:0.716914 8:0.567568 9:0.513867 
1 0 0 0 0 1:0.749876 2:0.462359 3:0.266984 4:0.514052 5:0.462359 6:0.462359 7:0.719745 8:0.569097 9:0.512034 
1 0 0 0 0 1:0.748789 2:0.462216 3:0.267263 4:0.510152 5:0.462216 6:0.462216 7:0.722576 8:0.570117 9:0.511132 
1 0 0 0 0 1:0.747602 2:0.462006 3:0.267492 4:0.506853 5:0.462006 6:0.462006 7:0.724699 8:0.570117 9:0.511423 
1 0 0 0 0 1:0.74644 2:0.461747 3:0.267775 4:0.504169 5:0.461747 6:0.461747 7:0.728238 8:0.570117 9:0.512732 
1 0 0 0 0 1:0.745413 2:0.46146 3:0.268071 4:0.502155 5:0.46146 6:0.46146 7:0.731069 8:0.570117 9:0.515061 
0 0 0 0.5097918956225754 0 1:0.749099 2:0.467861 3:0.270299 4:0.527515 5:0.467861 6:0.467861 7:0.766454 8:0.567058 9:0.604493 
0 0.09556927506049236 0 0 0.04291320755782292 1:0.750306 2:0.469244 3:0.27004 4:0.533647 5:0.469244 6:0.469244 7:0.76787 8:0.568078 9:0.61823 
1 0.2083161727208905 0.1325762636485752 0.9938990254189014 0.1012011882850617 1:0.751468 2:0.47055 3:0.269727 4:0.540043 5:0.47055 6:0.47055 7:0.768578 8:0.568587 9:0.632141 
0.3779745566163046 0 0.05474369449415649 1 0 1:0.752532 2:0.471704 3:0.269354 4:0.546621 5:0.471704 6:0.471704 7:0.769285 8:0.570117 9:0.645761 
0 0 0 0.06382909271062366 0 1:0.753425 2:0.472676 3:0.269078 4:0.553233 5:0.472676 6:0.472676 7:0.769285 8:0.571647 9:0.658828 
1 0 0 0 0 1:0.754101 2:0.473417 3:0.268907 4:0.55972 5:0.473417 6:0.473417 7:0.768578 8:0.572667 9:0.671721 
1 0.2765029122780195 0.4830288622992931 0.4711527496666971 0.129638666563185 1:0.754559 2:0.473851 3:0.268816 4:0.565998 5:0.473851 6:0.473851 7:0.767162 8:0.574197 9:0.684584 
1 0 0 0 0 1:0.74417 2:0.468073 3:0.266516 4:0.482894 5:0.468073 6:0.468073 7:0.72753 8:0.573177 9:0.527662 
1 0 0 0 0 1:0.744191 2:0.467453 3:0.266325 4:0.480634 5:0.467453 6:0.467453 7:0.729653 8:0.573177 9:0.531533 
0 0.01499734873719535 0 0.2342852650221953 0.06952977761385153 1:0.743073 2:0.465894 3:0.265842 4:0.475084 5:0.465894 6:0.465894 7:0.735315 8:0.573687 9:0.539536 
0 0.3334867037500149 0.2702243482590923 0.05607506779187774 0.09357356473695605 1:0.742043 2:0.465687 3:0.26589 4:0.474438 5:0.465687 6:0.465687 7:0.73673 8:0.573177 9:0.539827 
0.4501426343348571 0.003142473895551101 0 0 0 1:0.725261 2:0.464186 3:0.267945 4:0.478672 5:0.464186 6:0.464186 7:0.745223 8:0.556349 9:0.519106 
0 0.005365677244912646 0 0 0 1:0.713452 2:0.46287 3:0.270158 4:0.4874 5:0.46287 6:0.46287 7:0.748762 8:0.532891 9:0.536422 
0.2080427077659684 0.2341803265323566 0.1844143384826687 0.2003322926820616 0 1:0.711943 2:0.462543 3:0.270372 4:0.489657 5:0.462543 6:0.462543 7:0.749469 8:0.527792 9:0.540031 
0 0 0 0 0.1769769991785737 1:0.710686 2:0.462177 3:0.270431 4:0.492104 5:0.462177 6:0.462177 7:0.750885 8:0.522693 9:0.543436 
0.6187576821311948 0 0 0 0 1:0.709647 2:0.461785 3:0.270338 4:0.494737 5:0.461785 6:0.461785 7:0.751592 8:0.517593 9:0.546666 
0.5471860498792559 0 0 0 0 1:0.708814 2:0.461383 3:0.270067 4:0.497566 5:0.461383 6:0.461383 7:0.7523 8:0.511984 9:0.549722 
0 0 0 0.004583153667927324 0 1:0.707784 2:0.46074 3:0.269085 4:0.503811 5:0.46074 6:0.46074 7:0.754423 8:0.501785 9:0.554728 
0 0.09220003526820648 0.1046784299161609 0.02779699390088307 0 1:0.707572 2:0.460555 3:0.268514 4:0.50721 5:0.460555 6:0.460555 7:0.755131 8:0.497195 9:0.556096 
0 0 0 0.12990708646313 0 1:0.707519 2:0.460434 3:0.267982 4:0.510807 5:0.460434 6:0.460434 7:0.755839 8:0.493116 9:0.55691 
0 0.3237371431481685 0.2352544649062708 0.1384232376164879 0 1:0.707573 2:0.460328 3:0.267614 4:0.514601 5:0.460328 6:0.460328 7:0.756546 8:0.488526 9:0.556969 
0.6863652608328727 0 0 0 0 1:0.707986 2:0.459747 3:0.267286 4:0.527324 5:0.459747 6:0.459747 7:0.760085 8:0.477817 9:0.553622 
0 0 0 0 0.5202455198523102 1:0.707087 2:0.459606 3:0.266291 4:0.558015 5:0.459606 6:0.459606 7:0.762916 8:0.459459 9:0.54623 
0 0 0 0 1 1:0.706784 2:0.459476 3:0.265922 4:0.563317 5:0.459476 6:0.459476 7:0.763624 8:0.45589 9:0.543785 
0.6713994298464168 0.5867170509344865 0.4748398232412601 0.4203595027314187 1 1:0.706645 2:0.459306 3:0.26548 4:0.568657 5:0.459306 6:0.459306 7:0.763624 8:0.45232 9:0.54233 
-1 0.3717262937390426 0.1001801483638385 0 0.195611490643363 1:0.748093 2:0.461987 3:0.267213 4:0.64199 5:0.461987 6:0.461987 7:0.772116 8:0.570627 9:0.643287 
-1 0 1 0.1738667586696293 0 1:0.747564 2:0.462501 3:0.267056 4:0.64932 5:0.462501 6:0.462501 7:0.772824 8:0.571137 9:0.642822 
-1 0 0.9436903414830861 0 0 1:0.746954 2:0.46376 3:0.266884 4:0.656644 5:0.46376 6:0.46376 7:0.772116 8:0.571647 9:0.640435 
-1 0 0 0 0 1:0.746312 2:0.465719 3:0.266799 4:0.663783 5:0.465719 6:0.465719 7:0.770701 8:0.571647 9:0.63639 
-1 0 0 0 0 1:0.745694 2:0.468262 3:0.266773 4:0.670495 5:0.468262 6:0.468262 7:0.768578 8:0.571647 9:0.632258 
-1 0 0 0 0 1:0.745146 2:0.471177 3:0.266772 4:0.676597 5:0.471177 6:0.471177 7:0.765039 8:0.571647 9:0.628183 
-1 0 0 0 0 1:0.744684 2:0.4742 3:0.266706 4:0.681926 5:0.4742 6:0.4742 7:0.7615 8:0.572157 9:0.624254 
-0.1857880103646055 0 0 0 0 1:0.744331 2:0.477127 3:0.266501 4:0.686353 5:0.477127 6:0.477127 7:0.757254 8:0.572667 9:0.619423 
-0.4050797033986491 0 0 0 0 1:0.74352 2:0.485515 3:0.264413 4:0.689037 5:0.485515 6:0.485515 7:0.723992 8:0.576747 9:0.583976 
-1 0 0 0 0 1:0.743105 2:0.484508 3:0.264486 4:0.685316 5:0.484508 6:0.484508 7:0.719038 8:0.577257 9:0.577486 
-0.7469071887968363 0 0 0 0 1:0.742543 2:0.482626 3:0.264808 4:0.680637 5:0.482626 6:0.482626 7:0.715499 8:0.577257 9:0.562964 
-0 0.04052354131493009 0 0.09211070217963191 0.05633843121759838 1:0.741853 2:0.479773 3:0.265358 4:0.675247 5:0.479773 6:0.479773 7:0.712668 8:0.577257 9:0.554349 
-1 0 0 0 0 1:0.738177 2:0.460022 3:0.268595 4:0.652496 5:0.460022 6:0.460022 7:0.715499 8:0.573687 9:0.560432 
-1 0 0 0 0 1:0.737455 2:0.454127 3:0.268932 4:0.647692 5:0.454127 6:0.454127 7:0.71833 8:0.572157 9:0.566049 
-1 0 0 0 0 1:0.736979 2:0.448344 3:0.269334 4:0.64364 5:0.448344 6:0.448344 7:0.721868 8:0.570117 9:0.571636 
-1 0 0 0 0 1:0.736745 2:0.442849 3:0.269885 4:0.64048 5:0.442849 6:0.442849 7:0.726822 8:0.568587 9:0.576788 
-1 0 0 0 0 1:0.736717 2:0.437715 3:0.270746 4:0.638369 5:0.437715 6:0.437715 7:0.731776 8:0.567058 9:0.581328 
-1 0 0 0 0 1:0.736905 2:0.433087 3:0.271658 4:0.637565 5:0.433087 6:0.433087 7:0.738854 8:0.565528 9:0.585373 
-1 0 0 0 0 1:0.737374 2:0.429275 3:0.272731 4:0.638423 5:0.429275 6:0.429275 7:0.747346 8:0.563998 9:0.588749 
-1 0 0 0 0 1:0.73819 2:0.426693 3:0.273769 4:0.641274 5:0.426693 6:0.426693 7:0.756546 8:0.562978 9:0.591193 
-0 0.2219529331190243 0.07660105282231761 0.198589221596586 0.133576308653482 1:0.739349 2:0.425726 3:0.27461 4:0.646209 5:0.425726 6:0.425726 7:0.766454 8:0.562468 9:0.592678 
-0.4264466859160785 0 0 0 0 1:0.740747 2:0.426545 3:0.275165 4:0.653178 5:0.426545 6:0.426545 7:0.775655 8:0.562468 9:0.586217 
-0.493946241975924 0.03406346889678147 0 0 0 1:0.742176 2:0.429062 3:0.275231 4:0.662203 5:0.429062 6:0.429062 7:0.784855 8:0.562978 9:0.582375 
-0 0.05423990461539385 0 0 0 1:0.743383 2:0.432924 3:0.274992 4:0.673146 5:0.432924 6:0.432924 7:0.793347 8:0.563488 9:0.582899 
-0 0 0.01270850810659997 0 0 1:0.744443 2:0.442387 3:0.274235 4:0.699625 5:0.442387 6:0.442387 7:0.805379 8:0.563488 9:0.592969 
-0 0 0.2090006161885152 0.03688024958331049 0.03383462681597731 1:0.74431 2:0.447128 3:0.274129 4:0.714467 5:0.447128 6:0.447128 7:0.808917 8:0.562978 9:0.60039 
-0 0 0 0.007012361027883238 0.003751128824198698 1:0.744045 2:0.451622 3:0.274018 4:0.730104 5:0.451622 6:0.451622 7:0.812456 8:0.562468 9:0.608888 
-0 0 0 0.0362882631744041 0.004708376147230466 1:0.743927 2:0.455784 3:0.273652 4:0.746499 5:0.455784 6:0.455784 7:0.815994 8:0.562468 9:0.617124 
-0 0.2317346558754584 0.2621320641376261 0.1808533916189449 0.1558354020803144 1:0.744077 2:0.459597 3:0.272869 4:0.763626 5:0.459597 6:0.459597 7:0.819533 8:0.562468 9:0.628212 
-0.4990926892067346 0.2179991730198711 0.02177043146003355 0.02556247763056022 0.01749217123606014 1:0.744465 2:0.463152 3:0.271739 4:0.781343 5:0.463152 6:0.463152 7:0.821656 8:0.562978 9:0.640494 
-0.1173905206248305 0.1888264166110803 0.2410202918284303 0.2390412225997451 0.2388025169218288 1:0.744929 2:0.466591 3:0.270272 4:0.799464 5:0.466591 6:0.466591 7:0.823071 8:0.563998 9:0.653968 
-0.3876244470000353 0.3412670708459992 0.1682122576650684 0.1397093180301941 0.1104290030709332 1:0.745223 2:0.469999 3:0.268944 4:0.8178 5:0.469999 6:0.469999 7:0.823779 8:0.564508 9:0.668287 
-0 0.001408343802570524 0 0 0.005776415066693833 1:0.745135 2:0.47347 3:0.268029 4:0.836103 5:0.47347 6:0.47347 7:0.822364 8:0.565018 9:0.681587 
-0.5835704725785028 0.4615660405010912 0.3528452554118571 0.3409798541816067 0.2373920189607803 1:0.744611 2:0.477075 3:0.267243 4:0.853993 5:0.477075 6:0.477075 7:0.819533 8:0.565528 9:0.692064 
-0.3735459948062008 0.3897232433091962 0.2545756807838989 0.1750893396322002 0.1547316391084524 1:0.741441 2:0.488169 3:0.267668 4:0.900783 5:0.488169 6:0.488169 7:0.799009 8:0.567058 9:0.696196 
-0.1299725382085571 0 0.02540719205596126 0.122970351632268 0 1:0.740436 2:0.491325 3:0.268135 4:0.912859 5:0.491325 6:0.491325 7:0.789809 8:0.567058 9:0.700736 
-0.0789893378755645 0.03417458184501893 0.002368683036915214 0 0.09391678332464479 1:0.739781 2:0.493938 3:0.26853 4:0.922828 5:0.493938 6:0.493938 7:0.779901 8:0.567568 9:0.705567 
-0 0.1630041645558105 0.2010287726661613 0.0274481942008428 0.02278764732295341 1:0.73953 2:0.496062 3:0.268654 4:0.930477 5:0.496062 6:0.496062 7:0.768578 8:0.568078 9:0.708507 
-0.3639495566256131 0.06721713824710386 0 0.1974122726577447 0.004545980728115633 1:0.739602 2:0.497823 3:0.268776 4:0.935699 5:0.497823 6:0.497823 7:0.757254 8:0.568587 9:0.709205 
-0.2024820322953197 0.2794052283649057 0.2089754727284642 0.0920553905690055 0.1889655847203466 1:0.739797 2:0.499457 3:0.269093 4:0.93848 5:0.499457 6:0.499457 7:0.745931 8:0.568587 9:0.707808 
-0.03108939828959169 0 0 0 0 1:0.739915 2:0.50123 3:0.2695 4:0.93872 5:0.50123 6:0.50123 7:0.7339 8:0.569097 9:0.704432 
-0.06166020852097666 0 0.0502058021385733 0.1409695390579425 0.01842043259415531 1:0.739852 2:0.503258 3:0.26995 4:0.936291 5:0.503258 6:0.503258 7:0.721161 8:0.569097 9:0.698554 
-0.3379231499827925 0.3532689126570711 0.2362855843379965 0.02164109767928021 0.1019012795131289 1:0.739585 2:0.505487 3:0.270434 4:0.93112 5:0.505487 6:0.505487 7:0.708422 8:0.569097 9:0.690638 
-0.1755488972322807 0 0 0.2444434537921687 0.09278513809927517 1:0.739178 2:0.507716 3:0.270575 4:0.923146 5:0.507716 6:0.507716 7:0.695683 8:0.569097 9:0.680393 
-0.2475100537705302 0.3349538399215127 0.272957450025947 0.04077097860386257 0.1000450434904073 1:0.738742 2:0.509584 3:0.270469 4:0.912265 5:0.509584 6:0.509584 7:0.682236 8:0.569607 9:0.667734 
-0.3738119865705903 0.1593840839506378 0.1198864940546488 0.2578793729660482 0.1187546283164403 1:0.738397 2:0.510613 3:0.270261 4:0.898517 5:0.510613 6:0.510613 7:0.669498 8:0.569607 9:0.651611 
-0.3077841046639265 0.3130525852391624 0.2491485993720803 0.1433213988753324 0.1448089382141326 1:0.73824 2:0.510541 3:0.270064 4:0.882171 5:0.510541 6:0.510541 7:0.658174 8:0.570117 9:0.631239 
-0.4367688728528569 0.2682302204060741 0.2196310334307085 0.2530113692680453 0.1475205989120004 1:0.738331 2:0.509476 3:0.269656 4:0.863413 5:0.509476 6:0.509476 7:0.646851 8:0.570627 9:0.608277 
-0.4031885091096313 0.3288922188441277 0.2651434838823303 0.2185889324120334 0.1699842585698327 1:0.738642 2:0.507666 3:0.268974 4:0.842238 5:0.507666 6:0.507666 7:0.635527 8:0.571647 9:0.58319 
-0.4502317695457021 0.3400518859275515 0.2760166148755269 0.2717802878004685 0.1778918000715859 1:0.739076 2:0.505295 3:0.26814 4:0.81877 5:0.505295 6:0.505295 7:0.625619 8:0.572667 9:0.554786 
-0.494522935613544 0.3691320993329253 0.2974461023688967 0.2675422180860232 0.1921257022971485 1:0.739513 2:0.502399 3:0.26715 4:0.793347 5:0.502399 6:0.502399 7:0.617834 8:0.573687 9:0.524432 
-0.533939350286554 0.3883259108868404 0.3155592394077719 0.2978209030153467 0.2044843456698748 1:0.739854 2:0.498979 3:0.265987 4:0.766355 5:0.498979 6:0.498979 7:0.611465 8:0.574707 9:0.49271 
-0.5327658500815842 0.3871741443368343 0.3138877401690607 0.2866151805659851 0.2011755216339818 1:0.740054 2:0.495127 3:0.264849 4:0.738138 5:0.495127 6:0.495127 7:0.606511 8:0.575217 9:0.459824 
-0.5369370435777874 0.3906724198883136 0.3170240568259586 0.2978943929581365 0.206906708781868 1:0.74013 2:0.490985 3:0.263737 4:0.709048 5:0.490985 6:0.490985 7:0.602972 8:0.575727 9:0.428364 
-0.4824453170702434 0.3532186292092261 0.2844072763807946 0.2591405561059048 0.1796480053613749 1:0.740102 2:0.486687 3:0.262625 4:0.679272 5:0.486687 6:0.486687 7:0.600142 8:0.575727 9:0.398708 
-0.4291687726797592 0.3157108101047174 0.260558749259253 0.250080978048456 0.1760412446716162 1:0.740003 2:0.482287 3:0.261638 4:0.64909 5:0.482287 6:0.482287 7:0.598726 8:0.575727 9:0.377492 
-0.3715295517064574 0.2707736391468583 0.2097015851381201 0.1797698234126168 0.1220660125942889 1:0.739867 2:0.477775 3:0.260797 4:0.618707 5:0.477775 6:0.477775 7:0.598726 8:0.575217 9:0.367975 
-0.3792514708648901 0.2767587047769973 0.2421377959048174 0.2438931733183618 0.1745897441617622 1:0.739743 2:0.473127 3:0.260067 4:0.588446 5:0.473127 6:0.473127 7:0.600142 8:0.574707 9:0.368063 
-0.4017424455421469 0.2978616211623216 0.2131775351964538 0.1775919938835055 0.1157440285852537 1:0.739695 2:0.468412 3:0.259436 4:0.558428 5:0.468412 6:0.468412 7:0.600849 8:0.574197 9:0.359128 
-0.3574576467365438 0.2583729369918863 0.2496818021687573 0.2498411478603547 0.1852766593860045 1:0.739778 2:0.463721 3:0.258925 4:0.528695 5:0.463721 6:0.463721 7:0.602265 8:0.573177 9:0.352056 
-0.4054627022024312 0.3005959902687016 0.1913657847699158 0.1637651685449081 0.1001013523028561 1:0.740003 2:0.459093 3:0.258518 4:0.499392 5:0.459093 6:0.459093 7:0.605096 8:0.572157 9:0.345304 
-0.340367943611269 0.246815344888585 0.26116692154053 0.249872404361408 0.1894731419877028 1:0.740332 2:0.454509 3:0.258319 4:0.470799 5:0.454509 6:0.454509 7:0.608634 8:0.570627 9:0.337796 
-0.3847575998405129 0.2829856730633583 0.1635066627535701 0.1522223880387598 0.08824844329642235 1:0.740698 2:0.449933 3:0.258419 4:0.44297 5:0.449933 6:0.449933 7:0.61288 8:0.567568 9:0.329647 
-0.3684263550600207 0.2726100169756174 0.2847055296576547 0.2528281882981754 0.1968909854341469 1:0.741059 2:0.445344 3:0.258816 4:0.415933 5:0.445344 6:0.445344 7:0.614296 8:0.561448 9:0.321556 
-0.3709245280337392 0.2623720923996722 0.1488569907228553 0.165483169326949 0.08818637197303041 1:0.741446 2:0.440745 3:0.259521 4:0.388532 5:0.440745 6:0.440745 7:0.610757 8:0.54972 9:0.312767 
-0.3844595312788917 0.2974950130867117 0.3126587399322832 0.2389114817662808 0.2035574304564238 1:0.742109 2:0.436001 3:0.260528 4:0.360736 5:0.436001 6:0.436001 7:0.612173 8:0.54462 9:0.304706 
-0.3424474144161943 0.2272400279919717 0.09964802639095462 0.1760011615008437 0.07248634858223538 1:0.743365 2:0.430833 3:0.261529 4:0.334109 5:0.430833 6:0.430833 7:0.620665 8:0.54309 9:0.298565 
-0.3515671482174936 0.2771772883599307 0.3285902769392412 0.18009594823915 0.1913759978699354 1:0.745247 2:0.425299 3:0.26245 4:0.309856 5:0.425299 6:0.425299 7:0.633404 8:0.54309 9:0.294462 
-0.3584299322765806 0.2371810215684295 0.0659839876376679 0.2321950659079043 0.0786497720736056 1:0.747515 2:0.419897 3:0.263366 4:0.288526 5:0.419897 6:0.419897 7:0.648266 8:0.54309 9:0.293472 
-0.2450696784948058 0.1733692228565769 0.2724843096502727 0.05394183179570586 0.1331221245866656 1:0.74985 2:0.415263 3:0.26435 4:0.270508 5:0.415263 6:0.415263 7:0.663836 8:0.54462 9:0.294898 
-0.2760419142805984 0.2358520351771474 0.1083204660063997 0.260630154106217 0.08448553420196522 1:0.751982 2:0.411958 3:0.26533 4:0.255851 5:0.411958 6:0.411958 7:0.678698 8:0.54615 9:0.298798 
-0.1939830218110237 0.100610032640755 0.0621125871355342 0 0.0948617079302197 1:0.753738 2:0.410324 3:0.2662 4:0.244399 5:0.410324 6:0.410324 7:0.69356 8:0.54819 9:0.305608 
-0.3375549634443777 0.2547593180947223 0.2991587840739458 0.2676851077363074 0.08194764371773521 1:0.755036 2:0.410413 3:0.266995 4:0.236099 5:0.410413 6:0.410413 7:0.707714 8:0.54972 9:0.315852 
-0.1367533802377612 0.1379572706409264 0.03079513411689099 0 0.1275649695631257 1:0.755855 2:0.412048 3:0.267718 4:0.230876 5:0.412048 6:0.412048 7:0.721868 8:0.551759 9:0.330433 
-0.3304124540812455 0.1867787903792108 0.1596523468522163 0.2823611679682901 0.0536234566531443 1:0.756227 2:0.414934 3:0.268297 4:0.228605 5:0.414934 6:0.414934 7:0.734607 8:0.553289 9:0.346294 
-0.2607900328968736 0.2145451809045428 0.2427044079564238 0.004459561451420668 0.1299250359581483 1:0.756223 2:0.418738 3:0.268719 4:0.229081 5:0.418738 6:0.418738 7:0.746638 8:0.554819 9:0.363755 
-0.2558156961641695 0.2273228596250929 0.08012697849954009 0.3086913260867123 0.1289992442948787 1:0.755939 2:0.423128 3:0.268968 4:0.231971 5:0.423128 6:0.423128 7:0.757254 8:0.555839 9:0.38241 
-0.3393219939699427 0.1343258106850542 0.2020740586621964 0.009442526693879892 0.04340304523370061 1:0.755474 2:0.427771 3:0.268996 4:0.236939 5:0.427771 6:0.427771 7:0.766454 8:0.556859 9:0.402171 
-0.2578997846112851 0.3549852115780489 0.2278272001650553 0.3001786568134574 0.21716957313628 1:0.754914 2:0.432369 3:0.268903 4:0.243693 5:0.432369 6:0.432369 7:0.773531 8:0.557879 9:0.423329 
-0.3625992992384668 0.06411107303679388 0.08049265422688172 0.06990132839786771 0.00502337338653568 1:0.754324 2:0.436693 3:0.268776 4:0.251951 5:0.436693 6:0.436693 7:0.779901 8:0.559408 9:0.445447 
-0.3065527713669463 0.4197115711187576 0.3347964912023979 0.2486770254333437 0.243510997880646 1:0.753734 2:0.440564 3:0.26858 4:0.261437 5:0.440564 6:0.440564 7:0.784855 8:0.561448 9:0.468467 
-0.3392141497556462 0.03910449413572097 0.03653878934567814 0.1313900927162971 0.001910070555241654 1:0.75312 2:0.443827 3:0.268342 4:0.271925 5:0.443827 6:0.443827 7:0.789101 8:0.563488 9:0.49172 
-0.3390876568735951 0.4277864649333823 0.3519750758023272 0.1980451549468383 0.2329331132196132 1:0.752432 2:0.446376 3:0.268076 4:0.283252 5:0.446376 6:0.446376 7:0.79264 8:0.565528 9:0.514391 
-0.4260414446424983 0.02979340002300555 0 0.1490993045788758 0.02370185282395365 1:0.751643 2:0.448151 3:0.267829 4:0.295338 5:0.448151 6:0.448151 7:0.796178 8:0.567058 9:0.536335 
-0 0.3498594999286179 0.3550686138871391 0.1559794131273074 0.1561926246633691 1:0.750759 2:0.449181 3:0.267637 4:0.308139 5:0.449181 6:0.449181 7:0.799717 8:0.568587 9:0.55627 
-0.9244479891052413 0.1553387441376653 0 0.1780608276445831 0.1037783248964483 1:0.749826 2:0.449541 3:0.267482 4:0.321659 5:0.449541 6:0.449541 7:0.802548 8:0.569097 9:0.573208 
-0 0.01646860017913103 0.1510423346190088 0 0.03683831619340677 1:0.748916 2:0.449386 3:0.2673 4:0.335928 5:0.449386 6:0.449386 7:0.806086 8:0.569097 9:0.58805 
-0 0.2031567959065488 0.07393320867283477 0.1361499994784325 0 1:0.748087 2:0.448934 3:0.267082 4:0.350931 5:0.448934 6:0.448934 7:0.809625 8:0.569097 9:0.601554 
-0.175200977173663 0.04762957209280987 0.06816025343538774 0.08178913659130421 0.1834577544594204 1:0.747391 2:0.448429 3:0.266785 4:0.366581 5:0.448429 6:0.448429 7:0.812456 8:0.568587 9:0.614359 
-0 0.2827795166495755 0.216265878401823 0.1104515258364712 0.001552041570387186 1:0.746877 2:0.448086 3:0.266463 4:0.38273 5:0.448086 6:0.448086 7:0.813871 8:0.568587 9:0.626815 
-0.3929998441054723 0.0006743745009265732 0.04542249234252506 0.1747069436379241 0.08266767012990284 1:0.746608 2:0.448043 3:0.266104 4:0.399222 5:0.448043 6:0.448043 7:0.815287 8:0.568078 9:0.637729 
-0.2773171958337917 0.3643880416914131 0.2161944778296525 0.0418741037960198 0.1690554303089603 1:0.74662 2:0.448362 3:0.265723 4:0.415988 5:0.448362 6:0.448362 7:0.816702 8:0.568078 9:0.648264 
-0 0 0.07584861915023898 0.2629043033997865 0 1:0.746905 2:0.449063 3:0.265338 4:0.432929 5:0.449063 6:0.449063 7:0.81741 8:0.568587 9:0.658043 
-0.4444340275682236 0.3441994666083466 0.2369278092702972 0 0.1785078748233412 1:0.74741 2:0.450127 3:0.264881 4:0.449927 5:0.450127 6:0.450127 7:0.81741 8:0.569097 9:0.667181 
-0.3411506099396059 0 0 0.2162548567547628 0 1:0.748052 2:0.451495 3:0.264429 4:0.466899 5:0.451495 6:0.451495 7:0.816702 8:0.570117 9:0.674922 
-0 0.20377141519911 0.2096266223655117 0 0.1144759094170831 1:0.748744 2:0.453091 3:0.264068 4:0.483782 5:0.453091 6:0.453091 7:0.816702 8:0.571137 9:0.681354 
-0 0.3002242600539703 0.1527077449262896 0.414268417797835 0.150248316267775 1:0.74938 2:0.454826 3:0.263799 4:0.500517 5:0.454826 6:0.454826 7:0.815287 8:0.572667 9:0.68668 
-0.2941268346539416 0 0.09756621181621401 0.5612516761302042 0 1:0.749838 2:0.456607 3:0.263667 4:0.516985 5:0.456607 6:0.456607 7:0.813871 8:0.574197 9:0.69023 
-1 0 0 1 0 1:0.750014 2:0.458305 3:0.263677 4:0.53305 5:0.458305 6:0.458305 7:0.811748 8:0.576237 9:0.691976 
-1 0.4501503733190635 0.2536840784485683 0.01174727180341481 0.2368354240185902 1:0.749851 2:0.459784 3:0.26389 4:0.548544 5:0.459784 6:0.459784 7:0.808917 8:0.577766 9:0.692035 
-1 0.1007911320895711 0 0.001230679428287581 0.03450915993074371 1:0.746997 2:0.458706 3:0.269848 4:0.752383 5:0.458706 6:0.458706 7:0.775655 8:0.577766 9:0.729315 
-0.8523746877594562 0 0 0 0 1:0.746269 2:0.458345 3:0.270318 4:0.760517 5:0.458345 6:0.458345 7:0.77707 8:0.577257 9:0.739123 
-0 0.4236906614596094 0.7107626915657197 0.3349717516517576 0.2225472958196284 1:0.745124 2:0.457456 3:0.271006 4:0.768875 5:0.457456 6:0.457456 7:0.777778 8:0.575727 9:0.748872 
-1 0.8433909340415278 0.6834501792389381 0.6346434742189422 0.4416151480944477 1:0.741013 2:0.450915 3:0.270923 4:0.74421 5:0.450915 6:0.450915 7:0 8:0.444161 9:0.726201 
-1 0 0 0 0 1:0.731088 2:0.432677 3:0.268232 4:0.631952 5:0.432677 6:0.432677 7:0.748054 8:0.565528 9:0.560199 
-1 0 0 0 0 1:0.731101 2:0.432417 3:0.269157 4:0.635345 5:0.432417 6:0.432417 7:0.760793 8:0.561958 9:0.56471 
-1 0.6026413616788936 0.495749880533079 0.4253666939763958 0.2962449375624051 1:0.740642 2:0.418781 3:0.267923 4:0.63129 5:0.418781 6:0.418781 7:0.740269 8:0.568078 9:0.559792 
-1 0 0 0 0 1:0.746597 2:0.421953 3:0.267962 4:0.631721 5:0.421953 6:0.421953 7:0.739561 8:0.568587 9:0.560257 
-1 0 0 0 0 1:0.750525 2:0.426595 3:0.269612 4:0.634596 5:0.426595 6:0.426595 7:0.76787 8:0.567568 9:0.561247 
-0.5241637678401907 0.03609547908077061 0 0 0 1:0.750611 2:0.427366 3:0.275001 4:0.644125 5:0.427366 6:0.427366 7:0.797594 8:0.567568 9:0.565816 
-0 0.3261924231529333 0.411317931250714 0.2713985810628618 0.1854917699387053 1:0.75082 2:0.429238 3:0.279436 4:0.659768 5:0.429238 6:0.429238 7:0.823779 8:0.567568 9:0.572277 
-0.3164085587601269 0.2063686625789076 0.1555350974455469 0.1401955827233585 0.1046322371900927 1:0.751166 2:0.432342 3:0.283169 4:0.680773 5:0.432342 6:0.432342 7:0.847134 8:0.568078 9:0.57996 
-0.4868074389598401 0.3154719333963425 0.2428235361578622 0.2376467551695086 0.159124715220261 1:0.751603 2:0.436925 3:0.286196 4:0.706391 5:0.436925 6:0.436925 7:0.866242 8:0.569097 9:0.589622 
-0.3678074790020272 0.3069926408944457 0.233993816969002 0.2240022955690139 0.1596466922056755 1:0.752067 2:0.442845 3:0.287823 4:0.735815 5:0.442845 6:0.442845 7:0.881812 8:0.570627 9:0.601409 
-0.4853308498822761 0.3206686572850703 0.269634744269464 0.2473526822943031 0.1674623323648278 1:0.75246 2:0.449761 3:0.288164 4:0.768117 5:0.449761 6:0.449761 7:0.893135 8:0.571647 9:0.615553 
-0.4474345185367586 0.340294319251043 0.274484619074424 0.2585642725080185 0.1773589341946079 1:0.752664 2:0.45731 3:0.287588 4:0.802369 5:0.45731 6:0.45731 7:0.899505 8:0.573687 9:0.631501 
-0.4569577680724846 0.3221673367658522 0.2680325298551735 0.2467313489947188 0.1672875384154549 1:0.75253 2:0.465022 3:0.286203 4:0.837619 5:0.465022 6:0.465022 7:0.902335 8:0.574707 9:0.648904 
-0.5259596278161874 0.3873878458492484 0.313658472216795 0.2909099543376435 0.2048582681993459 1:0.751976 2:0.472285 3:0.282604 4:0.872745 5:0.472285 6:0.472285 7:0.896674 8:0.577257 9:0.665755 
-0.4841055844759688 0.3490904610238456 0.2872125691374108 0.2687591197395363 0.1822572802022641 1:0.750641 2:0.477274 3:0.268707 4:0.904686 5:0.477274 6:0.477274 7:0.874027 8:0.582356 9:0.682605 
-0.4531276536255056 0.3157291382709707 0.2653775736899135 0.2433146925253986 0.1756100236900691 1:0.748012 2:0.478707 3:0.245547 4:0.931311 5:0.478707 6:0.478707 7:0.849257 8:0.586945 9:0.699776 
-0.4619166857845503 0.3590390046691 0.2864476518571278 0.2729923966358379 0.1765663419464384 1:0.744397 2:0.477605 3:0.222097 4:0.952561 5:0.477605 6:0.477605 7:0.824487 8:0.588985 9:0.715841 
-0.3040202051214841 0.1763681579967178 0.1460534869984329 0.1195910778924383 0.1135219642192518 1:0.740436 2:0.475657 3:0.204793 4:0.968471 5:0.475657 6:0.475657 7:0.800425 8:0.589495 9:0.723291 
-0.2778002528787894 0.2864314679974385 0.2419327307869437 0.2496733010606867 0.1203938641804574 1:0.736731 2:0.474047 3:0.197079 4:0.979316 5:0.474047 6:0.474047 7:0.777778 8:0.588985 9:0.722913 
-0.3522452652508999 0.1641710110796697 0.09813151221041096 0.06725678673568578 0.1080638612083689 1:0.733661 2:0.473167 3:0.19814 4:0.985537 5:0.473167 6:0.473167 7:0.757962 8:0.588475 9:0.715491 
-0.1696914562592279 0.1882073807308369 0.2052382975943386 0.2052001742474745 0.09693854813353903 1:0.731412 2:0.472854 3:0.20634 4:0.987678 5:0.472854 6:0.472854 7:0.740269 8:0.588475 9:0.702686 
-0.3635815884500025 0.245550565421366 0.1472514446612881 0.1285129903932916 0.1155563573442156 1:0.729991 2:0.472797 3:0.218802 4:0.986286 5:0.472797 6:0.472797 7:0.725407 8:0.589495 9:0.684759 
-0.3727481756649815 0.2606008522565894 0.252954965417954 0.2389061078029705 0.1524478528399333 1:0.729216 2:0.472835 3:0.23406 4:0.981828 5:0.472835 6:0.472835 7:0.71196 8:0.590005 9:0.66235 
-0.3589600141185006 0.2976970137618087 0.2101574380685786 0.1927416152922038 0.1431637581130888 1:0.728878 2:0.472944 3:0.250222 4:0.974661 5:0.472944 6:0.472944 7:0.699929 8:0.590515 9:0.636157 
-0.5070345036056878 0.3113850542839851 0.2759397972549692 0.2571843453759046 0.1710955095911737 1:0.728911 2:0.47317 3:0.265919 4:0.965123 5:0.47317 6:0.47317 7:0.690021 8:0.591025 9:0.607666 
-0.2753250862851772 0.3081898965231438 0.2315877008407757 0.2144021103695279 0.1568183901215325 1:0.729355 2:0.473525 3:0.280178 4:0.953465 5:0.473525 6:0.473525 7:0.680821 8:0.591025 9:0.57865 
-0.658743069382716 0.2849244793950419 0.2427315861678905 0.2251100815557612 0.1500033269369807 1:0.730253 2:0.47393 3:0.292322 4:0.939972 5:0.47393 6:0.47393 7:0.673036 8:0.591535 9:0.550391 
-0 0.3581796095162662 0.2844072353173825 0.2639398754315529 0.1880029157061217 1:0.731582 2:0.474145 3:0.301851 4:0.924921 5:0.474145 6:0.474145 7:0.666667 8:0.592555 9:0.52385 
-0.6336807271278451 0 0 0 0 1:0.733223 2:0.473869 3:0.308684 4:0.908629 5:0.473869 6:0.473869 7:0.661713 8:0.593065 9:0.498967 
-1 0.7199056650849266 0.5842492068358354 0.5419871383659574 0.3768128394106963 1:0.735013 2:0.472902 3:0.313087 4:0.891478 5:0.472902 6:0.472902 7:0.658174 8:0.593575 9:0.47714 
-1 0.5897073652762318 0.3443506501869102 0.4937524935315223 0.397717408137243 1:0.748416 2:0.493515 3:0.251644 4:0.629804 5:0.493515 6:0.493515 7:0.794763 8:0.536971 9:0.536393 
-0 0.324209057666147 0.1382948023178423 0.2047531492115507 0.2121385526274308 1:0.750597 2:0.498904 3:0.252626 4:0.65332 5:0.498904 6:0.498904 7:0.790517 8:0.535951 9:0.593376 
-0.1993984683538275 0.2379003464004038 0.6734728422521189 0.222888953963795 0.1050462705141586 1:0.751374 2:0.500913 3:0.253475 4:0.664011 5:0.500913 6:0.500913 7:0.785563 8:0.537991 9:0.620587 
-0.1410167204476315 0.1489674857794977 0 0.06176643044363533 0.09852901004560653 1:0.751836 2:0.502282 3:0.254435 4:0.673604 5:0.502282 6:0.502282 7:0.779901 8:0.54207 9:0.6471 
-0.5395027322580608 0.3275601840287533 0.9104527621687952 0.2979994205334168 0.1822396372275535 1:0.751853 2:0.50292 3:0.255492 4:0.681889 5:0.50292 6:0.50292 7:0.773531 8:0.54666 9:0.673234 
-0.4404068282365899 0.118169559426824 0.09234367469742222 0.05156480528221646 0.05735673233139418 1:0.751306 2:0.502797 3:0.256747 4:0.688673 5:0.502797 6:0.502797 7:0.766454 8:0.552779 9:0.699252 
-0.2695417519902945 0.2634249447200929 0.9003629528850163 0.2119956782907951 0.1383930582502097 1:0.750288 2:0.502062 3:0.260012 4:0.694075 5:0.502062 6:0.502062 7:0.7615 8:0.555839 9:0.725706 
-0 0 0.2145944609175909 0 0 1:0.749439 2:0.501357 3:0.265544 4:0.698284 5:0.501357 6:0.501357 7:0.754423 8:0.555839 9:0.752219 
-0.8567293727559148 0.6321625784067986 0.7320370582209879 0.4749239576212246 0.3308402126189964 1:0.74954 2:0.501262 3:0.274521 4:0.701002 5:0.501262 6:0.501262 7:0.734607 8:0.560938 9:0.78237 
-0.03804547261744515 0 0.1115619884147977 0 0 1:0.750022 2:0.499655 3:0.276479 4:0.695385 5:0.499655 6:0.499655 7:0.71833 8:0.572157 9:0.757283 
-0 0.1406679849122051 0.4155960507594091 0.06227050434861816 0.05356653266394231 1:0.749405 2:0.497178 3:0.275869 4:0.690348 5:0.497178 6:0.497178 7:0.713376 8:0.576237 9:0.734117 
-0.4822966415832358 0.2123808475416493 0.4576298266091334 0.2347341940953963 0.1408057744933564 1:0.747952 2:0.493698 3:0.274712 4:0.684273 5:0.493698 6:0.493698 7:0.708422 8:0.578786 9:0.709671 
-0.1110485988160204 0.2031733869003291 1 0.04247737292307147 0.06161221204152607 1:0.745711 2:0.489555 3:0.273444 4:0.677358 5:0.489555 6:0.489555 7:0.705591 8:0.580316 9:0.683391 
-0.6530992629423324 0.1739189500231301 0.7696312295062701 0.2565909221974056 0.1381587497176016 1:0.742902 2:0.485113 3:0.272196 4:0.66984 5:0.485113 6:0.485113 7:0.703468 8:0.580826 9:0.657111 
-1 0.3435904103162541 1 0.1545000161673441 0.1361170807879372 1:0.739848 2:0.480717 3:0.27114 4:0.661933 5:0.480717 6:0.480717 7:0.702052 8:0.580316 9:0.630657 
-1 0 0 0 0.01829128068536015 1:0.736932 2:0.476577 3:0.269942 4:0.653824 5:0.476577 6:0.476577 7:0.701345 8:0.579296 9:0.603999 
-1 0 0 0 0 1:0.734722 2:0.47249 3:0.26832 4:0.645666 5:0.47249 6:0.47249 7:0.701345 8:0.577766 9:0.578301 
-0.55270378065717 0 0 0 0 1:0.733733 2:0.468242 3:0.266486 4:0.637853 5:0.468242 6:0.468242 7:0.704883 8:0.577257 9:0.554175 
-0 0 0 0.006529475772593423 0 1:0.734061 2:0.463864 3:0.264779 4:0.630939 5:0.463864 6:0.463864 7:0.70913 8:0.576747 9:0.531329 
-0 0.2384313872714588 0 0.2185451729765565 0.1556347132862985 1:0.735599 2:0.459515 3:0.264081 4:0.625025 5:0.459515 6:0.459515 7:0.713376 8:0.576237 9:0.51151 
-0.7996615781970866 0.5900744981490388 0.4302618187799064 0.4321195938101298 0.3068697661692056 1:0.749707 2:0.445431 3:0.27382 4:0.611438 5:0.445431 6:0.445431 7:0.738854 8:0.564508 9:0.473298 
-0 0 0.3533967040101714 0 0 1:0.753431 2:0.457359 3:0.268123 4:0.617236 5:0.457359 6:0.457359 7:0.747346 8:0.557369 9:0.510317 
-0.2542317222549505 0 0.2025776998686405 0 0 1:0.752656 2:0.46134 3:0.265976 4:0.619032 5:0.46134 6:0.46134 7:0.746638 8:0.556349 9:0.520648 
-1 0 0 0 0 1:0.751605 2:0.46513 3:0.264506 4:0.620582 5:0.46513 6:0.46513 7:0.745223 8:0.555329 9:0.531096 
-1 0 0 0 0 1:0.750376 2:0.468382 3:0.263698 4:0.621686 5:0.468382 6:0.468382 7:0.742392 8:0.554819 9:0.541486 
-1 0 0 0 0 1:0.749081 2:0.470814 3:0.263211 4:0.622219 5:0.470814 6:0.470814 7:0.740269 8:0.554309 9:0.551352 
-1 0 0 0 0 1:0.74781 2:0.472337 3:0.262797 4:0.622329 5:0.472337 6:0.472337 7:0.738854 8:0.554309 9:0.560315 
-1 0 0 0 0 1:0.746649 2:0.473036 3:0.262745 4:0.622128 5:0.473036 6:0.473036 7:0.737438 8:0.553799 9:0.568377 
-1 0 0 0 0 1:0.745666 2:0.473025 3:0.262927 4:0.621649 5:0.473025 6:0.473025 7:0.736023 8:0.554309 9:0.575129 
-1 0 0 0 0 1:0.744917 2:0.472454 3:0.263316 4:0.620982 5:0.472454 6:0.472454 7:0.735315 8:0.554309 9:0.580396 
-1 0 0 0 0 1:0.744421 2:0.471459 3:0.263826 4:0.620121 5:0.471459 6:0.471459 7:0.734607 8:0.554819 9:0.584209 
-0.8741006560270012 0 0 0 0 1:0.744165 2:0.470162 3:0.264308 4:0.619177 5:0.470162 6:0.470162 7:0.734607 8:0.555329 9:0.586683 
-1 0 0 0 0 1:0.745914 2:0.464628 3:0.266054 4:0.617291 5:0.464628 6:0.464628 7:0.7431 8:0.554309 9:0.580309 
-1 0 0 0 0 1:0.747013 2:0.463597 3:0.266431 4:0.618274 5:0.463597 6:0.463597 7:0.7431 8:0.554819 9:0.57705 
-1 0 0 0 0 1:0.748369 2:0.462618 3:0.266582 4:0.619102 5:0.462618 6:0.462618 7:0.741684 8:0.555329 9:0.575041 
-1 0 0 0 0 1:0.749982 2:0.461479 3:0.266506 4:0.619065 5:0.461479 6:0.461479 7:0.736023 8:0.555329 9:0.573266 
-1 0 0 0 0 1:0.759364 2:0.449591 3:0.266501 4:0.609191 5:0.449591 6:0.449591 7:0.73673 8:0.560938 9:0.564361 
-1 0 0 0 0 1:0.760902 2:0.446373 3:0.266557 4:0.610267 5:0.446373 6:0.446373 7:0.751592 8:0.562978 9:0.566951 
-1 0 0 0 0 1:0.762195 2:0.443585 3:0.266637 4:0.614531 5:0.443585 6:0.443585 7:0.765747 8:0.565018 9:0.57411 
-0 0.06966979444342193 0.07095872029041829 0.01743537571562923 0.05888704534000778 1:0.765135 2:0.441805 3:0.265666 4:0.64249 5:0.441805 6:0.441805 7:0.795471 8:0.571647 9:0.611304 
-0 0.07770250301266503 0 0.1493100236214804 0.04058764485546952 1:0.765931 2:0.443376 3:0.265144 4:0.655498 5:0.443376 6:0.443376 7:0.802548 8:0.574197 9:0.619772 
-0 0 0.128070725410531 0 0 1:0.767044 2:0.448288 3:0.265552 4:0.685565 5:0.448288 6:0.448288 7:0.813164 8:0.579296 9:0.632025 
-0.5791476013296393 0.3446462588146171 0.3115672333847014 0.2249998864260185 0.1780837452057956 1:0.767296 2:0.451228 3:0.266137 4:0.701951 5:0.451228 6:0.451228 7:0.813871 8:0.581336 9:0.637758 
-0.09458950327855699 0 0 0 0 1:0.767438 2:0.454293 3:0.266598 4:0.7173 5:0.454293 6:0.454293 7:0.803963 8:0.581336 9:0.640697 
-0.6626292047061044 0.1301970844952707 0.1076331595455052 0.1404356064276415 0.0799316941571668 1:0.767588 2:0.457222 3:0.266926 4:0.729965 5:0.457222 6:0.457222 7:0.789809 8:0.580316 9:0.640377 
-0.6307394679842192 0.1703808209641585 0 0.1707667316806639 0.1032154009241876 1:0.76793 2:0.459672 3:0.266996 4:0.739339 5:0.459672 6:0.459672 7:0.774947 8:0.579296 9:0.74669 
-0.6372219029227233 0.5559801172986637 0.48943545555546 0.4124455988242662 0.2902209792403316 1:0.768931 2:0.461403 3:0.267308 4:0.745726 5:0.461403 6:0.461403 7:0.762208 8:0.578786 9:0.819039 
-0.7478350406855347 0.5080419791878386 0.426565283286971 0.3848243906008267 0.2657418851779642 1:0.771046 2:0.462422 3:0.267809 4:0.748959 5:0.462422 6:0.462422 7:0.744515 8:0.580316 9:0.873578 
-0.07488102935376954 0.08184359455838582 0.05870116399324886 0.05904032026025373 0.04325534715498278 1:0.774302 2:0.462965 3:0.268819 4:0.748471 5:0.462965 6:0.462965 7:0.729653 8:0.582356 9:0.91307 
-0.8039427697558874 0.5765368559416183 0.4707802921157825 0.4348620190669256 0.3017325421530986 1:0.785728 2:0.462717 3:0.268004 4:0.74135 5:0.462717 6:0.462717 7:0.717622 8:0.586945 9:0.944967 
-0.9001686311063304 0.6602710803376924 0.5343388672127485 0.4961722996708628 0.3454940012632389 1:0.822734 2:0.445196 3:0.255169 4:0.726092 5:0.445196 6:0.445196 7:0.716914 8:0.612953 9:0.916242 
-1 0 0 1 0 1:0.739877 2:0.478539 3:0.266273 4:0.569813 5:0.478539 6:0.478539 7:0.745931 8:0.571137 9:0.611391 
-1 0.1004950656470463 0.3664187891509441 0.6872267423733189 0.0514687383795163 1:0.737696 2:0.477111 3:0.266589 4:0.571084 5:0.477111 6:0.477111 7:0.7431 8:0.570627 9:0.614127 
-0.7333094407314433 0 0 0 0 1:0.735452 2:0.475566 3:0.266973 4:0.571805 5:0.475566 6:0.475566 7:0.740977 8:0.569607 9:0.614068 
-0 0 0 0.1668068714439713 0 1:0.729455 2:0.471955 3:0.268009 4:0.571445 5:0.471955 6:0.471955 7:0.736023 8:0.565528 9:0.608917 
-0 0.3454737930309413 0.01467016194747339 0 0.1816644348697299 1:0.727208 2:0.470978 3:0.267343 4:0.569279 5:0.470978 6:0.470978 7:0.731776 8:0.562978 9:0.602631 
-0 0 0 0.9891829682332449 0 1:0.723818 2:0.472088 3:0.263438 4:0.556317 5:0.472088 6:0.472088 7:0.72753 8:0.555329 9:0.570618 
-0.5658209612760623 0 0 0 0 1:0.722264 2:0.472998 3:0.263843 4:0.553685 5:0.472998 6:0.472998 7:0.726115 8:0.552779 9:0.563633 
-0.7178771806203681 0.0331687636323724 0 0 0.001050186015188416 1:0.720563 2:0.474044 3:0.264717 4:0.550767 5:0.474044 6:0.474044 7:0.724699 8:0.54972 9:0.556358 
-0 0.09284912523838318 0.01711420243922357 0.2471713084290348 0.08976520708798767 1:0.718872 2:0.475033 3:0.265992 4:0.547464 5:0.475033 6:0.475033 7:0.722576 8:0.54666 9:0.548587 
-0 0 0 0.02588176265517299 0 1:0.717317 2:0.475626 3:0.267509 4:0.543686 5:0.475626 6:0.475626 7:0.720453 8:0.54309 9:0.539973 
-0 0.2611169001382603 0.1986999118800896 0.04796069468483669 0.1276870123052941 1:0.715934 2:0.475434 3:0.269236 4:0.539503 5:0.475434 6:0.475434 7:0.719038 8:0.539521 9:0.532144 
-0.6443215950856113 0 0 0 0 1:0.711911 2:0.461161 3:0.277015 4:0.517843 5:0.461161 6:0.461161 7:0.720453 8:0.517593 9:0.510753 
-0 0.1045135157299395 0.07484209776740275 0.0429261427731855 0.04588590833346282 1:0.712239 2:0.457369 3:0.277206 4:0.514055 5:0.457369 6:0.457369 7:0.721868 8:0.513004 9:0.507989 
-0 0 0 0.001279060413877375 0 1:0.713337 2:0.453911 3:0.276806 4:0.510677 5:0.453911 6:0.453911 7:0.724699 8:0.508414 9:0.505719 
-0.8544788059111988 0.1886243077495279 0.1985202263775408 0.2635765345099755 0.2168301688998864 1:0.721155 2:0.447231 3:0.273338 4:0.50432 5:0.447231 6:0.447231 7:0.7339 8:0.500765 9:0.50112 
-0 0.3421343324146608 0.2307629176794839 0.1466798828253085 0.05700792994830333 1:0.724597 2:0.446711 3:0.271717 4:0.503647 5:0.446711 6:0.446711 7:0.737438 8:0.499745 9:0.500306 
-0 0.08368225447855519 0.09713504062847544 0.1570244179088323 0.1472335458280412 1:0.745183 2:0.460394 3:0.262249 4:0.511478 5:0.460394 6:0.460394 7:0.746638 8:0.504844 9:0.515876 
-0.6141296636512984 0.1350670004694278 0.0894632077078143 0 0.03163674765945745 1:0.750937 2:0.460029 3:0.262206 4:0.515347 5:0.460029 6:0.460029 7:0.749469 8:0.511474 9:0.522104 
-1 0 0 0 0 1:0.753998 2:0.459011 3:0.262818 4:0.517956 5:0.459011 6:0.459011 7:0.7523 8:0.516063 9:0.524432 
-0 0 0 0 0.0004649317061572693 1:0.760478 2:0.457137 3:0.264788 4:0.524752 5:0.457137 6:0.457137 7:0.757254 8:0.525752 9:0.5258 
-0.4195487403619306 0 0 0 0 1:0.769515 2:0.455772 3:0.267792 4:0.538678 5:0.455772 6:0.455772 7:0.763624 8:0.54462 9:0.515206 
-1 0.01218668059414753 0 0.05943311899961319 0 1:0.771725 2:0.455394 3:0.268557 4:0.544441 5:0.455394 6:0.455394 7:0.767162 8:0.551249 9:0.513838 
-0.5539004121766544 0.2554965539053128 0.1045196221210934 0.1398196743790331 0.1344022389783429 1:0.773343 2:0.454889 3:0.269073 4:0.550837 5:0.454889 6:0.454889 7:0.769993 8:0.558389 9:0.514508 
-0 0 0.3942322767332388 0 0 1:0.774941 2:0.453532 3:0.269236 4:0.565746 5:0.453532 6:0.453532 7:0.776362 8:0.571647 9:0.519368 
-0 0.0220593075754092 0.2107913463641823 0.1315107728968715 0.009518904752486424 1:0.774816 2:0.452358 3:0.268756 4:0.583618 5:0.452358 6:0.452358 7:0.78344 8:0.584906 9:0.529234 
-0.09386234561548049 0.2576683673065336 0.268117606985982 0 0.1036298090312581 1:0.774207 2:0.452118 3:0.268441 4:0.593654 5:0.452118 6:0.452118 7:0.786978 8:0.591025 9:0.535695 
-0.5269803920129656 0 0 0.09354639318159205 0.002132982189601215 1:0.773257 2:0.452323 3:0.268092 4:0.60449 5:0.452323 6:0.452323 7:0.790517 8:0.597144 9:0.54297 
-0 0 0.3707243003788709 0 0 1:0.771973 2:0.453167 3:0.267833 4:0.616057 5:0.453167 6:0.453167 7:0.793347 8:0.602754 9:0.549606 
-0 0.2834782677267189 0 0.2046329750209597 0.16073751347098 1:0.770353 2:0.454796 3:0.267596 4:0.628197 5:0.454796 6:0.454796 7:0.795471 8:0.608363 9:0.55659 
-0 0 0.1916941781798848 0 0 1:0.7684 2:0.457239 3:0.267315 4:0.640677 5:0.457239 6:0.457239 7:0.796886 8:0.612443 9:0.564361 
-0 0.2374584736173717 0 0.159573224829627 0.07820339973307301 1:0.763555 2:0.464046 3:0.266613 4:0.665794 5:0.464046 6:0.464046 7:0.796178 8:0.619582 9:0.580687 
-0 0 0 0 0.06766323286799082 1:0.760799 2:0.467989 3:0.266292 4:0.678034 5:0.467989 6:0.467989 7:0.794055 8:0.622132 9:0.588545 
-0 0.1195956973459226 0.1191770366576571 0.1367081677865808 0.0407968927531568 1:0.757975 2:0.471964 3:0.266046 4:0.689759 5:0.471964 6:0.471964 7:0.791224 8:0.624171 9:0.595704 
-0 0.3371888874701169 0 0.128469719017416 0.1329566979814939 1:0.750234 2:0.480476 3:0.265886 4:0.718807 5:0.480476 6:0.480476 7:0.774947 8:0.627741 9:0.612497 
-0 0 0.2004323580461996 0.134057557473035 0.0641541824351996 1:0.74819 2:0.481014 3:0.266151 4:0.726043 5:0.481014 6:0.481014 7:0.769285 8:0.627741 9:0.616629 
-0 0 0.1950605054562148 0 0 1:0.746507 2:0.480223 3:0.266508 4:0.732127 5:0.480223 6:0.480223 7:0.764331 8:0.627741 9:0.620209 
-0.4566393126206371 0 0 0 0 1:0.745172 2:0.4783 3:0.266902 4:0.737165 5:0.4783 6:0.4783 7:0.760085 8:0.627741 9:0.623003 
-0.04082560372100498 0 0 0 0 1:0.744116 2:0.47559 3:0.267266 4:0.741247 5:0.47559 6:0.47559 7:0.755839 8:0.627741 9:0.625215 
-0 0 0.1995622050042202 0 0 1:0.740587 2:0.463637 3:0.267385 4:0.753005 5:0.463637 6:0.463637 7:0.745223 8:0.624171 9:0.62376 
-0 0.5798347214346321 0 0.3758792231398879 0 1:0.739903 2:0.463305 3:0.267234 4:0.754048 5:0.463305 6:0.463305 7:0.742392 8:0.622642 9:0.621839 
-0 0 0 0 0.03324614116953589 1:0.739208 2:0.463643 3:0.267145 4:0.754494 5:0.463643 6:0.463643 7:0.739561 8:0.620602 9:0.61951 
-0 0 0 0 0.4694737577495894 1:0.738536 2:0.464401 3:0.267077 4:0.754239 5:0.464401 6:0.464401 7:0.736023 8:0.618562 9:0.6166 
-1 0 0 0 0 1:0.737948 2:0.46526 3:0.267019 4:0.753159 5:0.46526 6:0.46526 7:0.731776 8:0.616012 9:0.613021 
-1 0 0 0 0 1:0.737507 2:0.465896 3:0.266974 4:0.751255 5:0.465896 6:0.465896 7:0.728238 8:0.613972 9:0.609325 
-1 0 0 0 0 1:0.737258 2:0.466106 3:0.266943 4:0.748644 5:0.466106 6:0.466106 7:0.725407 8:0.611423 9:0.606036 
-1 0 0.2024991380557968 0 0 1:0.737236 2:0.465869 3:0.266997 4:0.745438 5:0.465869 6:0.465869 7:0.722576 8:0.609383 9:0.602573 
-0.08880732434652638 0 0.2545517397736682 0 0 1:0.73744 2:0.46531 3:0.26713 4:0.741735 5:0.46531 6:0.46531 7:0.720453 8:0.607343 9:0.598964 
-0 0 0.8661560365843073 0.1178419432986909 0 1:0.739518 2:0.461299 3:0.267923 4:0.717618 5:0.461299 6:0.461299 7:0.712668 8:0.598674 9:0.580309 
-0 0 0 0 0.05863063552297607 1:0.739173 2:0.45886 3:0.268021 4:0.706057 5:0.45886 6:0.45886 7:0.71196 8:0.594595 9:0.572364 
-0 0.05057450865311103 0 0 0 1:0.737841 2:0.454593 3:0.268327 4:0.689274 5:0.454593 6:0.454593 7:0.714791 8:0.586945 9:0.562469 
-0 0.08482251476851059 0 0 0 1:0.737496 2:0.453384 3:0.268495 4:0.684315 5:0.453384 6:0.453384 7:0.716914 8:0.584396 9:0.559675 
-0 0.3418999522595699 0 0 0 1:0.737317 2:0.451359 3:0.269494 4:0.672585 5:0.451359 6:0.451359 7:0.723992 8:0.577257 9:0.551556 
-0.7090381654209279 0 0 0 0 1:0.738138 2:0.452032 3:0.270962 4:0.664906 5:0.452032 6:0.452032 7:0.729653 8:0.571647 9:0.545619 
-1 0 0 0 0 1:0.738405 2:0.452595 3:0.271438 4:0.663137 5:0.452595 6:0.452595 7:0.731776 8:0.570627 9:0.544949 
-1 0 0 0 0 1:0.73863 2:0.453154 3:0.271866 4:0.661715 5:0.453154 6:0.453154 7:0.733192 8:0.569097 9:0.544804 
-1 0 0 0 0 1:0.738793 2:0.453647 3:0.27218 4:0.660642 5:0.453647 6:0.453647 7:0.734607 8:0.568078 9:0.54492 
-1 0 0 0 0 1:0.738869 2:0.454101 3:0.272433 4:0.659956 5:0.454101 6:0.454101 7:0.73673 8:0.567058 9:0.545386 
-1 0 0 0 0 1:0.738841 2:0.454559 3:0.272599 4:0.65965 5:0.454559 6:0.454559 7:0.738146 8:0.566038 9:0.546084 
-1 0 0 0 0 1:0.738676 2:0.45504 3:0.272706 4:0.659695 5:0.45504 6:0.45504 7:0.739561 8:0.565018 9:0.547277 
-1 0 0 0 0 1:0.738343 2:0.455538 3:0.272819 4:0.660056 5:0.455538 6:0.455538 7:0.740977 8:0.563488 9:0.548791 
-1 0 0 0 0 1:0.737837 2:0.456068 3:0.272982 4:0.660717 5:0.456068 6:0.456068 7:0.742392 8:0.562468 9:0.550566 
-1 0 0 0 0 1:0.737183 2:0.456653 3:0.27319 4:0.661648 5:0.456653 6:0.456653 7:0.743807 8:0.560938 9:0.552312 
-1 0 0 0 0 1:0.736453 2:0.457293 3:0.273363 4:0.662795 5:0.457293 6:0.457293 7:0.744515 8:0.559408 9:0.553273 
-1 0 0 0 0 1:0.735717 2:0.458008 3:0.273486 4:0.66415 5:0.458008 6:0.458008 7:0.745223 8:0.557369 9:0.553331 
-1 0 0 0 0 1:0.735032 2:0.458848 3:0.273521 4:0.665643 5:0.458848 6:0.458848 7:0.745931 8:0.555839 9:0.553273 
-1 0 0 0.07278153693823369 0.06577291560532583 1:0.734449 2:0.459777 3:0.273634 4:0.667195 5:0.459777 6:0.459777 7:0.745931 8:0.553799 9:0.552778 
-1 0.5850725025721171 0.978531284365327 0.4087418978429897 0.2799437583414093 1:0.747871 2:0.453816 3:0.274341 4:0.735748 5:0.453816 6:0.453816 7:0.759377 8:0.534931 9:0.734146 
-1 0 0 0 0 1:0.749399 2:0.453535 3:0.274294 4:0.740213 5:0.453535 6:0.453535 7:0.759377 8:0.536461 9:0.742994 
-1 0.8436855741114007 0.6830392392902827 0.634378262441 0.4414477900374518 1:0.755153 2:0.455607 3:0.270092 4:0.668536 5:0.455607 6:0.455607 7:0.161359 8:0.761346 9:0.726085 
-1 0 0 0 0 1:0.756698 2:0.455148 3:0.2682 4:0.631539 5:0.455148 6:0.455148 7:0.737438 8:0.568587 9:0.560519 
-1 0 0 0 0 1:0.75503 2:0.452154 3:0.268417 4:0.631648 5:0.452154 6:0.452154 7:0.743807 8:0.567058 9:0.560112 
-1 0 0 0 0 1:0.755315 2:0.453564 3:0.268354 4:0.631569 5:0.453564 6:0.453564 7:0.734607 8:0.569097 9:0.562236 
-1 0 0 0 0 1:0.755414 2:0.454107 3:0.270819 4:0.632634 5:0.454107 6:0.454107 7:0.749469 8:0.567058 9:0.561742 
-1 0 0 0 0 1:0.75542 2:0.454586 3:0.276401 4:0.635745 5:0.454586 6:0.454586 7:0.756546 8:0.567058 9:0.567708 
-0.3337645375216881 0 0.1830442956211764 0 0 1:0.753236 2:0.456922 3:0.278643 4:0.636622 5:0.456922 6:0.456922 7:0.703468 8:0.570117 9:0.573266 
-1 0 0 0 0 1:0.746834 2:0.455899 3:0.268645 4:0.631278 5:0.455899 6:0.455899 7:0.739561 8:0.568078 9:0.559355 
-1 0 0 0 0 1:0.745749 2:0.453615 3:0.268623 4:0.632373 5:0.453615 6:0.453615 7:0.748054 8:0.569097 9:0.560083 
-1 0 0 0 0 1:0.745715 2:0.453704 3:0.270202 4:0.635206 5:0.453704 6:0.453704 7:0.755839 8:0.570117 9:0.56081 
-1 0 0 0 0 1:0.745652 2:0.454062 3:0.272664 4:0.639552 5:0.454062 6:0.454062 7:0.762208 8:0.570627 9:0.561421 
-1 0 0 0 0 1:0.745646 2:0.454893 3:0.27669 4:0.645317 5:0.454893 6:0.454893 7:0.768578 8:0.571647 9:0.562149 
-1 0 0 0 0 1:0.745863 2:0.45671 3:0.28058 4:0.652244 5:0.45671 6:0.45671 7:0.772824 8:0.572667 9:0.562382 
-0 0 0.1933492840730278 0 0 1:0.746819 2:0.462448 3:0.283538 4:0.66853 5:0.462448 6:0.462448 7:0.779193 8:0.575727 9:0.563459 
-0 0 0.257569724648631 0 0 1:0.747432 2:0.465734 3:0.283182 4:0.67751 5:0.465734 6:0.465734 7:0.780609 8:0.577766 9:0.56471 
