svm_type c_svc
kernel_type rbf
gamma 20
nr_class 6
total_sv 474
rho 4.63649 4.49672 -0.231692 0.202346 0.528372 -42.0957 -0.764034 -0.40511 -1.54793 0.207286 0.494759 -1.28004 0.375529 0.574055 0.140327
label 2 0 1 4 5 3
nr_sv 63 180 88 26 47 70
SV
0 0 0.1398674353182436 0 6.974521201484386 1:-1.113221 2:0.507949 3:0.348931 4:0.37483 5:0.495816 6:0.49827 7:0.810946 8:0.055707 9:0.671378 
0 0 0 0 0.9722468993303587 1:-1.331972 2:0.481921 3:0.348272 4:0.375816 5:0.49646 6:0.500419 7:0.811108 8:0.055088 9:0.671689 
2.01348576595243 1.896558863391631 0.3816141517334308 0.5771576323611808 1.224158864160335 1:-1.449743 2:0.470998 3:0.348005 4:0.376557 5:0.496764 6:0.5014 7:0.811162 8:0.054717 9:0.671044 
1.537693482413741 1.434261235778934 0.1513319627299558 0.222410743893495 0.0837826378936124 1:-1.685547 2:0.453027 3:0.347436 4:0.378504 5:0.497335 6:0.502824 7:0.811297 8:0.054098 9:0.668778 
1.314013391272355 1.244935560981639 0.2071416068028244 0.4241572140035518 0.5078914988304853 1:-1.8985 2:0.441428 3:0.347436 4:0.380943 5:0.497854 6:0.503626 7:0.811378 8:0.053355 9:0.668311 
1.524476517011695 1.538208549916439 0.1519282502921273 0.2752269925871028 0.2883088142642613 1:-2.069714 2:0.437135 3:0.346899 4:0.383747 5:0.498321 6:0.504153 7:0.811459 8:0.052612 9:0.667511 
4.78622330970939 4.654964568289316 0.640332208519385 1.010463958104318 1.280816434472328 1:-2.279982 2:0.453867 3:0.347136 4:0.39356 5:0.499386 6:0.503775 7:0.811541 8:0.050508 9:0.664889 
0 0 0.08177723975393202 0.07882350867144419 0.1636299919338642 1:-2.083786 2:0.470951 3:0.347889 4:0.402922 5:0.500016 6:0.50122 7:0.811405 8:0.048651 9:0.664956 
2.126925064592697 2.004471869267787 0.2241524102136039 0.269740837826414 0.3751922290001982 1:-1.916839 2:0.473765 3:0.34812 4:0.405449 5:0.500137 6:0.500651 7:0.811324 8:0.048155 9:0.665378 
0.7770565887034189 1.100804430044715 0.2549951109009745 0.3747164926086243 0.7015647604588009 1:-1.695525 2:0.477171 3:0.348125 4:0.407371 5:0.500219 6:0.500083 7:0.811135 8:0.04766 9:0.665267 
1.825859925274379 1.388100425576067 0.09208626558860904 0.1863580435404265 0 1:-1.56673 2:0.479241 3:0.348062 4:0.407993 5:0.500247 6:0.499775 7:0.811027 8:0.047413 9:0.665044 
0 0 0.006490969591106914 0 0 1:-1.282405 2:0.483098 3:0.347998 4:0.408568 5:0.500281 6:0.499007 7:0.810838 8:0.047041 9:0.664556 
23.15664741077367 0 0 0 0 1:-1.13038 2:0.484434 3:0.348079 4:0.4085 5:0.500289 6:0.498544 7:0.81073 8:0.046918 9:0.664244 
9.347647397291801 0 0 0 0 1:-0.973902 2:0.485188 3:0.348219 4:0.408179 5:0.500292 6:0.498016 7:0.810622 8:0.046794 9:0.664089 
78.44090180375227 0 0 0 0 1:-0.816188 2:0.485233 3:0.348321 4:0.407581 5:0.50029 6:0.497512 7:0.810486 8:0.04667 9:0.664533 
144.5533684060031 0 0 0 0 1:-0.515229 2:0.484413 3:0.348432 4:0.405641 5:0.500276 6:0.496926 7:0.81027 8:0.046546 9:0.665733 
189.0080867033546 0 0 0 0 1:-0.380625 2:0.484089 3:0.348301 4:0.404284 5:0.500265 6:0.49673 7:0.810162 8:0.046422 9:0.665689 
0 414.2842956952859 0 0 0 1:-0.011894 2:0.484109 3:0.348117 4:0.396509 5:0.500201 6:0.496383 7:0.809757 8:0.046422 9:0.666978 
0 72.5234212014924 0 1.721773247119696 0 1:0.041142 2:0.48914 3:0.347702 4:0.388678 5:0.500163 6:0.497173 7:0.809622 8:0.046546 9:0.668533 
0 0 6.499567543015877 0 0 1:-0.269032 2:0.498724 3:0.347356 4:0.375847 5:0.50015 6:0.500427 7:0.809811 8:0.046918 9:0.670511 
0 1.789322337433443 0 0 0 1:-1.109284 2:0.486703 3:0.347869 4:0.36429 5:0.500209 6:0.50446 7:0.810513 8:0.046918 9:0.665911 
0 0 0 0.4163562278733038 0 1:-1.175802 2:0.480698 3:0.34788 4:0.363693 5:0.500213 6:0.504278 7:0.810595 8:0.046918 9:0.665667 
0 1.854934179052453 0.01539556143324439 0.2262847990207509 0 1:-1.291791 2:0.461006 3:0.347358 4:0.363098 5:0.500195 6:0.502418 7:0.810892 8:0.046546 9:0.664422 
0 0.672945004606895 0.09777947744331042 0.01910016620753312 0 1:-1.278175 2:0.459307 3:0.347434 4:0.363364 5:0.500185 6:0.501955 7:0.810946 8:0.046546 9:0.664533 
0 0 0.02123047190951716 0.05316147068330939 0 1:-1.257202 2:0.458412 3:0.347511 4:0.36371 5:0.500172 6:0.501527 7:0.810973 8:0.046422 9:0.664689 
0 0 0.2309078412522662 0.03920042901859064 0 1:-1.2306 2:0.458485 3:0.347621 4:0.364108 5:0.500157 6:0.501158 7:0.811 8:0.046299 9:0.665089 
0 0 0.0494978834580426 0.06634780826814639 0 1:-1.070962 2:0.466553 3:0.348007 4:0.366682 5:0.500079 6:0.501505 7:0.811081 8:0.046422 9:0.667511 
0 0 0.3950307191348544 0 0 1:-0.154083 2:0.504534 3:0.347826 4:0.369397 5:0.499828 6:0.49794 7:0.810486 8:0.046546 9:0.665822 
0 0 0.8229172885782065 0 8.067963731435363 1:0.008628 2:0.511969 3:0.347923 4:0.362511 5:0.499823 6:0.499703 7:0.810216 8:0.047041 9:0.667422 
351.3929388848222 52.81547721670864 0 0 0 1:-0.002814 2:0.512129 3:0.347949 4:0.361132 5:0.499832 6:0.499863 7:0.810216 8:0.047041 9:0.667444 
1.024938985472432 381.1073566584236 0 0 0 1:-0.019558 2:0.512118 3:0.348018 4:0.35975 5:0.499841 6:0.499982 7:0.810216 8:0.047041 9:0.667022 
0 246.0938753679218 0 0 0 1:-0.038886 2:0.511743 3:0.348151 4:0.358377 5:0.499851 6:0.500009 7:0.810216 8:0.047041 9:0.666578 
0 473.2041941378218 0 0 0 1:-0.077642 2:0.509295 3:0.348183 4:0.355657 5:0.499876 6:0.499788 7:0.810216 8:0.047165 9:0.6658 
1045.70852745138 265.9418250452662 0 0 3.843756090459164 1:-0.096121 2:0.507202 3:0.348055 4:0.354283 5:0.49989 6:0.499578 7:0.810216 8:0.047165 9:0.665556 
704.2200499885311 0 0 0 0.4547270964325353 1:-0.135239 2:0.502146 3:0.347789 4:0.351627 5:0.499919 6:0.499085 7:0.810243 8:0.047165 9:0.665511 
0 0 0 0 1.385135829959791 1:-0.157776 2:0.499902 3:0.34768 4:0.350367 5:0.499934 6:0.498873 7:0.81027 8:0.047165 9:0.665822 
0 218.1965352839287 0 0 0 1:-0.184316 2:0.498363 3:0.347572 4:0.349199 5:0.49995 6:0.498804 7:0.810324 8:0.047165 9:0.6668 
0 256.7515836546501 0 0.1377479467559793 0 1:-0.21598 2:0.497786 3:0.34749 4:0.348116 5:0.499966 6:0.498856 7:0.810351 8:0.047289 9:0.667 
0 70.13954784326184 0 0.5290881133943409 0 1:-0.296593 2:0.498597 3:0.34761 4:0.346189 5:0.5 6:0.498918 7:0.810432 8:0.047289 9:0.666867 
119.5161210400953 0 0 0 0 1:-0.345639 2:0.499074 3:0.347819 4:0.345369 5:0.500017 6:0.499015 7:0.810486 8:0.047289 9:0.667467 
83.67754524397094 0 0 0.2606466743975525 3.973424943839808 1:-0.460609 2:0.497912 3:0.348234 4:0.344138 5:0.500054 6:0.49945 7:0.810595 8:0.047289 9:0.668067 
45.85988989203671 0 0 0 0.4348189255261912 1:-0.594643 2:0.495545 3:0.348273 4:0.343529 5:0.500092 6:0.500108 7:0.81073 8:0.047289 9:0.667889 
336.3342017312692 0 0.9632720022779594 0 0 1:-0.356618 2:0.420114 3:0.346417 4:0.517526 5:0.509071 6:0.505325 7:0.812676 8:0.038871 9:0.664022 
0 0 0 0.1766128507731348 0 1:-0.352602 2:0.396379 3:0.34818 4:0.522032 5:0.508742 6:0.504715 7:0.812892 8:0.037138 9:0.663444 
0 0 0 0.5908202230828185 0.1068017080758274 1:-0.412657 2:0.334591 3:0.354055 4:0.538597 5:0.507318 6:0.502168 7:0.813649 8:0.031196 9:0.6618 
0 0 0 0 0.332916804321591 1:-0.528168 2:0.319461 3:0.371054 4:0.55189 5:0.505992 6:0.49989 7:0.813297 8:0.026615 9:0.660489 
0 2.37807748316717 0.2474301906142881 0.3787149228039473 0 1:-0.613105 2:0.323143 3:0.390133 4:0.556106 5:0.50519 6:0.498602 7:0.811946 8:0.024263 9:0.660711 
9.10195995374997 2.18721235350692 0.2921539741587738 0.4899455987470107 0 1:-0.897102 2:0.370963 3:0.406905 4:0.550422 5:0.50245 6:0.495754 7:0.808405 8:0.021169 9:0.664422 
0 0.08287291753410528 0.1493418049489608 0.03960786851422098 0 1:-1.035875 2:0.430627 3:0.387074 4:0.536916 5:0.500518 6:0.494805 7:0.807486 8:0.021045 9:0.663911 
46.82230414956636 1.631828988025687 0.05925053152748695 0.3138568111270086 0 1:-1.073482 2:0.465435 3:0.373553 4:0.529142 5:0.49956 6:0.494539 7:0.807351 8:0.021416 9:0.667022 
7.992382725831679 0.9118318393741246 0.1793428573631668 0.2268050794014927 0 1:-1.000755 2:0.563439 3:0.338529 4:0.50617 5:0.496843 6:0.496339 7:0.807703 8:0.02414 9:0.669156 
0 1.83912009047969 0.1997598709042153 0.3979017048674272 0 1:-0.797834 2:0.618515 3:0.336634 4:0.485426 5:0.494529 6:0.498078 7:0.807486 8:0.02872 9:0.671222 
6.955296008246688 0 0 0 0 1:-0.662245 2:0.43936 3:0.346995 4:0.42699 5:0.491134 6:0.507669 7:0.808162 8:0.03949 9:0.668711 
0 3.65212531331712 0.5174881194348213 0.8043583064848286 0.6445101650448115 1:-0.726575 2:0.238947 3:0.349576 4:0.383084 5:0.489397 6:0.503564 7:0.809081 8:0.040604 9:0.661067 
32.32494834008603 0 0 0 0 1:-0.737529 2:0.360464 3:0.347266 4:0.360042 5:0.488612 6:0.498941 7:0.809189 8:0.045184 9:0.663578 
94.86278670105557 0 0 0 0 1:-0.830921 2:0.444262 3:0.338665 4:0.355182 5:0.488578 6:0.497916 7:0.810459 8:0.047537 9:0.664467 
0 0.6700347300084483 0.1396919561259113 0.2925928348886772 3.051746211329443 1:-0.880391 2:0.54915 3:0.338923 4:0.356326 5:0.488808 6:0.495816 7:0.810892 8:0.050136 9:0.662467 
0 0 0 0 13.02227287732729 1:-0.843421 2:0.571668 3:0.340925 4:0.356288 5:0.488949 6:0.494902 7:0.81073 8:0.051003 9:0.662067 
0 0.5542338603510382 0 0 0 1:-0.77453 2:0.603622 3:0.340451 4:0.358868 5:0.490107 6:0.493377 7:0.811919 8:0.054345 9:0.668 
0 0.4472904168076534 0 0 0 1:-0.786421 2:0.607985 3:0.34905 4:0.363507 5:0.490665 6:0.493403 7:0.811649 8:0.054221 9:0.666378 
0 1.82719748592946 0 0 0 1:-0.66193 2:0.611966 3:0.353181 4:0.369547 5:0.49186 6:0.493437 7:0.811459 8:0.055583 9:0.667178 
0 0 0 0.6310974423656116 9.500850919448364 1:-0.646886 2:0.609543 3:0.350955 4:0.370779 5:0.492196 6:0.493559 7:0.811243 8:0.056078 9:0.667289 
0 0 0.5821522193251313 0 0 1:-0.640732 2:0.605899 3:0.34839 4:0.371617 5:0.492551 6:0.493708 7:0.811135 8:0.056573 9:0.667533 
-0 0 0.0651189930845783 0.08191094821658415 0 1:1.007138 2:0.431829 3:0.346129 4:1.054364 5:0.466953 6:0.499002 7:0.800946 8:0.022654 9:0.6654 
-0 0 0.05422168654609111 0 0 1:1.067273 2:0.47333 3:0.346111 4:1.030173 5:0.466095 6:0.498773 7:0.799486 8:0.025006 9:0.6656 
-0 0 0.009126178944721413 0.2491038002007454 0 1:1.130761 2:0.544581 3:0.345909 4:0.972144 5:0.46467 6:0.498194 7:0.79673 8:0.030577 9:0.6652 
-0 0 0 0.08908039327439721 0 1:1.136068 2:0.571211 3:0.345686 4:0.938436 5:0.464121 6:0.497952 7:0.795378 8:0.033672 9:0.665867 
-0 0 0.1413616619984924 0.07529063928542422 0 1:1.125468 2:0.589743 3:0.345703 4:0.901678 5:0.46369 6:0.49783 7:0.794081 8:0.036767 9:0.666178 
-0 0 0 0.1494160177026092 0 1:1.030246 2:0.600242 3:0.346691 4:0.776104 5:0.463081 6:0.497657 7:0.791081 8:0.045803 9:0.666844 
-0 0 0.0882211673895726 0.1215018674255193 0 1:0.994752 2:0.593106 3:0.347274 4:0.730061 5:0.463092 6:0.497726 7:0.790216 8:0.048403 9:0.667178 
-0 0 0.01030282447071181 0.05471936258514154 0 1:0.959446 2:0.58516 3:0.348053 4:0.68212 5:0.463198 6:0.497872 7:0.789432 8:0.050879 9:0.667489 
-0 0 0.1486712883499967 0.3349133689139828 0 1:0.855229 2:0.585264 3:0.348448 4:0.581972 5:0.46369 6:0.498353 7:0.788486 8:0.055954 9:0.668156 
-0 0 0 0.01148922400470535 0 1:0.769918 2:0.600434 3:0.347958 4:0.530811 5:0.464083 6:0.498671 7:0.788378 8:0.058678 9:0.6682 
-0 0 0.09946948688462014 0.3178484228630242 0.6535883579750328 1:0.659484 2:0.626672 3:0.347197 4:0.479714 5:0.464585 6:0.498998 7:0.788541 8:0.061773 9:0.668267 
-0 0 0 0 0.7562934302872792 1:0.528357 2:0.66283 3:0.346435 4:0.429291 5:0.465205 6:0.499317 7:0.788973 8:0.064991 9:0.668089 
-0 0 0 0 5.912604855991685 1:0.235918 2:0.758547 3:0.344869 4:0.332693 5:0.466841 6:0.499921 7:0.790514 8:0.072419 9:0.668378 
-0 0 6.010613175525636 0 0 1:0.087924 2:0.81346 3:0.344221 4:0.287532 5:0.467876 6:0.500329 7:0.791595 8:0.076504 9:0.668844 
-0 179.1256495448527 3.361390314960395 0.3076763890038929 0 1:-0.053623 2:0.869879 3:0.343925 4:0.245058 5:0.469067 6:0.500724 7:0.792838 8:0.080837 9:0.668289 
-0 0 0 0.2154291331891466 0 1:-0.295763 2:0.978769 3:0.344032 4:0.169192 5:0.471979 6:0.501308 7:0.795595 8:0.09074 9:0.667933 
-0 0 0 0.1626308571631803 0 1:-0.3909 2:1.026778 3:0.3443 4:0.135963 5:0.473727 6:0.501487 7:0.796946 8:0.096187 9:0.667111 
-0 0 0.05160549989263703 0 0 1:-0.467463 2:1.066682 3:0.344792 4:0.105943 5:0.475673 6:0.501581 7:0.798405 8:0.101386 9:0.667067 
-0 0 0.1981513014507433 0.5125914176410726 0 1:-0.577966 2:1.115716 3:0.347162 4:0.037122 5:0.482414 6:0.501745 7:0.80327 8:0.109309 9:0.666778 
-0 0 0.2239347674151928 0.5931382822640391 0 1:-0.421052 2:0.679954 3:0.347836 4:0.147996 5:0.490568 6:0.50106 7:0.959297 8:0.531196 9:0.657378 
-0 0 0.1843463268503857 0 0 1:-0.186411 2:0.036034 3:0.347757 4:0.332941 5:0.500017 6:0.50009 7:0.810459 8:0.04766 9:0.667956 
-0 0 0 6.152578304021067 0 1:-0.179295 2:0.042243 3:0.347745 4:0.331702 5:0.500063 6:0.500688 7:0.810108 8:0.048279 9:0.671067 
-0 18.06613714101811 0 0 0 1:-0.163045 2:0.080391 3:0.348207 4:0.327222 5:0.500202 6:0.503511 7:0.809622 8:0.048898 9:0.674956 
-0 718.2425023466719 0 0 0 1:-0.101628 2:0.407563 3:0.347561 4:0.303936 5:0.500659 6:0.522724 7:0.810297 8:0.04667 9:0.674733 
-0 4605.317671239502 0 0 0 1:-0.035484 2:0.443152 3:0.34834 4:0.30187 5:0.500633 6:0.525888 7:0.810432 8:0.046175 9:0.674356 
-0 2371.17225565329 0 0 0 1:0.032425 2:0.489709 3:0.350126 4:0.299834 5:0.50054 6:0.529381 7:0.810568 8:0.045927 9:0.670178 
-0 0.9113720560894943 0 0 0 1:0.03941 2:0.504947 3:0.350412 4:0.299297 5:0.500508 6:0.529988 7:0.810595 8:0.045927 9:0.669 
-0 0 0 0 46.48723201698861 1:0.034062 2:0.519558 3:0.350289 4:0.298838 5:0.500477 6:0.530357 7:0.810622 8:0.046051 9:0.667867 
-0 0 0 0 8.251417999294684 1:0.016605 2:0.533145 3:0.350001 4:0.298507 5:0.500454 6:0.530489 7:0.810703 8:0.046299 9:0.666733 
-0 0 0 0 128.9473965958612 1:-0.07107 2:0.563369 3:0.3483 4:0.299441 5:0.500442 6:0.529562 7:0.811189 8:0.046918 9:0.663778 
-0 0 0 0 10.4099452039456 1:-0.09258 2:0.567785 3:0.347543 4:0.300434 5:0.500448 6:0.528905 7:0.811297 8:0.046918 9:0.6632 
-0 1162.582680935511 0 0 0 1:-0.079525 2:0.559328 3:0.322603 4:0.304894 5:0.500476 6:0.526266 7:0.811595 8:0.047289 9:0.661778 
-0 0 0 0 3.901192672595907 1:0.056599 2:0.501136 3:0.2364 4:0.312763 5:0.500586 6:0.521581 7:0.811811 8:0.04766 9:0.660444 
-0 0 0 0.0341302947780368 0 1:0.224839 2:0.392817 3:0.150025 4:0.346476 5:0.500356 6:0.512814 7:0.813568 8:0.044194 9:0.662844 
-0 0 0 0.6094465233359493 0 1:0.325298 2:0.392228 3:0.147657 4:0.358964 5:0.500135 6:0.511294 7:0.813432 8:0.043575 9:0.663133 
-0 0 0.01490219059779406 0.2296106655438094 0 1:0.36563 2:0.395506 3:0.147792 4:0.3648 5:0.500009 6:0.510573 7:0.813297 8:0.043328 9:0.663267 
-0 0 0.1171360536857579 0 0 1:0.390105 2:0.402752 3:0.148601 4:0.370314 5:0.499877 6:0.509882 7:0.813162 8:0.043204 9:0.663378 
-0 33336.53845916323 0 0 0 1:0.019381 2:0.503154 3:0.348398 4:0.332847 5:0.500052 6:0.5 7:0.810811 8:0.046794 9:0.666667 
-0 264814.7362600946 0 0 0 1:-0.138708 2:0.516686 3:0.346857 4:0.33274 5:0.500046 6:0.5 7:0.810892 8:0.046918 9:0.666667 
-0 166804.4872336647 0 0 0 1:-0.181445 2:0.520067 3:0.346524 4:0.332967 5:0.500051 6:0.5 7:0.810946 8:0.046918 9:0.666667 
-0 948.5442210418246 0 0 0 1:-0.26613 2:0.527724 3:0.358288 4:0.333781 5:0.500067 6:0.503882 7:0.811 8:0.047165 9:0.711111 
-27.51773273084007 0 0 0 0 1:-0.283816 2:0.544235 3:0.371917 4:0.332382 5:0.500371 6:0.525422 7:0.810378 8:0.052364 9:0.686867 
-7.887777219858867 241.0160648918668 0 0 0 1:-0.150129 2:0.569516 3:0.371345 4:0.330068 5:0.500896 6:0.531297 7:0.810162 8:0.054717 9:0.676867 
-42.0984727697486 0 0 0 0 1:-0.03627 2:0.584688 3:0.36919 4:0.32826 5:0.501187 6:0.533431 7:0.809811 8:0.054221 9:0.677444 
-0 2128.984541609276 0 0 73.97425848176975 1:0.099413 2:0.598935 3:0.366378 4:0.32534 5:0.501453 6:0.535967 7:0.809216 8:0.053602 9:0.680511 
-0 323.9544794731523 0 0 24.7674083687362 1:0.241468 2:0.610886 3:0.363341 4:0.320964 5:0.501694 6:0.539301 7:0.808568 8:0.052983 9:0.684911 
-0 0 0 0 4.586331678331804 1:0.515852 2:0.625736 3:0.354064 4:0.300381 5:0.502308 6:0.554519 7:0.807216 8:0.051622 9:0.694978 
-0 0 0.2622542044277466 0.3232336758597065 1.350134715135871 1:0.523864 2:0.622357 3:0.351651 4:0.291841 5:0.502487 6:0.560349 7:0.806946 8:0.051498 9:0.693867 
-0 0 0 0 13.73063868027668 1:0.210754 2:0.574007 3:0.345482 4:0.254306 5:0.503178 6:0.574909 7:0.80673 8:0.051745 9:0.670489 
-0 0 0 0 9.160072003313182 1:0.088983 2:0.554647 3:0.344879 4:0.245103 5:0.503373 6:0.574875 7:0.806838 8:0.052241 9:0.662533 
-2.508121725475281 0 0 0 0 1:-0.379452 2:0.441462 3:0.345361 4:0.207862 5:0.504497 6:0.5522 7:0.808595 8:0.052612 9:0.631844 
-0 0 0 0.4684243219027777 0 1:-0.453404 2:0.395103 3:0.346511 4:0.196873 5:0.505222 6:0.522044 7:0.810622 8:0.050508 9:0.632556 
-0 3.081965940626299 0 0 0 1:-0.33635 2:0.410831 3:0.347501 4:0.202978 5:0.505593 6:0.499243 7:0.81227 8:0.048155 9:0.647444 
-0 239.2008290659797 0 0 0 1:-0.29332 2:0.420408 3:0.347616 4:0.206673 5:0.505635 6:0.495649 7:0.812595 8:0.04766 9:0.651689 
-0 25157.05971107077 0 0 146.4337945083209 1:-0.0205 2:0.481737 3:0.347724 4:0.246004 5:0.50558 6:0.490467 7:0.813649 8:0.045927 9:0.671022 
-0 0 0 0 34.19729134349452 1:-0.132921 2:0.528974 3:0.349988 4:0.334431 5:0.500057 6:0.5 7:0.810892 8:0.046918 9:0.666667 
-0 0 0 0.01958243010522236 0 1:-0.334564 2:0.54582 3:0.347989 4:0.336859 5:0.500092 6:0.5 7:0.811081 8:0.046918 9:0.666667 
-0 337.2670644048098 0 0 0 1:-0.192343 2:0.551985 3:0.271417 4:0.338822 5:0.500127 6:0.501292 7:0.810919 8:0.047041 9:0.693244 
-0 6.455697512888233 0 0 0 1:-0.113182 2:0.554566 3:0.189348 4:0.338913 5:0.500139 6:0.511144 7:0.810784 8:0.047165 9:0.718933 
-0 0 0 0 2.969828433944712 1:0.222823 2:0.56316 3:0.163865 4:0.334554 5:0.500236 6:0.545128 7:0.809838 8:0.047784 9:0.698822 
-0 0 0 2.097511591674481 0 1:0.285961 2:0.545336 3:0.317536 4:0.306123 5:0.500675 6:0.570368 7:0.807946 8:0.050136 9:0.674578 
-0 88.81390032599361 0 0 0 1:0.230834 2:0.53932 3:0.331926 4:0.299531 5:0.500807 6:0.571548 7:0.807919 8:0.050508 9:0.669978 
-19.07097698547467 0 0 0 0 1:0.038535 2:0.510702 3:0.354215 4:0.28036 5:0.501278 6:0.568949 7:0.808162 8:0.051374 9:0.655289 
-0 2394.171016866916 0 0 0 1:-0.07971 2:0.478713 3:0.347692 4:0.259077 5:0.502806 6:0.496455 7:0.811919 8:0.047165 9:0.654711 
-28.06762632942117 227767.9452149341 0 0 0 1:0.098789 2:0.529939 3:0.343036 4:0.385211 5:0.491491 6:0.492799 7:0.809811 8:0.049022 9:0.664733 
-0 22829.10609199163 0 0 0 1:0.059941 2:0.534743 3:0.343415 4:0.375548 5:0.491795 6:0.491361 7:0.809784 8:0.048651 9:0.665356 
-138.454974547865 8102.049683869385 0 0 0 1:-0.005638 2:0.530425 3:0.344008 4:0.373348 5:0.491862 6:0.491056 7:0.809919 8:0.048527 9:0.665 
-498.357405634331 7743.163116542533 0 0 0 1:-0.101351 2:0.522156 3:0.344782 4:0.371561 5:0.491922 6:0.490698 7:0.810135 8:0.048279 9:0.665044 
-67.85417538332314 3633.371693375903 0 0 0 1:-0.220934 2:0.510671 3:0.345821 4:0.370404 5:0.491973 6:0.490421 7:0.810486 8:0.048032 9:0.665422 
-180.0661036952602 0 0 0 0 1:-0.353429 2:0.497192 3:0.347043 4:0.370179 5:0.492007 6:0.490161 7:0.810946 8:0.047289 9:0.665556 
-264.675134321544 0 0 0 0 1:-0.486882 2:0.4832 3:0.348268 4:0.371076 5:0.492008 6:0.489954 7:0.811486 8:0.046299 9:0.665822 
-34.15338090587912 0 0.1124648096031372 0.02934928307168852 1.811567729946233 1:-0.612302 2:0.469962 3:0.349219 4:0.373394 5:0.491971 6:0.489862 7:0.812189 8:0.045184 9:0.666556 
-30.20855176078375 0 0 0.385153187922687 0 1:-0.723714 2:0.458402 3:0.350197 4:0.37737 5:0.49189 6:0.489895 7:0.812946 8:0.04407 9:0.667222 
-164.2519191487315 0 0.1122472703322935 0.0109289681777923 0 1:-0.817986 2:0.448919 3:0.351078 4:0.383124 5:0.491765 6:0.490095 7:0.81373 8:0.042956 9:0.667956 
-13.2745833138121 0 0 0 0 1:-0.89475 2:0.44209 3:0.35165 4:0.390727 5:0.491599 6:0.490472 7:0.814541 8:0.041842 9:0.669022 
-0 0 0 0 1.176778060679033 1:-0.955039 2:0.438175 3:0.352218 4:0.400196 5:0.491392 6:0.491033 7:0.815378 8:0.040728 9:0.669667 
-0 0 0 0.1294294982315781 0.4665136527008906 1:-0.999995 2:0.437118 3:0.352846 4:0.411649 5:0.491147 6:0.491723 7:0.81627 8:0.039738 9:0.670222 
-0 0 0.1090115391909209 0.2313989979043705 0 1:-1.030759 2:0.43933 3:0.353496 4:0.425126 5:0.490869 6:0.492528 7:0.817135 8:0.038995 9:0.670978 
-0 0 0.01176126629549536 0 0 1:-1.050425 2:0.445544 3:0.354154 4:0.440582 5:0.490564 6:0.493612 7:0.818 8:0.038376 9:0.672778 
-37.99681117326293 0 0 0 0.1695312919721517 1:-1.070384 2:0.47145 3:0.355139 4:0.477163 5:0.489906 6:0.496352 7:0.819622 8:0.037757 9:0.673867 
-34.2725846168859 0 0 0 0 1:-1.076882 2:0.489529 3:0.355254 4:0.498136 5:0.489568 6:0.497896 7:0.820378 8:0.037757 9:0.674067 
-0 0 0.01390824732861505 0 0 1:-1.091166 2:0.54843 3:0.354623 4:0.571662 5:0.488599 6:0.502456 7:0.822757 8:0.038871 9:0.674289 
-0 0 0.1260181111435424 0.3855055447394453 0 1:-1.078812 2:0.560861 3:0.353989 4:0.599838 5:0.488322 6:0.503943 7:0.823514 8:0.039861 9:0.673267 
-2.455974970612404 0 0 0 0 1:-0.985352 2:0.552079 3:0.351978 4:0.660749 5:0.487861 6:0.506217 7:0.82473 8:0.041223 9:0.6714 
-1.190345774572725 0 0.074645724149608 0.05054942750477772 0 1:-0.900798 2:0.526794 3:0.350871 4:0.69311 5:0.487657 6:0.507147 7:0.825216 8:0.041347 9:0.670822 
-0 0 0.04372350110655185 0.3507954807191752 0 1:-0.795975 2:0.488881 3:0.34987 4:0.726534 5:0.487444 6:0.507957 7:0.825649 8:0.040852 9:0.670333 
-0 0 0.1269888048416969 0.03256803228113165 0 1:-0.676513 2:0.441739 3:0.349041 4:0.76073 5:0.487205 6:0.508703 7:0.825892 8:0.039985 9:0.6702 
-0 0 0 0.3518491432563737 0 1:-0.547452 2:0.389775 3:0.348532 4:0.795162 5:0.486929 6:0.5094 7:0.825865 8:0.038871 9:0.669667 
-0 0 0 0.07057773313091237 0 1:-0.413575 2:0.337253 3:0.348274 4:0.829451 5:0.486608 6:0.509903 7:0.82573 8:0.037509 9:0.668556 
-0 0 0 0.3568978159993765 0 1:-0.279175 2:0.287838 3:0.348138 4:0.86312 5:0.486233 6:0.510205 7:0.825351 8:0.036024 9:0.667667 
-0 0 0.1413204650770997 0.05512098474438654 0 1:-0.148805 2:0.244005 3:0.348164 4:0.895789 5:0.485798 6:0.510306 7:0.824865 8:0.034414 9:0.666667 
-0 0 0 0.3465107589996306 0 1:-0.026369 2:0.206991 3:0.348391 4:0.927193 5:0.485302 6:0.510232 7:0.824243 8:0.032681 9:0.665978 
-0 0 0.154107545374015 0 0 1:0.084595 2:0.177172 3:0.348654 4:0.957064 5:0.484744 6:0.510016 7:0.823514 8:0.030948 9:0.665111 
-0 0 0.007282607806546887 0.2960656968896357 0 1:0.180121 2:0.153733 3:0.348922 4:0.985097 5:0.484119 6:0.509577 7:0.822649 8:0.029215 9:0.664156 
-0 0 0.02050265656980378 0.04640843794134995 0 1:0.257239 2:0.135552 3:0.34918 4:1.01107 5:0.483425 6:0.508958 7:0.821703 8:0.027358 9:0.6632 
-0 0 0.04801058380749597 0 0 1:0.315343 2:0.121642 3:0.349535 4:1.034797 5:0.482664 6:0.508165 7:0.820703 8:0.025501 9:0.662556 
-0 6993.332095744885 0 0 0 1:-0.038942 2:0.370208 3:0.349482 4:0.352433 5:0.49979 6:0.498041 7:0.810865 8:0.031691 9:0.654978 
-0 17082.81084119298 0 0 0 1:0.002211 2:0.412793 3:0.348401 4:0.352632 5:0.49923 6:0.495656 7:0.810919 8:0.032062 9:0.655578 
-0 827.0755625393673 0 0 0 1:0.127318 2:0.505136 3:0.347099 4:0.463219 5:0.506527 6:0.495299 7:0.814487 8:0.057069 9:0.664667 
-22.49170716459573 0 0 0 0 1:-0.096846 2:0.495355 3:0.340161 4:0.498816 5:0.509812 6:0.504976 7:0.810622 8:0.050012 9:0.670956 
-0 462.8080511172034 0 0 0 1:-0.177065 2:0.490773 3:0.340518 4:0.498528 5:0.50991 6:0.505791 7:0.810757 8:0.048898 9:0.670178 
-0 0 3.483442214756092 0 0 1:-0.246248 2:0.488078 3:0.341073 4:0.498587 5:0.509968 6:0.50643 7:0.810919 8:0.047784 9:0.669222 
-0 0 3.069452824773449 0 0 1:-0.302321 2:0.487334 3:0.341685 4:0.499087 5:0.509989 6:0.506836 7:0.811135 8:0.046918 9:0.668022 
-0 0 0.5713435716803014 0 0 1:-0.344157 2:0.487316 3:0.342243 4:0.500091 5:0.509976 6:0.507034 7:0.811378 8:0.046051 9:0.667356 
-0 0 0 0.3656315937700789 0 1:-0.371505 2:0.48559 3:0.342683 4:0.501656 5:0.50993 6:0.50713 7:0.811622 8:0.045061 9:0.666867 
-376.3591786821276 0 0 0 0 1:-0.367116 2:0.44117 3:0.345123 4:0.513437 5:0.509338 6:0.505927 7:0.812514 8:0.040357 9:0.663644 
-0 0 0.1145583307700928 0.3430679887659187 0 1:0.373427 2:0.106313 3:0.349131 4:1.121234 5:0.476889 6:0.503222 7:0.813541 8:0.017331 9:0.663356 
-0 0 0.02682862202435113 0 0 1:0.476516 2:0.167186 3:0.348083 4:1.127465 5:0.47344 6:0.501332 7:0.809811 8:0.01535 9:0.663911 
-0 0 0.02756601587882655 0.2655915462972114 0 1:0.553823 2:0.203503 3:0.347636 4:1.123608 5:0.472268 6:0.500804 7:0.808432 8:0.015598 9:0.664356 
-0 0 0.1245229293544605 0.02629417077529765 0 1:0.645034 2:0.245852 3:0.347215 4:1.11657 5:0.471111 6:0.500368 7:0.807027 8:0.016217 9:0.664778 
-0 0 0 0.3165480403762601 0 1:0.743239 2:0.292 3:0.346922 4:1.106222 5:0.469988 6:0.500008 7:0.805541 8:0.017331 9:0.665 
-0 0 0.1315859758285046 0 0 1:0.840775 2:0.339821 3:0.346629 4:1.092436 5:0.468911 6:0.499655 7:0.804 8:0.018817 9:0.665 
-0 0 0 0.2971750964684475 0 1:0.930457 2:0.387065 3:0.346326 4:1.075147 5:0.467895 6:0.499314 7:0.802459 8:0.02055 9:0.665022 
-0 0 0.02506791509645272 0 0.8195190841371485 1:0.476961 2:0.521215 3:0.162303 4:0.428506 5:0.501095 6:0.495609 7:0.810811 8:0.056697 9:0.661444 
-0 0 0 4.455817740093359 0 1:0.231638 2:0.458003 3:0.28967 4:0.391339 5:0.503923 6:0.487198 7:0.809027 8:0.045308 9:0.665511 
-0 194.3760131675166 0 0 0 1:0.181702 2:0.503207 3:0.331307 4:0.373728 5:0.503532 6:0.485864 7:0.808865 8:0.043204 9:0.664244 
-0 661.784657974682 0 0 0 1:0.161824 2:0.511683 3:0.337011 4:0.369328 5:0.503389 6:0.485342 7:0.808919 8:0.042709 9:0.664022 
-0 2213.700517700353 0 0 0 1:0.132525 2:0.460657 3:0.348692 4:0.329772 5:0.500875 6:0.47505 7:0.810135 8:0.040728 9:0.667156 
-0 0 0 0.03249500226535502 0 1:0.134971 2:0.461231 3:0.348802 4:0.328223 5:0.500642 6:0.475069 7:0.810135 8:0.040357 9:0.666022 
-0 0 0 0 49.33073522750675 1:0.065019 2:0.542835 3:0.349707 4:0.312906 5:0.49819 6:0.469584 7:0.810378 8:0.04209 9:0.665711 
-0 0 0 0 270.0151592540012 1:0.06395 2:0.545792 3:0.354595 4:0.311866 5:0.498014 6:0.469469 7:0.810324 8:0.04209 9:0.666511 
-0 106.5538244984749 0 0 0 1:0.051159 2:0.558904 3:0.385905 4:0.309377 5:0.497665 6:0.4697 7:0.810216 8:0.042213 9:0.667978 
-0 0 0 0.9063534896556225 0 1:0.158457 2:0.46993 3:0.554378 4:0.275886 5:0.496328 6:0.496087 7:0.809459 8:0.048898 9:0.674667 
-0 5.626689803149938 0 0 0 1:0.14599 2:0.451709 3:0.553691 4:0.272779 5:0.496413 6:0.497696 7:0.809459 8:0.04927 9:0.674067 
-0 0 0 0 2.13951618224024 1:0.049257 2:0.403082 3:0.552594 4:0.264274 5:0.496726 6:0.501631 7:0.80973 8:0.049765 9:0.671844 
-0 62.20949437383008 0 0 0 1:-0.031899 2:0.383318 3:0.552211 4:0.259988 5:0.496945 6:0.503419 7:0.810027 8:0.049641 9:0.670422 
-0 52.1524047508929 0 0 0 1:-0.070361 2:0.378385 3:0.551931 4:0.258454 5:0.497048 6:0.504142 7:0.810243 8:0.049517 9:0.669756 
-0 20.61483101853924 0 0 0 1:-0.234252 2:0.395685 3:0.548861 4:0.259428 5:0.497456 6:0.505195 7:0.811649 8:0.048527 9:0.666 
-0 0.4378025644836401 0 0 0 1:-0.251605 2:0.407273 3:0.548234 4:0.261767 5:0.497522 6:0.505014 7:0.812 8:0.048527 9:0.665556 
-0 44050.48089000414 0 0 0 1:0.028646 2:0.504618 3:0.347929 4:0.333038 5:0.500021 6:0.5 7:0.810784 8:0.046794 9:0.666667 
-478.5327016949917 37196.53036466438 0 0 0 1:-0.139113 2:0.511887 3:0.354173 4:0.332211 5:0.50009 6:0.5 7:0.810892 8:0.047041 9:0.666667 
-0 0 8.119759290158635 0 0 1:-0.245618 2:0.568088 3:0.34853 4:0.334984 5:0.500187 6:0.5 7:0.811027 8:0.047289 9:0.666667 
-0 0 2.575018498773004 0 28.75416628225259 1:-0.215005 2:0.572462 3:0.346902 4:0.335453 5:0.500206 6:0.5 7:0.811 8:0.047289 9:0.666667 
-0 0 0 0.2202298550414685 0 1:-0.168707 2:0.574728 3:0.170253 4:0.335824 5:0.500224 6:0.500154 7:0.810946 8:0.047289 9:0.673244 
-0 0 0.1956361059291728 0.4960112003075728 0 1:-0.10999 2:0.575505 3:-0.195637 4:0.33607 5:0.500242 6:0.507476 7:0.810892 8:0.047289 9:0.719222 
-0 0 0.1746384176755733 0.4022109820465493 0 1:0.033475 2:0.574027 3:-0.47803 4:0.335818 5:0.500311 6:0.526294 7:0.810568 8:0.048155 9:0.705889 
-0 0 0.01809887148323825 0.1964016868192459 0 1:0.191625 2:0.568249 3:-0.400685 4:0.33337 5:0.500448 6:0.541144 7:0.81 8:0.049022 9:0.698978 
-0 0 0.1299854860955033 0.02669164008081558 0 1:0.254246 2:0.562377 3:-0.300991 4:0.331298 5:0.500535 6:0.547524 7:0.809784 8:0.04927 9:0.695644 
-0 0 0 0.4030829355838492 0 1:0.296157 2:0.554072 3:-0.187378 4:0.328586 5:0.500633 6:0.553236 7:0.809432 8:0.049517 9:0.692578 
-0 0 0.1430498830576841 0 0 1:0.314914 2:0.543472 3:-0.073057 4:0.324992 5:0.500743 6:0.558302 7:0.809027 8:0.049889 9:0.689333 
-0 0 0 0 23.29560914270833 1:0.088256 2:0.436181 3:0.345588 4:0.292583 5:0.501694 6:0.570958 7:0.808351 8:0.051869 9:0.662044 
-0 0 0 0.5474148725875758 0 1:0.010288 2:0.251826 3:0.368485 4:0.247786 5:0.503568 6:0.523796 7:0.809351 8:0.049517 9:0.6394 
-0 0 0 19.09549139821548 0.646476111703001 1:0.011093 2:0.268052 3:0.363608 4:0.244586 5:0.503662 6:0.518257 7:0.809459 8:0.049146 9:0.640756 
-0 0 0 0 9.824164884426885 1:0.003499 2:0.287385 3:0.359146 4:0.241633 5:0.503739 6:0.513016 7:0.809568 8:0.048651 9:0.6424 
-0 6759.146361858993 0 0 0 1:-0.072463 2:0.3654 3:0.34732 4:0.232156 5:0.503905 6:0.497883 7:0.810027 8:0.047289 9:0.656556 
-0 0 1.297491110871785 0 0 1:0.237188 2:0.926888 3:0.370203 4:0.284246 5:0.502375 6:0.499391 7:0.813189 8:0.04766 9:0.667889 
-0 0 1.339243905507734 0 0 1:0.302754 2:0.972667 3:0.36066 4:0.294636 5:0.502464 6:0.499885 7:0.812973 8:0.047908 9:0.667356 
-0 0 0 0.5107798282871493 0 1:0.302902 2:0.980847 3:0.355933 4:0.299444 5:0.502502 6:0.499981 7:0.812865 8:0.047784 9:0.667 
-0 0 0 0.01532062985660309 0 1:0.186423 2:0.903127 3:0.347574 4:0.316799 5:0.502629 6:0.499284 7:0.812595 8:0.047289 9:0.664889 
-0 25.93066066842778 0 0 0 1:0.155128 2:0.865132 3:0.347314 4:0.320756 5:0.502642 6:0.498901 7:0.812486 8:0.047041 9:0.664756 
-0 0 0 0 2.852671383486618 1:0.047178 2:0.739843 3:0.34659 4:0.33109 5:0.502628 6:0.497961 7:0.812189 8:0.046422 9:0.665778 
-0 0 8.112969286279718 0 0 1:0.008291 2:0.697834 3:0.346436 4:0.334193 5:0.502609 6:0.497781 7:0.812162 8:0.046175 9:0.665778 
-0 17140.62924162404 0 0 187.3989788662535 1:-0.047726 2:0.612627 3:0.346193 4:0.340174 5:0.502546 6:0.497464 7:0.812081 8:0.04568 9:0.666267 
-0 7510.442530404574 0 0 0 1:-0.062735 2:0.56926 3:0.345611 4:0.343032 5:0.502498 6:0.497437 7:0.812027 8:0.045308 9:0.6668 
-68.55230701003838 0 0 0 0 1:-0.071781 2:0.525975 3:0.344746 4:0.345772 5:0.502437 6:0.49749 7:0.811973 8:0.045061 9:0.667067 
-763.0088111888865 0 0 0 0 1:-0.079359 2:0.483641 3:0.343525 4:0.348408 5:0.502365 6:0.497608 7:0.811946 8:0.044689 9:0.6674 
-0 56627.32828414698 0 0 0 1:-0.090984 2:0.444312 3:0.34215 4:0.350981 5:0.50228 6:0.497791 7:0.811919 8:0.044318 9:0.667644 
-0 2506.850672729548 0 0 0 1:-0.110122 2:0.410589 3:0.341136 4:0.353554 5:0.502183 6:0.498018 7:0.811946 8:0.04407 9:0.667889 
-0 1065.16111836518 0 0 0 1:-0.178445 2:0.370029 3:0.348032 4:0.368672 5:0.501622 6:0.501008 7:0.812378 8:0.043699 9:0.671467 
-0 27462.52613540696 0 0 0 1:-0.048968 2:0.395297 3:0.35411 4:0.375617 5:0.501383 6:0.503278 7:0.812162 8:0.043451 9:0.672533 
-0 2359.267472778262 0 0 0 1:0.03392 2:0.412396 3:0.353643 4:0.378457 5:0.501261 6:0.504547 7:0.811946 8:0.043575 9:0.672756 
-0 4377.301890605161 0 0 0 1:0.146389 2:0.430703 3:0.349502 4:0.382933 5:0.501038 6:0.506682 7:0.811676 8:0.043947 9:0.670933 
-0 489.007206204262 0 2.272248293558361 0 1:0.162741 2:0.427822 3:0.347436 4:0.384747 5:0.50093 6:0.507493 7:0.811568 8:0.043823 9:0.669867 
-0 0 0 0 1.225645702044655 1:0.009482 2:0.331898 3:0.335709 4:0.391504 5:0.500429 6:0.508455 7:0.811622 8:0.042585 9:0.666178 
-42.66705557078176 0 0 0 0 1:-0.24443 2:0.348587 3:0.341532 4:0.423147 5:0.497306 6:0.510382 7:0.813324 8:0.03689 9:0.668689 
-0 216.8123454511812 0 0 0 1:0.035016 2:0.424108 3:0.344208 4:0.449351 5:0.495912 6:0.51267 7:0.813757 8:0.038004 9:0.665289 
-0 0 0 2.15292739067892 0 1:0.280425 2:0.460694 3:0.344428 4:0.471636 5:0.494726 6:0.508668 7:0.812568 8:0.039985 9:0.658356 
-0 102.9592180097103 0 0 0 1:0.297371 2:0.471494 3:0.344593 4:0.475256 5:0.494485 6:0.506844 7:0.812216 8:0.040728 9:0.657489 
-0 3273.822373958018 0 0 0 1:0.087759 2:0.499603 3:0.345176 4:0.483054 5:0.493793 6:0.495938 7:0.810676 8:0.046422 9:0.660267 
-0 269.8818975015388 0 0 0 1:0.039577 2:0.490499 3:0.345147 4:0.482567 5:0.493789 6:0.494702 7:0.810513 8:0.046918 9:0.661222 
-0 621.7282174493396 0 0 0 1:0.169291 2:0.532327 3:0.348508 4:0.436781 5:0.495349 6:0.484839 7:0.808514 8:0.054221 9:0.659822 
-0 3284.354310835806 0 0 0 1:0.142444 2:0.518464 3:0.348838 4:0.431499 5:0.495635 6:0.483359 7:0.808486 8:0.054593 9:0.6594 
-0.2318625431163967 0 0 0 0 1:0.111118 2:0.49741 3:0.34926 4:0.426169 5:0.495933 6:0.481826 7:0.808459 8:0.05484 9:0.659156 
-0 6190.248182820423 0 0 0 1:-0.017104 2:0.380397 3:0.349336 4:0.404513 5:0.4971 6:0.476108 7:0.808405 8:0.05385 9:0.663778 
-0 209.1993625669235 0 0 14.23387394995927 1:-0.000161 2:0.68046 3:0.348074 4:0.16508 5:0.484934 6:0.491863 7:0.805892 8:0.037881 9:0.665467 
-0 0 0 0.2609791710163001 0 1:-0.099169 2:0.667718 3:0.342067 4:0.073578 5:0.486142 6:0.493296 7:0.808162 8:0.062144 9:0.669356 
-0 0 0 0.009615095855665789 0 1:-0.07793 2:0.767069 3:0.342742 4:0.051341 5:0.491297 6:0.497173 7:0.810162 8:0.077742 9:0.669533 
-0 0 0 0.09924806245623685 0 1:-0.086941 2:0.789435 3:0.343351 4:0.050268 5:0.492507 6:0.497748 7:0.810513 8:0.080589 9:0.669289 
-0 0 0 0.1865652415494367 0 1:-0.245877 2:0.854998 3:0.349106 4:0.063864 5:0.501936 6:0.499435 7:0.813297 8:0.095816 9:0.667689 
-0 0 22.85020350956654 0 0 1:-0.013532 2:0.781136 3:0.351036 4:0.124907 5:0.515712 6:0.502808 7:0.815486 8:0.100891 9:0.670778 
-0 -17386.06568599548 0 0 0 1:-0.062236 2:0.485554 3:0.347424 4:0.261716 5:0.502821 6:0.49429 7:0.812027 8:0.047165 9:0.657889 
-0 -0 0 0 144.6628962101694 1:-0.01886 2:0.499694 3:0.347263 4:0.270769 5:0.502867 6:0.491336 7:0.812216 8:0.047289 9:0.664978 
-0 -0 0 0 150.389824868798 1:-0.010499 2:0.501668 3:0.347379 4:0.273969 5:0.502884 6:0.491163 7:0.812216 8:0.047289 9:0.666667 
-0 -13574.29956773224 0 0 0 1:-0.009183 2:0.49757 3:0.346659 4:0.294151 5:0.502975 6:0.49452 7:0.812351 8:0.047041 9:0.669822 
-0 -20269.96585903567 0 0 0 1:-0.002601 2:0.492211 3:0.34652 4:0.297666 5:0.502983 6:0.495094 7:0.812351 8:0.046918 9:0.669067 
-0 -0 0 22.58386722978983 0 1:0.220179 2:0.424699 3:0.347078 4:0.326169 5:0.501904 6:0.501166 7:0.810784 8:0.041347 9:0.669733 
-0 -23528.9579547333 0 0 0 1:0.055065 2:0.47897 3:0.350822 4:0.319873 5:0.50063 6:0.503646 7:0.810189 8:0.041223 9:0.666844 
-0 -5775.752525497452 0 0 0 1:0.023707 2:0.48018 3:0.351306 4:0.31842 5:0.500421 6:0.503596 7:0.810162 8:0.041223 9:0.666067 
-37.10590050886129 -0 0 0 0 1:-0.003271 2:0.477416 3:0.351582 4:0.316967 5:0.50021 6:0.503418 7:0.810189 8:0.041099 9:0.665578 
-0 -0 0 0 12.99798821777954 1:-0.216605 2:0.515061 3:0.349307 4:0.30879 5:0.497924 6:0.533734 7:0.811162 8:0.039614 9:0.661422 
-0 -2896.800137080731 0 0.3482952968203099 0 1:-0.232657 2:0.583988 3:0.345557 4:0.316554 5:0.496714 6:0.507254 7:0.812162 8:0.039119 9:0.621756 
-0 -73.8768663866008 7.026885159998514 0 0 1:-0.207398 2:0.602041 3:0.34455 4:0.31991 5:0.496448 6:0.497974 7:0.812378 8:0.040233 9:0.622911 
-0 -0 0 0 16.09543328744795 1:-0.172494 2:0.61751 3:0.343692 4:0.323702 5:0.496228 6:0.489155 7:0.812541 8:0.041594 9:0.625778 
-0 -0 0 0 64.73105695004027 1:-0.130292 2:0.628867 3:0.34303 4:0.327792 5:0.496059 6:0.481289 7:0.812649 8:0.042956 9:0.632933 
-0 -0 0 0 253.125630820819 1:0.070928 2:0.492904 3:0.347728 4:0.277457 5:0.505418 6:0.496029 7:0.813405 8:0.046051 9:0.671489 
-0 -0 0 0 114.7466367997977 1:0.075666 2:0.491521 3:0.347787 4:0.283281 5:0.50539 6:0.496973 7:0.813324 8:0.046051 9:0.670911 
-0 -620.1466170832936 0 0 0 1:0.065968 2:0.386411 3:0.347472 4:0.351516 5:0.503607 6:0.500901 7:0.810946 8:0.041594 9:0.667178 
-0 -49944.4406997271 0 0 0 1:-0.056894 2:0.419432 3:0.351824 4:0.351557 5:0.501713 6:0.500255 7:0.810892 8:0.040109 9:0.666467 
-105.5302637218028 -0 0 0 0 1:-0.067843 2:0.437032 3:0.35309 4:0.353657 5:0.500743 6:0.500166 7:0.811135 8:0.040604 9:0.666511 
-0 -20725.11340669662 0 0 0 1:-0.061182 2:0.435309 3:0.353025 4:0.354436 5:0.500516 6:0.50008 7:0.811162 8:0.040852 9:0.666111 
-0 -6566.468690776253 0 0 0 1:-0.05305 2:0.410308 3:0.344966 4:0.372994 5:0.497956 6:0.500533 7:0.811784 8:0.04308 9:0.666267 
-0 -12113.74794363222 0 0 0 1:-0.038159 2:0.391902 3:0.344445 4:0.375178 5:0.497814 6:0.500477 7:0.811757 8:0.042832 9:0.666578 
-0 -712.8239306847343 0 0 0 1:0.044006 2:0.335312 3:0.346875 4:0.387953 5:0.495509 6:0.502068 7:0.811108 8:0.03491 9:0.668244 
-0 -7009.662692597544 0 0 0 1:0.012327 2:0.417774 3:0.346564 4:0.389123 5:0.49409 6:0.502695 7:0.810892 8:0.033795 9:0.667111 
-0 -3838.862962048589 0 0 0 1:-0.008707 2:0.449573 3:0.346259 4:0.389248 5:0.493605 6:0.502772 7:0.810865 8:0.033919 9:0.667067 
-286.2516080800318 -0 0 0 0 1:-0.032084 2:0.481256 3:0.346034 4:0.389378 5:0.493128 6:0.502882 7:0.810865 8:0.034291 9:0.6672 
-392.476250239027 -0 0 0 0 1:-0.054634 2:0.511975 3:0.345888 4:0.389573 5:0.49267 6:0.502982 7:0.810919 8:0.03491 9:0.667067 
-0 -0 17.54001541908807 0 0 1:-0.099067 2:0.626531 3:0.345092 4:0.393763 5:0.490925 6:0.503348 7:0.811513 8:0.040357 9:0.666711 
-0 -1627.282070642327 0.02916549718400168 0 0 1:-0.079884 2:0.637532 3:0.344707 4:0.395538 5:0.490707 6:0.503356 7:0.811649 8:0.041594 9:0.666622 
-0 -0 0.2806928169479447 0 0 1:0.264705 2:0.56687 3:0.342693 4:0.40816 5:0.490389 6:0.502329 7:0.810676 8:0.048774 9:0.664467 
-0 -0 0 3.785165103599674 0 1:0.261616 2:0.552041 3:0.343424 4:0.407653 5:0.490465 6:0.501769 7:0.810486 8:0.048898 9:0.663667 
-0 -18651.86799231177 0 0 0 1:0.152754 2:0.517576 3:0.345368 4:0.402042 5:0.490779 6:0.49835 7:0.81 8:0.048774 9:0.662378 
-9.840533965871048 -0 0 0 0 1:0.085782 2:0.527392 3:0.344702 4:0.395952 5:0.491021 6:0.495916 7:0.809892 8:0.04927 9:0.663089 
-0 -227529.656235896 0 0 0 1:0.088798 2:0.530902 3:0.343164 4:0.387433 5:0.491405 6:0.493251 7:0.809865 8:0.049146 9:0.664267 
-0 -1350.934680668821 0 0 0 1:-0.082684 2:0.635118 3:0.342483 4:0.332033 5:0.495945 6:0.475199 7:0.812676 8:0.044442 9:0.641956 
-0 -1065.978336764714 0 0 0 1:0.172905 2:0.602101 3:0.340936 4:0.349524 5:0.49618 6:0.4706 7:0.81173 8:0.051127 9:0.678378 
-0 -0 0 0 35.64746406542269 1:0.207207 2:0.589176 3:0.341135 4:0.35122 5:0.496363 6:0.473432 7:0.811378 8:0.052117 9:0.682067 
-0 -259.8750020612245 0 0 0 1:0.136365 2:0.526875 3:0.344861 4:0.346226 5:0.498083 6:0.495245 7:0.80973 8:0.056202 9:0.680867 
-0 -22502.72614420465 0 0 0 1:0.090275 2:0.522371 3:0.34568 4:0.343632 5:0.498443 6:0.497983 7:0.809622 8:0.056697 9:0.678778 
-409.81369363139 -0 0 0 0 1:-0.014687 2:0.515739 3:0.347431 4:0.337899 5:0.499216 6:0.502196 7:0.809541 8:0.057564 9:0.674822 
-51.47454217631826 -0 0 0 0 1:-0.074184 2:0.510661 3:0.348528 4:0.335046 5:0.499624 6:0.503711 7:0.809595 8:0.057811 9:0.673089 
-0 -12562.59031410777 0 0 7.010216252974298 1:-0.136236 2:0.503034 3:0.349714 4:0.3324 5:0.500039 6:0.504887 7:0.809703 8:0.057935 9:0.6716 
-0 -2309.404549479124 0 0 0 1:-0.196911 2:0.492559 3:0.350865 4:0.330083 5:0.500455 6:0.505772 7:0.809892 8:0.057935 9:0.670178 
-0 -0 0.1657530260922634 0 0 1:-0.3804 2:0.415795 3:0.353304 4:0.326327 5:0.502371 6:0.506684 7:0.811135 8:0.055459 9:0.665467 
-0.2000181038167648 -0 0.7930007227375261 1.099808867171633 0 1:-0.384591 2:0.40492 3:0.353089 4:0.327401 5:0.502682 6:0.506368 7:0.811432 8:0.054717 9:0.664911 
-0 -0 0.6295401224856049 0 0 1:-0.330411 2:0.397473 3:0.351529 4:0.33452 5:0.503462 6:0.508266 7:0.812243 8:0.052736 9:0.720378 
-0 -1686.013296973901 0 0 0 1:-0.095073 2:0.406206 3:0.347679 4:0.360424 5:0.504349 6:0.530032 7:0.813676 8:0.049889 9:0.633178 
-21.11248629397104 -0 0 0 0 1:0.051236 2:0.438635 3:0.343316 4:0.397892 5:0.504554 6:0.476046 7:0.813216 8:0.046175 9:0.6328 
-49.62332760433628 -0 0 0 0 1:0.068909 2:0.444196 3:0.343326 4:0.403159 5:0.50453 6:0.469774 7:0.813 8:0.046051 9:0.640467 
-0 -5009.257163771626 0 0 0 1:0.091957 2:0.448827 3:0.343469 4:0.407823 5:0.504504 6:0.465161 7:0.812703 8:0.046051 9:0.648578 
-0 -2453.204380846828 0 0 0 1:0.119936 2:0.452548 3:0.343715 4:0.411753 5:0.504476 6:0.462189 7:0.812351 8:0.046051 9:0.656244 
-0 -0 0.316203297377491 2.59206846301152 0 1:0.245521 2:0.46007 3:0.346874 4:0.416318 5:0.504345 6:0.473937 7:0.809892 8:0.046422 9:0.690933 
-0 -1285.857575979033 0 0 0 1:0.163045 2:0.427315 3:0.349964 4:0.402047 5:0.504275 6:0.493644 7:0.80873 8:0.046051 9:0.687644 
-4.703092805236454 -9750.584431066853 0 0 0 1:0.096414 2:0.552761 3:0.3446 4:0.353574 5:0.49771 6:0.48946 7:0.810946 8:0.03491 9:0.6584 
-0 -0 0 0 13.68210906739961 1:0.07928 2:0.614107 3:0.344613 4:0.34783 5:0.497885 6:0.490676 7:0.800757 8:0.133449 9:0.735556 
-0 -0 0 0 166.8770928559423 1:-0.001941 2:0.604639 3:0.34775 4:0.333378 5:0.500004 6:0.499939 7:0.810865 8:0.047041 9:0.665933 
-0 -57450.23333179834 0 0 562.971901747312 1:-0.048274 2:0.558397 3:0.347401 4:0.333371 5:0.500021 6:0.499929 7:0.810838 8:0.047784 9:0.665756 
-86.22912692573767 -395442.919120659 0 0 35.79564955273993 1:-0.159072 2:0.518818 3:0.347575 4:0.333368 5:0.500013 6:0.49995 7:0.810784 8:0.045803 9:0.6676 
-429.7691419854511 -0 0 0 0 1:-0.2284 2:0.498639 3:0.347678 4:0.333369 5:0.500007 6:0.499967 7:0.810811 8:0.04667 9:0.666378 
-0 -9725.177421120201 0 0 0 1:-0.23963 2:0.495808 3:0.34696 4:0.333613 5:0.50004 6:0.499756 7:0.811 8:0.048403 9:0.665244 
-11.46817166312177 -0 0 0 0 1:-0.175502 2:0.470617 3:0.347482 4:0.333439 5:0.500009 6:0.499931 7:0.810946 8:0.047537 9:0.665644 
-0 -52259.63530281711 0 0 0 1:-0.121786 2:0.490149 3:0.3373 4:0.352229 5:0.5011 6:0.496464 7:0.813135 8:0.053602 9:0.665378 
-340.8375432848259 -0 0 0 0 1:-0.085858 2:0.511407 3:0.339062 4:0.364021 5:0.501664 6:0.496062 7:0.813649 8:0.055088 9:0.665911 
-202.4725136327222 -0 0 0 0 1:-0.066373 2:0.522188 3:0.340198 4:0.370727 5:0.50199 6:0.495897 7:0.813838 8:0.055954 9:0.665844 
-47.91122998507976 -0 0 0 0 1:0.038548 2:0.524923 3:0.346745 4:0.436469 5:0.505286 6:0.497363 7:0.814811 8:0.05843 9:0.662933 
-0 -5024.352321216226 0 2.087328381045254 0 1:-0.093289 2:0.378033 3:0.345694 4:0.230604 5:0.503918 6:0.496095 7:0.810216 8:0.047041 9:0.659311 
-0 -1539.213671526412 0 0 0 1:-0.085614 2:0.40199 3:0.343789 4:0.228961 5:0.503738 6:0.492576 7:0.811 8:0.044565 9:0.666756 
-0 -5428.473775259526 0 0 0 1:-0.018847 2:0.43236 3:0.346752 4:0.231579 5:0.503315 6:0.494671 7:0.811189 8:0.043575 9:0.670533 
-0 -0 0 0 93.17715959715034 1:0.063484 2:0.478907 3:0.348304 4:0.243271 5:0.502204 6:0.4974 7:0.811324 8:0.043699 9:0.6654 
-0 -0 0 0 132.1119637567362 1:-0.093551 2:0.614747 3:0.350662 4:0.24749 5:0.502096 6:0.497232 7:0.811568 8:0.048155 9:0.6664 
-0 -0 0 0.2262131830424877 0 1:-0.097958 2:0.719224 3:0.355323 4:0.256668 5:0.502183 6:0.497828 7:0.812649 8:0.047784 9:0.668444 
-0 -143.6793335368035 27.82041195124282 0.5723658662041265 0 1:-0.060219 2:0.760092 3:0.358183 4:0.261279 5:0.502231 6:0.498195 7:0.813 8:0.048155 9:0.668378 
-0 -566.0815362789635 0 0 0 1:-0.000807 2:0.802695 3:0.365129 4:0.266694 5:0.502282 6:0.498534 7:0.813351 8:0.048032 9:0.668222 
-0 -0 0.7232076250863628 0 0 1:0.078511 2:0.846065 3:0.37139 4:0.272663 5:0.502324 6:0.498847 7:0.813459 8:0.04766 9:0.668178 
-0 -0 3.73154327746496 1.094438055893729 0.8066041782386972 1:0.164033 2:0.888855 3:0.373007 4:0.278621 5:0.50235 6:0.499146 7:0.813351 8:0.047413 9:0.667933 
-0 -2937.615892555792 0 0 0 1:-0.048222 2:0.356327 3:0.349092 4:0.399091 5:0.497355 6:0.475922 7:0.808459 8:0.053355 9:0.667067 
-0 -1599.879580231763 0 0 0 1:-0.091819 2:0.317535 3:0.348013 4:0.388758 5:0.497797 6:0.476549 7:0.808649 8:0.051993 9:0.669267 
-0 -0 0.2787249971273351 0.4316337624283395 0 1:-0.053055 2:0.279301 3:0.347647 4:0.349009 5:0.499375 6:0.493073 7:0.785162 8:0.108938 9:0.789533 
-0 -790.650801428353 0 0 0 1:-0.032807 2:0.266213 3:0.347515 4:0.333347 5:0.499982 6:0.499804 7:0.810811 8:0.046051 9:0.665422 
-0 -0 0 0 5.024338979101669 1:0.009181 2:0.255961 3:0.347286 4:0.333353 5:0.499962 6:0.499694 7:0.810811 8:0.047908 9:0.668489 
-0 -0 0 0 1.284373089858836 1:0.071646 2:0.230572 3:0.34726 4:0.332988 5:0.499903 6:0.499951 7:0.811 8:0.050508 9:0.667156 
-0 -0 0.3888043661571582 1.872115850410782 0 1:0.049528 2:0.176682 3:0.347805 4:0.333296 5:0.499992 6:0.500011 7:0.810838 8:0.047289 9:0.666844 
-0 -0 0.6373905568776482 0 0 1:0.144721 2:0.205015 3:0.346539 4:0.32968 5:0.499257 6:0.500475 7:0.809622 8:0.033548 9:0.666756 
-0 -286.2582201370104 0 4.743361745458808 0 1:0.159162 2:0.285865 3:0.347074 4:0.316164 5:0.497212 6:0.499408 7:0.808081 8:0.024387 9:0.664333 
-0 -0 0 0 29.61226775550786 1:0.146402 2:0.367547 3:0.348664 4:0.301821 5:0.495405 6:0.498244 7:0.807297 8:0.021169 9:0.663489 
-0 -102.0690162142898 0 0 0 1:0.096101 2:0.523626 3:0.351626 4:0.264952 5:0.49141 6:0.495786 7:0.806378 8:0.020178 9:0.664022 
-0 -0 0 0 47.1450237236088 1:0.08616 2:0.555939 3:0.352068 4:0.254653 5:0.490431 6:0.495239 7:0.806243 8:0.021169 9:0.664044 
-0 -0 0 0 22.76045517549293 1:0.078219 2:0.585447 3:0.352315 4:0.244073 5:0.489494 6:0.494726 7:0.806135 8:0.022407 9:0.664311 
-0.7299838693993074 -26.69037853618288 -8.93215058709632 0.661024371114591 0.6406459469358642 1:0.040283 2:0.781997 3:0.351125 4:0.135732 5:0.51773 6:0.503708 7:0.815595 8:0.100644 9:0.671133 
-0.4777174334184845 -0 -0 0.6405658242242988 1.182137684758321 1:0.140127 2:0.791815 3:0.360477 4:0.158583 5:0.521654 6:0.505734 7:0.816378 8:0.095444 9:0.671867 
-0.4412715870964942 -2.445252698526102 -1.390420303439748 0.4771454734859764 0.5349032606924623 1:0.406236 2:0.947589 3:0.437934 4:0.204751 5:0.525701 6:0.508979 7:0.818405 8:0.070191 9:0.6716 
-0.840725097531438 -0.4949565014029774 -0 0.9532305788063316 1.103239936660764 1:0.480909 2:1.010673 3:0.455321 4:0.222481 5:0.526426 6:0.509966 7:0.81873 8:0.062268 9:0.671244 
-7.65667633579935 -14.27555432084275 -0 1.054908662908013 3.316885624854667 1:-0.267277 2:0.560557 3:0.368855 4:0.427912 5:0.5061 6:0.494092 7:0.811 8:0.043328 9:0.663222 
-0 -0 -7.173892621764927 0 0 1:-0.239777 2:0.566721 3:0.361526 4:0.432191 5:0.505611 6:0.492405 7:0.811811 8:0.041966 9:0.664644 
-0 -0 -0 0.5482654693058354 0 1:-0.216732 2:0.765559 3:0.380466 4:0.463314 5:0.504836 6:0.488805 7:0.812946 8:0.043823 9:0.664444 
-0.7107374236825686 -0.7696299427408052 -0 0.7489795186088009 0.4071832193526941 1:0.038607 2:0.852103 3:0.348923 4:0.483417 5:0.503964 6:0.488011 7:0.810676 8:0.044318 9:0.668222 
-0.37425743355018 -0 -0 0.3522018755628561 0.5923586976482532 1:0.015433 2:1.021751 3:0.346688 4:0.456706 5:0.503213 6:0.496203 7:0.808297 8:0.044813 9:0.674222 
-0 -0 -0 0.02050809127362074 0.02664240129089578 1:0.059061 2:1.100821 3:0.347171 4:0.444651 5:0.503083 6:0.499276 7:0.808054 8:0.045308 9:0.673711 
-0 -0 -0 0.09942204071763758 0 1:0.113165 2:1.194749 3:0.347562 4:0.431718 5:0.503 6:0.501957 7:0.807946 8:0.046051 9:0.672467 
-0.385134539796277 -0.5106720701210825 -0.1547256846883671 0.3337279062450231 0.4688030812808017 1:0.138923 2:1.245388 3:0.347788 4:0.425138 5:0.502981 6:0.503089 7:0.807919 8:0.046422 9:0.671778 
-1.06097601953083 -1.49252158636788 -0.6794778253431644 1.18627917952079 1.346295947157168 1:0.233402 2:1.508792 3:0.347815 4:0.377141 5:0.50325 6:0.505846 7:0.808622 8:0.048527 9:0.664733 
-0 -0 -0.1000116665590607 0 0 1:0.128557 2:1.181879 3:0.347435 4:0.347368 5:0.503678 6:0.499064 7:0.809703 8:0.047537 9:0.662956 
-0 -0 -0.2059004434659693 0 0 1:0.10303 2:1.116728 3:0.347485 4:0.344966 5:0.503704 6:0.498367 7:0.809811 8:0.047413 9:0.663689 
-0 -1.657824140606446 -0.2946077771320463 0 0 1:0.079442 2:1.053023 3:0.347469 4:0.342796 5:0.503721 6:0.497792 7:0.809919 8:0.047165 9:0.664133 
-0.3309140567411726 -8.003218299159425 -34.24778767109776 0 0 1:-0.106541 2:0.708115 3:0.348249 4:0.331342 5:0.503503 6:0.49788 7:0.810541 8:0.045308 9:0.6684 
-0 -0 -0 0.1806920375573265 3.730244166933856 1:-0.116592 2:0.703703 3:0.348285 4:0.330761 5:0.503446 6:0.498239 7:0.810568 8:0.045184 9:0.668333 
-0 -0 -0 0.02482175919076533 0 1:-0.117277 2:0.822014 3:0.347207 4:0.329846 5:0.502842 6:0.501575 7:0.810919 8:0.045432 9:0.6674 
-0 -0 -0 0.1307968993377158 0 1:-0.108537 2:0.834981 3:0.346815 4:0.330399 5:0.502746 6:0.501675 7:0.810946 8:0.045556 9:0.666267 
-0 -5.22026511121646 -2.195133192566987 0 0 1:-0.025246 2:0.798538 3:0.348168 4:0.334962 5:0.502152 6:0.501414 7:0.810865 8:0.045927 9:0.667489 
-0 -2.508729724713018 -4.749723669356141 0 0 1:0.013731 2:0.878903 3:0.347956 4:0.335163 5:0.502029 6:0.502006 7:0.810784 8:0.046422 9:0.667022 
-0.03083786897622703 -0 -0 0 0 1:0.047032 2:1.072034 3:0.347963 4:0.334138 5:0.502104 6:0.502518 7:0.810757 8:0.04766 9:0.667333 
-0.1039550365970855 -0 -0 0.5693678613881604 0.5923294318623877 1:0.021885 2:1.175605 3:0.348641 4:0.333402 5:0.502497 6:0.502239 7:0.810784 8:0.048403 9:0.665844 
-0.4197584369075048 -0 -0 0 0 1:0.024598 2:1.191908 3:0.348438 4:0.333219 5:0.502619 6:0.502171 7:0.810757 8:0.048527 9:0.667067 
-0.2309827853233082 -0.6042800887831874 -0.237507393357195 0.3089756069203242 0.384297388578708 1:0.079272 2:1.307245 3:0.347459 4:0.33159 5:0.503635 6:0.502168 7:0.810757 8:0.048527 9:0.665711 
-1.133399292815015 -10.86467182198921 -24.58751068891717 -0.2883281647228055 0 1:0.250057 2:0.431062 3:0.342417 4:0.359986 5:0.477401 6:0.507004 7:0.806649 8:0.014731 9:0.666733 
-0 -0 -0 -0 0.02831029849961074 1:0.254223 2:0.430553 3:0.344786 4:0.350212 5:0.476216 6:0.506978 7:0.806405 8:0.015598 9:0.6664 
-0 -0 -0 -0 34.21964730452047 1:0.303439 2:0.450717 3:0.353413 4:0.317687 5:0.472923 6:0.506616 7:0.805703 8:0.019807 9:0.665867 
-0.2180788887737548 -0 -1.817788250902751 -0.3921036259357265 0 1:0.276102 2:0.479051 3:0.40486 4:0.277534 5:0.470623 6:0.505705 7:0.804108 8:0.034538 9:0.664489 
-0.4839527626690973 -0.2911003667302185 -0 -0.397941267870189 0.3862129160400998 1:-0.085116 2:0.225299 3:0.340646 4:-0.056544 5:0.489594 6:0.492117 7:0.812108 8:0.059049 9:0.668444 
-0.3062335277514566 -0 -0.1360836922996283 -0.2169918950496633 0.530759662285245 1:-0.099006 2:0.037278 3:0.411942 4:-0.008369 5:0.49017 6:0.501985 7:0.812595 8:0.046422 9:0.6738 
-0.01224599226895806 -0 -0 -0.06288687506541846 0 1:0.236136 2:0.202983 3:0.417047 4:0.015841 5:0.491288 6:0.511651 7:0.812541 8:0.058183 9:0.670756 
-0.3217653575325825 -0.0109289681777923 -0 -0.2326245619876212 0 1:0.284598 2:0.216152 3:0.402455 4:0.019868 5:0.491735 6:0.512195 7:0.812595 8:0.059173 9:0.667667 
-0.008878509845030441 -0.3002709020825232 -0 -0 0 1:0.319677 2:0.221543 3:0.383558 4:0.023994 5:0.492208 6:0.512088 7:0.812622 8:0.059544 9:0.664689 
-0 -0 -0 -0.07963503776842899 0.18750481214166 1:-0.015033 2:-0.031524 3:0.380238 4:0.075896 5:0.495121 6:0.4974 7:0.812865 8:0.050879 9:0.665756 
-0.09700219254461755 -0 -0 -0 0 1:0.033482 2:-0.022267 3:0.369993 4:0.080712 5:0.495266 6:0.497322 7:0.813 8:0.050508 9:0.666756 
-0.262049151687431 -0 -0 -0.2087838054573722 0 1:0.15804 2:0.009153 3:0.343917 4:0.0915 5:0.495516 6:0.497557 7:0.813405 8:0.050012 9:0.667511 
-0 -0 -0 -0.0716278381086248 0 1:0.212554 2:0.026576 3:0.338768 4:0.09775 5:0.495646 6:0.497727 7:0.813703 8:0.050508 9:0.667533 
-0.1769235894315099 -0.1115761975579468 -0 -0 0 1:0.324136 2:0.067602 3:0.329415 4:0.111949 5:0.495921 6:0.498284 7:0.814081 8:0.05026 9:0.668067 
-0.08066390946970477 -0.5109287631796329 -0.05575218436244776 -0.2127677367784001 0 1:0.384245 2:0.092851 3:0.330724 4:0.119514 5:0.496046 6:0.498503 7:0.814162 8:0.050012 9:0.667444 
-0.2432099489352637 -0.05906739041126442 -0 -0.04465047878013272 0 1:0.499325 2:0.149318 3:0.338609 4:0.134854 5:0.496292 6:0.498714 7:0.814189 8:0.05026 9:0.667111 
-0.03729597468762509 -0.231616338114005 -0 -0.1444293243138642 0 1:0.549163 2:0.178955 3:0.338428 4:0.142489 5:0.49642 6:0.498837 7:0.814108 8:0.050136 9:0.667111 
-0 -0 -0.3229474288788068 -0 0 1:0.60923 2:0.24024 3:0.344453 4:0.156901 5:0.496663 6:0.498947 7:0.813811 8:0.050012 9:0.666622 
-0 -0 -0.01096491148341697 -0 0 1:0.620938 2:0.270003 3:0.349277 4:0.163597 5:0.496791 6:0.498914 7:0.813676 8:0.050384 9:0.666511 
-0.6005637163525323 -1.10938102395896 -0 -0.4034426099289207 3.64103786268546 1:0.619018 2:0.322669 3:0.347202 4:0.175971 5:0.497069 6:0.49889 7:0.813324 8:0.050384 9:0.666489 
-0.002462289576025328 -0 -0 -0.06880840808284917 1.252291511222681 1:0.532361 2:0.372638 3:0.35096 4:0.191051 5:0.497439 6:0.498952 7:0.81273 8:0.050136 9:0.666533 
-0 -0 -0 -0 41.90793018598751 1:0.336962 2:0.370406 3:0.345794 4:0.204143 5:0.497849 6:0.498991 7:0.81273 8:0.050012 9:0.667089 
-0 -0 -6.014182818619998 -0 17.84083958095342 1:0.182034 2:0.328469 3:0.344711 4:0.212992 5:0.498054 6:0.499291 7:0.812703 8:0.04927 9:0.667933 
-0.708091125951896 -14.87262819079641 -4.075239932990129 -0.2868717241452418 0 1:0.033235 2:0.258483 3:0.344809 4:0.221643 5:0.498226 6:0.500071 7:0.81273 8:0.048774 9:0.668889 
-0 -5.575281999736708 -0 -0 0 1:-0.031139 2:0.216861 3:0.345268 4:0.226176 5:0.498296 6:0.500533 7:0.812865 8:0.048651 9:0.668978 
-0.04061225081614514 -0 -0.4063359375820815 -0.1992075386086896 0 1:-0.122781 2:0.12647 3:0.344589 4:0.236056 5:0.498411 6:0.501516 7:0.813081 8:0.048155 9:0.668533 
-0.2807748931957548 -4.373179145505762 -0.06300934713177818 -0 0.2822039936044365 1:-0.182098 2:0.027857 3:0.345233 4:0.24659 5:0.498489 6:0.501925 7:0.813162 8:0.047537 9:0.666867 
-0.09394682080017254 -1.436432100290509 -0.05842012156776687 -0.1822397155878072 0.4479947210918725 1:-0.20513 2:-0.024895 3:0.345497 4:0.251989 5:0.498512 6:0.501908 7:0.813189 8:0.047289 9:0.666333 
-0.2524513823551867 -0 -0.179725763243618 -0.2130422405268139 0.04946561244300435 1:-0.236193 2:-0.130918 3:0.346061 4:0.26278 5:0.498525 6:0.501698 7:0.813135 8:0.04667 9:0.666089 
-0 -0 -0 -0 0.01720407348248757 1:-0.251614 2:-0.227357 3:0.346918 4:0.273199 5:0.498497 6:0.501537 7:0.813054 8:0.046175 9:0.666556 
-0 -0 -0.04620616216344348 -0 0.2896686942745751 1:-0.254416 2:-0.267706 3:0.347186 4:0.278223 5:0.498468 6:0.501415 7:0.812973 8:0.045927 9:0.665711 
-0.314238327610442 -0.4721377277970814 -0.1435112133999774 -0.2405251577579515 0.2629964818496809 1:-0.249657 2:-0.325492 3:0.348384 4:0.287741 5:0.49838 6:0.501176 7:0.812811 8:0.045432 9:0.665556 
-0 -0.7226363119039706 -0 -0 0 1:-0.137964 2:-0.280063 3:0.347821 4:0.329891 5:0.497556 6:0.500543 7:0.811703 8:0.045308 9:0.6674 
-0 -0.01064013196722381 -0.1719925883635004 -0 0 1:-0.125471 2:-0.304382 3:0.347409 4:0.333648 5:0.497437 6:0.500907 7:0.811568 8:0.045061 9:0.667689 
-0.3002166885072332 -0 -0 -0.198349327845228 0.4848626421692587 1:-0.121109 2:-0.325012 3:0.34729 4:0.335294 5:0.497372 6:0.501146 7:0.811486 8:0.045061 9:0.667867 
-0.04293578879250229 -0 -0 -0.06373916157421475 0 1:-0.119697 2:-0.382267 3:0.347258 4:0.338106 5:0.497232 6:0.501761 7:0.811351 8:0.044813 9:0.668289 
-0 -0 -0.06964671359061192 -0 0 1:-0.125329 2:-0.457108 3:0.347337 4:0.340347 5:0.497079 6:0.502395 7:0.811243 8:0.044689 9:0.668111 
-0.01075421308487226 -0.2284287467954091 -0.08204166314748783 -0.03005938501094177 0 1:-0.130273 2:-0.49915 3:0.347537 4:0.34127 5:0.496998 6:0.502688 7:0.811189 8:0.044565 9:0.667933 
-0.3847980751696585 -0.553786758455254 -0.09094198681900867 -0.2651165064083585 0.6878503489694916 1:-0.141925 2:-0.585925 3:0.347639 4:0.342781 5:0.496833 6:0.503207 7:0.811108 8:0.044565 9:0.667778 
-0.1452439430660067 -0.2778168208381559 -0.170847648552736 -0.132590917252061 0.09354350451644455 1:-0.145378 2:-0.664208 3:0.347582 4:0.343931 5:0.496671 6:0.503499 7:0.811027 8:0.044689 9:0.667333 
-0.3520814535209084 -0.6317299025235626 -0.2186013259980006 -0.2686430796098605 0.5249116909024715 1:-0.027272 2:-0.836517 3:0.347361 4:0.344614 5:0.495977 6:0.503573 7:0.81073 8:0.045432 9:0.667489 
-0.37887616571899 -0.6659289457830347 -0.2417599777852739 -0.299760840542172 0.5458580499221077 1:-0.108969 2:-0.927908 3:0.346715 4:0.344593 5:0.4958 6:0.504038 7:0.811027 8:0.044813 9:0.667644 
-0.7501642839063754 -1.313329696345418 -0.4716741713297097 -0.583910693058745 1.06803603160615 1:-0.400239 2:-1.086908 3:0.337314 4:0.347827 5:0.495553 6:0.504548 7:0.812297 8:0.041099 9:0.668178 
-0.7945517299186753 -1.405726095313077 -0.4989755514283792 -0.6242150483866089 1.138114738629155 1:-1.087813 2:-1.429733 3:0.310583 4:0.360203 5:0.494734 6:0.503412 7:0.814595 8:0.029958 9:0.6582 
-0.800207250809566 -1.405646403120156 -0.5016845868960725 -0.6276652207330579 1.142683527228891 1:-1.599236 2:-1.71235 3:0.292434 4:0.369146 5:0.494048 6:0.500961 7:0.814757 8:0.027234 9:0.652022 
-0.7953868829459693 -1.404858915134021 -0.5013110127187351 -0.6260270566117014 1.14051966897648 1:-2.199268 2:-2.061425 3:0.255761 4:0.378308 5:0.493215 6:0.497355 7:0.815027 8:0.020673 9:0.646933 
-0.8010195688809789 -1.404830210370295 -0.4995061247039715 -0.6239279126585958 1.140950904024475 1:-2.838446 2:-2.419242 3:0.217082 4:0.389017 5:0.492021 6:0.492762 7:0.816027 8:0.008294 9:0.6422 
-0.3255939903773934 -1.77494200812617 -0 -0.2659479783033611 -0 1:0.35225 2:0.219385 3:0.334537 4:0.329538 5:0.497904 6:0.521532 7:0.810432 8:0.031072 9:0.654267 
-0 -0 -8.799526196814591 -0.09441838012286352 -0 1:0.305266 2:0.271607 3:0.346257 4:0.326141 5:0.494163 6:0.484861 7:0.810568 8:0.031196 9:0.642933 
-0.2411554780069428 -1.37152765247078 -1.278614973761036 -0.2235098019206708 -0 1:0.749621 2:0.260483 3:0.354098 4:0.324177 5:0.49214 6:0.477115 7:0.810622 8:0.034786 9:0.670311 
-0.2284683062174879 -1.193180825233468 -0.9909926140396372 -0.2008929977886157 -0.3789549407478892 1:0.970284 2:0.241233 3:0.351742 4:0.323613 5:0.491705 6:0.478444 7:0.810486 8:0.035529 9:0.675578 
-0.07878057609855313 -0.5720271943201406 -0.5581000927607621 -0.06266025454677 -0.2670673981236492 1:1.573661 2:0.178521 3:0.339752 4:0.321048 5:0.490901 6:0.484068 7:0.809946 8:0.036519 9:0.683933 
-0.4135313890403165 -2.240370579240099 -1.999284252463577 -0.3673114876578624 -0.7550019123811599 1:2.814571 2:-0.034882 3:0.309877 4:0.311661 5:0.489765 6:0.496157 7:0.808973 8:0.036395 9:0.686889 
-0.4717175791031939 -2.538392320695528 -2.272131337609467 -0.4264112707127423 -0.8551645011208472 1:3.78984 2:-0.287384 3:0.281696 4:0.302476 5:0.488926 6:0.503853 7:0.80873 8:0.034414 9:0.681067 
-0.4707255943427858 -2.541202999536963 -2.276255396079949 -0.4274474974200212 -0.8558122207921399 1:4.318429 2:-0.45725 3:0.258282 4:0.298127 5:0.488445 6:0.506064 7:0.809216 8:0.033548 9:0.673378 
-0.4713840299178455 -2.547998234286149 -2.278008657292421 -0.4269006696572807 -0.86380278524714 1:5.475572 2:-0.937417 3:0.165602 4:0.293158 5:0.487224 6:0.505663 7:0.809865 8:0.023644 9:0.656911 
-0 -0 -0 -0 -10.61270223658251 1:0.290098 2:0.362542 3:0.343573 4:0.255791 5:0.49918 6:0.499299 7:0.802595 8:0.037633 9:0.670867 
-0 -0 -0 -0 -45.91508082117846 1:0.268663 2:0.386256 3:0.335631 4:0.236972 5:0.498829 6:0.500139 7:0.802703 8:0.037014 9:0.670667 
-0 -0 -5.747240849683804 -0 -0 1:0.263964 2:0.462697 3:0.296331 4:0.204783 5:0.497968 6:0.501365 7:0.805 8:0.033672 9:0.666356 
-0 -0 -0 -0.7059427259756729 -0 1:0.248846 2:0.631608 3:0.254006 4:0.177234 5:0.496399 6:0.501743 7:0.808432 8:0.032929 9:0.668156 
-0.03870512492931936 -0 -0 -0.01081007908908902 -2.06804656637831 1:0.549211 2:0.375774 3:0.401859 4:0.253173 5:0.494208 6:0.512818 7:0.812297 8:0.04667 9:0.6658 
-0.1623657174019156 -0.7249352996417042 -0 -0.1535123530938378 -0 1:0.577323 2:0.299372 3:0.376314 4:0.256107 5:0.494071 6:0.511174 7:0.810541 8:0.044318 9:0.662578 
-0 -0 -0 -0 -1.019323045455564 1:0.539345 2:0.295128 3:0.355957 4:0.255553 5:0.493956 6:0.51026 7:0.810622 8:0.043204 9:0.662089 
-0 -0 -0 -0 -1.184041433566738 1:0.439277 2:0.361065 3:0.316642 4:0.255049 5:0.493378 6:0.507199 7:0.810757 8:0.040604 9:0.661622 
-0.04391182612826584 -0 -0 -0 -0 1:0.556152 2:0.588873 3:0.311321 4:0.254853 5:0.492322 6:0.501021 7:0.810973 8:0.044565 9:0.661556 
-0.134367426004461 -1.963471117851455 -0 -0 -0 1:0.474791 2:0.626068 3:0.312422 4:0.25663 5:0.492233 6:0.497824 7:0.811162 8:0.047413 9:0.661556 
-0 -0 -59.30059851629547 -0 -0 1:0.135007 2:0.541021 3:0.330333 4:0.267301 5:0.492989 6:0.489242 7:0.81173 8:0.051374 9:0.662733 
-0 -0 -0 -0 -8.998863229726156 1:0.3474 2:0.442629 3:0.343589 4:0.278272 5:0.494015 6:0.488042 7:0.811757 8:0.05286 9:0.668511 
-0.3171483357010261 -1.683144795362702 -1.516254606149423 -0.2841004357616872 -0.5979630060740684 1:1.209945 2:0.220955 3:0.344914 4:0.293927 5:0.495567 6:0.497908 7:0.811189 8:0.049393 9:0.673244 
-0.08536447845596189 -0.3260518367187559 -0.2677001232758994 -0.05486459455820495 -0.05549761167497205 1:1.527616 2:0.18951 3:0.344727 4:0.294937 5:0.495732 6:0.500565 7:0.810892 8:0.048774 9:0.672689 
-0.1719924531283007 -0.8459145620378427 -0.7221465439513076 -0.1839896748903698 -0.2471796928573166 1:1.69372 2:0.179465 3:0.34502 4:0.294937 5:0.495801 6:0.501787 7:0.81073 8:0.048527 9:0.672356 
-0.235200158165707 -1.282443845692542 -1.170397367629068 -0.195799759024184 -0.4445879079691233 1:2.02225 2:0.170562 3:0.34538 4:0.293777 5:0.495931 6:0.503901 7:0.810405 8:0.048527 9:0.671178 
-0.08534330046207718 -0.4437682865793035 -0.3956507847388413 -0.08321021422063708 -0.157380197493599 1:2.175875 2:0.169463 3:0.345674 4:0.292712 5:0.495996 6:0.504759 7:0.81027 8:0.048527 9:0.6704 
-0.06451421445491835 -0.3525813071346942 -0.3336952901030956 -0.09506752726805015 -0.1264311142139124 1:2.438464 2:0.169674 3:0.346272 4:0.289753 5:0.496138 6:0.506065 7:0.810054 8:0.048774 9:0.668956 
-0 -0 -0 -0.1622795770541316 -0.0397476237494121 1:2.653196 2:0.175537 3:0.347066 4:0.283586 5:0.496371 6:0.506396 7:0.809784 8:0.049022 9:0.665444 
-0.3089613060124325 -1.649176070760612 -1.465939100228879 -0.1040756131123985 -0.5106109810826647 1:2.635286 2:0.189775 3:0.348212 4:0.27886 5:0.496543 6:0.505585 7:0.809784 8:0.049146 9:0.6642 
-0.2597123487150643 -1.419934853767498 -1.254400894278001 -0.2078263313364882 -0.4756262056302818 1:2.368107 2:0.227653 3:0.349647 4:0.27226 5:0.496837 6:0.503372 7:0.809946 8:0.049641 9:0.662222 
-0.1477572242159449 -0.799009314515814 -0.6966527829120841 -0.1439321796096992 -0.2512787596867339 1:2.070893 2:0.254116 3:0.350316 4:0.268678 5:0.497064 6:0.501531 7:0.810108 8:0.050012 9:0.662178 
-0.1225894859818641 -0.695615324989054 -0.6408928820539735 -0.0916986044337053 -0.2559867887367934 1:1.708852 2:0.282977 3:0.35119 4:0.265874 5:0.497308 6:0.499436 7:0.810297 8:0.050136 9:0.661422 
-0.1416545673582721 -0.8146503892628263 -0.718400349158931 -0.1519191319753599 -0.2696790235914094 1:1.511861 2:0.297077 3:0.351433 4:0.264814 5:0.497435 6:0.498356 7:0.810405 8:0.05026 9:0.661578 
-0.03756526210676984 -0.2915458237948633 -0.2788525483922439 -0.05051810808007738 -0.06350734806313381 1:1.10912 2:0.321544 3:0.351615 4:0.263556 5:0.497686 6:0.4964 7:0.810676 8:0.050012 9:0.662511 
-0 -0 -0.3066451208190218 -0 -1.509823687648965 1:0.725839 2:0.342692 3:0.351481 4:0.26344 5:0.497917 6:0.494985 7:0.810919 8:0.049641 9:0.664089 
-0 -0 -0 -0 -13.85283847488808 1:0.397137 2:0.364722 3:0.351008 4:0.264473 5:0.498114 6:0.494086 7:0.811162 8:0.049146 9:0.665044 
-0 -0 -0 -0 -0.3998487952951798 1:0.26437 2:0.379173 3:0.350769 4:0.265422 5:0.498197 6:0.493853 7:0.811297 8:0.048898 9:0.666 
-0 -0 -0 -0 -2.725466477929098 1:0.082134 2:0.415813 3:0.351714 4:0.268301 5:0.498338 6:0.493994 7:0.811568 8:0.048527 9:0.668089 
-3.923687425044069 -232.3920696797736 -319.8398280514498 -0 -0 1:0.035267 2:0.460609 3:0.353297 4:0.272249 5:0.498463 6:0.495051 7:0.811757 8:0.048403 9:0.670267 
-0 -0 -281.560695926515 -0 -0 1:0.065007 2:0.484897 3:0.354024 4:0.274464 5:0.498525 6:0.495881 7:0.811811 8:0.048403 9:0.671 
-0.1301259668337788 -0.3403426618970829 -0.3486251314549867 -0 -0.131847241140669 1:1.116209 2:0.589332 3:0.350242 4:0.289344 5:0.498949 6:0.504271 7:0.811216 8:0.048032 9:0.670667 
-0 -0 -0 -0.02290244870490251 -0.06176821965614419 1:1.262502 2:0.598614 3:0.349769 4:0.290138 5:0.498998 6:0.505044 7:0.811108 8:0.048032 9:0.670067 
-0.4102094886143978 -2.174880593857066 -1.941387708502973 -0.3567072589092998 -0.735873839080061 1:1.862482 2:0.651277 3:0.348206 4:0.288536 5:0.499533 6:0.50491 7:0.810486 8:0.048651 9:0.663578 
-0.09226544175023733 -0.5756689200205746 -0.5384899057524948 -0.1159150945394295 -0.1787132341880299 1:1.622072 2:0.648613 3:0.348583 4:0.284396 5:0.49989 6:0.501638 7:0.810486 8:0.048774 9:0.663622 
-0.231704566932397 -1.156443784737886 -1.012814043298281 -0.1774035653803976 -0.4063951787869601 1:1.529439 2:0.647037 3:0.348606 4:0.283703 5:0.499965 6:0.500973 7:0.810541 8:0.048774 9:0.663356 
-0.2649278270837401 -1.55066705319161 -1.383880515617987 -0.2619287153113604 -0.4676429868568363 1:1.298546 2:0.641753 3:0.348827 4:0.282699 5:0.500121 6:0.499484 7:0.810649 8:0.048898 9:0.662956 
-0.1368310018231219 -1.240640919778646 -1.009395133476301 -0.2546390632086382 -0.3311934464374833 1:1.013902 2:0.632523 3:0.348966 4:0.282303 5:0.50028 6:0.497948 7:0.810811 8:0.048898 9:0.662911 
-0.2111186219728016 -0.5485463394210019 -0.515843696023799 -0.0735781966502327 -0.4007292801738459 1:0.855357 2:0.627294 3:0.348787 4:0.282366 5:0.500357 6:0.497172 7:0.810865 8:0.048898 9:0.663067 
-0.05107698864084342 -0 -0 -0.3007333759684488 -0 1:0.520661 2:0.618071 3:0.348826 4:0.283042 5:0.500503 6:0.495754 7:0.811054 8:0.048651 9:0.6638 
-0 -0 -0 -0.02611873050575586 -0 1:0.356786 2:0.614237 3:0.348957 4:0.28373 5:0.50057 6:0.495289 7:0.811162 8:0.048527 9:0.665111 
-0 -0 -0 -0.1455123318640783 -0 1:0.070243 2:0.607159 3:0.349447 4:0.285836 5:0.500688 6:0.494871 7:0.811378 8:0.048279 9:0.666111 
-0 -0 -0 -2.278690064082616 -0 1:-0.042024 2:0.603169 3:0.349708 4:0.28725 5:0.50074 6:0.494815 7:0.811486 8:0.048155 9:0.666711 
-0 -0 -0 -0.3262369695327609 -0 1:-0.189814 2:0.593688 3:0.350124 4:0.290748 5:0.500827 6:0.495145 7:0.811649 8:0.047784 9:0.668044 
-0 -0 -33.9066915616915 -1.801388666579991 -0.6425460429004417 1:-0.23835 2:0.584118 3:0.350379 4:0.294843 5:0.500887 6:0.495958 7:0.811757 8:0.047413 9:0.669156 
-1.157578791455519 -29.03845957366377 -0 -1.539776300890207 -0 1:-0.231986 2:0.580561 3:0.350478 4:0.29701 5:0.500907 6:0.496501 7:0.811757 8:0.047289 9:0.6694 
-0 -183.5896940169987 -247.3312108337498 -0 -0 1:-0.036707 2:0.58417 3:0.35022 4:0.307969 5:0.500947 6:0.499406 7:0.81173 8:0.046794 9:0.669444 
-0 -300.0456185015713 -158.4192271808252 -0 -0 1:0.096588 2:0.587203 3:0.350204 4:0.31197 5:0.500934 6:0.500574 7:0.811622 8:0.046546 9:0.669444 
-0 -10.52011694689814 -0 -0 -4.719980279204934 1:0.338488 2:0.593546 3:0.35041 4:0.316842 5:0.50089 6:0.502277 7:0.811405 8:0.046299 9:0.669289 
-0 -3.62326821172471 -3.213299937891811 -0 -0 1:0.426611 2:0.595118 3:0.350523 4:0.318107 5:0.50087 6:0.502796 7:0.811324 8:0.046299 9:0.669044 
-0.123150983399512 -3.326768254422046 -0 -0 -0 1:0.604655 2:0.59662 3:0.35102 4:0.319949 5:0.500831 6:0.503663 7:0.811108 8:0.046299 9:0.6684 
-0.07400708623345904 -0.7532111709663624 -0.9929769991585299 -0.1720765186496199 -0 1:0.765505 2:0.596337 3:0.350997 4:0.32101 5:0.500791 6:0.504162 7:0.810973 8:0.046299 9:0.6674 
-0 -0 -0 -0 -2.334533473054476 1:0.386175 2:0.547509 3:0.349279 4:0.316359 5:0.500755 6:0.499049 7:0.810541 8:0.047289 9:0.661778 
-0.8805240566523431 -13.95957548899985 -0 -0 -0.6953504833330799 1:0.173739 2:0.555853 3:0.348942 4:0.315787 5:0.500775 6:0.497976 7:0.810595 8:0.047413 9:0.661289 
-8.513605155056212 -288.196863527725 -757.391977158643 -0 -0 1:-0.065768 2:0.566932 3:0.348757 4:0.315341 5:0.500805 6:0.496829 7:0.810649 8:0.047784 9:0.661111 
-10.13732470851664 -2.997952783229831 -1.074831363396728 -0.437867872203885 -0.6550379168991162 1:-0.579809 2:0.592093 3:0.348544 4:0.315123 5:0.500894 6:0.494452 7:0.810892 8:0.048279 9:0.661022 
-14.71405203300381 -1.417343490717287 -1.340490200970886 -0.1585561661916508 -0.414486887584198 1:-0.819882 2:0.603712 3:0.34883 4:0.315511 5:0.500952 6:0.493341 7:0.811081 8:0.048403 9:0.661756 
-0 -0 -0.3569102052247498 -0.02834875364079468 -0.1067667767136525 1:-1.186396 2:0.618064 3:0.349467 4:0.317483 5:0.501092 6:0.49167 7:0.811405 8:0.048774 9:0.663622 
-0 -2.293085838908591 -1.921896561487585 -0.3767061132783282 -0.7385737749723581 1:-1.345188 2:0.616948 3:0.350015 4:0.320919 5:0.50125 6:0.490977 7:0.811676 8:0.048898 9:0.666467 
-3.067605849404873 -0 -0 -0 -0 1:-1.282914 2:0.594653 3:0.350639 4:0.325428 5:0.501387 6:0.491367 7:0.811892 8:0.048279 9:0.6688 
-8.21273247028423 -2.837233751760094 -1.287233556714697 -0.2958333343006664 -0.5326449691595694 1:-1.0191 2:0.553277 3:0.349121 4:0.330512 5:0.501451 6:0.492824 7:0.811919 8:0.047041 9:0.671489 
