svm_type c_svc
kernel_type rbf
gamma 100
nr_class 2
total_sv 497
rho -0.747012
label 0 1
nr_sv 361 136
SV
0.6240375306050499 1:0.585346 2:0.540084 3:0.512205 4:0.271515 5:0.540084 6:0.540084 7:0.932535 8:0.255465 9:0.684898 
1 1:0.585377 2:0.540088 3:0.512189 4:0.271544 5:0.540088 6:0.540088 7:0.932535 8:0.255465 9:0.684926 
1 1:0.58542 2:0.540113 3:0.512178 4:0.271587 5:0.540113 6:0.540113 7:0.932535 8:0.255465 9:0.684926 
1 1:0.585479 2:0.54015 3:0.512165 4:0.271637 5:0.54015 6:0.54015 7:0.932692 8:0.255465 9:0.684954 
1 1:0.585558 2:0.540203 3:0.512156 4:0.271692 5:0.540203 6:0.540203 7:0.932692 8:0.255465 9:0.684981 
1 1:0.585664 2:0.540277 3:0.512147 4:0.271757 5:0.540277 6:0.540277 7:0.932692 8:0.255465 9:0.684981 
1 1:0.576472 2:0.528438 3:0.509318 4:0.274287 5:0.528438 6:0.528438 7:0.93285 8:0.255349 9:0.685839 
1 1:0.575076 2:0.507836 3:0.510002 4:0.274506 5:0.507836 6:0.507836 7:0.933008 8:0.255349 9:0.68595 
1 1:0.572839 2:0.483367 3:0.51051 4:0.274872 5:0.483367 6:0.483367 7:0.933323 8:0.255349 9:0.686088 
1 1:0.570605 2:0.45777 3:0.511551 4:0.275419 5:0.45777 6:0.45777 7:0.933638 8:0.255349 9:0.68631 
1 1:0.568671 2:0.434564 3:0.512785 4:0.276123 5:0.434564 6:0.434564 7:0.933796 8:0.255349 9:0.686559 
1 1:0.566491 2:0.417487 3:0.514554 4:0.276933 5:0.417487 6:0.417487 7:0.933953 8:0.255349 9:0.686836 
1 1:0.563812 2:0.410439 3:0.515993 4:0.277783 5:0.410439 6:0.410439 7:0.933953 8:0.255349 9:0.687113 
1 1:0.560667 2:0.415627 3:0.494481 4:0.278535 5:0.415627 6:0.415627 7:0.93348 8:0.255233 9:0.687306 
0.2604037335913963 1:0.557407 2:0.428834 3:0.291755 4:0.278134 5:0.428834 6:0.428834 7:0.930013 8:0.254535 9:0.608171 
0.2368571618329765 1:0.555107 2:0.442321 3:0.123809 4:0.275607 5:0.442321 6:0.442321 7:0.926702 8:0.253953 9:0.450122 
0.193970827231409 1:0.55498 2:0.452534 3:0.032786 4:0.271252 5:0.452534 6:0.452534 7:0.923865 8:0.253837 9:0.318396 
0.134052877753928 1:0.557691 2:0.457487 3:0 4:0.265381 5:0.457487 6:0.457487 7:0.921658 8:0.253721 9:0.211858 
0.1061784735916137 1:0.562901 2:0.456578 3:0.009076 4:0.258496 5:0.456578 6:0.456578 7:0.92024 8:0.253372 9:0.128903 
0.1032363736741229 1:0.569875 2:0.450312 3:0.046106 4:0.250677 5:0.450312 6:0.450312 7:0.918506 8:0.25314 9:0.067787 
0.09762618194652095 1:0.578245 2:0.439581 3:0.100068 4:0.242051 5:0.439581 6:0.439581 7:0.91756 8:0.252674 9:0.027236 
0.1057360164197357 1:0.588344 2:0.425277 3:0.162268 4:0.232898 5:0.425277 6:0.425277 7:0.916772 8:0.252209 9:0.005259 
0.100551983837891 1:0.601069 2:0.408508 3:0.226404 4:0.223485 5:0.408508 6:0.408508 7:0.916614 8:0.251628 9:0 
0.09868473011039672 1:0.617019 2:0.391331 3:0.288093 4:0.214104 5:0.391331 6:0.391331 7:0.917087 8:0.251395 9:0.009439 
0.1024712063143889 1:0.633528 2:0.383324 3:0.346315 4:0.205538 5:0.383324 6:0.383324 7:0.919294 8:0.252442 9:0.040827 
0.1082441006651199 1:0.646096 2:0.391371 3:0.39696 4:0.198342 5:0.391371 6:0.391371 7:0.921501 8:0.253721 9:0.090069 
0.08539372765434244 1:0.653172 2:0.411379 3:0.438676 4:0.192403 5:0.411379 6:0.411379 7:0.92355 8:0.255 9:0.142521 
0.08626219242183411 1:0.654078 2:0.439001 3:0.47151 4:0.187556 5:0.439001 6:0.439001 7:0.925126 8:0.256047 9:0.196357 
0.7214503360663878 1:0.638799 2:0.501982 3:0.514131 4:0.180447 5:0.501982 6:0.501982 7:0.927806 8:0.258023 9:0.302591 
1 1:0.469042 2:0.567477 3:0.486174 4:0.375805 5:0.567477 6:0.567477 7:0.936318 8:0.256279 9:0.650299 
1 1:0.480243 2:0.570822 3:0.484568 4:0.377833 5:0.570822 6:0.570822 7:0.93553 8:0.256395 9:0.649136 
1 1:0.49161 2:0.573601 3:0.483958 4:0.379384 5:0.573601 6:0.573601 7:0.934741 8:0.256512 9:0.649967 
0.04460516855835581 1:0.501894 2:0.573941 3:0.484304 4:0.380428 5:0.573941 6:0.573941 7:0.933953 8:0.256628 9:0.652513 
1 1:0.510777 2:0.568282 3:0.485221 4:0.381021 5:0.568282 6:0.568282 7:0.933165 8:0.256744 9:0.655613 
1 1:0.51788 2:0.553337 3:0.48659 4:0.38126 5:0.553337 6:0.553337 7:0.932692 8:0.256977 9:0.658658 
1 1:0.522992 2:0.52754 3:0.488796 4:0.381382 5:0.52754 6:0.52754 7:0.933323 8:0.25686 9:0.662561 
1 1:0.524335 2:0.489753 3:0.495858 4:0.383903 5:0.489753 6:0.489753 7:0.940889 8:0.255814 9:0.667737 
1 1:0.520679 2:0.442559 3:0.504041 4:0.391377 5:0.442559 6:0.442559 7:0.949243 8:0.254535 9:0.674601 
1 1:0.513061 2:0.391731 3:0.51151 4:0.403629 5:0.391731 6:0.391731 7:0.956967 8:0.253256 9:0.683154 
0.1044361175924282 1:0.490385 2:0.293813 3:0.524049 4:0.441229 5:0.293813 6:0.293813 7:0.971154 8:0.250581 9:0.692704 
0.09267140552442749 1:0.478884 2:0.249911 3:0.528965 4:0.466097 5:0.249911 6:0.249911 7:0.977617 8:0.249302 9:0.699485 
0.09654594430740911 1:0.469412 2:0.210883 3:0.532871 4:0.494687 5:0.210883 6:0.210883 7:0.983764 8:0.248023 9:0.70909 
0.08123766004579758 1:0.461791 2:0.1791 3:0.535869 4:0.52682 5:0.1791 6:0.1791 7:0.989596 8:0.246744 9:0.720605 
0.04006304848098097 1:0.454412 2:0.157909 3:0.537911 4:0.562331 5:0.157909 6:0.157909 7:0.994956 8:0.245698 9:0.735468 
0.1089859969113123 1:0.444351 2:0.151024 3:0.539336 4:0.600749 5:0.151024 6:0.151024 7:0.999212 8:0.244302 9:0.753238 
0.07291074520453644 1:0.423009 2:0.164889 3:0.542416 4:0.640713 5:0.164889 6:0.164889 7:1 8:0.240814 9:0.781416 
0.1510565749161343 1:0.386084 2:0.19914 3:0.543376 4:0.680598 5:0.19914 6:0.19914 7:0.99937 8:0.237093 9:0.818949 
0.1564308045519148 1:0.338529 2:0.245113 3:0.542233 4:0.719858 5:0.245113 6:0.245113 7:0.997951 8:0.233605 9:0.853161 
0.1654434106589681 1:0.284628 2:0.296092 3:0.539503 4:0.758187 5:0.296092 6:0.296092 7:0.996217 8:0.230349 9:0.88264 
0.1614690931259153 1:0.227986 2:0.347632 3:0.536037 4:0.795344 5:0.347632 6:0.347632 7:0.99401 8:0.227209 9:0.907994 
0.1549893829305793 1:0.172574 2:0.39763 3:0.532221 4:0.831123 5:0.39763 6:0.39763 7:0.991488 8:0.224186 9:0.929888 
0.1472695088133631 1:0.122786 2:0.446464 3:0.52837 4:0.86535 5:0.446464 6:0.446464 7:0.988808 8:0.221395 9:0.948101 
0.1427843845991496 1:0.082919 2:0.496008 3:0.524761 4:0.897802 5:0.496008 6:0.496008 7:0.985656 8:0.218837 9:0.963297 
0.1417930952808129 1:0.056536 2:0.548075 3:0.521673 4:0.928302 5:0.548075 6:0.548075 7:0.982188 8:0.216512 9:0.975781 
0.1495583592097515 1:0.045903 2:0.603692 3:0.519349 4:0.956512 5:0.603692 6:0.603692 7:0.977301 8:0.214651 9:0.985441 
0.1611628360446566 1:0.0553 2:0.664223 3:0.519176 4:0.979374 5:0.664223 6:0.664223 7:0.963903 8:0.215233 9:0.992333 
0.1659217547893678 1:0.08398 2:0.727742 3:0.519221 4:0.993767 5:0.727742 6:0.727742 7:0.949716 8:0.216395 9:0.997564 
0.1596500065213222 1:0.124555 2:0.789212 3:0.518638 4:1 5:0.789212 6:0.789212 7:0.936475 8:0.217791 9:1 
0.1469409524822417 1:0.170638 2:0.845015 3:0.517705 4:0.998597 5:0.845015 6:0.845015 7:0.924023 8:0.219419 9:1 
0.130300487187818 1:0.217441 2:0.893499 3:0.516479 4:0.990083 5:0.893499 6:0.893499 7:0.912516 8:0.221163 9:0.997675 
0.1119303755209699 1:0.262809 2:0.933176 3:0.515469 4:0.974994 5:0.933176 6:0.933176 7:0.901797 8:0.223023 9:0.993634 
0.08346430409578459 1:0.308025 2:0.961501 3:0.514243 4:0.953874 5:0.961501 6:0.961501 7:0.892182 8:0.225 9:0.98771 
0.09171814971937747 1:0.355261 2:0.974965 3:0.512337 4:0.927352 5:0.974965 6:0.974965 7:0.88367 8:0.227093 9:0.980016 
0.08784812067464814 1:0.406484 2:0.970489 3:0.510043 4:0.896153 5:0.970489 6:0.970489 7:0.876419 8:0.229302 9:0.969829 
0.1414767162100154 1:0.465125 2:0.946707 3:0.507457 4:0.861095 5:0.946707 6:0.946707 7:0.870902 8:0.232209 9:0.955851 
0.1768236258238818 1:0.535818 2:0.906781 3:0.503824 4:0.823659 5:0.906781 6:0.906781 7:0.86838 8:0.24 9:0.918983 
0.2260933283502359 1:0.617338 2:0.857934 3:0.500494 4:0.785194 5:0.857934 6:0.857934 7:0.867119 8:0.248372 9:0.858752 
0.2530802342004563 1:0.380582 2:0.730048 3:0.504593 4:0.540011 5:0.730048 6:0.730048 7:0 8:1 9:0.651434 
0.220456436686156 1:0 2:0.621301 3:0.512385 4:0.271023 5:0.621301 6:0.621301 7:0.930958 8:0.256744 9:0.684012 
0.1343081272188515 1:0.076292 2:0.576001 3:0.514367 4:0.254956 5:0.576001 6:0.576001 7:0.924023 8:0.254535 9:0.62893 
0.05695512811966096 1:0.115003 2:0.552678 3:0.515305 4:0.249556 5:0.552678 6:0.552678 7:0.923077 8:0.253372 9:0.612074 
0.1252204958852781 1:0.164992 2:0.529197 3:0.519224 4:0.244308 5:0.529197 6:0.529197 7:0.924496 8:0.253372 9:0.576091 
0.1291827724934995 1:0.224105 2:0.51024 3:0.522582 4:0.240112 5:0.51024 6:0.51024 7:0.926387 8:0.253605 9:0.522642 
0.1220746989383329 1:0.287705 2:0.496523 3:0.524642 4:0.237038 5:0.496523 6:0.496523 7:0.928279 8:0.253953 9:0.47293 
0.08883794111066383 1:0.352734 2:0.487989 3:0.525753 4:0.235023 5:0.487989 6:0.487989 7:0.930013 8:0.254302 9:0.43321 
0.11001225301004 1:0.417096 2:0.484384 3:0.526185 4:0.233931 5:0.484384 6:0.484384 7:0.931431 8:0.254884 9:0.402458 
0.125373880791594 1:0.536706 2:0.48836 3:0.525871 4:0.234223 5:0.48836 6:0.48836 7:0.934111 8:0.256279 9:0.36462 
0.1276064896974879 1:0.587495 2:0.494194 3:0.525493 4:0.235554 5:0.494194 6:0.494194 7:0.935372 8:0.257209 9:0.355791 
0.5282201635270792 1:0.650445 2:0.550876 3:0.511091 4:0.250933 5:0.550876 6:0.550876 7:0.939313 8:0.261046 9:0.36188 
0.4505520055022348 1:0.617367 2:0.566475 3:0.489706 4:0.255106 5:0.566475 6:0.566475 7:0.939786 8:0.26186 9:0.370156 
0.1023963766567998 1:0.572657 2:0.582768 3:0.459068 4:0.259431 5:0.582768 6:0.582768 7:0.939786 8:0.263023 9:0.381256 
0.1321492485591354 1:0.518202 2:0.599055 3:0.421652 4:0.263535 5:0.599055 6:0.599055 7:0.939155 8:0.26407 9:0.396424 
0.08401553462237221 1:0.455667 2:0.61372 3:0.381043 4:0.267352 5:0.61372 6:0.61372 7:0.93884 8:0.264535 9:0.415052 
0.1244429194680164 1:0.387634 2:0.625715 3:0.33994 4:0.270982 5:0.625715 6:0.625715 7:0.938525 8:0.264767 9:0.436365 
0.1160922323819021 1:0.317972 2:0.634857 3:0.300211 4:0.2743 5:0.634857 6:0.634857 7:0.937736 8:0.264651 9:0.459256 
0.1180502371453824 1:0.250882 2:0.640886 3:0.261266 4:0.27714 5:0.640886 6:0.640886 7:0.936948 8:0.264186 9:0.482479 
0.1144932499543638 1:0.190947 2:0.641642 3:0.20814 4:0.279674 5:0.641642 6:0.641642 7:0.936791 8:0.263488 9:0.504318 
0.07942968725506265 1:0.14192 2:0.635112 3:0.162972 4:0.282264 5:0.635112 6:0.635112 7:0.937106 8:0.262558 9:0.522835 
0.07844873762340285 1:0.105711 2:0.622117 3:0.129911 4:0.285268 5:0.622117 6:0.622117 7:0.938052 8:0.261744 9:0.540606 
0.07293623284171771 1:0.083307 2:0.604853 3:0.107016 4:0.288872 5:0.604853 6:0.604853 7:0.939155 8:0.260814 9:0.560922 
0.122689670975634 1:0.079924 2:0.569374 3:0.083951 4:0.297885 5:0.569374 6:0.569374 7:0.940889 8:0.258488 9:0.602469 
0.003512156943392975 1:0.098742 2:0.556208 3:0.080551 4:0.30305 5:0.556208 6:0.556208 7:0.94152 8:0.257442 9:0.618385 
0.07599947122727309 1:0.130966 2:0.548146 3:0.080564 4:0.308625 5:0.548146 6:0.548146 7:0.942308 8:0.256628 9:0.635407 
0.05980461056061619 1:0.175467 2:0.545934 3:0.083032 4:0.314609 5:0.545934 6:0.545934 7:0.942938 8:0.255814 9:0.65387 
0.008351650202110305 1:0.230405 2:0.549762 3:0.085115 4:0.320943 5:0.549762 6:0.549762 7:0.943411 8:0.255465 9:0.67366 
0.09181936695723095 1:0.293324 2:0.560143 3:0.072602 4:0.327567 5:0.560143 6:0.560143 7:0.943884 8:0.255349 9:0.696191 
0.1201798491948968 1:0.360742 2:0.577115 3:0.063481 4:0.33431 5:0.577115 6:0.577115 7:0.943884 8:0.255465 9:0.719829 
0.05752474709900543 1:0.428613 2:0.599613 3:0.060692 4:0.341009 5:0.599613 6:0.599613 7:0.943726 8:0.255698 9:0.742084 
0.03866732257245816 1:0.493332 2:0.626827 3:0.062337 4:0.347517 5:0.626827 6:0.626827 7:0.943253 8:0.256047 9:0.763286 
0.08419981535599921 1:0.552076 2:0.658007 3:0.066839 4:0.353736 5:0.658007 6:0.658007 7:0.942781 8:0.25686 9:0.782496 
0.09133268764459582 1:0.602651 2:0.692092 3:0.073083 4:0.359706 5:0.692092 6:0.692092 7:0.942308 8:0.258023 9:0.800653 
0.09256237052488495 1:0.642554 2:0.727661 3:0.079984 4:0.36545 5:0.727661 6:0.727661 7:0.94215 8:0.259186 9:0.815932 
0.09537132405130043 1:0.669782 2:0.763333 3:0.086607 4:0.371049 5:0.763333 6:0.763333 7:0.941677 8:0.260349 9:0.829467 
0.06864570088100982 1:0.683335 2:0.797812 3:0.092665 4:0.376269 5:0.797812 6:0.797812 7:0.940889 8:0.261628 9:0.840954 
0.09096976423765553 1:0.682634 2:0.829527 3:0.095581 4:0.380827 5:0.829527 6:0.829527 7:0.93947 8:0.26314 9:0.849839 
0.01213792899650743 1:0.66631 2:0.855103 3:0.082335 4:0.38416 5:0.855103 6:0.855103 7:0.936791 8:0.264535 9:0.854988 
0.128144715919832 1:0.634057 2:0.870244 3:0.071451 4:0.385824 5:0.870244 6:0.870244 7:0.933953 8:0.26593 9:0.856815 
0.01562857253605071 1:0.588134 2:0.872601 3:0.066773 4:0.385848 5:0.872601 6:0.872601 7:0.931274 8:0.266628 9:0.854628 
0.1144096127795454 1:0.531889 2:0.861483 3:0.066568 4:0.384388 5:0.861483 6:0.861483 7:0.928909 8:0.266512 9:0.848483 
0.09766707874675964 1:0.470617 2:0.837529 3:0.069605 4:0.381565 5:0.837529 6:0.837529 7:0.926702 8:0.266163 9:0.840262 
0.1131431030420007 1:0.409894 2:0.802502 3:0.074495 4:0.377546 5:0.802502 6:0.802502 7:0.924811 8:0.265465 9:0.835474 
0.1192657637492846 1:0.354747 2:0.75916 3:0.080419 4:0.372474 5:0.75916 6:0.75916 7:0.923235 8:0.264651 9:0.83027 
0.1340951507777193 1:0.308785 2:0.710583 3:0.086579 4:0.366574 5:0.710583 6:0.710583 7:0.921974 8:0.263953 9:0.821856 
0.1330440072589896 1:0.273627 2:0.660142 3:0.092382 4:0.360056 5:0.660142 6:0.660142 7:0.921185 8:0.26314 9:0.813524 
0.11005237228799 1:0.249462 2:0.611256 3:0.094851 4:0.353174 5:0.611256 6:0.611256 7:0.920712 8:0.262674 9:0.805359 
0.07417391820515527 1:0.233711 2:0.568267 3:0.076783 4:0.34626 5:0.568267 6:0.568267 7:0.921185 8:0.262093 9:0.796501 
0.06414859174645104 1:0.213422 2:0.514195 3:0.061577 4:0.333371 5:0.514195 6:0.514195 7:0.922131 8:0.260349 9:0.768684 
0.1218432693235535 1:0.206781 2:0.50716 3:0.075452 4:0.327239 5:0.50716 6:0.50716 7:0.922289 8:0.259186 9:0.753183 
0.07906824559276197 1:0.193564 2:0.556952 3:0.171227 4:0.308298 5:0.556952 6:0.556952 7:0.921185 8:0.255465 9:0.721573 
0.08635489343647322 1:0.18885 2:0.584077 3:0.21268 4:0.301368 5:0.584077 6:0.584077 7:0.920397 8:0.253953 9:0.71493 
0.1038328735278842 1:0.183892 2:0.609026 3:0.255034 4:0.293954 5:0.609026 6:0.609026 7:0.919609 8:0.252442 9:0.708758 
0.1133943493023488 1:0.17638 2:0.637468 3:0.333026 4:0.277838 5:0.637468 6:0.637468 7:0.918348 8:0.24907 9:0.701091 
0.05987369204654451 1:0.177623 2:0.635011 3:0.367034 4:0.269234 5:0.635011 6:0.635011 7:0.917875 8:0.247209 9:0.702779 
0.001292549682697055 1:0.184535 2:0.622675 3:0.397617 4:0.26047 5:0.622675 6:0.622675 7:0.917718 8:0.245233 9:0.706543 
0.1078351745990083 1:0.198213 2:0.603353 3:0.424227 4:0.251649 5:0.603353 6:0.603353 7:0.91756 8:0.243372 9:0.712661 
0.03939923297382437 1:0.219118 2:0.579945 3:0.446616 4:0.242778 5:0.579945 6:0.579945 7:0.91756 8:0.241744 9:0.720992 
0.1073837832831571 1:0.246786 2:0.55507 3:0.46493 4:0.233874 5:0.55507 6:0.55507 7:0.917402 8:0.240116 9:0.73032 
0.2138051293459083 1:0.31686 2:0.507138 3:0.490996 4:0.216106 5:0.507138 6:0.507138 7:0.917718 8:0.237674 9:0.750304 
0.3230335483556638 1:0.395196 2:0.465142 3:0.506176 4:0.198896 5:0.465142 6:0.465142 7:0.918506 8:0.236279 9:0.764975 
0.3802579478833601 1:0.433135 2:0.445124 3:0.511062 4:0.190782 5:0.445124 6:0.445124 7:0.919136 8:0.236047 9:0.770732 
0.1487106598986253 1:0.557176 2:0.370037 3:0.521842 4:0.163542 5:0.370037 6:0.370037 7:0.923392 8:0.235349 9:0.806521 
0.001518763030299673 1:0.58307 2:0.356612 3:0.52331 4:0.158597 5:0.356612 6:0.356612 7:0.924968 8:0.235581 9:0.815102 
0.1187805647594687 1:0.635958 2:0.342545 3:0.525123 4:0.151632 5:0.342545 6:0.342545 7:0.928436 8:0.236395 9:0.829993 
0.0721367543534541 1:0.690404 2:0.349692 3:0.52464 4:0.148819 5:0.349692 6:0.349692 7:0.931904 8:0.237907 9:0.848151 
0.004030620155852953 1:0.715603 2:0.361851 3:0.523665 4:0.14897 5:0.361851 6:0.361851 7:0.933638 8:0.239302 9:0.855154 
0.09166037499419688 1:0.737566 2:0.379352 3:0.521812 4:0.15014 5:0.379352 6:0.379352 7:0.935214 8:0.240814 9:0.860053 
0.05421884388284398 1:0.754963 2:0.400951 3:0.519513 4:0.152205 5:0.400951 6:0.400951 7:0.936791 8:0.242558 9:0.861465 
0.04604135598633045 1:0.766712 2:0.425356 3:0.516631 4:0.155057 5:0.425356 6:0.425356 7:0.937894 8:0.244419 9:0.861437 
0.08320859534161824 1:0.77136 2:0.451255 3:0.513445 4:0.158562 5:0.451255 6:0.451255 7:0.93884 8:0.246395 9:0.861326 
0.08442646630146082 1:0.767653 2:0.477257 3:0.510094 4:0.162592 5:0.477257 6:0.477257 7:0.939786 8:0.248256 9:0.860773 
0.002892990550614434 1:0.754864 2:0.502024 3:0.506775 4:0.167099 5:0.502024 6:0.502024 7:0.940416 8:0.25 9:0.859112 
0.169809999851569 1:0.732738 2:0.524758 3:0.503734 4:0.172012 5:0.524758 6:0.524758 7:0.941047 8:0.251628 9:0.854932 
0.01275786402598652 1:0.702073 2:0.545281 3:0.500993 4:0.177236 5:0.545281 6:0.545281 7:0.94152 8:0.25314 9:0.850227 
0.09016859929595489 1:0.664398 2:0.563685 3:0.498719 4:0.182641 5:0.563685 6:0.563685 7:0.941677 8:0.254302 9:0.846296 
0.4724864895470696 1:0.621522 2:0.579782 3:0.496632 4:0.188085 5:0.579782 6:0.579782 7:0.941677 8:0.255233 9:0.8453 
0.1688149312797869 1:0.530561 2:0.604136 3:0.496189 4:0.198551 5:0.604136 6:0.604136 7:0.940889 8:0.256279 9:0.84768 
0.05281661328217294 1:0.488198 2:0.613315 3:0.504397 4:0.203366 5:0.613315 6:0.613315 7:0.940416 8:0.256279 9:0.847874 
0.1474223223134978 1:0.426723 2:0.635661 3:0.559119 4:0.212139 5:0.635661 6:0.635661 7:0.939628 8:0.255 9:0.842228 
0.04887305619464159 1:0.412426 2:0.64967 3:0.601206 4:0.21628 5:0.64967 6:0.64967 7:0.939628 8:0.253721 9:0.835972 
0.09725196279227197 1:0.411693 2:0.662983 3:0.647771 4:0.221097 5:0.662983 6:0.662983 7:0.942465 8:0.252093 9:0.828775 
0.06161328001097708 1:0.425216 2:0.673846 3:0.69546 4:0.229029 5:0.673846 6:0.673846 7:0.949874 8:0.249884 9:0.823101 
0.1121316299344624 1:0.453524 2:0.684612 3:0.744255 4:0.241746 5:0.684612 6:0.684612 7:0.95744 8:0.247442 9:0.818506 
0.1384372768714232 1:0.499487 2:0.70495 3:0.808834 4:0.257189 5:0.70495 6:0.70495 7:0.958859 8:0.24593 9:0.813607 
0.1547130027711033 1:0.564374 2:0.737837 3:0.864831 4:0.272413 5:0.737837 6:0.737837 7:0.957125 8:0.245233 9:0.80677 
0.153428335949415 1:0.64306 2:0.773541 3:0.906325 4:0.286127 5:0.773541 6:0.773541 7:0.953972 8:0.245698 9:0.798992 
0.1323637180221164 1:0.727723 2:0.800542 3:0.935177 4:0.29783 5:0.800542 6:0.800542 7:0.950662 8:0.24686 9:0.790052 
0.112959715914575 1:0.809164 2:0.810373 3:0.953967 4:0.30818 5:0.810373 6:0.810373 7:0.949559 8:0.248372 9:0.780696 
0.09693848648456223 1:0.878501 2:0.800404 3:0.965184 4:0.318315 5:0.800404 6:0.800404 7:0.949874 8:0.249884 9:0.770649 
0.1027188017052068 1:0.96002 2:0.739237 3:0.972873 4:0.339233 5:0.739237 6:0.739237 7:0.950189 8:0.252791 9:0.741918 
0.07207910188508061 1:0.969408 2:0.70255 3:0.971794 4:0.349649 5:0.70255 6:0.70255 7:0.949874 8:0.254651 9:0.726971 
0.09206276012109997 1:0.958896 2:0.669348 3:0.970855 4:0.359725 5:0.669348 6:0.669348 7:0.949086 8:0.25686 9:0.714598 
0.07539615273956125 1:0.928746 2:0.642777 3:0.986326 4:0.369352 5:0.642777 6:0.642777 7:0.948455 8:0.259186 9:0.705353 
0.09450194158117348 1:0.879757 2:0.623946 3:0.997219 4:0.37863 5:0.623946 6:0.623946 7:0.947982 8:0.261395 9:0.69788 
0.0984526302819944 1:0.81524 2:0.61307 3:1 4:0.3877 5:0.61307 6:0.61307 7:0.947667 8:0.26314 9:0.693617 
0.1188073928495714 1:0.73901 2:0.61058 3:0.997021 4:0.396647 5:0.61058 6:0.61058 7:0.947509 8:0.264302 9:0.690711 
0.1223933216191602 1:0.655666 2:0.616521 3:0.990338 4:0.405499 5:0.616521 6:0.616521 7:0.947352 8:0.265116 9:0.687611 
0.1319040479302185 1:0.570647 2:0.630238 3:0.981409 4:0.414285 5:0.630238 6:0.630238 7:0.947352 8:0.265581 9:0.691929 
0.1189525146108887 1:0.488896 2:0.650667 3:0.971633 4:0.422971 5:0.650667 6:0.650667 7:0.947037 8:0.265581 9:0.698904 
0.09905630800406261 1:0.414394 2:0.67592 3:0.961964 4:0.43146 5:0.67592 6:0.67592 7:0.946721 8:0.265233 9:0.707014 
0.05165198554235013 1:0.349807 2:0.703803 3:0.953181 4:0.439741 5:0.703803 6:0.703803 7:0.946248 8:0.264535 9:0.718335 
0.1003456293027968 1:0.296789 2:0.732304 3:0.948792 4:0.447811 5:0.732304 6:0.732304 7:0.945933 8:0.263605 9:0.731483 
0.2108804755600401 1:0.227939 2:0.786579 3:0.984652 4:0.466638 5:0.786579 6:0.786579 7:0.939155 8:0.258837 9:0.769514 
0.04519059929659777 1:0.291299 2:0.747636 3:0.976036 4:0.471457 5:0.747636 6:0.747636 7:0.934111 8:0.256512 9:0.783215 
0.0874728707930232 1:0.333451 2:0.705233 3:0.970202 4:0.471755 5:0.705233 6:0.705233 7:0.932062 8:0.255349 9:0.785291 
0.1030052774658842 1:0.371686 2:0.652975 3:0.964427 4:0.471029 5:0.652975 6:0.652975 7:0.930485 8:0.25407 9:0.78709 
0.1366048470325501 1:0.405352 2:0.599861 3:0.958977 4:0.469369 5:0.599861 6:0.599861 7:0.928909 8:0.252791 9:0.793927 
0.1017498245863631 1:0.43972 2:0.554294 3:0.954993 4:0.466609 5:0.554294 6:0.554294 7:0.92686 8:0.251395 9:0.802342 
0.1137137728254844 1:0.478036 2:0.51998 3:0.954982 4:0.462627 5:0.51998 6:0.51998 7:0.924653 8:0.250233 9:0.807878 
0.2115731137969304 1:0.570156 2:0.495019 3:0.988059 4:0.44978 5:0.495019 6:0.495019 7:0.918979 8:0.248837 9:0.811421 
0.6710112595319553 1:0.612927 2:0.552255 3:0.516911 4:0.273879 5:0.552255 6:0.552255 7:0.932377 8:0.255349 9:0.685673 
1 1:0.617036 2:0.551736 3:0.514246 4:0.273779 5:0.551736 6:0.551736 7:0.932377 8:0.255349 9:0.685645 
1 1:0.622007 2:0.5501 3:0.511151 4:0.273627 5:0.5501 6:0.5501 7:0.932219 8:0.255349 9:0.68559 
1 1:0.626997 2:0.546987 3:0.507639 4:0.273437 5:0.546987 6:0.546987 7:0.932219 8:0.255349 9:0.685507 
1 1:0.631194 2:0.542478 3:0.503987 4:0.273225 5:0.542478 6:0.542478 7:0.932219 8:0.255465 9:0.685452 
1 1:0.633643 2:0.536198 3:0.500575 4:0.273003 5:0.536198 6:0.536198 7:0.932219 8:0.255465 9:0.685369 
1 1:0.633258 2:0.527674 3:0.498072 4:0.27281 5:0.527674 6:0.527674 7:0.932219 8:0.255465 9:0.685313 
1 1:0.629168 2:0.516966 3:0.496333 4:0.272681 5:0.516966 6:0.516966 7:0.932377 8:0.255465 9:0.685286 
1 1:0.621269 2:0.504916 3:0.496338 4:0.272639 5:0.504916 6:0.504916 7:0.932535 8:0.255465 9:0.685286 
1 1:0.610196 2:0.493031 3:0.496921 4:0.27269 5:0.493031 6:0.493031 7:0.932692 8:0.255349 9:0.685313 
1 1:0.596739 2:0.483049 3:0.49827 4:0.272829 5:0.483049 6:0.483049 7:0.93285 8:0.255349 9:0.685369 
1 1:0.58264 2:0.476458 3:0.500059 4:0.273036 5:0.476458 6:0.476458 7:0.93285 8:0.255349 9:0.685452 
1 1:0.569118 2:0.47443 3:0.501914 4:0.273286 5:0.47443 6:0.47443 7:0.933008 8:0.255233 9:0.685535 
1 1:0.55752 2:0.478318 3:0.50389 4:0.273539 5:0.478318 6:0.478318 7:0.933008 8:0.255349 9:0.685618 
1 1:0.548056 2:0.489684 3:0.506217 4:0.273737 5:0.489684 6:0.489684 7:0.93285 8:0.255349 9:0.685673 
1 1:0.540619 2:0.50923 3:0.508746 4:0.273822 5:0.50923 6:0.50923 7:0.932535 8:0.255349 9:0.685673 
1 1:0.534833 2:0.535794 3:0.50801 4:0.273757 5:0.535794 6:0.535794 7:0.932219 8:0.255349 9:0.685618 
1 1:0.530795 2:0.567354 3:0.457523 4:0.273526 5:0.567354 6:0.567354 7:0.932062 8:0.255349 9:0.685535 
0.1419699224666202 1:0.526236 2:0.636919 3:0.384104 4:0.271322 5:0.636919 6:0.636919 7:0.928279 8:0.255349 9:0.578443 
0.1038764209576104 1:0.524861 2:0.670752 3:0.374686 4:0.267853 5:0.670752 6:0.670752 7:0.925126 8:0.255465 9:0.518656 
0.09684318780060441 1:0.52482 2:0.700134 3:0.377228 4:0.262518 5:0.700134 6:0.700134 7:0.922131 8:0.255465 9:0.464155 
0.07017782756948676 1:0.525921 2:0.721044 3:0.387439 4:0.255484 5:0.721044 6:0.721044 7:0.919294 8:0.255349 9:0.413336 
0.08288394328310501 1:0.52834 2:0.73051 3:0.402265 4:0.24693 5:0.73051 6:0.73051 7:0.916929 8:0.255465 9:0.366502 
0.05848017642823138 1:0.531281 2:0.727676 3:0.419306 4:0.237064 5:0.727676 6:0.727676 7:0.915038 8:0.255581 9:0.323433 
0.07301677371064193 1:0.534419 2:0.713778 3:0.436815 4:0.226173 5:0.713778 6:0.713778 7:0.913462 8:0.255349 9:0.284488 
0.08847127825066517 1:0.537544 2:0.691034 3:0.453557 4:0.214359 5:0.691034 6:0.691034 7:0.911885 8:0.254884 9:0.249723 
0.0878075992042658 1:0.540578 2:0.661692 3:0.468668 4:0.201605 5:0.661692 6:0.661692 7:0.910151 8:0.254302 9:0.219082 
0.09996697385806129 1:0.544392 2:0.627942 3:0.481833 4:0.187848 5:0.627942 6:0.627942 7:0.908575 8:0.253488 9:0.192344 
0.100771697727379 1:0.550468 2:0.591401 3:0.492719 4:0.173186 5:0.591401 6:0.591401 7:0.907156 8:0.252907 9:0.169453 
0.106077900577278 1:0.560546 2:0.553106 3:0.501187 4:0.157945 5:0.553106 6:0.553106 7:0.906526 8:0.252209 9:0.151268 
0.08479528043566094 1:0.575156 2:0.514092 3:0.507491 4:0.14243 5:0.514092 6:0.514092 7:0.906368 8:0.251977 9:0.13884 
0.09247430611230058 1:0.593823 2:0.475552 3:0.511944 4:0.12684 5:0.475552 6:0.475552 7:0.906211 8:0.25186 9:0.132141 
0.06866666378454596 1:0.614967 2:0.438213 3:0.514863 4:0.11132 5:0.438213 6:0.438213 7:0.906526 8:0.25186 9:0.131781 
0.0741896374115507 1:0.636744 2:0.402642 3:0.51653 4:0.095961 5:0.402642 6:0.402642 7:0.906841 8:0.251977 9:0.137733 
0.09160510924378963 1:0.657437 2:0.368964 3:0.51722 4:0.080879 5:0.368964 6:0.368964 7:0.907472 8:0.251977 9:0.149994 
0.09327389219137447 1:0.675845 2:0.337161 3:0.517142 4:0.066363 5:0.337161 6:0.337161 7:0.908733 8:0.252093 9:0.16854 
0.07423564345575311 1:0.691441 2:0.307579 3:0.516577 4:0.052736 5:0.307579 6:0.307579 7:0.910467 8:0.252209 9:0.192676 
0.08647028946044695 1:0.704333 2:0.281386 3:0.515695 4:0.040242 5:0.281386 6:0.281386 7:0.912673 8:0.252326 9:0.221739 
0.072559379477007 1:0.715149 2:0.260062 3:0.514924 4:0.029249 5:0.260062 6:0.260062 7:0.915511 8:0.252326 9:0.254761 
0.02924829913828875 1:0.724684 2:0.245011 3:0.51433 4:0.020008 5:0.245011 6:0.245011 7:0.918506 8:0.252442 9:0.290689 
0.1126589879769177 1:0.733679 2:0.237646 3:0.513854 4:0.012601 5:0.237646 6:0.237646 7:0.921501 8:0.252558 9:0.329108 
0.01550917621995574 1:0.743101 2:0.238577 3:0.513419 4:0.006941 5:0.238577 6:0.238577 7:0.924496 8:0.252674 9:0.369215 
0.08272462361071047 1:0.753902 2:0.246962 3:0.513096 4:0.002954 5:0.246962 6:0.246962 7:0.927175 8:0.252907 9:0.411122 
0.08462763742805007 1:0.765729 2:0.260958 3:0.513031 4:0.00064 5:0.260958 6:0.260958 7:0.930013 8:0.253372 9:0.45336 
0.03961874847823717 1:0.777227 2:0.279063 3:0.513077 4:0 5:0.279063 6:0.279063 7:0.93285 8:0.25407 9:0.491945 
0.1285563277008092 1:0.786206 2:0.300622 3:0.512913 4:0.000978 5:0.300622 6:0.300622 7:0.93553 8:0.254767 9:0.527043 
0.1650570330204043 1:0.787558 2:0.35109 3:0.512757 4:0.007298 5:0.35109 6:0.35109 7:0.940101 8:0.25593 9:0.587384 
0.03371149371460827 1:0.778273 2:0.377484 3:0.51295 4:0.012366 5:0.377484 6:0.377484 7:0.941992 8:0.256512 9:0.612018 
0.0162872917898609 1:0.738038 2:0.426016 3:0.513476 4:0.025665 5:0.426016 6:0.426016 7:0.945303 8:0.257209 9:0.651074 
1 1:0.707794 2:0.44582 3:0.513781 4:0.033609 5:0.44582 6:0.44582 7:0.946564 8:0.257326 9:0.665799 
1 1:0.498952 2:0.595322 3:0.509888 4:0.35073 5:0.595322 6:0.595322 7:0.92954 8:0.268837 9:0.741392 
1 1:0.456825 2:0.587557 3:0.509498 4:0.348859 5:0.587557 6:0.587557 7:0.929224 8:0.268372 9:0.73962 
1 1:0.418673 2:0.57906 3:0.509038 4:0.346769 5:0.57906 6:0.57906 7:0.928752 8:0.267558 9:0.73724 
0.7459259533904784 1:0.386828 2:0.56892 3:0.508602 4:0.344464 5:0.56892 6:0.56892 7:0.928594 8:0.266744 9:0.734361 
0.3972376966065842 1:0.362341 2:0.503446 3:0.509345 4:0.335243 5:0.503446 6:0.503446 7:0.92954 8:0.263721 9:0.72722 
0.7828840288498283 1:0.378506 2:0.480194 3:0.510422 4:0.333739 5:0.480194 6:0.480194 7:0.930485 8:0.26314 9:0.727663 
0.4648304541008396 1:0.398786 2:0.452628 3:0.512022 4:0.332918 5:0.452628 6:0.452628 7:0.931904 8:0.262558 9:0.728908 
0.5547174441736751 1:0.42043 2:0.419904 3:0.513836 4:0.332964 5:0.419904 6:0.419904 7:0.93348 8:0.261977 9:0.731067 
0.02900508486996147 1:0.441441 2:0.381854 3:0.515776 4:0.33412 5:0.381854 6:0.381854 7:0.93553 8:0.261395 9:0.733918 
0.07465016817314495 1:0.460855 2:0.339376 3:0.517601 4:0.336737 5:0.339376 6:0.339376 7:0.938367 8:0.260814 9:0.737184 
0.1067080503586167 1:0.478296 2:0.294115 3:0.519196 4:0.341201 5:0.294115 6:0.294115 7:0.941677 8:0.260233 9:0.741558 
0.09088053023192219 1:0.494399 2:0.247681 3:0.520357 4:0.347732 5:0.247681 6:0.247681 7:0.945303 8:0.259651 9:0.746983 
0.1136648466506756 1:0.510267 2:0.201071 3:0.520859 4:0.356486 5:0.201071 6:0.201071 7:0.949243 8:0.25907 9:0.753432 
0.1114969321454537 1:0.527213 2:0.155311 3:0.520984 4:0.367588 5:0.155311 6:0.155311 7:0.953342 8:0.258605 9:0.760961 
0.1071684470797992 1:0.546346 2:0.112206 3:0.520755 4:0.381214 5:0.112206 6:0.112206 7:0.957755 8:0.258256 9:0.769016 
0.104779374721356 1:0.568334 2:0.074443 3:0.520335 4:0.397617 5:0.074443 6:0.074443 7:0.962642 8:0.25814 9:0.777126 
0.0442593680684554 1:0.592821 2:0.044725 3:0.519606 4:0.416921 5:0.044725 6:0.044725 7:0.967528 8:0.258023 9:0.78554 
0.1348157006887118 1:0.61873 2:0.023962 3:0.518689 4:0.439081 5:0.023962 6:0.023962 7:0.972257 8:0.25814 9:0.794868 
0.2201062736735291 1:0.690804 2:0 3:0.515326 4:0.522199 5:0 6:0 7:0.985813 8:0.25907 9:0.826506 
0.2531133460912706 1:0.40029 2:0.889827 3:0.512539 4:0.30151 5:0.889827 6:0.889827 7:0.424496 8:0 9:0.737876 
0.2248183904309775 1:0.361987 2:1 3:0.512428 4:0.272788 5:1 6:1 7:0.935214 8:0.25593 9:0.683542 
0.1453605534068196 1:0.349319 2:0.930227 3:0.511234 4:0.283042 5:0.930227 6:0.930227 7:0.937264 8:0.256163 9:0.638978 
0.09038907355220535 1:0.340916 2:0.890196 3:0.510322 4:0.285746 5:0.890196 6:0.890196 7:0.936948 8:0.255814 9:0.622315 
0.1364662999818996 1:0.331455 2:0.842646 3:0.509413 4:0.288325 5:0.842646 6:0.842646 7:0.936791 8:0.255349 9:0.605237 
0.131245932679454 1:0.323694 2:0.790178 3:0.508446 4:0.290765 5:0.790178 6:0.790178 7:0.936475 8:0.254767 9:0.588214 
0.1364856335917837 1:0.321081 2:0.736435 3:0.507239 4:0.293042 5:0.736435 6:0.736435 7:0.93616 8:0.254302 9:0.572022 
0.118553537519971 1:0.32633 2:0.68523 3:0.506204 4:0.295107 5:0.68523 6:0.68523 7:0.935845 8:0.253721 9:0.557213 
0.1758361398970628 1:0.340434 2:0.639144 3:0.505267 4:0.296933 5:0.639144 6:0.639144 7:0.935372 8:0.253372 9:0.544232 
0.3203243154156755 1:0.394093 2:0.566068 3:0.504023 4:0.29995 5:0.566068 6:0.566068 7:0.934741 8:0.252674 9:0.522337 
1 1:0.523125 2:0.507506 3:0.504055 4:0.303111 5:0.507506 6:0.507506 7:0.933638 8:0.252209 9:0.502325 
1 1:0.573016 2:0.50207 3:0.504484 4:0.303597 5:0.50207 6:0.50207 7:0.933008 8:0.252209 9:0.499114 
1 1:0.623591 2:0.502229 3:0.504889 4:0.303741 5:0.502229 6:0.502229 7:0.932535 8:0.252442 9:0.497038 
1 1:0.673328 2:0.505764 3:0.504979 4:0.303638 5:0.505764 6:0.505764 7:0.932219 8:0.252791 9:0.496457 
1 1:0.720531 2:0.510914 3:0.504491 4:0.303359 5:0.510914 6:0.510914 7:0.931904 8:0.253256 9:0.497204 
0.6076785300330201 1:0.762978 2:0.516883 3:0.503276 4:0.30298 5:0.516883 6:0.516883 7:0.931904 8:0.253837 9:0.499225 
1 1:0.829 2:0.544526 3:0.496695 4:0.300939 5:0.544526 6:0.544526 7:0.931589 8:0.255233 9:0.514006 
1 1:0.816352 2:0.549788 3:0.4961 4:0.30032 5:0.549788 6:0.549788 7:0.931431 8:0.255465 9:0.517604 
1 1:0.526759 2:0.54801 3:0.51287 4:0.372818 5:0.54801 6:0.54801 7:0.945303 8:0.254302 9:0.752519 
0.278650544925537 1:0.476075 2:0.58828 3:0.512392 4:0.30701 5:0.58828 6:0.58828 7:0.733134 8:0.287209 9:0.719331 
1 1:0.456775 2:0.60564 3:0.509457 4:0.272441 5:0.60564 6:0.60564 7:0.935057 8:0.255 9:0.685507 
1 1:0.454926 2:0.605876 3:0.496225 4:0.27452 5:0.605876 6:0.605876 7:0.936948 8:0.254884 9:0.686282 
1 1:0.450637 2:0.606149 3:0.469571 4:0.277678 5:0.606149 6:0.606149 7:0.938682 8:0.254884 9:0.687362 
0.1218482567063958 1:0.444648 2:0.607867 3:0.424194 4:0.281735 5:0.607867 6:0.607867 7:0.940101 8:0.255116 9:0.689078 
0.009536688701614678 1:0.438271 2:0.62666 3:0.310079 4:0.291904 5:0.62666 6:0.62666 7:0.941992 8:0.255581 9:0.692316 
0.1899539280284323 1:0.441135 2:0.643768 3:0.259189 4:0.297689 5:0.643768 6:0.643768 7:0.942623 8:0.256047 9:0.692427 
0.1303486303337035 1:0.458625 2:0.68787 3:0.175913 4:0.310165 5:0.68787 6:0.68787 7:0.943253 8:0.257326 9:0.691264 
0.01125203611278838 1:0.469178 2:0.712843 3:0.143998 4:0.31652 5:0.712843 6:0.712843 7:0.943253 8:0.25814 9:0.689742 
0.0268684626689109 1:0.477156 2:0.73865 3:0.118061 4:0.322766 5:0.73865 6:0.73865 7:0.942938 8:0.258721 9:0.688801 
0.03911122007028379 1:0.480668 2:0.764187 3:0.097546 4:0.328707 5:0.764187 6:0.764187 7:0.94215 8:0.259419 9:0.688413 
0.07052474390199738 1:0.444923 2:0.826318 3:0.056414 4:0.345148 5:0.826318 6:0.826318 7:0.936318 8:0.26093 9:0.693451 
0.1061603847713367 1:0.427743 2:0.824787 3:0.0533 4:0.346882 5:0.824787 6:0.824787 7:0.934741 8:0.26093 9:0.695915 
0.08867987283353448 1:0.39308 2:0.768909 3:0.056598 4:0.345068 5:0.768909 6:0.768909 7:0.929224 8:0.259419 9:0.704717 
0.005077841977269753 1:0.399371 2:0.751295 3:0.059513 4:0.34283 5:0.751295 6:0.751295 7:0.928279 8:0.258837 9:0.706654 
0.07549260575347477 1:0.428467 2:0.719742 3:0.066111 4:0.33677 5:0.719742 6:0.719742 7:0.926702 8:0.257791 9:0.709616 
0.01609901973126534 1:0.446977 2:0.705455 3:0.06926 4:0.333066 5:0.705455 6:0.705455 7:0.926072 8:0.257326 9:0.711194 
0.0247635813049341 1:0.464463 2:0.691558 3:0.072065 4:0.329103 5:0.691558 6:0.691558 7:0.925757 8:0.25686 9:0.712716 
0.1505418804052173 1:0.494872 2:0.587688 3:0.070372 4:0.307847 5:0.587688 6:0.587688 7:0.936791 8:0.249767 9:0.72614 
0.02740813762302092 1:0.538643 2:0.630888 3:0.073629 4:0.318267 5:0.630888 6:0.630888 7:0.939628 8:0.249419 9:0.71756 
0.0552072820610198 1:0.554111 2:0.657441 3:0.074756 4:0.322664 5:0.657441 6:0.657441 7:0.940101 8:0.249651 9:0.712439 
0.01745358425468871 1:0.568056 2:0.688765 3:0.075797 4:0.327236 5:0.688765 6:0.688765 7:0.940259 8:0.249767 9:0.707042 
0.06043453291114417 1:0.579292 2:0.723061 3:0.076722 4:0.331846 5:0.723061 6:0.723061 7:0.940259 8:0.250116 9:0.701118 
0.07703392874495171 1:0.587016 2:0.75795 3:0.078178 4:0.336436 5:0.75795 6:0.75795 7:0.940259 8:0.250465 9:0.694669 
0.05171863487550785 1:0.591767 2:0.791359 3:0.085512 4:0.340928 5:0.791359 6:0.791359 7:0.939943 8:0.250581 9:0.688081 
0.09839269527577191 1:0.595566 2:0.822216 3:0.101199 4:0.345294 5:0.822216 6:0.822216 7:0.939786 8:0.250814 9:0.681881 
0.02414453493750886 1:0.600308 2:0.849918 3:0.123915 4:0.349399 5:0.849918 6:0.849918 7:0.939155 8:0.250814 9:0.676013 
0.1289223998054981 1:0.608278 2:0.873485 3:0.15215 4:0.353057 5:0.873485 6:0.873485 7:0.938209 8:0.25093 9:0.670865 
0.1235333906120779 1:0.636895 2:0.904328 3:0.219022 4:0.358841 5:0.904328 6:0.904328 7:0.936475 8:0.251279 9:0.664083 
0.1130939419229543 1:0.678009 2:0.912747 3:0.289754 4:0.362361 5:0.912747 6:0.912747 7:0.934426 8:0.251395 9:0.664443 
0.122130576102565 1:0.723028 2:0.90169 3:0.354722 4:0.363126 5:0.90169 6:0.90169 7:0.931904 8:0.251395 9:0.673245 
0.0007908828056556124 1:0.744573 2:0.888265 3:0.383307 4:0.362383 5:0.888265 6:0.888265 7:0.930643 8:0.251628 9:0.680885 
0.119723683562987 1:0.763617 2:0.869434 3:0.40882 4:0.360897 5:0.869434 6:0.869434 7:0.929382 8:0.251744 9:0.690572 
0.04213934813919896 1:0.778922 2:0.845785 3:0.43131 4:0.358614 5:0.845785 6:0.845785 7:0.927963 8:0.251977 9:0.701699 
0.09628592048055519 1:0.789757 2:0.817685 3:0.450785 4:0.355634 5:0.817685 6:0.817685 7:0.927018 8:0.252209 9:0.714294 
0.08725654219076483 1:0.796208 2:0.785186 3:0.467449 4:0.352122 5:0.785186 6:0.785186 7:0.92623 8:0.252442 9:0.728216 
0.1121860532435972 1:0.798392 2:0.748273 3:0.481397 4:0.348279 5:0.748273 6:0.748273 7:0.925914 8:0.252791 9:0.743274 
0.09475471278479104 1:0.79562 2:0.707635 3:0.492755 4:0.344281 5:0.707635 6:0.707635 7:0.925757 8:0.253023 9:0.759051 
1 1:0.786981 2:0.665227 3:0.501859 4:0.340262 5:0.665227 6:0.665227 7:0.925914 8:0.253256 9:0.775299 
1 1:0.771465 2:0.624147 3:0.50903 4:0.336428 5:0.624147 6:0.624147 7:0.926387 8:0.253256 9:0.791298 
0.8043651130114384 1:0.749453 2:0.587737 3:0.514657 4:0.332903 5:0.587737 6:0.587737 7:0.92686 8:0.253256 9:0.806909 
0.1574923833481575 1:0.698324 2:0.538249 3:0.521621 4:0.326927 5:0.538249 6:0.538249 7:0.928121 8:0.252791 9:0.83755 
0.4739981853287309 1:0.676571 2:0.526711 3:0.523104 4:0.324448 5:0.526711 6:0.526711 7:0.928594 8:0.252674 9:0.852635 
0.01043096301080048 1:0.791417 2:0.550878 3:0.515376 4:0.320112 5:0.550878 6:0.550878 7:0.936475 8:0.254767 9:0.974286 
0.1641519344390349 1:0.797448 2:0.559768 3:0.514067 4:0.322742 5:0.559768 6:0.559768 7:0.937579 8:0.255233 9:0.980929 
0.04976037614509453 1:0.773521 2:0.613197 3:0.510262 4:0.334476 5:0.613197 6:0.613197 7:0.940101 8:0.256395 9:0.990201 
0.09217596782075166 1:0.75602 2:0.640592 3:0.508918 4:0.338974 5:0.640592 6:0.640592 7:0.940101 8:0.256744 9:0.988734 
0.07248232295938853 1:0.736069 2:0.67128 3:0.507519 4:0.343421 5:0.67128 6:0.67128 7:0.939943 8:0.256977 9:0.985385 
0.08239894900480406 1:0.714447 2:0.702893 3:0.506048 4:0.347632 5:0.702893 6:0.702893 7:0.939313 8:0.257209 9:0.980431 
0.1168358555636085 1:0.691548 2:0.732348 3:0.50456 4:0.351418 5:0.732348 6:0.732348 7:0.938525 8:0.257326 9:0.974175 
0.005925853319945677 1:0.667883 2:0.756449 3:0.50327 4:0.35464 5:0.756449 6:0.756449 7:0.937421 8:0.257326 9:0.96684 
0.0217244281673664 1:0.623178 2:0.780823 3:0.501815 4:0.359329 5:0.780823 6:0.780823 7:0.93553 8:0.256977 9:0.950537 
0.1644229464966277 1:0.604864 2:0.780847 3:0.503426 4:0.360804 5:0.780847 6:0.780847 7:0.934584 8:0.256744 9:0.942067 
0.08217934036454128 1:0.591545 2:0.740708 3:0.567746 4:0.361832 5:0.740708 6:0.740708 7:0.931747 8:0.254767 9:0.914443 
0.1107400710203841 1:0.609122 2:0.717245 3:0.607795 4:0.361204 5:0.717245 6:0.717245 7:0.931274 8:0.254302 9:0.904423 
0.1054657712474234 1:0.636126 2:0.693932 3:0.652141 4:0.360291 5:0.693932 6:0.693932 7:0.930801 8:0.253953 9:0.893656 
0.08467524652360635 1:0.669472 2:0.675296 3:0.697168 4:0.359132 5:0.675296 6:0.675296 7:0.930328 8:0.253605 9:0.882307 
0.08593183499645937 1:0.706763 2:0.664657 3:0.740626 4:0.357745 5:0.664657 6:0.664657 7:0.930013 8:0.253488 9:0.870045 
0.08298292264945505 1:0.746479 2:0.66393 3:0.781314 4:0.356126 5:0.66393 6:0.66393 7:0.92954 8:0.253488 9:0.856621 
0.0817940570868525 1:0.787361 2:0.673446 3:0.817085 4:0.35413 5:0.673446 6:0.673446 7:0.928752 8:0.253837 9:0.8422 
0.09305562513489661 1:0.828584 2:0.691388 3:0.847756 4:0.351623 5:0.691388 6:0.691388 7:0.927806 8:0.254419 9:0.826893 
0.09027851670659894 1:0.869329 2:0.714563 3:0.872742 4:0.348442 5:0.714563 6:0.714563 7:0.926545 8:0.255233 9:0.810673 
0.08199353285314133 1:0.90828 2:0.739879 3:0.892592 4:0.344479 5:0.739879 6:0.739879 7:0.925126 8:0.256279 9:0.794149 
0.08644551860386566 1:0.97078 2:0.790567 3:0.919713 4:0.334123 5:0.790567 6:0.790567 7:0.922604 8:0.258721 9:0.760574 
0.02341367814200837 1:0.990296 2:0.8135 3:0.928669 4:0.327851 5:0.8135 6:0.8135 7:0.921501 8:0.26 9:0.743523 
0.08814957490179832 1:1 2:0.834453 3:0.935422 4:0.320953 5:0.834453 6:0.834453 7:0.920397 8:0.261279 9:0.726113 
0.05025434357474427 1:0.998715 2:0.853559 3:0.940618 4:0.313479 5:0.853559 6:0.853559 7:0.919451 8:0.262442 9:0.708592 
0.01896074082600475 1:0.985283 2:0.870756 3:0.944453 4:0.305512 5:0.870756 6:0.870756 7:0.918821 8:0.263605 9:0.691071 
0.1192552471075942 1:0.959703 2:0.885849 3:0.947259 4:0.297129 5:0.885849 6:0.885849 7:0.918033 8:0.264651 9:0.673633 
0.001773878983648554 1:0.92335 2:0.898135 3:0.948945 4:0.288338 5:0.898135 6:0.898135 7:0.917245 8:0.265465 9:0.657053 
0.1337548921834656 1:0.878408 2:0.906223 3:0.949486 4:0.278996 5:0.906223 6:0.906223 7:0.916299 8:0.266279 9:0.641608 
0.02944778743625014 1:0.827821 2:0.908277 3:0.948915 4:0.269121 5:0.908277 6:0.908277 7:0.915511 8:0.266977 9:0.627491 
0.1186483232272454 1:0.774062 2:0.903156 3:0.947225 4:0.258878 5:0.903156 6:0.903156 7:0.915038 8:0.267558 9:0.615063 
0.06534376190489516 1:0.718785 2:0.890966 3:0.944445 4:0.248453 5:0.890966 6:0.890966 7:0.91488 8:0.267907 9:0.60424 
0.1130924182541648 1:0.663479 2:0.872981 3:0.940882 4:0.238014 5:0.872981 6:0.872981 7:0.915038 8:0.26814 9:0.594746 
0.08172110777983727 1:0.60928 2:0.85109 3:0.936442 4:0.227753 5:0.85109 6:0.85109 7:0.915511 8:0.268256 9:0.586609 
0.111064776721513 1:0.557128 2:0.827256 3:0.931432 4:0.217936 5:0.827256 6:0.827256 7:0.916457 8:0.268256 9:0.580187 
0.07282987801284348 1:0.507561 2:0.803424 3:0.926226 4:0.208719 5:0.803424 6:0.803424 7:0.91756 8:0.26814 9:0.575371 
0.1038074847497412 1:0.46089 2:0.781201 3:0.920948 4:0.20022 5:0.781201 6:0.781201 7:0.918821 8:0.267791 9:0.5718 
0.06154250058543595 1:0.417548 2:0.762007 3:0.916132 4:0.19248 5:0.762007 6:0.762007 7:0.920082 8:0.267209 9:0.56942 
0.04931507930542082 1:0.377918 2:0.746808 3:0.911716 4:0.185495 5:0.746808 6:0.746808 7:0.921343 8:0.266628 9:0.567981 
0.0826789030168051 1:0.342128 2:0.735868 3:0.908204 4:0.179219 5:0.735868 6:0.735868 7:0.922446 8:0.26593 9:0.567399 
0.1865719552478993 1:0.218575 2:0.732065 3:0.900446 4:0.154118 5:0.732065 6:0.732065 7:0.928436 8:0.260581 9:0.578083 
0.1034599207022491 1:0.288345 2:0.76041 3:0.905878 4:0.147939 5:0.76041 6:0.76041 7:0.932377 8:0.257093 9:0.605237 
0.5078590424251416 1:0.582304 2:0.597941 3:0.512212 4:0.271505 5:0.597941 6:0.597941 7:0.932535 8:0.255349 9:0.684898 
1 1:0.582309 2:0.597983 3:0.512204 4:0.271517 5:0.597983 6:0.597983 7:0.932535 8:0.255233 9:0.684898 
1 1:0.582305 2:0.598017 3:0.512189 4:0.271518 5:0.598017 6:0.598017 7:0.932535 8:0.255233 9:0.684898 
1 1:0.582289 2:0.598003 3:0.512169 4:0.271502 5:0.598003 6:0.598003 7:0.932535 8:0.255233 9:0.684898 
0.4015380627854169 1:0.551692 2:0.570014 3:0.512455 4:0.270833 5:0.570014 6:0.570014 7:0.932535 8:0.255349 9:0.684677 
1 1:0.551552 2:0.569646 3:0.512603 4:0.270812 5:0.569646 6:0.569646 7:0.932535 8:0.255349 9:0.684677 
1 1:0.551424 2:0.569314 3:0.512636 4:0.270797 5:0.569314 6:0.569314 7:0.932535 8:0.255349 9:0.684649 
1 1:0.55134 2:0.569062 3:0.512635 4:0.270794 5:0.569062 6:0.569062 7:0.932535 8:0.255349 9:0.684649 
1 1:0.551311 2:0.568891 3:0.512614 4:0.270797 5:0.568891 6:0.568891 7:0.932535 8:0.255349 9:0.684677 
1 1:0.551328 2:0.568778 3:0.512577 4:0.270809 5:0.568778 6:0.568778 7:0.932535 8:0.255349 9:0.684677 
-1 1:0.62364 2:0.531536 3:0.526034 4:0.177886 5:0.531536 6:0.531536 7:0.928594 8:0.258837 9:0.352497 
-1 1:0.603962 2:0.557135 3:0.53308 4:0.175809 5:0.557135 6:0.557135 7:0.929382 8:0.259419 9:0.399496 
-0.4428836155037948 1:0.580454 2:0.577439 3:0.536364 4:0.17409 5:0.577439 6:0.577439 7:0.929855 8:0.259767 9:0.443257 
-0.5554149775591612 1:0.554686 2:0.591472 3:0.536384 4:0.172627 5:0.591472 6:0.591472 7:0.930328 8:0.259884 9:0.48378 
-0.04826976685771441 1:0.534308 2:0.59827 3:0.529403 4:0.171472 5:0.59827 6:0.59827 7:0.930958 8:0.258721 9:0.521479 
-0.9013114969814428 1:0.525877 2:0.597873 3:0.521741 4:0.170725 5:0.597873 6:0.597873 7:0.931589 8:0.257326 9:0.556466 
-0.07527201701595244 1:0.5389 2:0.581231 3:0.510114 4:0.170502 5:0.581231 6:0.581231 7:0.933008 8:0.255233 9:0.613596 
-1 1:0.557147 2:0.568727 3:0.506191 4:0.171034 5:0.568727 6:0.568727 7:0.933796 8:0.254419 9:0.636044 
-1 1:0.580538 2:0.556184 3:0.503436 4:0.172019 5:0.556184 6:0.556184 7:0.934584 8:0.253953 9:0.654423 
-0.6140172824918444 1:0.606625 2:0.54535 3:0.501792 4:0.173448 5:0.54535 6:0.54535 7:0.935372 8:0.253605 9:0.669702 
-0.3028093005236253 1:0.718668 2:0.541046 3:0.503702 4:0.186866 5:0.541046 6:0.541046 7:0.939313 8:0.255233 9:0.705298 
-0.3319509066399429 1:0.730694 2:0.553874 3:0.505421 4:0.191138 5:0.553874 6:0.553874 7:0.940101 8:0.256047 9:0.707208 
-0.2877813003943275 1:0.734458 2:0.600614 3:0.510063 4:0.205494 5:0.600614 6:0.600614 7:0.940889 8:0.258605 9:0.709145 
-0.4074946579469272 1:0.723285 2:0.611005 3:0.511391 4:0.210411 5:0.611005 6:0.611005 7:0.940731 8:0.259186 9:0.709173 
-0.04146243725356173 1:0.660875 2:0.614476 3:0.516021 4:0.224805 5:0.614476 6:0.614476 7:0.940574 8:0.260349 9:0.709782 
-1 1:0.635454 2:0.605642 3:0.522946 4:0.229766 5:0.605642 6:0.605642 7:0.941362 8:0.259651 9:0.71338 
-1 1:0.612363 2:0.588813 3:0.528421 4:0.235275 5:0.588813 6:0.588813 7:0.942308 8:0.258721 9:0.718363 
-1 1:0.593253 2:0.567566 3:0.531165 4:0.24134 5:0.567566 6:0.567566 7:0.943253 8:0.257674 9:0.72113 
-1 1:0.578912 2:0.545434 3:0.531846 4:0.248004 5:0.545434 6:0.545434 7:0.944357 8:0.256744 9:0.721988 
-1 1:0.569614 2:0.525092 3:0.530933 4:0.255292 5:0.525092 6:0.525092 7:0.945303 8:0.25593 9:0.722404 
-0.02997708849276673 1:0.565313 2:0.508489 3:0.528972 4:0.263145 5:0.508489 6:0.508489 7:0.946248 8:0.255233 9:0.724064 
-1 1:0.565311 2:0.49717 3:0.526443 4:0.271513 5:0.49717 6:0.49717 7:0.947037 8:0.254767 9:0.725836 
-1 1:0.568649 2:0.492262 3:0.523686 4:0.280286 5:0.492262 6:0.492262 7:0.947509 8:0.254419 9:0.727414 
-0.6420588138334654 1:0.574079 2:0.494095 3:0.520919 4:0.289332 5:0.494095 6:0.494095 7:0.947982 8:0.254186 9:0.728133 
-1 1:0.561693 2:0.534014 3:0.51386 4:0.336573 5:0.534014 6:0.534014 7:0.942938 8:0.256395 9:0.688441 
-1 1:0.550447 2:0.534761 3:0.512401 4:0.342497 5:0.534761 6:0.534761 7:0.94215 8:0.256628 9:0.683625 
-1 1:0.537106 2:0.535592 3:0.510711 4:0.34805 5:0.535592 6:0.535592 7:0.941677 8:0.256744 9:0.680027 
-0.3614944031723633 1:0.520509 2:0.537535 3:0.508801 4:0.353283 5:0.537535 6:0.537535 7:0.941047 8:0.256744 9:0.67748 
-0.4980544978171751 1:0.500457 2:0.541576 3:0.507147 4:0.358196 5:0.541576 6:0.541576 7:0.940574 8:0.256512 9:0.675958 
-1 1:0.478284 2:0.548436 3:0.505195 4:0.362742 5:0.548436 6:0.548436 7:0.939786 8:0.256279 9:0.6751 
-1 1:0.461825 2:0.555461 3:0.498815 4:0.366799 5:0.555461 6:0.555461 7:0.938997 8:0.256163 9:0.669259 
-1 1:0.45684 2:0.560263 3:0.493067 4:0.370315 5:0.560263 6:0.560263 7:0.938052 8:0.256163 9:0.660153 
-1 1:0.460305 2:0.564002 3:0.48884 4:0.373302 5:0.564002 6:0.564002 7:0.937106 8:0.256279 9:0.653842 
-1 1:0.673463 2:0.461093 3:0.514027 4:0.042294 5:0.461093 6:0.461093 7:0.947825 8:0.257326 9:0.677591 
-0.9391983049991119 1:0.638591 2:0.471475 3:0.514204 4:0.051656 5:0.471475 6:0.471475 7:0.94877 8:0.257326 9:0.686421 
-0.6507043619674473 1:0.543498 2:0.467594 3:0.515608 4:0.106599 5:0.467594 6:0.467594 7:0.953184 8:0.256279 9:0.697935 
-0.0549593121998405 1:0.541355 2:0.463892 3:0.515018 4:0.119167 5:0.463892 6:0.463892 7:0.95413 8:0.256163 9:0.696579 
-0.4895231538539045 1:0.576626 2:0.465068 3:0.51388 4:0.187752 5:0.465068 6:0.465068 7:0.95681 8:0.255581 9:0.68631 
-1 1:0.589336 2:0.469929 3:0.514278 4:0.202303 5:0.469929 6:0.469929 7:0.957282 8:0.255581 9:0.684594 
-0.8794403597492935 1:0.601299 2:0.47678 3:0.514706 4:0.217028 5:0.47678 6:0.47678 7:0.95744 8:0.255581 9:0.68321 
-0.253366649390214 1:0.620246 2:0.499383 3:0.51572 4:0.246575 5:0.499383 6:0.499383 7:0.957282 8:0.255698 9:0.680857 
-1 1:0.627568 2:0.516136 3:0.516129 4:0.261122 5:0.516136 6:0.516136 7:0.95681 8:0.255698 9:0.680248 
-1 1:0.634119 2:0.535787 3:0.516412 4:0.275452 5:0.535787 6:0.535787 7:0.956494 8:0.255698 9:0.68094 
-1 1:0.639994 2:0.557564 3:0.516394 4:0.289441 5:0.557564 6:0.557564 7:0.955706 8:0.255698 9:0.684262 
-1 1:0.644951 2:0.580399 3:0.516107 4:0.302943 5:0.580399 6:0.580399 7:0.95476 8:0.255814 9:0.685978 
-0.7559176318003359 1:0.648647 2:0.603194 3:0.515629 4:0.315849 5:0.603194 6:0.603194 7:0.953657 8:0.25593 9:0.687223 
-0.7996092245859792 1:0.6511 2:0.679744 3:0.512349 4:0.3672 5:0.679744 6:0.679744 7:0.945618 8:0.256628 9:0.698323 
-0.9225860576470764 1:0.591959 2:0.682911 3:0.506495 4:0.401658 5:0.682911 6:0.682911 7:0.931116 8:0.257791 9:0.736825 
-0.1321410773686665 1:0.586691 2:0.597084 3:0.509558 4:0.385704 5:0.597084 6:0.597084 7:0.926072 8:0.258256 9:0.738015 
-0.9738467315342614 1:0.591603 2:0.575849 3:0.510764 4:0.381822 5:0.575849 6:0.575849 7:0.925914 8:0.258372 9:0.737074 
-1 1:0.438803 2:0.578759 3:0.519511 4:0.329733 5:0.578759 6:0.578759 7:0.928909 8:0.253721 9:0.702253 
-1 1:0.430655 2:0.60163 3:0.517318 4:0.327411 5:0.60163 6:0.60163 7:0.928279 8:0.25314 9:0.701035 
-1 1:0.428646 2:0.622503 3:0.515087 4:0.324727 5:0.622503 6:0.622503 7:0.927648 8:0.252674 9:0.700094 
-0.6868501978470757 1:0.433173 2:0.638598 3:0.512837 4:0.321646 5:0.638598 6:0.638598 7:0.927018 8:0.252209 9:0.699042 
-0.2198270246436258 1:0.443211 2:0.648875 3:0.510801 4:0.318165 5:0.648875 6:0.648875 7:0.926387 8:0.251744 9:0.698406 
-0.7907387066435593 1:0.506149 2:0.633844 3:0.504549 4:0.301183 5:0.633844 6:0.633844 7:0.924653 8:0.250581 9:0.695084 
-1 1:0.524643 2:0.618937 3:0.50325 4:0.296499 5:0.618937 6:0.618937 7:0.924653 8:0.250233 9:0.694586 
-1 1:0.544577 2:0.600753 3:0.502298 4:0.291778 5:0.600753 6:0.600753 7:0.924653 8:0.250116 9:0.693562 
-1 1:0.565329 2:0.5803 3:0.501664 4:0.287109 5:0.5803 6:0.5803 7:0.924811 8:0.25 9:0.691873 
-1 1:0.586427 2:0.558669 3:0.501409 4:0.282565 5:0.558669 6:0.558669 7:0.924968 8:0.25 9:0.690046 
-1 1:0.60691 2:0.536703 3:0.501107 4:0.27823 5:0.536703 6:0.536703 7:0.925441 8:0.250233 9:0.687971 
-1 1:0.625372 2:0.514995 3:0.500675 4:0.274243 5:0.514995 6:0.514995 7:0.92623 8:0.250465 9:0.685341 
-1 1:0.640198 2:0.494003 3:0.499784 4:0.270711 5:0.494003 6:0.494003 7:0.927018 8:0.250814 9:0.682241 
-1 1:0.649713 2:0.474502 3:0.49877 4:0.26772 5:0.474502 6:0.474502 7:0.927963 8:0.251047 9:0.678975 
-0.4389823664535891 1:0.652971 2:0.457073 3:0.497557 4:0.265306 5:0.457073 6:0.457073 7:0.928909 8:0.251163 9:0.67546 
-1 1:0.63041 2:0.403966 3:0.498233 4:0.261982 5:0.403966 6:0.403966 7:0.93348 8:0.251163 9:0.660679 
-1 1:0.626973 2:0.397719 3:0.500326 4:0.262962 5:0.397719 6:0.397719 7:0.934899 8:0.25093 9:0.657634 
-0.1535228838873347 1:0.627485 2:0.395523 3:0.502829 4:0.264769 5:0.395523 6:0.395523 7:0.936318 8:0.250814 9:0.655226 
-0.1381319275379986 1:0.728188 2:0.472971 3:0.515937 4:0.295334 5:0.472971 6:0.472971 7:0.942308 8:0.253605 9:0.653205 
-0.3743671716589221 1:0.751833 2:0.499453 3:0.516853 4:0.301231 5:0.499453 6:0.499453 7:0.942623 8:0.254302 9:0.655475 
-0.566757952836371 1:0.802024 2:0.549455 3:0.517524 4:0.312827 5:0.549455 6:0.549455 7:0.941835 8:0.25593 9:0.66209 
-0.2504680133625871 1:0.826812 2:0.568007 3:0.517381 4:0.318221 5:0.568007 6:0.568007 7:0.941362 8:0.256977 9:0.666602 
-0.1027053953124395 1:0.888684 2:0.597742 3:0.515824 4:0.336606 5:0.597742 6:0.597742 7:0.939313 8:0.261512 9:0.689548 
-1 1:0.891853 2:0.60143 3:0.515354 4:0.340506 5:0.60143 6:0.60143 7:0.93884 8:0.262674 9:0.696496 
-0.9988155288558733 1:0.815869 2:0.632083 3:0.512462 4:0.353754 5:0.632083 6:0.632083 7:0.934741 8:0.267907 9:0.731593 
-1 1:0.778207 2:0.633543 3:0.511862 4:0.354753 5:0.633543 6:0.633543 7:0.933796 8:0.268488 9:0.736492 
-0.6101986602813028 1:0.734956 2:0.631741 3:0.511337 4:0.355211 5:0.631741 6:0.631741 7:0.93285 8:0.268953 9:0.73962 
-1 1:0.543828 2:0.60332 3:0.510215 4:0.352344 5:0.60332 6:0.60332 7:0.930013 8:0.269302 9:0.742471 
-1 1:0.796594 2:0.553095 3:0.495836 4:0.299652 5:0.553095 6:0.553095 7:0.931274 8:0.255581 9:0.520898 
-1 1:0.772501 2:0.553691 3:0.495797 4:0.298906 5:0.553691 6:0.553691 7:0.931274 8:0.255698 9:0.524164 
-1 1:0.745638 2:0.550752 3:0.495646 4:0.298076 5:0.550752 6:0.550752 7:0.931116 8:0.255814 9:0.525714 
-0.9876362148026999 1:0.684819 2:0.535268 3:0.495628 4:0.296475 5:0.535268 6:0.535268 7:0.931274 8:0.255465 9:0.528648 
-1 1:0.65282 2:0.523689 3:0.496185 4:0.295833 5:0.523689 6:0.523689 7:0.931589 8:0.255233 9:0.529478 
-1 1:0.622388 2:0.510574 3:0.497004 4:0.295377 5:0.510574 6:0.510574 7:0.931904 8:0.254884 9:0.530392 
-1 1:0.595133 2:0.497399 3:0.498084 4:0.295118 5:0.497399 6:0.497399 7:0.932219 8:0.254419 9:0.532634 
-1 1:0.572387 2:0.485788 3:0.499693 4:0.295015 5:0.485788 6:0.485788 7:0.932535 8:0.253953 9:0.535596 
-0.08242550518636454 1:0.555766 2:0.477 3:0.501743 4:0.295031 5:0.477 6:0.477 7:0.932692 8:0.253605 9:0.539277 
-1 1:0.545626 2:0.471642 3:0.504484 4:0.295174 5:0.471642 6:0.471642 7:0.93285 8:0.253256 9:0.543733 
-0.7988407209017926 1:0.585922 2:0.45223 3:0.521971 4:0.306869 5:0.45223 6:0.45223 7:0.937106 8:0.251163 9:0.625387 
-1 1:0.584304 2:0.443213 3:0.520553 4:0.309758 5:0.443213 6:0.443213 7:0.937736 8:0.250814 9:0.636708 
-1 1:0.559289 2:0.415837 3:0.514526 4:0.325202 5:0.415837 6:0.415837 7:0.940889 8:0.249302 9:0.678338 
-1 1:0.552883 2:0.414991 3:0.513751 4:0.330439 5:0.414991 6:0.414991 7:0.941835 8:0.248721 9:0.687029 
-1 1:0.54825 2:0.416894 3:0.513425 4:0.336264 5:0.416894 6:0.416894 7:0.942781 8:0.248372 9:0.695582 
-1 1:0.546005 2:0.421158 3:0.513658 4:0.342582 5:0.421158 6:0.421158 7:0.943569 8:0.247791 9:0.704827 
-0.2493963404565645 1:0.546801 2:0.427572 3:0.514216 4:0.349392 5:0.427572 6:0.427572 7:0.944357 8:0.247442 9:0.713602 
-1 1:0.567838 2:0.455993 3:0.517139 4:0.372249 5:0.455993 6:0.455993 7:0.945933 8:0.24686 9:0.731842 
-0.0810283588116472 1:0.578981 2:0.465542 3:0.518454 4:0.380147 5:0.465542 6:0.465542 7:0.945776 8:0.246744 9:0.737683 
-0.487721587398841 1:0.663139 2:0.499236 3:0.525408 4:0.41935 5:0.499236 6:0.499236 7:0.946091 8:0.247791 9:0.765168 
-0.4475181621421108 1:0.68621 2:0.508175 3:0.526271 4:0.427483 5:0.508175 6:0.508175 7:0.946406 8:0.248256 9:0.770372 
-0.2300231769377649 1:0.708748 2:0.520358 3:0.526821 4:0.435685 5:0.520358 6:0.520358 7:0.946248 8:0.248953 9:0.776268 
-0.2071294794710384 1:0.729058 2:0.536239 3:0.527029 4:0.44375 5:0.536239 6:0.536239 7:0.945933 8:0.249767 9:0.782274 
-0.6549497683935311 1:0.745989 2:0.555371 3:0.526752 4:0.451593 5:0.555371 6:0.555371 7:0.945618 8:0.250581 9:0.788696 
-0.2898673736005577 1:0.759131 2:0.576754 3:0.525791 4:0.459157 5:0.576754 6:0.576754 7:0.944987 8:0.251395 9:0.795256 
-0.5061030007637604 1:0.768743 2:0.598924 3:0.524175 4:0.466198 5:0.598924 6:0.598924 7:0.943726 8:0.252093 9:0.801982 
-0.330849556392579 1:0.7798 2:0.640252 3:0.52027 4:0.477899 5:0.640252 6:0.640252 7:0.940889 8:0.253721 9:0.815019 
-0.5118231864244341 1:0.781806 2:0.657942 3:0.518157 4:0.482432 5:0.657942 6:0.657942 7:0.93947 8:0.254535 9:0.820499 
-0.02699245080641548 1:0.765086 2:0.704285 3:0.511977 4:0.490436 5:0.704285 6:0.704285 7:0.932219 8:0.257791 9:0.83254 
-0.8092568063881977 1:0.755788 2:0.709371 3:0.51138 4:0.489743 5:0.709371 6:0.709371 7:0.930485 8:0.258605 9:0.832651 
-0.7158061252022547 1:0.712404 2:0.708446 3:0.512391 4:0.476853 5:0.708446 6:0.708446 7:0.923865 8:0.261512 9:0.823212 
-0.6334826574072248 1:0.687748 2:0.641999 3:0.51086 4:0.44112 5:0.641999 6:0.641999 7:0.918033 8:0.264651 9:0.79199 
-0.1145649478285143 1:0.771018 2:0.52604 3:0.51004 4:0.271156 5:0.52604 6:0.52604 7:0.932062 8:0.257209 9:0.684787 
-1 1:0.670097 2:0.543022 3:0.491471 4:0.268283 5:0.543022 6:0.543022 7:0.932062 8:0.262093 9:0.688386 
-1 1:0.636896 2:0.536581 3:0.491053 4:0.268012 5:0.536581 6:0.536581 7:0.932062 8:0.262326 9:0.688413 
-1 1:0.60318 2:0.527719 3:0.491337 4:0.267829 5:0.527719 6:0.527719 7:0.932377 8:0.262209 9:0.688441 
-1 1:0.571026 2:0.516785 3:0.492447 4:0.267808 5:0.516785 6:0.516785 7:0.932692 8:0.262093 9:0.688303 
-1 1:0.541927 2:0.504291 3:0.494073 4:0.26798 5:0.504291 6:0.504291 7:0.933008 8:0.261744 9:0.687971 
-1 1:0.516511 2:0.491103 3:0.496102 4:0.268367 5:0.491103 6:0.491103 7:0.933323 8:0.261512 9:0.68631 
-1 1:0.494761 2:0.478265 3:0.498459 4:0.269008 5:0.478265 6:0.478265 7:0.933796 8:0.261163 9:0.685064 
-0.4502943161113157 1:0.476384 2:0.466747 3:0.501013 4:0.269958 5:0.466747 6:0.466747 7:0.934426 8:0.260698 9:0.683846 
-1 1:0.436 2:0.448563 3:0.507988 4:0.274794 5:0.448563 6:0.448563 7:0.936002 8:0.259419 9:0.678117 
-0.4220375465975821 1:0.425098 2:0.449939 3:0.509842 4:0.276983 5:0.449939 6:0.449939 7:0.936475 8:0.258837 9:0.675819 
-0.4521753812417841 1:0.381444 2:0.48593 3:0.515687 4:0.287669 5:0.48593 6:0.48593 7:0.937421 8:0.255814 9:0.664997 
-1 1:0.374303 2:0.498458 3:0.516583 4:0.290602 5:0.498458 6:0.498458 7:0.937579 8:0.254884 9:0.661509 
-1 1:0.47124 2:0.567905 3:0.512756 4:0.273868 5:0.567905 6:0.567905 7:0.8936 8:0.133372 9:0.650936 
-0.9362349763314848 1:0.485722 2:0.576582 3:0.511272 4:0.272873 5:0.576582 6:0.576582 7:0.934269 8:0.254535 9:0.685673 
-1 1:0.489886 2:0.577145 3:0.510417 4:0.274114 5:0.577145 6:0.577145 7:0.934899 8:0.254186 9:0.685756 
-1 1:0.49723 2:0.576038 3:0.509167 4:0.275731 5:0.576038 6:0.576038 7:0.935687 8:0.253953 9:0.685203 
-1 1:0.508262 2:0.571811 3:0.5078 4:0.277825 5:0.571811 6:0.571811 7:0.936475 8:0.253721 9:0.684151 
-1 1:0.522373 2:0.564775 3:0.50656 4:0.280378 5:0.564775 6:0.564775 7:0.937106 8:0.253605 9:0.683763 
-1 1:0.538914 2:0.555614 3:0.50554 4:0.283308 5:0.555614 6:0.555614 7:0.937736 8:0.253488 9:0.683819 
-1 1:0.556907 2:0.54514 3:0.504798 4:0.286597 5:0.54514 6:0.54514 7:0.938367 8:0.253488 9:0.684317 
-1 1:0.575505 2:0.534142 3:0.504286 4:0.290242 5:0.534142 6:0.534142 7:0.938997 8:0.253605 9:0.685812 
-1 1:0.594171 2:0.52345 3:0.50415 4:0.294244 5:0.52345 6:0.52345 7:0.939628 8:0.253605 9:0.68833 
-1 1:0.612321 2:0.513917 3:0.504284 4:0.298654 5:0.513917 6:0.513917 7:0.940416 8:0.253837 9:0.691984 
-0.4624422455126684 1:0.628859 2:0.506271 3:0.504601 4:0.303532 5:0.506271 6:0.506271 7:0.941204 8:0.25407 9:0.696302 
-0.09234385331808198 1:0.548284 2:0.539526 3:0.512344 4:0.365246 5:0.539526 6:0.539526 7:0.945303 8:0.254535 9:0.747537 
