svm_type c_svc
kernel_type rbf
gamma 40
nr_class 2
total_sv 37
rho -3.02851
label 0 1
nr_sv 20 17
SV
199.173760541655 1:0.011441 2:0.506608 3:0.344206 4:0.332241 5:0.500063 6:0.5 7:0.810811 8:0.046794 9:0.666667 
210 1:0.007059 2:0.507097 3:0.344611 4:0.332284 5:0.500069 6:0.5 7:0.810811 8:0.046918 9:0.666667 
210 1:0.003974 2:0.50723 3:0.345368 4:0.332297 5:0.500074 6:0.5 7:0.810811 8:0.046918 9:0.666667 
210 1:-0.001681 2:0.507194 3:0.346642 4:0.332296 5:0.50008 6:0.5 7:0.810811 8:0.046918 9:0.666667 
73.67287911007431 1:-0.012411 2:0.507128 3:0.348196 4:0.332288 5:0.500086 6:0.5 7:0.810811 8:0.047041 9:0.666667 
210 1:-0.031064 2:0.507541 3:0.349655 4:0.332286 5:0.500094 6:0.5 7:0.810811 8:0.047041 9:0.666667 
149.1778438488851 1:-0.06017 2:0.509103 3:0.350694 4:0.332323 5:0.500102 6:0.5 7:0.810838 8:0.047041 9:0.666667 
0.7249488190042332 1:-0.098458 2:0.593673 3:0.194749 4:0.339319 5:0.500305 6:0.513831 7:0.810784 8:0.047413 9:0.714467 
0.0008412331248487491 1:0.039506 2:0.49602 3:0.354666 4:0.275658 5:0.501384 6:0.570179 7:0.808 8:0.049889 9:0.6566 
2.228158439320413 1:-0.036096 2:0.489441 3:0.356299 4:0.269432 5:0.50151 6:0.567551 7:0.808189 8:0.050508 9:0.651533 
85.18174456441983 1:-0.119353 2:0.402418 3:0.346417 4:0.250777 5:0.504151 6:0.498271 7:0.811838 8:0.050012 9:0.649867 
210 1:-0.012617 2:0.534872 3:0.347853 4:0.373541 5:0.497978 6:0.500489 7:0.810676 8:0.048651 9:0.665778 
210 1:-0.01775 2:0.537523 3:0.347934 4:0.373249 5:0.498053 6:0.500314 7:0.810703 8:0.048898 9:0.665844 
210 1:-0.02164 2:0.539459 3:0.347916 4:0.373 5:0.498134 6:0.50015 7:0.810703 8:0.049022 9:0.666 
210 1:-0.0279 2:0.540211 3:0.347834 4:0.37279 5:0.498221 6:0.500035 7:0.81073 8:0.04927 9:0.666178 
210 1:-0.044693 2:0.539342 3:0.347699 4:0.372637 5:0.498315 6:0.499947 7:0.810757 8:0.049393 9:0.666356 
13.14896944481454 1:0.074484 2:0.536763 3:0.342333 4:0.448842 5:0.502445 6:0.482808 7:0.811811 8:0.058678 9:0.659756 
2.928941079206167 1:-0.077342 2:0.361824 3:0.336327 4:0.307818 5:0.503963 6:0.47296 7:0.805162 8:0.034662 9:0.675533 
11.93133908339201 1:-0.003196 2:0.482787 3:0.443354 4:0.23791 5:0.499419 6:0.486838 7:0.808459 8:0.029958 9:0.672089 
0.706206710709873 1:0.090364 2:0.487267 3:0.457898 4:0.232711 5:0.498794 6:0.487859 7:0.808595 8:0.030205 9:0.671022 
-111.7886479059836 1:-0.094907 2:0.408803 3:0.346363 4:0.253282 5:0.504259 6:0.495075 7:0.811973 8:0.04927 9:0.652933 
-50.70923755626205 1:0.007584 2:0.473945 3:0.346743 4:0.272364 5:0.504341 6:0.489259 7:0.812324 8:0.045308 9:0.668978 
-48.56075836558494 1:0.017481 2:0.484131 3:0.346863 4:0.275848 5:0.504277 6:0.489903 7:0.812351 8:0.044813 9:0.670511 
-210 1:0.003895 2:0.512814 3:0.346786 4:0.324884 5:0.501544 6:0.500636 7:0.811432 8:0.042461 9:0.665822 
-119.3047897908337 1:0.006825 2:0.512938 3:0.346727 4:0.326274 5:0.50138 6:0.500421 7:0.811405 8:0.042337 9:0.665489 
-201.3596625635541 1:0.011069 2:0.513379 3:0.346673 4:0.327567 5:0.501214 6:0.50018 7:0.811351 8:0.042337 9:0.665578 
-41.31024730131393 1:-0.034651 2:0.532916 3:0.347305 4:0.350968 5:0.497882 6:0.500937 7:0.811378 8:0.04568 9:0.667044 
-210 1:-0.038617 2:0.530076 3:0.347264 4:0.352308 5:0.497844 6:0.501013 7:0.811405 8:0.045803 9:0.666978 
-210 1:-0.040709 2:0.527446 3:0.347191 4:0.35373 5:0.497808 6:0.50108 7:0.811459 8:0.045927 9:0.667111 
-210 1:-0.04025 2:0.524883 3:0.347152 4:0.355257 5:0.497774 6:0.501197 7:0.811513 8:0.045927 9:0.667311 
-210 1:-0.037308 2:0.522406 3:0.347061 4:0.356871 5:0.497743 6:0.501307 7:0.811541 8:0.045927 9:0.667089 
-130.945113946566 1:-0.032411 2:0.520249 3:0.346988 4:0.358516 5:0.497712 6:0.501382 7:0.811541 8:0.045927 9:0.666867 
-114.0757032522981 1:-0.008347 2:0.524325 3:0.347901 4:0.375726 5:0.497532 6:0.500701 7:0.810784 8:0.048032 9:0.666689 
-32.01933445822023 1:0.003887 2:0.525043 3:0.347718 4:0.375003 5:0.497731 6:0.500838 7:0.810676 8:0.048279 9:0.666622 
-108.8021377339897 1:0.003167 2:0.526866 3:0.347672 4:0.374632 5:0.497787 6:0.500797 7:0.810649 8:0.048279 9:0.6664 
-210 1:-0.000518 2:0.529222 3:0.347681 4:0.374236 5:0.497846 6:0.500735 7:0.810649 8:0.048403 9:0.666356 
-210 1:-0.006371 2:0.531988 3:0.347793 4:0.373868 5:0.497909 6:0.500646 7:0.810649 8:0.048527 9:0.666111 
