svm_type c_svc
kernel_type rbf
gamma 148
nr_class 2
total_sv 195
rho -0.946968
label 0 1
nr_sv 157 38
SV
0.02523227737502078 1:-0.865398 2:0.443003 3:0.346402 4:0.609754 5:0.499564 6:0.499742 7:0.821216 8:0.043699 9:0.667867 
0.2126201978958069 1:0.052419 2:0.47393 3:0.343975 4:0.331811 5:0.500012 6:0.5 7:0.810784 8:0.046794 9:0.666667 
1 1:0.027129 2:0.468829 3:0.344374 4:0.331813 5:0.500009 6:0.5 7:0.810838 8:0.04667 9:0.666667 
1 1:0.006568 2:0.464693 3:0.344836 4:0.331878 5:0.500006 6:0.5 7:0.810838 8:0.04667 9:0.666667 
1 1:-0.004478 2:0.462265 3:0.345393 4:0.331969 5:0.500004 6:0.5 7:0.810865 8:0.046794 9:0.666667 
1 1:-0.004524 2:0.461818 3:0.345835 4:0.332057 5:0.500003 6:0.5 7:0.810838 8:0.046794 9:0.666667 
1 1:0.005617 2:0.463325 3:0.346206 4:0.332113 5:0.500003 6:0.5 7:0.810838 8:0.046794 9:0.666667 
1 1:0.024992 2:0.466566 3:0.357698 4:0.33213 5:0.500005 6:0.5 7:0.810811 8:0.046918 9:0.666667 
0.1207257366299238 1:0.051977 2:0.471414 3:0.391065 4:0.332094 5:0.500009 6:0.504463 7:0.810784 8:0.047041 9:0.716089 
0.02762518550417697 1:0.215039 2:0.502345 3:0.42327 4:0.330919 5:0.500391 6:0.535976 7:0.810432 8:0.052736 9:0.701156 
0.009301735181856192 1:0.264436 2:0.507132 3:0.416583 4:0.329964 5:0.50062 6:0.542299 7:0.81027 8:0.054098 9:0.698889 
0.02001093954271165 1:0.310446 2:0.507018 3:0.407728 4:0.328578 5:0.500886 6:0.548128 7:0.810027 8:0.055088 9:0.695378 
0.005268110873117063 1:0.348827 2:0.501179 3:0.398008 4:0.326644 5:0.501177 6:0.553141 7:0.809757 8:0.055583 9:0.690667 
0.02693284635077121 1:0.390655 2:0.475086 3:0.379356 4:0.321261 5:0.501794 6:0.560589 7:0.809297 8:0.055954 9:0.682022 
0.005994660144319849 1:0.391884 2:0.457874 3:0.371365 4:0.317954 5:0.502102 6:0.563118 7:0.809135 8:0.055707 9:0.678022 
0.003023171309521533 1:0.381082 2:0.440091 3:0.364535 4:0.314328 5:0.502403 6:0.56491 7:0.808973 8:0.055459 9:0.674222 
0.02067905649371631 1:0.332043 2:0.408036 3:0.354344 4:0.304591 5:0.502998 6:0.566328 7:0.807811 8:0.055707 9:0.666578 
0.004326544720676031 1:0.293682 2:0.394811 3:0.350861 4:0.297672 5:0.503304 6:0.56618 7:0.807189 8:0.055954 9:0.667622 
0.03345086839606035 1:0.24057 2:0.383002 3:0.348322 4:0.28962 5:0.503618 6:0.566297 7:0.806703 8:0.056078 9:0.663956 
0.03395338829968348 1:-0.787629 2:0.424926 3:0.346121 4:0.631607 5:0.499446 6:0.500033 7:0.821405 8:0.042956 9:0.668422 
0.03875073405585425 1:-0.692727 2:0.400907 3:0.345772 4:0.653863 5:0.4993 6:0.500369 7:0.821649 8:0.041966 9:0.668489 
0.04260556895270866 1:-0.585264 2:0.371435 3:0.345548 4:0.676842 5:0.499116 6:0.500753 7:0.822054 8:0.040728 9:0.668889 
0.04365978754535889 1:-0.470354 2:0.337438 3:0.345371 4:0.700521 5:0.498881 6:0.501193 7:0.822324 8:0.039119 9:0.669044 
0.04422193330937598 1:-0.353402 2:0.300152 3:0.345318 4:0.724587 5:0.498588 6:0.50165 7:0.822405 8:0.037385 9:0.669133 
0.0427894187188095 1:-0.239668 2:0.261089 3:0.345357 4:0.748584 5:0.498235 6:0.502127 7:0.822243 8:0.035529 9:0.669222 
0.03982065486914788 1:-0.133275 2:0.221893 3:0.34546 4:0.771997 5:0.497818 6:0.502608 7:0.821838 8:0.033548 9:0.669178 
0.03640758364163277 1:-0.037484 2:0.184143 3:0.345583 4:0.794438 5:0.497334 6:0.503067 7:0.821351 8:0.031567 9:0.669022 
0.03033498331263535 1:0.04581 2:0.149072 3:0.345636 4:0.815898 5:0.49678 6:0.503481 7:0.820892 8:0.029463 9:0.667867 
0.02966928260431225 1:0.115829 2:0.117694 3:0.345649 4:0.836332 5:0.496143 6:0.503393 7:0.820378 8:0.026739 9:0.665156 
0.01488248235524356 1:0.172545 2:0.090582 3:0.345729 4:0.855649 5:0.495411 6:0.503018 7:0.819811 8:0.023892 9:0.664289 
0.02826453783179531 1:0.216625 2:0.067893 3:0.345885 4:0.873709 5:0.494583 6:0.502507 7:0.819162 8:0.021169 9:0.663733 
0.004031014486011361 1:0.24893 2:0.049595 3:0.346147 4:0.890329 5:0.493664 6:0.501921 7:0.818432 8:0.018569 9:0.663444 
0.02599682153590983 1:0.268741 2:0.013349 3:0.34797 4:0.945671 5:0.487831 6:0.499854 7:0.81373 8:0.006685 9:0.6656 
0.01064258893026375 1:0.264766 2:0.017894 3:0.348225 4:0.950761 5:0.486426 6:0.499701 7:0.812811 8:0.00458 9:0.666044 
0.02468101535989087 1:0.332718 2:0.072282 3:0.348803 4:0.954934 5:0.481823 6:0.501319 7:0.810189 8:-0.000743 9:0.670156 
0.02407005434337678 1:0.386721 2:0.104605 3:0.349032 4:0.952719 5:0.480177 6:0.501859 7:0.809297 8:-0.002228 9:0.6688 
0.03052186385264492 1:0.452609 2:0.142516 3:0.349305 4:0.948657 5:0.478492 6:0.502184 7:0.808405 8:-0.002971 9:0.667933 
0.03160019766809843 1:0.525923 2:0.184681 3:0.349548 4:0.942699 5:0.476789 6:0.50228 7:0.807486 8:-0.003219 9:0.666444 
0.03297558358975294 1:0.601839 2:0.229548 3:0.349793 4:0.93478 5:0.475088 6:0.502156 7:0.806513 8:-0.002971 9:0.665489 
0.03059274113020176 1:0.676009 2:0.275339 3:0.350039 4:0.924813 5:0.473404 6:0.501821 7:0.805514 8:-0.002228 9:0.664489 
0.03034259972491792 1:0.744795 2:0.320289 3:0.350116 4:0.912744 5:0.471753 6:0.501366 7:0.804514 8:-0.001114 9:0.664044 
0.02401263477818436 1:0.805729 2:0.362947 3:0.350138 4:0.898554 5:0.470146 6:0.500837 7:0.803486 8:0.000371 9:0.663756 
0.02602354519653607 1:0.857395 2:0.402143 3:0.350122 4:0.882253 5:0.468592 6:0.500274 7:0.802459 8:0.002104 9:0.663689 
0.01371384984322028 1:0.898763 2:0.437082 3:0.349998 4:0.863863 5:0.4671 6:0.499708 7:0.801486 8:0.003961 9:0.663689 
0.02389997448186183 1:0.92923 2:0.467287 3:0.349875 4:0.843442 5:0.465676 6:0.499153 7:0.800514 8:0.006066 9:0.663778 
0.02504261326709949 1:0.957652 2:0.513274 3:0.349522 4:0.796607 5:0.463054 6:0.498132 7:0.798595 8:0.010646 9:0.664222 
0.02339477033159847 1:0.945096 2:0.541338 3:0.349155 4:0.741972 5:0.46077 6:0.497273 7:0.796811 8:0.015969 9:0.6646 
0.02896475953474893 1:0.900823 2:0.553914 3:0.348967 4:0.680571 5:0.458853 6:0.496693 7:0.795351 8:0.021416 9:0.665622 
0.007950028644276125 1:0.870491 2:0.555947 3:0.348951 4:0.64775 5:0.458034 6:0.496523 7:0.79473 8:0.02414 9:0.665889 
0.02431698302068097 1:0.833182 2:0.557217 3:0.349047 4:0.613744 5:0.457307 6:0.496394 7:0.794216 8:0.026739 9:0.666133 
0.02276752694692495 1:0.784939 2:0.560155 3:0.349164 4:0.578798 5:0.456674 6:0.496318 7:0.793838 8:0.02971 9:0.666356 
0.02924404478818388 1:0.722146 2:0.56689 3:0.349299 4:0.543158 5:0.456144 6:0.496283 7:0.793568 8:0.032805 9:0.666733 
0.03471572706248016 1:0.643293 2:0.578742 3:0.349399 4:0.507096 5:0.455727 6:0.496344 7:0.793432 8:0.036271 9:0.667133 
0.03915224491198144 1:0.549523 2:0.5961 3:0.349514 4:0.470869 5:0.455428 6:0.496443 7:0.793432 8:0.039861 9:0.667178 
0.04219015748328778 1:0.444182 2:0.618681 3:0.349594 4:0.434891 5:0.455252 6:0.496548 7:0.793649 8:0.043451 9:0.667333 
0.04313284462247353 1:0.332041 2:0.64566 3:0.349667 4:0.399447 5:0.455202 6:0.496702 7:0.793919 8:0.047165 9:0.6676 
0.04362087636252009 1:0.217943 2:0.675933 3:0.349718 4:0.364723 5:0.45528 6:0.4969 7:0.794351 8:0.051003 9:0.6678 
0.04243801631340607 1:0.106469 2:0.708352 3:0.349755 4:0.331058 5:0.455491 6:0.497128 7:0.794919 8:0.054964 9:0.667933 
0.03995887944106152 1:0.001614 2:0.741791 3:0.349755 4:0.298562 5:0.455841 6:0.497375 7:0.795486 8:0.059173 9:0.668 
0.03602738104123181 1:-0.093549 2:0.775025 3:0.349663 4:0.267321 5:0.456332 6:0.497632 7:0.796108 8:0.063258 9:0.668044 
0.03237311996757474 1:-0.177046 2:0.806869 3:0.349559 4:0.237471 5:0.456964 6:0.497896 7:0.796838 8:0.067343 9:0.668111 
0.02692595086650476 1:-0.247998 2:0.83635 3:0.349394 4:0.209154 5:0.457735 6:0.498175 7:0.797595 8:0.071429 9:0.668178 
0.0236134235928572 1:-0.306191 2:0.862844 3:0.349211 4:0.182503 5:0.458646 6:0.498474 7:0.798432 8:0.075514 9:0.668356 
0.01855550130912078 1:-0.351923 2:0.885985 3:0.349023 4:0.157652 5:0.459693 6:0.498818 7:0.799324 8:0.079475 9:0.6686 
0.01610331595268127 1:-0.385595 2:0.905688 3:0.34884 4:0.134717 5:0.460873 6:0.499209 7:0.80027 8:0.083313 9:0.668822 
0.0437064973361711 1:-0.419016 2:0.945724 3:0.348324 4:0.078048 5:0.465169 6:0.500504 7:0.803216 8:0.094083 9:0.669111 
0.3540586916852625 1:0.080179 2:0.361403 3:0.3455 4:0.271178 5:0.504263 6:0.562292 7:0.806216 8:0.056202 9:0.649378 
0.3007766696779182 1:-0.022496 2:0.350501 3:0.344886 4:0.261678 5:0.504574 6:0.558543 7:0.806324 8:0.055707 9:0.644644 
0.02037916884158206 1:-0.233063 2:0.329392 3:0.344364 4:0.244177 5:0.505129 6:0.548966 7:0.807 8:0.054098 9:0.639178 
0.01825297307215089 1:-0.32103 2:0.320664 3:0.344352 4:0.236673 5:0.505359 6:0.543659 7:0.807432 8:0.052983 9:0.638333 
0.004982695542608298 1:-0.387282 2:0.314165 3:0.344349 4:0.230082 5:0.505553 6:0.538273 7:0.807865 8:0.051993 9:0.6384 
0.04329289073084264 1:-0.44648 2:0.309053 3:0.344433 4:0.21972 5:0.505837 6:0.527818 7:0.808784 8:0.049889 9:0.640067 
0.007203533437151749 1:-0.389184 2:0.317842 3:0.344584 4:0.211188 5:0.506015 6:0.513995 7:0.810081 8:0.047165 9:0.644867 
0.05304634196094423 1:-0.229402 2:0.395156 3:0.347989 4:0.215004 5:0.485051 6:0.500377 7:0.953405 8:1.166749 9:0.662378 
0.04585994323382277 1:-0.081176 2:-0.050791 3:0.347722 4:0.333154 5:0.500027 6:0.500251 7:0.810649 8:0.048032 9:0.669156 
0.0112132390623211 1:-0.052098 2:0.026224 3:0.347061 4:0.328287 5:0.500312 6:0.507107 7:0.810081 8:0.048155 9:0.677089 
0.02937117948483191 1:-0.045679 2:0.066208 3:0.346987 4:0.32666 5:0.500355 6:0.509157 7:0.81 8:0.048032 9:0.677733 
0.03612069216551975 1:-0.038193 2:0.160991 3:0.34696 4:0.323078 5:0.50043 6:0.513236 7:0.809919 8:0.047784 9:0.676933 
0.0106764287188599 1:-0.036671 2:0.211111 3:0.346992 4:0.321219 5:0.500461 6:0.515104 7:0.809919 8:0.04766 9:0.676067 
0.01469779517610647 1:-0.040996 2:0.349048 3:0.34738 4:0.315703 5:0.500553 6:0.519701 7:0.809946 8:0.047784 9:0.673133 
1 1:-0.045919 2:0.386748 3:0.347463 4:0.313957 5:0.500587 6:0.520854 7:0.81 8:0.047784 9:0.6724 
1 1:-0.052199 2:0.419133 3:0.347518 4:0.312283 5:0.500624 6:0.521856 7:0.810027 8:0.047908 9:0.671489 
1 1:-0.059527 2:0.445922 3:0.347568 4:0.3107 5:0.500665 6:0.522709 7:0.810081 8:0.048032 9:0.6708 
0.7018484499941838 1:-0.067541 2:0.467069 3:0.347589 4:0.309207 5:0.500711 6:0.523408 7:0.810108 8:0.048155 9:0.669867 
1 1:-0.078253 2:0.460881 3:0.346566 4:0.307679 5:0.501024 6:0.523564 7:0.811486 8:0.045432 9:0.665289 
1 1:-0.062966 2:0.460928 3:0.341046 4:0.309114 5:0.500974 6:0.523282 7:0.811513 8:0.045308 9:0.665111 
1 1:-0.043113 2:0.464912 3:0.330357 4:0.31064 5:0.500926 6:0.523033 7:0.811568 8:0.045432 9:0.665356 
0.1820294282946225 1:-0.018957 2:0.472667 3:0.31547 4:0.312229 5:0.500887 6:0.522708 7:0.811595 8:0.045803 9:0.664622 
0.02114075789799434 1:0.058624 2:0.471712 3:0.181901 4:0.339106 5:0.501125 6:0.51595 7:0.812919 8:0.048155 9:0.660111 
0.009128109037349197 1:0.078237 2:0.464354 3:0.175668 4:0.343587 5:0.501172 6:0.51462 7:0.813 8:0.048155 9:0.659244 
0.02190116931259512 1:0.131271 2:0.451171 3:0.167619 4:0.352822 5:0.501268 6:0.511537 7:0.813054 8:0.048155 9:0.657978 
0.02263442371217157 1:0.193768 2:0.439142 3:0.163948 4:0.361966 5:0.501355 6:0.50804 7:0.812946 8:0.048032 9:0.656911 
0.007550481685092552 1:0.224827 2:0.433342 3:0.163229 4:0.366288 5:0.501393 6:0.506216 7:0.812838 8:0.047784 9:0.657311 
0.02767878153570827 1:0.278663 2:0.422352 3:0.163151 4:0.374273 5:0.501447 6:0.502908 7:0.812622 8:0.047413 9:0.658711 
0.002824182463568743 1:0.340382 2:0.40344 3:0.165716 4:0.391491 5:0.501429 6:0.497023 7:0.812378 8:0.045927 9:0.662644 
0.01850638099175632 1:0.344545 2:0.402081 3:0.166197 4:0.39471 5:0.501396 6:0.496203 7:0.812351 8:0.04568 9:0.662422 
0.01805813123234364 1:0.386218 2:0.414982 3:0.167908 4:0.418537 5:0.501062 6:0.495547 7:0.812703 8:0.045803 9:0.669667 
0.0009064040648698077 1:0.422655 2:0.421631 3:0.16792 4:0.426519 5:0.50102 6:0.496682 7:0.81273 8:0.04667 9:0.669711 
0.02069695826472243 1:0.445155 2:0.424015 3:0.167878 4:0.430467 5:0.501024 6:0.497252 7:0.812676 8:0.047165 9:0.669578 
0.04138631845626177 1:0.544166 2:0.418757 3:0.16834 4:0.447418 5:0.501413 6:0.49891 7:0.811486 8:0.050012 9:0.667533 
0.00213739113508289 1:0.54438 2:0.416037 3:0.168553 4:0.44854 5:0.501527 6:0.499102 7:0.811216 8:0.05026 9:0.667711 
0.02558313634524257 1:0.481161 2:0.409106 3:0.259545 4:0.440578 5:0.502499 6:0.496961 7:0.809622 8:0.048898 9:0.663 
0.0008237562301273142 1:0.471563 2:0.410378 3:0.273611 4:0.437889 5:0.502567 6:0.496203 7:0.809432 8:0.048651 9:0.662356 
0.02441153361144293 1:0.432143 2:0.41101 3:0.308554 4:0.427701 5:0.502717 6:0.493321 7:0.808946 8:0.047784 9:0.661 
0.005774748081901862 1:0.399454 2:0.408002 3:0.324922 4:0.419527 5:0.502766 6:0.491069 7:0.80873 8:0.047165 9:0.660533 
0.004346919532658468 1:0.382712 2:0.405703 3:0.331164 4:0.415122 5:0.502772 6:0.489891 7:0.808649 8:0.046794 9:0.660444 
0.002956405868860743 1:0.350082 2:0.400651 3:0.340138 4:0.405809 5:0.502728 6:0.487483 7:0.808514 8:0.045432 9:0.660156 
0.02451706883539115 1:0.334721 2:0.398832 3:0.343199 4:0.400978 5:0.502669 6:0.485943 7:0.808459 8:0.044689 9:0.6568 
0.002079737944745909 1:0.30677 2:0.399253 3:0.347111 4:0.391144 5:0.502468 6:0.482647 7:0.808432 8:0.04308 9:0.659222 
0.001623216207634256 1:0.294179 2:0.402277 3:0.348189 4:0.386163 5:0.50233 6:0.481337 7:0.808405 8:0.042461 9:0.6602 
0.01765269875275929 1:0.25898 2:0.422821 3:0.349496 4:0.370988 5:0.501809 6:0.477341 7:0.808351 8:0.041223 9:0.660444 
0.02132729315162257 1:0.220945 2:0.45026 3:0.34943 4:0.355692 5:0.50123 6:0.475496 7:0.808378 8:0.041223 9:0.665533 
0.004837213642357922 1:0.15402 2:0.529615 3:0.435039 4:0.287171 5:0.497674 6:0.471358 7:0.809919 8:0.045432 9:0.662311 
0.01284278912908632 1:0.138167 2:0.529347 3:0.470053 4:0.28549 5:0.497642 6:0.470803 7:0.810081 8:0.046299 9:0.665111 
0.03685719500844794 1:0.108219 2:0.506565 3:0.542664 4:0.282868 5:0.497804 6:0.473488 7:0.810973 8:0.049393 9:0.674822 
0.02368418444634096 1:0.180416 2:0.462102 3:0.550538 4:0.287323 5:0.498263 6:0.481591 7:0.811595 8:0.050755 9:0.679178 
0.0008181040349365738 1:0.204257 2:0.450941 3:0.548284 4:0.288993 5:0.498402 6:0.484003 7:0.811622 8:0.051003 9:0.679489 
0.03402948965336695 1:0.256204 2:0.410013 3:0.536416 4:0.295284 5:0.499036 6:0.49374 7:0.811486 8:0.051745 9:0.678778 
0.01085336387639923 1:0.238191 2:0.364632 3:0.526744 4:0.301558 5:0.500075 6:0.504323 7:0.811108 8:0.051869 9:0.672933 
0.02473103134840967 1:0.144892 2:0.339467 3:0.527539 4:0.303449 5:0.501727 6:0.507547 7:0.810919 8:0.050879 9:0.665156 
0.02732905296104894 1:0.174394 2:0.307501 3:0.527927 4:0.305186 5:0.502246 6:0.505557 7:0.810973 8:0.048527 9:0.664311 
0.005563515300789907 1:-0.02921 2:0.502657 3:0.347783 4:0.334419 5:0.499991 6:0.5 7:0.810838 8:0.046794 9:0.666667 
1 1:-0.028288 2:0.502505 3:0.347757 4:0.33449 5:0.499992 6:0.5 7:0.810838 8:0.046794 9:0.666667 
1 1:-0.027304 2:0.502359 3:0.347723 4:0.334557 5:0.499994 6:0.5 7:0.810838 8:0.046794 9:0.666667 
1 1:-0.026231 2:0.502205 3:0.347708 4:0.334621 5:0.499995 6:0.5 7:0.810838 8:0.046794 9:0.666667 
1 1:-0.025083 2:0.502036 3:0.347704 4:0.334682 5:0.499997 6:0.5 7:0.810838 8:0.046794 9:0.666667 
1 1:-0.023899 2:0.501857 3:0.34772 4:0.334738 5:0.499998 6:0.5 7:0.810838 8:0.046794 9:0.666667 
1 1:-0.02271 2:0.501671 3:0.347741 4:0.334788 5:0.5 6:0.5 7:0.810838 8:0.046794 9:0.666667 
1 1:-0.021546 2:0.50149 3:0.347767 4:0.334834 5:0.500002 6:0.5 7:0.810838 8:0.046794 9:0.666667 
1 1:-0.020426 2:0.501324 3:0.347789 4:0.334878 5:0.500003 6:0.5 7:0.810838 8:0.046794 9:0.666667 
1 1:-0.019346 2:0.501181 3:0.347786 4:0.334918 5:0.500005 6:0.5 7:0.810838 8:0.046794 9:0.666667 
1 1:-0.018305 2:0.501056 3:0.347773 4:0.334952 5:0.500007 6:0.5 7:0.810838 8:0.046794 9:0.666667 
0.09278759438976956 1:-0.017292 2:0.50095 3:0.34775 4:0.334984 5:0.500008 6:0.5 7:0.810838 8:0.046794 9:0.666667 
0.0287610570208946 1:-0.301 2:0.330947 3:0.344847 4:0.2097 5:0.505989 6:0.506506 7:0.810811 8:0.04568 9:0.649022 
0.1148440929566753 1:-0.118732 2:0.36069 3:0.345886 4:0.214313 5:0.505684 6:0.49623 7:0.811811 8:0.043575 9:0.657222 
1 1:-0.0807 2:0.367225 3:0.346212 4:0.216583 5:0.505568 6:0.494644 7:0.811973 8:0.043204 9:0.6594 
1 1:-0.056469 2:0.506604 3:0.347964 4:0.375103 5:0.498367 6:0.499352 7:0.810568 8:0.049889 9:0.668533 
1 1:-0.058538 2:0.505088 3:0.347983 4:0.374628 5:0.498473 6:0.499664 7:0.810595 8:0.049889 9:0.668067 
1 1:-0.059796 2:0.503552 3:0.347927 4:0.374212 5:0.498578 6:0.499896 7:0.810622 8:0.049889 9:0.667667 
1 1:-0.061097 2:0.502108 3:0.347935 4:0.373871 5:0.498682 6:0.500029 7:0.810676 8:0.049765 9:0.667067 
1 1:-0.066627 2:0.500943 3:0.347842 4:0.373634 5:0.498785 6:0.50005 7:0.81073 8:0.049765 9:0.666489 
1 1:-0.082499 2:0.500273 3:0.347779 4:0.373521 5:0.498885 6:0.499954 7:0.810784 8:0.049765 9:0.665756 
1 1:-0.113967 2:0.50014 3:0.347685 4:0.373548 5:0.498984 6:0.499713 7:0.810865 8:0.049641 9:0.665222 
0.04176572989164863 1:-0.318796 2:0.500965 3:0.347475 4:0.375486 5:0.499273 6:0.498835 7:0.811513 8:0.049517 9:0.665511 
0.03288987042816535 1:-0.412825 2:0.500709 3:0.347415 4:0.377331 5:0.499365 6:0.498598 7:0.811892 8:0.049393 9:0.665022 
0.03543963490824599 1:-0.509838 2:0.500164 3:0.347374 4:0.380016 5:0.499452 6:0.498308 7:0.812324 8:0.04927 9:0.665578 
0.03333848428434456 1:-0.604741 2:0.499452 3:0.34729 4:0.383689 5:0.499533 6:0.498197 7:0.812838 8:0.049022 9:0.666556 
0.03146372289395355 1:-0.693659 2:0.498619 3:0.347205 4:0.388492 5:0.499607 6:0.498283 7:0.813405 8:0.048898 9:0.667711 
0.02606367759315713 1:-0.773691 2:0.497581 3:0.347067 4:0.394518 5:0.499675 6:0.498657 7:0.814 8:0.048651 9:0.669311 
0.02527904573939935 1:-0.8428 2:0.496193 3:0.346992 4:0.401817 5:0.499736 6:0.499188 7:0.814649 8:0.048527 9:0.669533 
0.01600901953233363 1:-0.900195 2:0.494264 3:0.3469 4:0.410507 5:0.49979 6:0.499729 7:0.815324 8:0.048279 9:0.669533 
0.02169238246453706 1:-0.945638 2:0.49168 3:0.346874 4:0.420656 5:0.499836 6:0.500273 7:0.816054 8:0.048032 9:0.669511 
0.03188563583994583 1:-1.017162 2:0.480599 3:0.346959 4:0.45982 5:0.499916 6:0.500719 7:0.818054 8:0.047041 9:0.665333 
0.01383254237679601 1:-1.005921 2:0.46827 3:0.346878 4:0.52829 5:0.499851 6:0.499569 7:0.819757 8:0.045556 9:0.665911 
0.01304913075751051 1:-0.989811 2:0.466143 3:0.346817 4:0.547343 5:0.499802 6:0.499468 7:0.820216 8:0.045184 9:0.666444 
0.007269501976063172 1:-0.964143 2:0.462426 3:0.346785 4:0.567392 5:0.49974 6:0.499481 7:0.820676 8:0.044689 9:0.666978 
0.02324910654074553 1:-0.923963 2:0.455209 3:0.346616 4:0.588296 5:0.499661 6:0.499571 7:0.821 8:0.044194 9:0.667311 
-1 1:-0.04739 2:0.373458 3:0.346479 4:0.219146 5:0.50544 6:0.493462 7:0.812108 8:0.042832 9:0.661489 
-0.5640496404495601 1:-0.019091 2:0.379442 3:0.346706 4:0.221943 5:0.5053 6:0.492655 7:0.812189 8:0.042585 9:0.663178 
-0.1206094632334105 1:0.044235 2:0.399441 3:0.347224 4:0.234386 5:0.504669 6:0.492256 7:0.812351 8:0.041966 9:0.669156 
-1 1:0.047517 2:0.403111 3:0.347289 4:0.237593 5:0.504501 6:0.492773 7:0.812351 8:0.041842 9:0.669578 
-1 1:-0.072022 2:0.435978 3:0.347905 4:0.27984 5:0.502077 6:0.498145 7:0.812378 8:0.041471 9:0.668089 
-1 1:-0.07357 2:0.438 3:0.34791 4:0.283138 5:0.501896 6:0.498403 7:0.812405 8:0.041594 9:0.667978 
-1 1:-0.072051 2:0.439728 3:0.347966 4:0.286456 5:0.501719 6:0.498643 7:0.812405 8:0.041594 9:0.667889 
-1 1:-0.067176 2:0.441405 3:0.347994 4:0.289757 5:0.501545 6:0.498866 7:0.812378 8:0.041718 9:0.6678 
-1 1:-0.015588 2:0.456084 3:0.34796 4:0.31075 5:0.500483 6:0.500602 7:0.812108 8:0.042956 9:0.667311 
-1 1:-0.012845 2:0.457451 3:0.347894 4:0.313386 5:0.500357 6:0.500698 7:0.812054 8:0.043204 9:0.667067 
-1 1:-0.010722 2:0.458499 3:0.347859 4:0.315937 5:0.500236 6:0.500752 7:0.812027 8:0.043328 9:0.666778 
-1 1:-0.008587 2:0.459254 3:0.347813 4:0.31841 5:0.500119 6:0.500745 7:0.811973 8:0.043451 9:0.666489 
-1 1:-0.006183 2:0.459801 3:0.347765 4:0.320802 5:0.500005 6:0.500705 7:0.811946 8:0.043575 9:0.666356 
-1 1:-0.003622 2:0.460108 3:0.34777 4:0.323096 5:0.499895 6:0.500608 7:0.811892 8:0.043575 9:0.665956 
-1 1:-0.001531 2:0.460096 3:0.347762 4:0.325276 5:0.499788 6:0.500451 7:0.811838 8:0.043699 9:0.665822 
-1 1:-0.000796 2:0.459784 3:0.347842 4:0.327357 5:0.499684 6:0.500297 7:0.811784 8:0.043823 9:0.665844 
-1 1:-0.00182 2:0.459326 3:0.347933 4:0.329344 5:0.499582 6:0.500138 7:0.811757 8:0.043823 9:0.665778 
-1 1:-0.004512 2:0.458947 3:0.348038 4:0.331257 5:0.499481 6:0.499963 7:0.811703 8:0.043823 9:0.665733 
-1 1:-0.008283 2:0.458876 3:0.348213 4:0.333102 5:0.499381 6:0.499779 7:0.811676 8:0.043823 9:0.665644 
-0.02580825055017386 1:-0.030919 2:0.465456 3:0.348611 4:0.341282 5:0.498905 6:0.498777 7:0.811513 8:0.044194 9:0.665822 
-1 1:-0.03568 2:0.466659 3:0.348593 4:0.342743 5:0.49882 6:0.498653 7:0.811513 8:0.044318 9:0.666089 
-1 1:-0.040056 2:0.467167 3:0.348623 4:0.344161 5:0.498739 6:0.498566 7:0.811486 8:0.044442 9:0.666333 
-1 1:-0.043772 2:0.466872 3:0.348616 4:0.345546 5:0.498661 6:0.498511 7:0.811459 8:0.044565 9:0.6664 
-0.3094672110684265 1:-0.055948 2:0.493983 3:0.347465 4:0.368629 5:0.496805 6:0.503696 7:0.810865 8:0.045556 9:0.666644 
-1 1:-0.061159 2:0.497049 3:0.347548 4:0.368764 5:0.496765 6:0.503612 7:0.810892 8:0.04568 9:0.665733 
-1 1:-0.064771 2:0.500043 3:0.347634 4:0.368983 5:0.49673 6:0.503381 7:0.810946 8:0.045927 9:0.665267 
-1 1:-0.066799 2:0.502818 3:0.347675 4:0.369274 5:0.496703 6:0.503084 7:0.810973 8:0.046051 9:0.665 
-1 1:-0.067407 2:0.505303 3:0.347713 4:0.369631 5:0.496682 6:0.502772 7:0.811 8:0.046299 9:0.664978 
-1 1:-0.066722 2:0.5074 3:0.347779 4:0.370056 5:0.496667 6:0.502453 7:0.811027 8:0.046422 9:0.665111 
-1 1:-0.064813 2:0.509136 3:0.347801 4:0.370552 5:0.496658 6:0.502192 7:0.811054 8:0.04667 9:0.665378 
-1 1:-0.061792 2:0.510501 3:0.347844 4:0.371111 5:0.496657 6:0.501975 7:0.811108 8:0.046794 9:0.665867 
-1 1:-0.057444 2:0.511523 3:0.347905 4:0.371726 5:0.496661 6:0.501848 7:0.811108 8:0.047041 9:0.6658 
-1 1:-0.051703 2:0.512164 3:0.347966 4:0.372374 5:0.496671 6:0.501641 7:0.811135 8:0.047165 9:0.665378 
-1 1:-0.014941 2:0.510798 3:0.348232 4:0.375872 5:0.496847 6:0.50028 7:0.811 8:0.048032 9:0.668911 
-1 1:-0.013393 2:0.510709 3:0.348171 4:0.376251 5:0.496893 6:0.501192 7:0.810973 8:0.048279 9:0.671067 
-1 1:-0.012691 2:0.510758 3:0.348082 4:0.376588 5:0.496945 6:0.501725 7:0.810973 8:0.048403 9:0.667978 
-1 1:-0.012234 2:0.510965 3:0.348025 4:0.376902 5:0.497001 6:0.50172 7:0.810946 8:0.048527 9:0.665422 
-0.8485385627564044 1:-0.012033 2:0.511241 3:0.34799 4:0.377192 5:0.497063 6:0.501328 7:0.810946 8:0.048651 9:0.663867 
