svm_type c_svc
kernel_type rbf
gamma 322
nr_class 2
total_sv 564
rho -0.769104
label 0 1
nr_sv 415 149
SV
1 1:0.524928 2:0.439405 3:0.193943 4:0.237549 5:0.439405 6:0.439405 7:0.505564 8:0.411231 9:0.586621 
1 1:0.524783 2:0.439842 3:0.194381 4:0.237508 5:0.439842 6:0.439842 7:0.505564 8:0.411231 9:0.58659 
1 1:0.524689 2:0.440267 3:0.194698 4:0.237462 5:0.440267 6:0.440267 7:0.505564 8:0.411231 9:0.58659 
1 1:0.524671 2:0.440686 3:0.194726 4:0.237402 5:0.440686 6:0.440686 7:0.505564 8:0.411231 9:0.586558 
1 1:0.52464 2:0.441058 3:0.19444 4:0.237333 5:0.441058 6:0.441058 7:0.505564 8:0.411231 9:0.586496 
1 1:0.524602 2:0.44138 3:0.194137 4:0.237247 5:0.44138 6:0.44138 7:0.505564 8:0.411231 9:0.586464 
1 1:0.524547 2:0.441559 3:0.19381 4:0.237154 5:0.441559 6:0.441559 7:0.505564 8:0.411231 9:0.586401 
1 1:0.524538 2:0.441788 3:0.1937 4:0.23706 5:0.441788 6:0.441788 7:0.505564 8:0.411231 9:0.58637 
1 1:0.524543 2:0.442039 3:0.193848 4:0.236955 5:0.442039 6:0.442039 7:0.505442 8:0.411231 9:0.586307 
1 1:0.524322 2:0.441983 3:0.194038 4:0.236841 5:0.441983 6:0.441983 7:0.505442 8:0.411231 9:0.586244 
1 1:0.523712 2:0.441523 3:0.19403 4:0.236726 5:0.441523 6:0.441523 7:0.505442 8:0.411231 9:0.586181 
0.3689084965046224 1:0.517826 2:0.416892 3:0.19437 4:0.236359 5:0.416892 6:0.416892 7:0.505687 8:0.41102 9:0.586024 
1 1:0.515783 2:0.402943 3:0.194871 4:0.236373 5:0.402943 6:0.402943 7:0.505809 8:0.41102 9:0.586055 
0.9767626785081607 1:0.502034 2:0.386487 3:0.199702 4:0.239667 5:0.386487 6:0.386487 7:0.505687 8:0.410809 9:0.587723 
0.2308581426718438 1:0.502057 2:0.417299 3:0.468707 4:0.239508 5:0.417299 6:0.417299 7:0.505075 8:0.410809 9:0.587565 
0.2307657226897528 1:0.501684 2:0.451722 3:0.764191 4:0.239068 5:0.451722 6:0.451722 7:0.504708 8:0.409542 9:0.527217 
0.2262620662097216 1:0.500534 2:0.487132 3:0.931186 4:0.238326 5:0.487132 6:0.487132 7:0.503975 8:0.406798 9:0.459285 
0.1970417370769842 1:0.499719 2:0.520671 3:1 4:0.237125 5:0.520671 6:0.520671 7:0.503119 8:0.40342 9:0.398811 
0.1779397587062523 1:0.500799 2:0.550231 3:0.997413 4:0.235388 5:0.550231 6:0.550231 7:0.50214 8:0.400887 9:0.343685 
0.2032152547640491 1:0.505194 2:0.574355 3:0.946273 4:0.233108 5:0.574355 6:0.574355 7:0.501162 8:0.400253 9:0.292272 
0.2178355721066386 1:0.513371 2:0.592056 3:0.865057 4:0.230401 5:0.592056 6:0.592056 7:0.50055 8:0.402575 9:0.244038 
0.2219622742398151 1:0.523692 2:0.603314 3:0.76811 4:0.227382 5:0.603314 6:0.603314 7:0.500061 8:0.405953 9:0.199358 
0.2206782224413195 1:0.532807 2:0.608851 3:0.666396 4:0.224113 5:0.608851 6:0.608851 7:0.499694 8:0.409542 9:0.158549 
0.2148143695090199 1:0.537285 2:0.609598 3:0.567718 4:0.220649 5:0.609598 6:0.609598 7:0.499327 8:0.412497 9:0.121767 
0.2026940347434844 1:0.535114 2:0.606565 3:0.477272 4:0.216962 5:0.606565 6:0.606565 7:0.498838 8:0.414397 9:0.088635 
0.1832395703953728 1:0.526174 2:0.600596 3:0.39812 4:0.213007 5:0.600596 6:0.600596 7:0.498349 8:0.415664 9:0.060128 
0.1580598350679069 1:0.511838 2:0.592068 3:0.331499 4:0.208765 5:0.592068 6:0.592068 7:0.49786 8:0.416508 9:0.037694 
0.1338343064979398 1:0.49428 2:0.580964 3:0.277604 4:0.204297 5:0.580964 6:0.580964 7:0.497615 8:0.417142 9:0.021962 
0.1126070775715475 1:0.475795 2:0.56722 3:0.23554 4:0.199673 5:0.56722 6:0.56722 7:0.497248 8:0.417564 9:0.013215 
0.1036093355964454 1:0.458226 2:0.550882 3:0.204145 4:0.194792 5:0.550882 6:0.550882 7:0.496637 8:0.417353 9:0.010981 
0.09769261281676946 1:0.442929 2:0.532012 3:0.181961 4:0.189375 5:0.532012 6:0.532012 7:0.495414 8:0.416931 9:0.015071 
0.1065590200306001 1:0.431038 2:0.510462 3:0.167411 4:0.18321 5:0.510462 6:0.510462 7:0.493946 8:0.416086 9:0.025706 
0.1173522045983962 1:0.423344 2:0.485902 3:0.158975 4:0.176166 5:0.485902 6:0.485902 7:0.492357 8:0.414608 9:0.042414 
0.1345324465688942 1:0.420415 2:0.458157 3:0.155259 4:0.168367 5:0.458157 6:0.458157 7:0.491378 8:0.41292 9:0.065005 
0.1487959467334998 1:0.42257 2:0.427324 3:0.155008 4:0.160191 5:0.427324 6:0.427324 7:0.491134 8:0.411231 9:0.092631 
0.1583835301255092 1:0.429831 2:0.394551 3:0.157162 4:0.152055 5:0.394551 6:0.394551 7:0.491378 8:0.409542 9:0.124725 
0.1590281815095712 1:0.441842 2:0.361944 3:0.160861 4:0.144168 5:0.361944 6:0.361944 7:0.49199 8:0.407853 9:0.160342 
0.1539630790145193 1:0.45787 2:0.331727 3:0.165383 4:0.13674 5:0.331727 6:0.331727 7:0.492968 8:0.406586 9:0.19854 
0.1412077740522201 1:0.476805 2:0.305805 3:0.17022 4:0.129946 5:0.305805 6:0.305805 7:0.494191 8:0.405531 9:0.238311 
0.1276762737528889 1:0.49739 2:0.28562 3:0.175008 4:0.123888 5:0.28562 6:0.28562 7:0.495536 8:0.404687 9:0.278302 
0.1130623207707749 1:0.518431 2:0.271906 3:0.179424 4:0.118605 5:0.271906 6:0.271906 7:0.497004 8:0.404264 9:0.318262 
0.1029675010377036 1:0.538813 2:0.264678 3:0.183286 4:0.114128 5:0.264678 6:0.264678 7:0.498471 8:0.404475 9:0.357215 
0.09231607423226204 1:0.557526 2:0.26346 3:0.186457 4:0.110513 5:0.26346 6:0.26346 7:0.500061 8:0.404687 9:0.394028 
0.0869413506619594 1:0.573713 2:0.267558 3:0.188976 4:0.107772 5:0.267558 6:0.267558 7:0.501529 8:0.40532 9:0.428324 
0.08999496037186791 1:0.586729 2:0.276217 3:0.19089 4:0.105859 5:0.276217 6:0.276217 7:0.502996 8:0.406164 9:0.459694 
0.07601690204930697 1:0.596189 2:0.288557 3:0.192295 4:0.104698 5:0.288557 6:0.288557 7:0.504219 8:0.407009 9:0.487918 
0.09352377038127342 1:0.602023 2:0.303372 3:0.193355 4:0.104223 5:0.303372 6:0.303372 7:0.505442 8:0.407853 9:0.512649 
0.09248747568542141 1:0.604477 2:0.319296 3:0.194094 4:0.104367 5:0.319296 6:0.319296 7:0.50642 8:0.408697 9:0.533887 
0.0109870238619767 1:0.600991 2:0.350517 3:0.194839 4:0.106366 5:0.350517 6:0.350517 7:0.508377 8:0.410175 9:0.566075 
1 1:0.596203 2:0.364722 3:0.194908 4:0.108154 5:0.364722 6:0.364722 7:0.509355 8:0.410809 9:0.577119 
1 1:0.52712 2:0.447473 3:0.193259 4:0.28602 5:0.447473 6:0.447473 7:0.502752 8:0.410809 9:0.608804 
1 1:0.525501 2:0.445305 3:0.193412 4:0.28434 5:0.445305 6:0.445305 7:0.502629 8:0.410597 9:0.607986 
1 1:0.524192 2:0.443719 3:0.193542 4:0.282621 5:0.443719 6:0.443719 7:0.502629 8:0.410386 9:0.607419 
1 1:0.523262 2:0.4417 3:0.193626 4:0.280885 5:0.4417 6:0.4417 7:0.502629 8:0.410386 9:0.606633 
1 1:0.522793 2:0.436948 3:0.193681 4:0.279186 5:0.436948 6:0.436948 7:0.502752 8:0.410175 9:0.605846 
1 1:0.522619 2:0.426786 3:0.193684 4:0.277571 5:0.426786 6:0.426786 7:0.502874 8:0.410386 9:0.605437 
1 1:0.522538 2:0.409356 3:0.193665 4:0.276102 5:0.409356 6:0.409356 7:0.503241 8:0.410597 9:0.605437 
1 1:0.522424 2:0.384003 3:0.193577 4:0.274858 5:0.384003 6:0.384003 7:0.50373 8:0.410597 9:0.60572 
1 1:0.522304 2:0.351148 3:0.193503 4:0.274007 5:0.351148 6:0.351148 7:0.504586 8:0.410597 9:0.605689 
0.06658644931760987 1:0.522308 2:0.31222 3:0.193475 4:0.273742 5:0.31222 6:0.31222 7:0.505809 8:0.410597 9:0.606066 
0.09545762110732481 1:0.52255 2:0.269354 3:0.193422 4:0.274235 5:0.269354 6:0.269354 7:0.507277 8:0.410597 9:0.606696 
0.1013149687888883 1:0.523077 2:0.224955 3:0.19344 4:0.275613 5:0.224955 6:0.224955 7:0.508989 8:0.410386 9:0.607671 
0.1023009614292 1:0.523741 2:0.18135 3:0.19345 4:0.278022 5:0.18135 6:0.18135 7:0.511068 8:0.410386 9:0.608678 
0.09488861896727685 1:0.524283 2:0.140454 3:0.193521 4:0.281716 5:0.140454 6:0.140454 7:0.513514 8:0.410386 9:0.608835 
0.08464590215329404 1:0.524503 2:0.103662 3:0.193623 4:0.28695 5:0.103662 6:0.103662 7:0.516449 8:0.410175 9:0.61151 
0.07450595918042106 1:0.524383 2:0.071954 3:0.193709 4:0.293945 5:0.071954 6:0.071954 7:0.519751 8:0.410175 9:0.615789 
0.07573192444901311 1:0.52401 2:0.045904 3:0.193779 4:0.30285 5:0.045904 6:0.045904 7:0.523297 8:0.409964 9:0.621736 
0.04395455771214179 1:0.523411 2:0.025787 3:0.193838 4:0.313823 5:0.025787 6:0.025787 7:0.527088 8:0.409542 9:0.629224 
0.0685512809610222 1:0.522796 2:0.011631 3:0.193931 4:0.326966 5:0.011631 6:0.011631 7:0.531002 8:0.409331 9:0.638191 
0.01667045956364187 1:0.522391 2:0.003219 3:0.194018 4:0.342293 5:0.003219 6:0.003219 7:0.534915 8:0.40912 9:0.647945 
0.09583807396720863 1:0.522294 2:0 3:0.194096 4:0.359695 5:0 6:0 7:0.538339 8:0.408697 9:0.658769 
0.0005963435413825635 1:0.522481 2:0.001026 3:0.194144 4:0.378999 5:0.001026 6:0.001026 7:0.541641 8:0.408486 9:0.670914 
0.07055688716834912 1:0.523001 2:0.005249 3:0.194098 4:0.399989 5:0.005249 6:0.005249 7:0.544332 8:0.408486 9:0.683437 
0.0106170618643916 1:0.524027 2:0.011824 3:0.194024 4:0.422403 5:0.011824 6:0.011824 7:0.546655 8:0.408697 9:0.697093 
0.05566972009621424 1:0.525558 2:0.020074 3:0.193965 4:0.445914 5:0.020074 6:0.020074 7:0.548367 8:0.408909 9:0.711378 
0.09547296191107414 1:0.526733 2:0.041969 3:0.193859 4:0.496303 5:0.041969 6:0.041969 7:0.553137 8:0.409331 9:0.739853 
0.1100397308667942 1:0.522823 2:0.058664 3:0.193669 4:0.523827 5:0.058664 6:0.058664 7:0.556072 8:0.409542 9:0.754798 
0.1374136252836733 1:0.513458 2:0.081759 3:0.193397 4:0.552937 5:0.081759 6:0.081759 7:0.558762 8:0.409331 9:0.770342 
0.1657874686025415 1:0.497358 2:0.11197 3:0.193116 4:0.583381 5:0.11197 6:0.11197 7:0.560719 8:0.408909 9:0.786609 
0.1872630221756494 1:0.474197 2:0.148863 3:0.192836 4:0.614661 5:0.148863 6:0.148863 7:0.56182 8:0.408064 9:0.80253 
0.201854054213661 1:0.444429 2:0.191171 3:0.192486 4:0.646247 5:0.191171 6:0.191171 7:0.56182 8:0.406798 9:0.817947 
0.2098733938852871 1:0.40919 2:0.237287 3:0.192179 4:0.677489 5:0.237287 6:0.237287 7:0.560719 8:0.404687 9:0.83261 
0.2115067715598458 1:0.370005 2:0.285271 3:0.192001 4:0.707888 5:0.285271 6:0.285271 7:0.558762 8:0.402364 9:0.846013 
0.2106180532712116 1:0.328454 2:0.333242 3:0.192012 4:0.737118 5:0.333242 6:0.333242 7:0.556683 8:0.39962 9:0.858285 
0.2056925443276131 1:0.286057 2:0.379456 3:0.192094 4:0.765204 5:0.379456 6:0.379456 7:0.554727 8:0.396453 9:0.870115 
0.1964249003589695 1:0.244212 2:0.422463 3:0.19224 4:0.792255 5:0.422463 6:0.422463 7:0.552892 8:0.392865 9:0.881411 
0.1811875569206198 1:0.204171 2:0.461011 3:0.192541 4:0.818276 5:0.461011 6:0.461011 7:0.550936 8:0.389065 9:0.893273 
0.1622057706637786 1:0.166756 2:0.49419 3:0.192872 4:0.843121 5:0.49419 6:0.49419 7:0.548734 8:0.384843 9:0.905229 
0.1372533206240351 1:0.132533 2:0.521529 3:0.193192 4:0.866587 5:0.521529 6:0.521529 7:0.546044 8:0.38041 9:0.91706 
0.1178993937089749 1:0.101955 2:0.542771 3:0.193472 4:0.888473 5:0.542771 6:0.542771 7:0.543109 8:0.375765 9:0.928576 
0.08294827198970982 1:0.075417 2:0.558026 3:0.193771 4:0.908622 5:0.558026 6:0.558026 7:0.539929 8:0.371121 9:0.937889 
0.09164664636632591 1:0.053028 2:0.567914 3:0.19402 4:0.926859 5:0.567914 6:0.567914 7:0.536383 8:0.366054 9:0.945409 
0.01682058174053012 1:0.034633 2:0.573235 3:0.194241 4:0.943082 5:0.573235 6:0.573235 7:0.532714 8:0.360988 9:0.953968 
0.1054396259349548 1:0.020147 2:0.574663 3:0.194375 4:0.957247 5:0.574663 6:0.574663 7:0.529045 8:0.355499 9:0.962903 
0.1032743007554242 1:0.001827 2:0.558906 3:0.194526 4:0.993752 5:0.558906 6:0.558906 7:0.514859 8:0.335444 9:0.992071 
0.06368499594657848 1:0.009615 2:0.557934 3:0.194365 4:0.997892 5:0.557934 6:0.557934 7:0.511312 8:0.331856 9:0.996759 
0.07054824446711506 1:0.047928 2:0.574126 3:0.19402 4:0.999944 5:0.574126 6:0.574126 7:0.503608 8:0.326156 9:1 
0.1280920648222657 1:0.078961 2:0.592989 3:0.193693 4:0.997579 5:0.592989 6:0.592989 7:0.499327 8:0.324256 9:0.998364 
0.154807642742665 1:0.116152 2:0.618847 3:0.186144 4:0.992863 5:0.618847 6:0.618847 7:0.495414 8:0.325734 9:0.994022 
0.1835261054767473 1:0.152721 2:0.65268 3:0.163801 4:0.986503 5:0.65268 6:0.65268 7:0.493457 8:0.3346 9:0.989302 
0.1977338295177072 1:0.18296 2:0.694213 3:0.133992 4:0.97934 5:0.694213 6:0.694213 7:0.492479 8:0.346 9:0.983922 
0.2011756812418453 1:0.20862 2:0.740012 3:0.104952 4:0.97163 5:0.740012 6:0.740012 7:0.491378 8:0.359299 9:0.978069 
0.1975039651470189 1:0.231164 2:0.787146 3:0.081673 4:0.96318 5:0.787146 6:0.787146 7:0.489788 8:0.373443 9:0.970833 
0.1881292515213958 1:0.25151 2:0.833056 3:0.067036 4:0.953552 5:0.833056 6:0.833056 7:0.48722 8:0.386743 9:0.962746 
0.1729838679836216 1:0.270303 2:0.875667 3:0.062242 4:0.942324 5:0.875667 6:0.875667 7:0.484041 8:0.398564 9:0.95381 
0.1562126330035851 1:0.288076 2:0.913357 3:0.067317 4:0.929169 5:0.913357 6:0.913357 7:0.480494 8:0.408909 9:0.944056 
0.1388865437796196 1:0.30534 2:0.945174 3:0.081556 4:0.913846 5:0.945174 6:0.945174 7:0.476336 8:0.417564 9:0.933233 
0.1273953166956003 1:0.322756 2:0.970397 3:0.103363 4:0.896156 5:0.970397 6:0.970397 7:0.472056 8:0.424953 9:0.921087 
0.1129953411604558 1:0.340737 2:0.988318 3:0.129483 4:0.876021 5:0.988318 6:0.988318 7:0.467653 8:0.431497 9:0.906331 
0.1098162655908767 1:0.359289 2:0.998262 3:0.157203 4:0.853395 5:0.998262 6:0.998262 7:0.463251 8:0.437197 9:0.88912 
0.1060484300919684 1:0.377984 2:1 3:0.184005 4:0.828338 5:1 6:1 7:0.45897 8:0.442474 9:0.870084 
0.1159559817148286 1:0.396163 2:0.994162 3:0.208268 4:0.800923 5:0.994162 6:0.994162 7:0.454812 8:0.44733 9:0.849034 
0.124458599553922 1:0.413272 2:0.981925 3:0.229008 4:0.771184 5:0.981925 6:0.981925 7:0.450777 8:0.451552 9:0.825656 
0.1365253955268298 1:0.4288 2:0.964482 3:0.24553 4:0.739247 5:0.964482 6:0.964482 7:0.446985 8:0.455352 9:0.800296 
0.1468079675824591 1:0.442585 2:0.942683 3:0.257699 4:0.705308 5:0.942683 6:0.942683 7:0.443684 8:0.458729 9:0.773425 
0.1628418394423425 1:0.455597 2:0.91636 3:0.265673 4:0.66956 5:0.91636 6:0.91636 7:0.440626 8:0.461685 9:0.745831 
0.181599301587244 1:0.469607 2:0.884235 3:0.2698 4:0.632194 5:0.884235 6:0.884235 7:0.437813 8:0.464429 9:0.718583 
0.2013190774960315 1:0.486516 2:0.845043 3:0.270622 4:0.593348 5:0.845043 6:0.845043 7:0.435367 8:0.466751 9:0.693128 
0.2158608468078921 1:0.507802 2:0.798307 3:0.268749 4:0.55329 5:0.798307 6:0.798307 7:0.433533 8:0.469073 9:0.667674 
0.2233115333544682 1:0.534148 2:0.744497 3:0.264825 4:0.512321 5:0.744497 6:0.744497 7:0.432188 8:0.471606 9:0.64288 
0.2277859237596275 1:0.565543 2:0.685122 3:0.259454 4:0.470722 5:0.685122 6:0.685122 7:0.431332 8:0.47414 9:0.619313 
0.2306732831612215 1:0.601488 2:0.622436 3:0.253203 4:0.428728 5:0.622436 6:0.622436 7:0.430598 8:0.478362 9:0.537568 
0.2305529917286064 1:0.641129 2:0.558543 3:0.246546 4:0.386175 5:0.558543 6:0.558543 7:0.429497 8:0.483428 9:0.418696 
0.2293319799257034 1:0.683555 2:0.495173 3:0.239801 4:0.3432 5:0.495173 6:0.495173 7:0.42913 8:0.488284 9:0.344126 
0.2269820811994833 1:0.727768 2:0.434463 3:0.233347 4:0.300368 5:0.434463 6:0.434463 7:0.429987 8:0.492717 9:0.306589 
0.2249423432213736 1:0.772316 2:0.37857 3:0.227365 4:0.25825 5:0.37857 6:0.37857 7:0.431699 8:0.496095 9:0.313731 
0.2226990405886888 1:0.81567 2:0.329268 3:0.221964 4:0.217469 5:0.329268 6:0.329268 7:0.434756 8:0.498628 9:0.36678 
0.2132335607796701 1:0.856388 2:0.287842 3:0.217133 4:0.178644 5:0.287842 6:0.287842 7:0.438669 8:0.500317 9:0.422063 
0.1937459117041823 1:0.89318 2:0.254908 3:0.212875 4:0.142167 5:0.254908 6:0.254908 7:0.443072 8:0.502005 9:0.473853 
0.1655005280937681 1:0.925048 2:0.230699 3:0.209239 4:0.108279 5:0.230699 6:0.230699 7:0.447841 8:0.503483 9:0.519414 
0.121088497719325 1:0.951439 2:0.215116 3:0.206312 4:0.077099 5:0.215116 6:0.215116 7:0.452611 8:0.50475 9:0.557076 
0.1203096766288318 1:0.972378 2:0.207573 3:0.203832 4:0.048644 5:0.207573 6:0.207573 7:0.457503 8:0.506016 9:0.585866 
0.1993752833014729 1:1 2:0.212175 3:0.199866 4:0 5:0.212175 6:0.212175 7:0.467286 8:0.507916 9:0.618715 
0.23092807178303 1:0.569226 2:0.296177 3:0.19642 4:0.09566 5:0.296177 6:0.296177 7:1 8:0 9:0.760871 
0.1973976043315623 1:0.021732 2:0.392109 3:0.193643 4:0.235134 5:0.392109 6:0.392109 7:0.505075 8:0.413131 9:0.584922 
0.1056574553191604 1:0.065857 2:0.395274 3:0.194414 4:0.231181 5:0.395274 6:0.395274 7:0.502996 8:0.414186 9:0.540652 
0.09345848223243677 1:0.099779 2:0.396339 3:0.194728 4:0.229616 5:0.396339 6:0.396339 7:0.502874 8:0.413764 9:0.522151 
0.1125107412281287 1:0.141634 2:0.397368 3:0.194955 4:0.227988 5:0.397368 6:0.397368 7:0.502752 8:0.413131 9:0.50516 
0.1199739351425985 1:0.189155 2:0.398728 3:0.195071 4:0.226365 5:0.398728 6:0.398728 7:0.502874 8:0.412708 9:0.490529 
0.1233843529763811 1:0.239963 2:0.400822 3:0.195126 4:0.224809 5:0.400822 6:0.400822 7:0.502996 8:0.412075 9:0.478793 
0.1246501186282593 1:0.291949 2:0.403846 3:0.195106 4:0.223399 5:0.403846 6:0.403846 7:0.503363 8:0.411653 9:0.469322 
0.1214802588152115 1:0.34354 2:0.407863 3:0.195078 4:0.222177 5:0.407863 6:0.407863 7:0.50373 8:0.411231 9:0.461267 
0.1165367742420282 1:0.393375 2:0.412816 3:0.194986 4:0.221179 5:0.412816 6:0.412816 7:0.504097 8:0.411231 9:0.453999 
0.1110537127677128 1:0.440273 2:0.418694 3:0.19489 4:0.220409 5:0.418694 6:0.418694 7:0.504464 8:0.411231 9:0.447077 
0.09573541443712869 1:0.483157 2:0.42542 3:0.194757 4:0.219837 5:0.42542 6:0.42542 7:0.504831 8:0.411442 9:0.440281 
0.0866038228736121 1:0.52103 2:0.432784 3:0.194581 4:0.219428 5:0.432784 6:0.432784 7:0.505075 8:0.411653 9:0.43317 
0.06072922159715896 1:0.553119 2:0.44035 3:0.194373 4:0.2191 5:0.44035 6:0.44035 7:0.505075 8:0.411864 9:0.425272 
0.01896863303354925 1:0.579119 2:0.447466 3:0.194186 4:0.218796 5:0.447466 6:0.447466 7:0.505075 8:0.412286 9:0.417123 
0.03557786973324082 1:0.630924 2:0.45881 3:0.193151 4:0.216463 5:0.45881 6:0.45881 7:0.504831 8:0.40912 9:0.370304 
0.09365937586032422 1:0.631311 2:0.455404 3:0.19311 4:0.215922 5:0.455404 6:0.455404 7:0.504586 8:0.408064 9:0.364892 
0.01166408129113124 1:0.646968 2:0.42593 3:0.192288 4:0.212181 5:0.42593 6:0.42593 7:0.504464 8:0.404264 9:0.347461 
0.1465098460910456 1:0.653274 2:0.420069 3:0.18655 4:0.211498 5:0.420069 6:0.420069 7:0.504464 8:0.404264 9:0.345227 
0.06884748585049753 1:0.67604 2:0.412103 3:0.1393 4:0.209881 5:0.412103 6:0.412103 7:0.505198 8:0.407853 9:0.346045 
0.07629629583672874 1:0.68041 2:0.410707 3:0.119213 4:0.209755 5:0.410707 6:0.410707 7:0.505687 8:0.40912 9:0.348122 
0.0714026406076269 1:0.678696 2:0.410111 3:0.080485 4:0.210394 5:0.410111 6:0.410111 7:0.506787 8:0.411442 9:0.3541 
0.03254428050041369 1:0.67251 2:0.41158 3:0.063398 4:0.211179 5:0.41158 6:0.41158 7:0.507399 8:0.41292 9:0.358788 
0.06944916050041046 1:0.663103 2:0.41423 3:0.048427 4:0.21229 5:0.41423 6:0.41423 7:0.50801 8:0.414186 9:0.364703 
0.09288294867908174 1:0.636512 2:0.422231 3:0.025366 4:0.215653 5:0.422231 6:0.422231 7:0.509355 8:0.416297 9:0.380467 
0.04473330069742113 1:0.620488 2:0.427655 3:0.017097 4:0.21787 5:0.427655 6:0.427655 7:0.509845 8:0.417142 9:0.390473 
0.03636318394271078 1:0.603463 2:0.434016 3:0.010791 4:0.220368 5:0.434016 6:0.434016 7:0.510334 8:0.417986 9:0.40202 
0.09101700430834141 1:0.586055 2:0.440991 3:0.006213 4:0.223199 5:0.440991 6:0.440991 7:0.511068 8:0.41883 9:0.414669 
0.04680506362692301 1:0.568796 2:0.448287 3:0.003131 4:0.226448 5:0.448287 6:0.448287 7:0.511924 8:0.419464 9:0.428922 
0.05073171364782805 1:0.55173 2:0.455761 3:0.001249 4:0.230236 5:0.455761 6:0.455761 7:0.513024 8:0.420097 9:0.444686 
0.1051645898170739 1:0.535028 2:0.46366 3:0.000276 4:0.234586 5:0.46366 6:0.46366 7:0.513758 8:0.420097 9:0.461897 
0.01530152058342867 1:0.518953 2:0.472448 3:0 4:0.239275 5:0.472448 6:0.472448 7:0.514247 8:0.419886 9:0.480146 
0.1288498566458901 1:0.503863 2:0.482204 3:0.000176 4:0.244099 5:0.482204 6:0.482204 7:0.514247 8:0.419042 9:0.49893 
0.01029964645432777 1:0.490254 2:0.49247 3:0.000615 4:0.248875 5:0.49247 6:0.49247 7:0.514125 8:0.418197 9:0.518061 
0.0986966352610789 1:0.478609 2:0.502534 3:0.001141 4:0.253593 5:0.502534 6:0.502534 7:0.514125 8:0.416931 9:0.536908 
0.03339018021973369 1:0.469508 2:0.511665 3:0.001807 4:0.258375 5:0.511665 6:0.511665 7:0.51437 8:0.415664 9:0.555409 
0.02868338452387116 1:0.463611 2:0.519464 3:0.00252 4:0.263461 5:0.519464 6:0.519464 7:0.515226 8:0.414608 9:0.573501 
0.04957121988200128 1:0.461036 2:0.526461 3:0.003216 4:0.269121 5:0.526461 6:0.526461 7:0.516326 8:0.413975 9:0.591089 
0.05380129953265243 1:0.461262 2:0.53404 3:0.003875 4:0.275352 5:0.53404 6:0.53404 7:0.517182 8:0.413131 9:0.607828 
0.03045764360257052 1:0.463442 2:0.543468 3:0.004446 4:0.282005 5:0.543468 6:0.543468 7:0.517794 8:0.412497 9:0.622774 
0.09674021388312001 1:0.466785 2:0.555436 3:0.004877 4:0.288967 5:0.555436 6:0.555436 7:0.518283 8:0.411653 9:0.636461 
0.04793512708858948 1:0.470727 2:0.569882 3:0.005243 4:0.296027 5:0.569882 6:0.569882 7:0.518161 8:0.410809 9:0.648921 
0.07472988293695745 1:0.474795 2:0.585935 3:0.005522 4:0.302844 5:0.585935 6:0.585935 7:0.517427 8:0.410175 9:0.659933 
0.09893091465590809 1:0.478726 2:0.602165 3:0.005661 4:0.309072 5:0.602165 6:0.602165 7:0.516082 8:0.409542 9:0.668617 
0.08415226787588252 1:0.487641 2:0.633935 3:0.005961 4:0.323524 5:0.633935 6:0.633935 7:0.512657 8:0.408064 9:0.691209 
0.008570058664147718 1:0.490254 2:0.635817 3:0.006132 4:0.327209 5:0.635817 6:0.635817 7:0.511924 8:0.407431 9:0.698697 
0.1401762543714153 1:0.509294 2:0.62111 3:0.006618 4:0.343324 5:0.62111 6:0.62111 7:0.508255 8:0.405742 9:0.715248 
0.1153162606202296 1:0.514276 2:0.645259 3:0.054826 4:0.349266 5:0.645259 6:0.645259 7:0.50373 8:0.402364 9:0.673966 
0.01908371255777746 1:0.52051 2:0.650035 3:0.070118 4:0.347878 5:0.650035 6:0.650035 7:0.502629 8:0.40152 9:0.670285 
0.1173298979916243 1:0.538089 2:0.649093 3:0.100816 4:0.343299 5:0.649093 6:0.649093 7:0.50055 8:0.400042 9:0.665282 
0.0009633601102239744 1:0.548609 2:0.64295 3:0.115088 4:0.340142 5:0.64295 6:0.64295 7:0.499572 8:0.398987 9:0.664968 
0.05076145665573605 1:0.559937 2:0.633306 3:0.128243 4:0.336439 5:0.633306 6:0.633306 7:0.498594 8:0.398142 9:0.666478 
0.1163080982014759 1:0.572002 2:0.620804 3:0.140116 4:0.332164 5:0.620804 6:0.620804 7:0.497615 8:0.397087 9:0.669184 
0.002068032677984692 1:0.584937 2:0.606168 3:0.150627 4:0.327341 5:0.606168 6:0.606168 7:0.496637 8:0.396453 9:0.673337 
0.2729613667531502 1:0.598788 2:0.59003 3:0.159662 4:0.322034 5:0.59003 6:0.59003 7:0.495903 8:0.396242 9:0.67878 
0.126583716634162 1:0.613243 2:0.572868 3:0.167215 4:0.31635 5:0.572868 6:0.572868 7:0.495292 8:0.396876 9:0.686143 
0.1045332429273361 1:0.627583 2:0.555266 3:0.173431 4:0.310392 5:0.555266 6:0.555266 7:0.494925 8:0.397931 9:0.69511 
0.01335253638882573 1:0.640628 2:0.538047 3:0.178481 4:0.304253 5:0.538047 6:0.538047 7:0.49468 8:0.399409 9:0.705494 
0.06823888446770408 1:0.651235 2:0.522113 3:0.182467 4:0.298034 5:0.522113 6:0.522113 7:0.494558 8:0.400887 9:0.716789 
0.08742892312900979 1:0.658647 2:0.508353 3:0.185535 4:0.291821 5:0.508353 6:0.508353 7:0.49468 8:0.402364 9:0.728494 
0.02080406980464304 1:0.662668 2:0.497395 3:0.187871 4:0.285655 5:0.497395 6:0.497395 7:0.494803 8:0.403842 9:0.740042 
0.0344959711330142 1:0.663685 2:0.489331 3:0.189666 4:0.279567 5:0.489331 6:0.489331 7:0.494925 8:0.40532 9:0.751117 
0.1031340399452514 1:0.659052 2:0.480422 3:0.191984 4:0.267896 5:0.480422 6:0.480422 7:0.495659 8:0.407853 9:0.770562 
0.1308625879169555 1:0.630322 2:0.491126 3:0.193265 4:0.231458 5:0.491126 6:0.491126 7:0.497004 8:0.413764 9:0.797401 
0.01568809568972114 1:0.627834 2:0.491053 3:0.193138 4:0.226632 5:0.491053 6:0.491053 7:0.497248 8:0.414397 9:0.794821 
0.08781648571101167 1:0.616097 2:0.477015 3:0.192731 4:0.204138 5:0.477015 6:0.477015 7:0.498227 8:0.416931 9:0.75763 
0.006757000699515976 1:0.610413 2:0.447205 3:0.193298 4:0.179425 5:0.447205 6:0.447205 7:0.500673 8:0.417353 9:0.731798 
0.1591947163006272 1:0.614587 2:0.438581 3:0.195971 4:0.172213 5:0.438581 6:0.438581 7:0.50214 8:0.416297 9:0.748096 
0.08164349531342432 1:0.620991 2:0.448159 3:0.253513 4:0.166274 5:0.448159 6:0.448159 7:0.503852 8:0.41482 9:0.761941 
0.06578884171973121 1:0.623783 2:0.450603 3:0.273851 4:0.165376 5:0.450603 6:0.450603 7:0.504341 8:0.415031 9:0.759455 
0.001178479041615266 1:0.626742 2:0.451054 3:0.293667 4:0.16481 5:0.451054 6:0.451054 7:0.505075 8:0.415453 9:0.754169 
0.09835273951352851 1:0.629086 2:0.449997 3:0.312253 4:0.164706 5:0.449997 6:0.449997 7:0.505931 8:0.415875 9:0.747058 
0.05274421474993935 1:0.629272 2:0.447531 3:0.343301 4:0.166365 5:0.447531 6:0.447531 7:0.508499 8:0.416931 9:0.729407 
0.003990636503203688 1:0.626402 2:0.448437 3:0.355412 4:0.168308 5:0.448437 6:0.448437 7:0.509845 8:0.417353 9:0.719275 
0.1126268652579845 1:0.621562 2:0.452173 3:0.365167 4:0.171007 5:0.452173 6:0.452173 7:0.51119 8:0.417564 9:0.708609 
0.001988827219798214 1:0.615401 2:0.459379 3:0.372745 4:0.174398 5:0.459379 6:0.459379 7:0.512291 8:0.417775 9:0.69747 
0.04413953133838452 1:0.608575 2:0.470078 3:0.378417 4:0.178377 5:0.470078 6:0.470078 7:0.513269 8:0.417775 9:0.68608 
0.1196095662146427 1:0.60173 2:0.483616 3:0.382467 4:0.182861 5:0.483616 6:0.483616 7:0.514125 8:0.417564 9:0.67425 
0.0122300089570966 1:0.595448 2:0.499104 3:0.385101 4:0.187756 5:0.499104 6:0.499104 7:0.514736 8:0.417142 9:0.663331 
0.1339459527724457 1:0.590214 2:0.515648 3:0.386568 4:0.192928 5:0.515648 6:0.515648 7:0.515103 8:0.416508 9:0.651186 
0.02297209946572505 1:0.586636 2:0.532356 3:0.387135 4:0.198215 5:0.532356 6:0.532356 7:0.515103 8:0.416086 9:0.633598 
0.1146630234002672 1:0.58516 2:0.548113 3:0.38703 4:0.203409 5:0.548113 6:0.548113 7:0.514736 8:0.415875 9:0.616953 
0.155562101392465 1:0.594917 2:0.578709 3:0.383687 4:0.220823 5:0.578709 6:0.578709 7:0.511801 8:0.415875 9:0.570763 
0.03763286558735651 1:0.601682 2:0.549262 3:0.380738 4:0.231805 5:0.549262 6:0.549262 7:0.509722 8:0.416719 9:0.555346 
0.04067229766202868 1:0.600194 2:0.538302 3:0.380329 4:0.233965 5:0.538302 6:0.538302 7:0.509355 8:0.417142 9:0.554087 
0.1812745592707614 1:0.575216 2:0.503404 3:0.37874 4:0.245362 5:0.503404 6:0.503404 7:0.50801 8:0.416931 9:0.559562 
0.0723036745817258 1:0.580637 2:0.53422 3:0.378819 4:0.255673 5:0.53422 6:0.53422 7:0.508377 8:0.415242 9:0.567113 
0.2353996225540639 1:0.563787 2:0.4965 3:0.193598 4:0.235322 5:0.4965 6:0.4965 7:0.505687 8:0.411231 9:0.585489 
1 1:0.605554 2:0.552652 3:0.193598 4:0.2353 5:0.552652 6:0.552652 7:0.505564 8:0.411231 9:0.585457 
0.381989427126187 1:0.60597 2:0.55298 3:0.193597 4:0.23522 5:0.55298 6:0.55298 7:0.505442 8:0.411231 9:0.585394 
1 1:0.606563 2:0.553516 3:0.193594 4:0.235068 5:0.553516 6:0.553516 7:0.50532 8:0.411442 9:0.5853 
1 1:0.607271 2:0.554225 3:0.193592 4:0.23484 5:0.554225 6:0.554225 7:0.505198 8:0.411442 9:0.585174 
1 1:0.60805 2:0.555083 3:0.193595 4:0.234537 5:0.555083 6:0.555083 7:0.505075 8:0.411653 9:0.585017 
1 1:0.608866 2:0.556046 3:0.193601 4:0.234165 5:0.556046 6:0.556046 7:0.504953 8:0.411653 9:0.584796 
1 1:0.609692 2:0.557083 3:0.193602 4:0.233737 5:0.557083 6:0.557083 7:0.504831 8:0.411864 9:0.584576 
1 1:0.610507 2:0.558183 3:0.193602 4:0.233262 5:0.558183 6:0.558183 7:0.504831 8:0.411864 9:0.584324 
0.9547380745574626 1:0.611299 2:0.559323 3:0.193601 4:0.232748 5:0.559323 6:0.559323 7:0.504708 8:0.411864 9:0.584041 
1 1:0.612061 2:0.560487 3:0.193627 4:0.232194 5:0.560487 6:0.560487 7:0.504708 8:0.412075 9:0.583727 
1 1:0.612833 2:0.561689 3:0.193892 4:0.231568 5:0.561689 6:0.561689 7:0.504464 8:0.412286 9:0.583412 
1 1:0.613632 2:0.562903 3:0.194273 4:0.230876 5:0.562903 6:0.562903 7:0.504464 8:0.412286 9:0.583034 
1 1:0.614425 2:0.564038 3:0.194454 4:0.230153 5:0.564038 6:0.564038 7:0.504341 8:0.412497 9:0.582657 
1 1:0.615201 2:0.565127 3:0.194463 4:0.229419 5:0.565127 6:0.565127 7:0.504341 8:0.412497 9:0.582279 
0.9820058130185608 1:0.615936 2:0.56624 3:0.194407 4:0.228661 5:0.56624 6:0.56624 7:0.504341 8:0.412497 9:0.58187 
1 1:0.618985 2:0.57227 3:0.19391 4:0.225087 5:0.57227 6:0.57227 7:0.504586 8:0.412497 9:0.580077 
1 1:0.619484 2:0.573463 3:0.193817 4:0.22445 5:0.573463 6:0.573463 7:0.504586 8:0.412497 9:0.579762 
1 1:0.619963 2:0.574671 3:0.193739 4:0.223843 5:0.574671 6:0.574671 7:0.504586 8:0.412497 9:0.579448 
0.6761922423811756 1:0.620447 2:0.575882 3:0.193679 4:0.223266 5:0.575882 6:0.575882 7:0.504708 8:0.412286 9:0.579164 
1 1:0.620964 2:0.577069 3:0.193662 4:0.222716 5:0.577069 6:0.577069 7:0.504708 8:0.412286 9:0.578881 
1 1:0.621514 2:0.578188 3:0.193753 4:0.222191 5:0.578188 6:0.578188 7:0.504831 8:0.412286 9:0.578598 
1 1:0.622082 2:0.579195 3:0.193767 4:0.221687 5:0.579195 6:0.579195 7:0.504831 8:0.412286 9:0.578346 
0.2879916144139257 1:0.627367 2:0.593564 3:0.192743 4:0.21542 5:0.593564 6:0.593564 7:0.505564 8:0.411653 9:0.575231 
0.6337545810032632 1:0.574494 2:0.488909 3:0.196903 4:0.216133 5:0.488909 6:0.488909 7:0.506665 8:0.410386 9:0.575735 
1 1:0.565893 2:0.461342 3:0.196235 4:0.216816 5:0.461342 6:0.461342 7:0.507154 8:0.410386 9:0.576144 
0.3649103184247711 1:0.493863 2:0.453518 3:0.136505 4:0.222993 5:0.453518 6:0.453518 7:0.505687 8:0.408909 9:0.534831 
0.1860845239087399 1:0.483458 2:0.484377 3:0.122699 4:0.222764 5:0.484377 6:0.484377 7:0.504953 8:0.408909 9:0.463501 
0.1853991044503401 1:0.474191 2:0.515078 3:0.117722 4:0.222186 5:0.515078 6:0.515078 7:0.504341 8:0.409331 9:0.399755 
0.1700974190286315 1:0.466136 2:0.543426 3:0.119142 4:0.221342 5:0.543426 6:0.543426 7:0.503975 8:0.409753 9:0.341514 
0.156491207485042 1:0.458867 2:0.568585 3:0.124842 4:0.220162 5:0.568585 6:0.568585 7:0.503119 8:0.410175 9:0.287364 
0.1439469345036998 1:0.45183 2:0.590176 3:0.132995 4:0.218392 5:0.590176 6:0.590176 7:0.501896 8:0.411442 9:0.236329 
0.1294123518985471 1:0.444665 2:0.607617 3:0.142352 4:0.21583 5:0.607617 6:0.607617 7:0.500428 8:0.41292 9:0.187685 
0.1105198459913784 1:0.436839 2:0.619812 3:0.151999 4:0.212507 5:0.619812 6:0.619812 7:0.499205 8:0.413975 9:0.142785 
0.08290353343345468 1:0.428127 2:0.625893 3:0.161191 4:0.209059 5:0.625893 6:0.625893 7:0.500306 8:0.413342 9:0.103832 
0.1004917237134202 1:0.418891 2:0.626564 3:0.169512 4:0.206672 5:0.626564 6:0.626564 7:0.502629 8:0.411442 9:0.071581 
0.05258576424418437 1:0.405462 2:0.62599 3:0.18265 4:0.205535 5:0.62599 6:0.62599 7:0.506176 8:0.407009 9:0.025738 
0.1055275935629984 1:0.405228 2:0.631727 3:0.18743 4:0.205936 5:0.631727 6:0.631727 7:0.506665 8:0.404898 9:0.010194 
0.07543311223492633 1:0.423847 2:0.655783 3:0.19359 4:0.207165 5:0.655783 6:0.655783 7:0.50691 8:0.399831 9:0 
0.07631936369105113 1:0.443034 2:0.668802 3:0.195267 4:0.207919 5:0.668802 6:0.668802 7:0.507154 8:0.396876 9:0.006482 
0.07925494792521544 1:0.468258 2:0.679358 3:0.196213 4:0.208809 5:0.679358 6:0.679358 7:0.507399 8:0.39392 9:0.020263 
0.1007748766795154 1:0.499074 2:0.6863 3:0.19661 4:0.209827 5:0.6863 6:0.6863 7:0.507643 8:0.391176 9:0.040558 
0.1117031298462127 1:0.534761 2:0.689404 3:0.196596 4:0.21096 5:0.689404 6:0.689404 7:0.507766 8:0.388643 9:0.06768 
0.1300871688546264 1:0.574261 2:0.689118 3:0.196317 4:0.212219 5:0.689118 6:0.689118 7:0.50801 8:0.386532 9:0.101441 
0.1414743289468832 1:0.616332 2:0.686354 3:0.195895 4:0.213625 5:0.686354 6:0.686354 7:0.508255 8:0.384843 9:0.141369 
0.1482306357110623 1:0.659573 2:0.682142 3:0.195454 4:0.21517 5:0.682142 6:0.682142 7:0.508499 8:0.383787 9:0.185514 
0.1503432663938448 1:0.702444 2:0.677186 3:0.194975 4:0.216847 5:0.677186 6:0.677186 7:0.508744 8:0.383365 9:0.232427 
0.1471798309537671 1:0.743115 2:0.671976 3:0.194453 4:0.218637 5:0.671976 6:0.671976 7:0.508989 8:0.383365 9:0.280819 
0.1410575155247954 1:0.780003 2:0.66709 3:0.193947 4:0.220485 5:0.66709 6:0.66709 7:0.508989 8:0.383787 9:0.329589 
0.12943760921991 1:0.811936 2:0.662904 3:0.193514 4:0.222301 5:0.662904 6:0.662904 7:0.508866 8:0.384843 9:0.377258 
0.1186893458239392 1:0.8382 2:0.659239 3:0.193161 4:0.224022 5:0.659239 6:0.659239 7:0.508622 8:0.386532 9:0.422912 
0.1066417738259333 1:0.85844 2:0.655695 3:0.192898 4:0.225619 5:0.655695 6:0.655695 7:0.508377 8:0.388854 9:0.465798 
0.08530029794869944 1:0.872301 2:0.651885 3:0.192731 4:0.227079 5:0.651885 6:0.651885 7:0.508133 8:0.391387 9:0.505223 
0.0896137287592796 1:0.879639 2:0.64757 3:0.192603 4:0.228403 5:0.64757 6:0.64757 7:0.507888 8:0.394131 9:0.540306 
0.1530506311990213 1:0.875897 2:0.637618 3:0.192544 4:0.230629 5:0.637618 6:0.637618 7:0.507399 8:0.399831 9:0.596029 
0.005479490421026704 1:0.866291 2:0.632356 3:0.192561 4:0.231533 5:0.632356 6:0.632356 7:0.507154 8:0.402787 9:0.617047 
0.09437239512736045 1:0.815697 2:0.617924 3:0.192437 4:0.233225 5:0.617924 6:0.617924 7:0.506176 8:0.410386 9:0.653798 
1 1:0.79455 2:0.613822 3:0.192435 4:0.233364 5:0.613822 6:0.613822 7:0.505687 8:0.412497 9:0.658329 
1 1:0.600878 2:0.567342 3:0.193707 4:0.271336 5:0.567342 6:0.567342 7:0.504341 8:0.409964 9:0.594236 
1 1:0.601296 2:0.568272 3:0.193663 4:0.270632 5:0.568272 6:0.568272 7:0.504464 8:0.409964 9:0.594708 
1 1:0.601403 2:0.570069 3:0.193639 4:0.269997 5:0.570069 6:0.570069 7:0.504586 8:0.410175 9:0.595306 
1 1:0.600732 2:0.5702 3:0.193586 4:0.269341 5:0.5702 6:0.5702 7:0.504464 8:0.410175 9:0.595652 
1 1:0.598811 2:0.564605 3:0.193536 4:0.268723 5:0.564605 6:0.564605 7:0.504708 8:0.410386 9:0.595746 
1 1:0.595475 2:0.550022 3:0.193538 4:0.268241 5:0.550022 6:0.550022 7:0.504953 8:0.410597 9:0.595903 
0.2419530887696626 1:0.585246 2:0.488648 3:0.193848 4:0.268191 5:0.488648 6:0.488648 7:0.506543 8:0.410809 9:0.596784 
1 1:0.578878 2:0.443127 3:0.194081 4:0.269027 5:0.443127 6:0.443127 7:0.507888 8:0.410809 9:0.598326 
1 1:0.572041 2:0.390643 3:0.194292 4:0.270769 5:0.390643 6:0.390643 7:0.509845 8:0.410597 9:0.60034 
0.8064488005850832 1:0.564894 2:0.334273 3:0.194446 4:0.273804 5:0.334273 6:0.334273 7:0.512413 8:0.410175 9:0.60314 
0.1990016588595363 1:0.557553 2:0.277285 3:0.194561 4:0.278417 5:0.277285 6:0.277285 7:0.515348 8:0.409753 9:0.606192 
0.1151439763171276 1:0.550131 2:0.222702 3:0.194676 4:0.284779 5:0.222702 6:0.222702 7:0.51865 8:0.409331 9:0.609244 
0.09862938404780995 1:0.542756 2:0.172633 3:0.194784 4:0.293068 5:0.172633 6:0.172633 7:0.522319 8:0.408697 9:0.613555 
0.08834330848772171 1:0.535627 2:0.128402 3:0.194842 4:0.303565 5:0.128402 6:0.128402 7:0.526477 8:0.407853 9:0.619753 
0.0825390560372081 1:0.528987 2:0.091025 3:0.194845 4:0.31646 5:0.091025 6:0.091025 7:0.530757 8:0.407009 9:0.629161 
0.06329639755746652 1:0.523009 2:0.061132 3:0.194806 4:0.331822 5:0.061132 6:0.061132 7:0.535282 8:0.406164 9:0.640174 
0.07158880715303265 1:0.51791 2:0.038935 3:0.194789 4:0.349631 5:0.038935 6:0.038935 7:0.53944 8:0.405109 9:0.652382 
0.01195137817331604 1:0.513835 2:0.024163 3:0.194802 4:0.369787 5:0.024163 6:0.024163 7:0.543598 8:0.404264 9:0.664559 
0.07479046678791691 1:0.508791 2:0.014048 3:0.194747 4:0.416807 5:0.014048 6:0.014048 7:0.551302 8:0.402575 9:0.691303 
0.1147775162312066 1:0.507673 2:0.022407 3:0.194236 4:0.471677 5:0.022407 6:0.022407 7:0.557417 8:0.401309 9:0.724435 
0.2308984042579495 1:0.537784 2:0.214989 3:0.193877 4:0.40933 5:0.214989 6:0.214989 7:0 8:0.470551 9:0.598892 
1 1:0.597813 2:0.58589 3:0.193531 4:0.23541 5:0.58589 6:0.58589 7:0.506054 8:0.409753 9:0.585363 
1 1:0.596377 2:0.576176 3:0.193478 4:0.235683 5:0.576176 6:0.576176 7:0.50642 8:0.408275 9:0.582594 
0.7057560384783752 1:0.589497 2:0.527656 3:0.193885 4:0.237231 5:0.527656 6:0.527656 7:0.507643 8:0.405953 9:0.625732 
0.1992763689308768 1:0.58322 2:0.472276 3:0.194426 4:0.239817 5:0.472276 6:0.472276 7:0.508255 8:0.405953 9:0.688251 
0.1826466904394206 1:0.581082 2:0.451056 3:0.194621 4:0.24128 5:0.451056 6:0.451056 7:0.508377 8:0.405953 9:0.70241 
1 1:0.573651 2:0.414504 3:0.195558 4:0.248062 5:0.414504 6:0.414504 7:0.508989 8:0.405742 9:0.659461 
1 1:0.572467 2:0.414044 3:0.195863 4:0.249998 5:0.414044 6:0.414044 7:0.509233 8:0.405742 9:0.630294 
1 1:0.572023 2:0.415748 3:0.196062 4:0.252054 5:0.415748 6:0.415748 7:0.509478 8:0.405742 9:0.597319 
0.2996042158885358 1:0.572652 2:0.419354 3:0.196148 4:0.254202 5:0.419354 6:0.419354 7:0.5096 8:0.405742 9:0.561639 
0.0119812797087151 1:0.577315 2:0.431486 3:0.19604 4:0.258625 5:0.431486 6:0.431486 7:0.5096 8:0.405742 9:0.487729 
0.1500940313209144 1:0.581058 2:0.439096 3:0.195858 4:0.260877 5:0.439096 6:0.439096 7:0.509722 8:0.405953 9:0.452457 
0.251545234823628 1:0.594988 2:0.460855 3:0.195147 4:0.268267 5:0.460855 6:0.460855 7:0.510578 8:0.405531 9:0.365207 
1 1:0.600096 2:0.466214 3:0.194899 4:0.271202 5:0.466214 6:0.466214 7:0.511312 8:0.40532 9:0.34315 
1 1:0.615035 2:0.419696 3:0.182192 4:0.243334 5:0.419696 6:0.419696 7:0.504586 8:0.426219 9:0.651186 
0.2309310674588762 1:0.631747 2:0.377619 3:0.18595 4:0.240448 5:0.377619 6:0.377619 7:0.490278 8:0.605024 9:0.652225 
0.2240794096471497 1:0.648246 2:0.315499 3:0.192939 4:0.235565 5:0.315499 6:0.315499 7:0.506665 8:0.411442 9:0.585803 
0.04749163055477553 1:0.643994 2:0.334452 3:0.161393 4:0.239664 5:0.334452 6:0.334452 7:0.508744 8:0.412708 9:0.599679 
0.3341118328043092 1:0.637983 2:0.356145 3:0.149439 4:0.240954 5:0.356145 6:0.356145 7:0.507277 8:0.412708 9:0.610188 
0.3350580078744497 1:0.628515 2:0.385625 3:0.139819 4:0.24157 5:0.385625 6:0.385625 7:0.506298 8:0.412708 9:0.62183 
0.08164356914679316 1:0.61539 2:0.41682 3:0.129006 4:0.241715 5:0.41682 6:0.41682 7:0.505564 8:0.412497 9:0.632245 
0.4156772614704298 1:0.599526 2:0.443099 3:0.116345 4:0.241572 5:0.443099 6:0.443099 7:0.50532 8:0.412286 9:0.639828 
0.009309271953820943 1:0.566273 2:0.467366 3:0.08717 4:0.241416 5:0.467366 6:0.467366 7:0.505931 8:0.411442 9:0.650179 
0.1275125744685561 1:0.551337 2:0.465751 3:0.071835 4:0.241768 5:0.465751 6:0.465751 7:0.506665 8:0.41102 9:0.6532 
0.001332916571269217 1:0.52852 2:0.449262 3:0.042912 4:0.243897 5:0.449262 6:0.449262 7:0.508499 8:0.410386 9:0.650525 
0.02918920826316329 1:0.521161 2:0.442266 3:0.030426 4:0.245737 5:0.442266 6:0.442266 7:0.509355 8:0.410175 9:0.643729 
0.1476912677915664 1:0.515733 2:0.440234 3:0.022376 4:0.247929 5:0.440234 6:0.440234 7:0.509722 8:0.410175 9:0.63407 
0.05467184212261181 1:0.505923 2:0.474153 3:0.045621 4:0.252589 5:0.474153 6:0.474153 7:0.50691 8:0.410386 9:0.607797 
0.0535379078850744 1:0.5037 2:0.492827 3:0.054462 4:0.25302 5:0.492827 6:0.492827 7:0.506054 8:0.41102 9:0.604304 
0.1057194908476023 1:0.497916 2:0.518738 3:0.061424 4:0.252601 5:0.518738 6:0.518738 7:0.504831 8:0.411864 9:0.60292 
0.1569185442608315 1:0.457833 2:0.449075 3:0.018717 4:0.257326 5:0.449075 6:0.449075 7:0.509845 8:0.420308 9:0.581398 
0.07809870949035667 1:0.445003 2:0.470263 3:0.053864 4:0.262308 5:0.470263 6:0.470263 7:0.510212 8:0.417775 9:0.578975 
0.1148173640011211 1:0.444215 2:0.496808 3:0.078446 4:0.264783 5:0.496808 6:0.496808 7:0.509967 8:0.416086 9:0.579825 
0.1275773686383712 1:0.449435 2:0.530479 3:0.099312 4:0.267012 5:0.530479 6:0.530479 7:0.509355 8:0.415242 9:0.581776 
0.1506935478056336 1:0.460826 2:0.566467 3:0.113084 4:0.268827 5:0.566467 6:0.566467 7:0.508499 8:0.415242 9:0.583821 
0.1332078466576095 1:0.477164 2:0.600121 3:0.118788 4:0.270131 5:0.600121 6:0.600121 7:0.507521 8:0.416297 9:0.584639 
0.1073091852443013 1:0.496062 2:0.62744 3:0.121078 4:0.270862 5:0.62744 6:0.62744 7:0.506543 8:0.417353 9:0.584576 
0.1020347195156072 1:0.518173 2:0.649314 3:0.127522 4:0.271117 5:0.649314 6:0.649314 7:0.505687 8:0.417353 9:0.584136 
0.09220855180277884 1:0.544925 2:0.668189 3:0.13576 4:0.270894 5:0.668189 6:0.668189 7:0.504831 8:0.417142 9:0.583286 
0.09403626006003708 1:0.574413 2:0.682717 3:0.142557 4:0.270198 5:0.682717 6:0.682717 7:0.504097 8:0.417353 9:0.581178 
0.07864714887884172 1:0.605609 2:0.693087 3:0.149807 4:0.269163 5:0.693087 6:0.693087 7:0.503608 8:0.417564 9:0.577811 
0.09790515121436055 1:0.638724 2:0.701606 3:0.157923 4:0.267867 5:0.701606 6:0.701606 7:0.503119 8:0.417564 9:0.571424 
0.07881403491489775 1:0.672931 2:0.709187 3:0.166097 4:0.266311 5:0.709187 6:0.709187 7:0.502752 8:0.417775 9:0.564785 
0.09518070480691854 1:0.706829 2:0.71533 3:0.174386 4:0.264557 5:0.71533 6:0.71533 7:0.502507 8:0.417775 9:0.557706 
0.06790030086594886 1:0.739359 2:0.719511 3:0.18272 4:0.262718 5:0.719511 6:0.719511 7:0.502385 8:0.417775 9:0.551633 
0.07815132055984711 1:0.769406 2:0.721103 3:0.191579 4:0.260923 5:0.721103 6:0.721103 7:0.502629 8:0.417564 9:0.546913 
0.05893841000133102 1:0.795568 2:0.720023 3:0.200272 4:0.259282 5:0.720023 6:0.720023 7:0.502996 8:0.417564 9:0.543893 
0.005305797575400496 1:0.8161 2:0.716045 3:0.208526 4:0.257915 5:0.716045 6:0.716045 7:0.503608 8:0.417142 9:0.542792 
0.1173762580215805 1:0.82993 2:0.70845 3:0.216216 4:0.256947 5:0.70845 6:0.70845 7:0.504341 8:0.416508 9:0.545025 
0.02325551829055447 1:0.836208 2:0.696114 3:0.223097 4:0.256404 5:0.696114 6:0.696114 7:0.505075 8:0.415664 9:0.55028 
0.08128283680241559 1:0.833817 2:0.678311 3:0.229007 4:0.256267 5:0.678311 6:0.678311 7:0.505809 8:0.41482 9:0.558398 
0.1055511817540458 1:0.821619 2:0.655452 3:0.233885 4:0.25655 5:0.655452 6:0.655452 7:0.506543 8:0.413975 9:0.569064 
0.08069814601682192 1:0.799129 2:0.629105 3:0.236856 4:0.257282 5:0.629105 6:0.629105 7:0.507277 8:0.41292 9:0.582122 
0.261639849542906 1:0.766642 2:0.601922 3:0.237534 4:0.258324 5:0.601922 6:0.601922 7:0.507766 8:0.41102 9:0.597823 
0.4409147951672213 1:0.725611 2:0.576972 3:0.235426 4:0.259588 5:0.576972 6:0.576972 7:0.508133 8:0.40912 9:0.615537 
0.3252925111617897 1:0.679299 2:0.555325 3:0.230874 4:0.261004 5:0.555325 6:0.555325 7:0.508255 8:0.407009 9:0.634321 
0.4403650633530308 1:0.631957 2:0.536306 3:0.224413 4:0.26258 5:0.536306 6:0.536306 7:0.508744 8:0.40532 9:0.653106 
0.06300747417553791 1:0.547202 2:0.504979 3:0.208564 4:0.266588 5:0.504979 6:0.504979 7:0.509722 8:0.401942 9:0.687213 
0.1837241544263341 1:0.513497 2:0.493785 3:0.200587 4:0.269042 5:0.493785 6:0.493785 7:0.510334 8:0.400464 9:0.700428 
0.1495359692087023 1:0.486459 2:0.486427 3:0.193304 4:0.271911 5:0.486427 6:0.486427 7:0.51119 8:0.398987 9:0.710622 
0.1947586674018402 1:0.465741 2:0.483568 3:0.186983 4:0.275299 5:0.483568 6:0.483568 7:0.512168 8:0.397931 9:0.718017 
0.02614112168603846 1:0.450476 2:0.485805 3:0.181765 4:0.279207 5:0.485805 6:0.485805 7:0.513147 8:0.396876 9:0.723806 
0.05306845023885527 1:0.432625 2:0.505876 3:0.174854 4:0.288432 5:0.505876 6:0.505876 7:0.514492 8:0.39582 9:0.734126 
0.1017170818670874 1:0.428405 2:0.52294 3:0.172951 4:0.293407 5:0.52294 6:0.52294 7:0.514614 8:0.396453 9:0.738374 
0.07108590669831656 1:0.42563 2:0.543696 3:0.171952 4:0.298375 5:0.543696 6:0.543696 7:0.514492 8:0.397509 9:0.743786 
0.1121772353853607 1:0.422689 2:0.567017 3:0.171782 4:0.303161 5:0.567017 6:0.567017 7:0.51388 8:0.398776 9:0.750016 
0.08095588369602395 1:0.417979 2:0.590707 3:0.173176 4:0.307552 5:0.590707 6:0.590707 7:0.513024 8:0.399831 9:0.757221 
0.1022352481227238 1:0.408408 2:0.611368 3:0.175781 4:0.311456 5:0.611368 6:0.611368 7:0.512168 8:0.401098 9:0.765087 
0.0391194782265892 1:0.391558 2:0.626891 3:0.178895 4:0.314834 5:0.626891 6:0.626891 7:0.51119 8:0.401942 9:0.773929 
0.09898511566123938 1:0.368108 2:0.635978 3:0.182194 4:0.317549 5:0.635978 6:0.635978 7:0.509845 8:0.403209 9:0.782361 
0.07606573998364774 1:0.335882 2:0.635603 3:0.185499 4:0.319516 5:0.635603 6:0.635603 7:0.508499 8:0.404264 9:0.791077 
0.1562393013352822 1:0.289585 2:0.622152 3:0.18871 4:0.320812 5:0.622152 6:0.622152 7:0.507521 8:0.404898 9:0.799918 
0.172592697421265 1:0.2317 2:0.597244 3:0.191061 4:0.321595 5:0.597244 6:0.597244 7:0.506665 8:0.404264 9:0.808004 
0.1666826464375088 1:0.176426 2:0.568966 3:0.191715 4:0.321875 5:0.568966 6:0.568966 7:0.505687 8:0.40342 9:0.814234 
0.07482269380981454 1:0.13522 2:0.543972 3:0.19136 4:0.321651 5:0.543972 6:0.543972 7:0.504831 8:0.402364 9:0.815587 
0.07797807838973025 1:0.11429 2:0.52604 3:0.190461 4:0.32098 5:0.52604 6:0.52604 7:0.504097 8:0.401309 9:0.81071 
0.002252516113078821 1:0.1382 2:0.523086 3:0.190578 4:0.314827 5:0.523086 6:0.523086 7:0.50214 8:0.399831 9:0.767919 
0.1464158458692712 1:0.114854 2:0.519828 3:0.192605 4:0.310583 5:0.519828 6:0.519828 7:0.501651 8:0.397298 9:0.770153 
0.1376096130107375 1:0.186786 2:0.510896 3:0.191843 4:0.302984 5:0.510896 6:0.510896 7:0.500795 8:0.396665 9:0.795513 
0.1456664041498669 1:0.243655 2:0.513886 3:0.191111 4:0.300126 5:0.513886 6:0.513886 7:0.500428 8:0.39582 9:0.808728 
0.1705962298820688 1:0.310183 2:0.520411 3:0.190496 4:0.297018 5:0.520411 6:0.520411 7:0.499817 8:0.395398 9:0.823831 
0.1733220950182215 1:0.381681 2:0.529865 3:0.19192 4:0.293494 5:0.529865 6:0.529865 7:0.498838 8:0.395609 9:0.840067 
0.1748822964453382 1:0.45393 2:0.541522 3:0.197796 4:0.289302 5:0.541522 6:0.541522 7:0.497493 8:0.396242 9:0.856365 
0.1667532963137195 1:0.522219 2:0.554388 3:0.20847 4:0.284331 5:0.554388 6:0.554388 7:0.496148 8:0.397931 9:0.871625 
0.1443182036217617 1:0.582482 2:0.566514 3:0.223571 4:0.278567 5:0.566514 6:0.566514 7:0.494803 8:0.400253 9:0.884935 
0.1213851219800378 1:0.632048 2:0.575198 3:0.241923 4:0.272095 5:0.575198 6:0.575198 7:0.49358 8:0.40342 9:0.895507 
0.0725535725412251 1:0.66918 2:0.577606 3:0.26178 4:0.265077 5:0.577606 6:0.577606 7:0.492846 8:0.406798 9:0.902712 
0.08638841410267321 1:0.692874 2:0.572884 3:0.281848 4:0.257819 5:0.572884 6:0.572884 7:0.492723 8:0.410386 9:0.906173 
0.05521884553892558 1:0.70301 2:0.562118 3:0.301061 4:0.250703 5:0.562118 6:0.562118 7:0.493335 8:0.413975 9:0.905701 
0.08727036561566905 1:0.700349 2:0.54705 3:0.318665 4:0.244083 5:0.54705 6:0.54705 7:0.494558 8:0.417142 9:0.901108 
0.08572733558021339 1:0.686497 2:0.530202 3:0.334015 4:0.238256 5:0.530202 6:0.530202 7:0.496148 8:0.419675 9:0.89236 
0.09725471869087891 1:0.66374 2:0.514719 3:0.347093 4:0.233505 5:0.514719 6:0.514719 7:0.498349 8:0.421364 9:0.879869 
0.08642355991126023 1:0.635209 2:0.503471 3:0.357631 4:0.230031 5:0.503471 6:0.503471 7:0.500673 8:0.422419 9:0.864105 
0.0881411145660855 1:0.604609 2:0.498701 3:0.365833 4:0.227838 5:0.498701 6:0.498701 7:0.502874 8:0.422841 9:0.845479 
0.08577699281724954 1:0.575208 2:0.501995 3:0.371923 4:0.226765 5:0.501995 6:0.501995 7:0.504708 8:0.422841 9:0.824492 
0.09490031113330308 1:0.550044 2:0.513071 3:0.376209 4:0.22668 5:0.513071 6:0.513071 7:0.506298 8:0.422208 9:0.801775 
0.09589071850771917 1:0.531727 2:0.529577 3:0.376764 4:0.227419 5:0.529577 6:0.529577 7:0.507521 8:0.421153 9:0.777956 
0.09646440640453059 1:0.522317 2:0.547614 3:0.370839 4:0.228557 5:0.547614 6:0.547614 7:0.507766 8:0.419042 9:0.753382 
0.0821075752632705 1:0.52306 2:0.563982 3:0.361773 4:0.229621 5:0.563982 6:0.563982 7:0.507399 8:0.416508 9:0.728431 
0.09361134347461104 1:0.534093 2:0.577833 3:0.353425 4:0.230418 5:0.577833 6:0.577833 7:0.506787 8:0.414608 9:0.70348 
0.08133002748963998 1:0.554712 2:0.588969 3:0.346827 4:0.230911 5:0.588969 6:0.588969 7:0.506298 8:0.413342 9:0.678938 
0.1015960456234529 1:0.583506 2:0.59688 3:0.342573 4:0.231126 5:0.59688 6:0.59688 7:0.505809 8:0.412708 9:0.655151 
0.07687381802995123 1:0.618017 2:0.600692 3:0.340485 4:0.231055 5:0.600692 6:0.600692 7:0.50532 8:0.41292 9:0.632465 
0.08992201166982601 1:0.655075 2:0.599621 3:0.340361 4:0.23076 5:0.599621 6:0.599621 7:0.505075 8:0.413764 9:0.611164 
0.09255729134916554 1:0.691472 2:0.593006 3:0.341864 4:0.230364 5:0.593006 6:0.593006 7:0.504953 8:0.415031 9:0.591152 
0.09139684982461638 1:0.724335 2:0.581232 3:0.344447 4:0.230048 5:0.581232 6:0.581232 7:0.50532 8:0.416508 9:0.572431 
0.08645112485909071 1:0.751282 2:0.566174 3:0.347665 4:0.229971 5:0.566174 6:0.566174 7:0.505809 8:0.417986 9:0.55544 
0.06910142097287419 1:0.770833 2:0.550487 3:0.351082 4:0.230266 5:0.550487 6:0.550487 7:0.506543 8:0.419464 9:0.540337 
0.02771094808951228 1:0.785013 2:0.527947 3:0.357218 4:0.232328 5:0.527947 6:0.527947 7:0.508499 8:0.421575 9:0.515166 
0.151161849172528 1:0.778904 2:0.524902 3:0.359885 4:0.234176 5:0.524902 6:0.524902 7:0.509478 8:0.421997 9:0.505727 
0.001653421335995301 1:0.745884 2:0.538093 3:0.362032 4:0.239249 5:0.538093 6:0.538093 7:0.510701 8:0.421153 9:0.492071 
0.1346939348717341 1:0.723581 2:0.551197 3:0.352919 4:0.241825 5:0.551197 6:0.551197 7:0.5096 8:0.420942 9:0.487257 
0.1718010344512847 1:0.672404 2:0.570976 3:0.318793 4:0.244095 5:0.570976 6:0.570976 7:0.505809 8:0.419886 9:0.482978 
0.05104329557718326 1:0.648131 2:0.57505 3:0.30263 4:0.243707 5:0.57505 6:0.57505 7:0.504341 8:0.419253 9:0.530898 
0.1225410479151249 1:0.617918 2:0.571114 3:0.281826 4:0.240907 5:0.571114 6:0.571114 7:0.50214 8:0.418408 9:0.581021 
0.1131011536198318 1:0.616476 2:0.563376 3:0.279971 4:0.238715 5:0.563376 6:0.563376 7:0.501406 8:0.418408 9:0.585961 
0.1714380488128503 1:0.65657 2:0.528499 3:0.298483 4:0.230035 5:0.528499 6:0.528499 7:0.499939 8:0.418619 9:0.549116 
-1 1:0.590158 2:0.377641 3:0.194862 4:0.110426 5:0.377641 6:0.377641 7:0.510089 8:0.411442 9:0.585111 
-1 1:0.583338 2:0.389301 3:0.194778 4:0.113151 5:0.389301 6:0.389301 7:0.510945 8:0.411864 9:0.590303 
-0.3613080669052102 1:0.561243 2:0.418327 3:0.194346 4:0.123748 5:0.418327 6:0.418327 7:0.512902 8:0.413342 9:0.593418 
-0.760734319750705 1:0.553955 2:0.426498 3:0.194096 4:0.127947 5:0.426498 6:0.426498 7:0.513391 8:0.413553 9:0.591372 
-0.004965493750138598 1:0.541428 2:0.441392 3:0.193629 4:0.13693 5:0.441392 6:0.441392 7:0.51388 8:0.413764 9:0.584671 
-0.6693183787266814 1:0.536536 2:0.447937 3:0.19348 4:0.141516 5:0.447937 6:0.447937 7:0.51388 8:0.413764 9:0.581115 
-1 1:0.52543 2:0.455977 3:0.193667 4:0.186682 5:0.455977 6:0.455977 7:0.513269 8:0.412708 9:0.566358 
-0.4822211067575017 1:0.528143 2:0.457074 3:0.193723 4:0.190906 5:0.457074 6:0.457074 7:0.513147 8:0.41292 9:0.567051 
-1 1:0.537119 2:0.462572 3:0.193271 4:0.221233 5:0.462572 6:0.462572 7:0.510456 8:0.413553 9:0.578252 
-1 1:0.536279 2:0.462115 3:0.193298 4:0.223809 5:0.462115 6:0.462115 7:0.510089 8:0.413342 9:0.579762 
-1 1:0.535452 2:0.462231 3:0.193346 4:0.226206 5:0.462231 6:0.462231 7:0.509845 8:0.413342 9:0.581209 
-0.309267832013893 1:0.534606 2:0.462738 3:0.193348 4:0.22843 5:0.462738 6:0.462738 7:0.509478 8:0.413342 9:0.582594 
-0.6933896294200941 1:0.526832 2:0.45919 3:0.193692 4:0.239488 5:0.45919 6:0.45919 7:0.507643 8:0.412075 9:0.593827 
-1 1:0.526717 2:0.455404 3:0.193769 4:0.240513 5:0.455404 6:0.455404 7:0.507399 8:0.411864 9:0.595368 
-1 1:0.527439 2:0.450651 3:0.193903 4:0.241475 5:0.450651 6:0.450651 7:0.507399 8:0.411653 9:0.596627 
-1 1:0.528976 2:0.445125 3:0.194027 4:0.24244 5:0.445125 6:0.445125 7:0.507399 8:0.411442 9:0.59798 
-1 1:0.531181 2:0.439369 3:0.194045 4:0.24345 5:0.439369 6:0.439369 7:0.507521 8:0.411231 9:0.599679 
-1 1:0.533859 2:0.433963 3:0.194002 4:0.244508 5:0.433963 6:0.433963 7:0.507643 8:0.41102 9:0.601504 
-1 1:0.536818 2:0.42939 3:0.193918 4:0.245627 5:0.42939 6:0.42939 7:0.507766 8:0.41102 9:0.603203 
-1 1:0.539936 2:0.425879 3:0.193845 4:0.246784 5:0.425879 6:0.425879 7:0.507766 8:0.411231 9:0.604556 
-1 1:0.542874 2:0.423403 3:0.193811 4:0.24797 5:0.423403 6:0.423403 7:0.507766 8:0.411442 9:0.605878 
-1 1:0.545141 2:0.42172 3:0.193775 4:0.249184 5:0.42172 6:0.42172 7:0.507888 8:0.411864 9:0.606444 
-1 1:0.54639 2:0.420474 3:0.193759 4:0.25043 5:0.420474 6:0.420474 7:0.50801 8:0.412286 9:0.606979 
-1 1:0.546532 2:0.419495 3:0.193689 4:0.251746 5:0.419495 6:0.419495 7:0.508133 8:0.412497 9:0.607419 
-0.5712220315727805 1:0.545569 2:0.418866 3:0.193576 4:0.253187 5:0.418866 6:0.418866 7:0.508377 8:0.41292 9:0.607986 
-1 1:0.518956 2:0.433656 3:0.19354 4:0.268573 5:0.433656 6:0.433656 7:0.509478 8:0.412497 9:0.604745 
-1 1:0.517082 2:0.436895 3:0.193671 4:0.27072 5:0.436895 6:0.436895 7:0.509478 8:0.412286 9:0.604147 
-1 1:0.516029 2:0.439654 3:0.193767 4:0.272852 5:0.439654 6:0.439654 7:0.509478 8:0.412286 9:0.603518 
-1 1:0.525063 2:0.445815 3:0.193397 4:0.29387 5:0.445815 6:0.445815 7:0.507399 8:0.411442 9:0.593984 
-1 1:0.524821 2:0.444506 3:0.193428 4:0.294881 5:0.444506 6:0.444506 7:0.507521 8:0.411231 9:0.594456 
-0.8150523623850802 1:0.524822 2:0.443954 3:0.193504 4:0.29593 5:0.443954 6:0.443954 7:0.507521 8:0.41102 9:0.595463 
-1 1:0.535371 2:0.467867 3:0.193601 4:0.296897 5:0.467867 6:0.467867 7:0.503363 8:0.410597 9:0.611856 
-0.1056777785137843 1:0.535368 2:0.467192 3:0.193573 4:0.295519 5:0.467192 6:0.467192 7:0.503119 8:0.410809 9:0.611982 
-0.1103752346043073 1:0.528899 2:0.45035 3:0.193127 4:0.287669 5:0.45035 6:0.45035 7:0.502752 8:0.41102 9:0.609716 
-1 1:0.772949 2:0.609715 3:0.192499 4:0.233278 5:0.609715 6:0.609715 7:0.50532 8:0.414608 9:0.659619 
-1 1:0.751572 2:0.605293 3:0.192594 4:0.232983 5:0.605293 6:0.605293 7:0.504953 8:0.416719 9:0.657857 
-0.3707658038995678 1:0.711123 2:0.595581 3:0.192902 4:0.231917 5:0.595581 6:0.595581 7:0.504464 8:0.419886 9:0.648386 
-0.5497521853372297 1:0.692756 2:0.590937 3:0.193024 4:0.231173 5:0.590937 6:0.590937 7:0.504219 8:0.421153 9:0.642062 
-1 1:0.661485 2:0.582599 3:0.193203 4:0.229278 5:0.582599 6:0.582599 7:0.50373 8:0.423053 9:0.62806 
-0.3306576629012172 1:0.649067 2:0.578798 3:0.193344 4:0.228164 5:0.578798 6:0.578798 7:0.503608 8:0.423897 9:0.621138 
-0.5719522806830636 1:0.613635 2:0.561199 3:0.19396 4:0.221851 5:0.561199 6:0.561199 7:0.504464 8:0.426852 9:0.590145 
-1 1:0.611779 2:0.560511 3:0.193963 4:0.221266 5:0.560511 6:0.560511 7:0.504831 8:0.427064 9:0.586684 
-1 1:0.610189 2:0.560841 3:0.193929 4:0.220854 5:0.560841 6:0.560841 7:0.505075 8:0.427064 9:0.583601 
-1 1:0.608784 2:0.562165 3:0.193824 4:0.220588 5:0.562165 6:0.562165 7:0.50532 8:0.427064 9:0.581178 
-1 1:0.607637 2:0.564247 3:0.193708 4:0.22041 5:0.564247 6:0.564247 7:0.505442 8:0.426852 9:0.578944 
-0.7499806535375869 1:0.605644 2:0.570662 3:0.193585 4:0.219816 5:0.570662 6:0.570662 7:0.505687 8:0.426008 9:0.574193 
-1 1:0.6056 2:0.569515 3:0.193573 4:0.219909 5:0.569515 6:0.569515 7:0.506054 8:0.425586 9:0.574508 
-1 1:0.605552 2:0.568469 3:0.19356 4:0.220184 5:0.568469 6:0.568469 7:0.506298 8:0.425375 9:0.575357 
-1 1:0.605424 2:0.568295 3:0.193584 4:0.22063 5:0.568295 6:0.568295 7:0.506665 8:0.424953 9:0.576333 
-1 1:0.605243 2:0.569262 3:0.193622 4:0.221209 5:0.569262 6:0.569262 7:0.506787 8:0.42453 9:0.577276 
-1 1:0.607465 2:0.582298 3:0.193925 4:0.229443 5:0.582298 6:0.582298 7:0.507766 8:0.420519 9:0.581933 
-1 1:0.608553 2:0.582491 3:0.193881 4:0.230633 5:0.582491 6:0.582491 7:0.507766 8:0.420097 9:0.582846 
-1 1:0.609503 2:0.581668 3:0.19384 4:0.231835 5:0.581668 6:0.581668 7:0.507888 8:0.419675 9:0.58379 
-1 1:0.610253 2:0.579983 3:0.193845 4:0.233047 5:0.579983 6:0.579983 7:0.507888 8:0.419464 9:0.584859 
-1 1:0.610758 2:0.57764 3:0.193887 4:0.234234 5:0.57764 6:0.57764 7:0.507766 8:0.419042 9:0.585835 
-1 1:0.610956 2:0.574667 3:0.193962 4:0.235394 5:0.574667 6:0.574667 7:0.507766 8:0.41883 9:0.586779 
-1 1:0.610777 2:0.571054 3:0.194011 4:0.236549 5:0.571054 6:0.571054 7:0.507766 8:0.418408 9:0.588195 
-1 1:0.610192 2:0.566857 3:0.194001 4:0.237769 5:0.566857 6:0.566857 7:0.507888 8:0.417986 9:0.589925 
-1 1:0.609319 2:0.562443 3:0.193965 4:0.239098 5:0.562443 6:0.562443 7:0.508133 8:0.417564 9:0.591844 
-1 1:0.608368 2:0.558334 3:0.193914 4:0.240563 5:0.558334 6:0.558334 7:0.508377 8:0.417142 9:0.593701 
-1 1:0.607442 2:0.555046 3:0.193904 4:0.242147 5:0.555046 6:0.555046 7:0.508622 8:0.416719 9:0.595683 
-1 1:0.606542 2:0.552903 3:0.193966 4:0.243825 5:0.552903 6:0.552903 7:0.508744 8:0.416297 9:0.597351 
-1 1:0.605685 2:0.55188 3:0.194052 4:0.245576 5:0.55188 6:0.55188 7:0.508866 8:0.415875 9:0.598452 
-1 1:0.604739 2:0.551737 3:0.194103 4:0.247383 5:0.551737 6:0.551737 7:0.508989 8:0.415453 9:0.599144 
-1 1:0.603549 2:0.552219 3:0.194091 4:0.24926 5:0.552219 6:0.552219 7:0.509111 8:0.415242 9:0.600025 
-1 1:0.602123 2:0.553243 3:0.194054 4:0.25123 5:0.553243 6:0.553243 7:0.509233 8:0.41482 9:0.600686 
-1 1:0.600598 2:0.554852 3:0.194042 4:0.253264 5:0.554852 6:0.554852 7:0.509355 8:0.414397 9:0.601284 
-0.8739791065857038 1:0.594251 2:0.586365 3:0.193316 4:0.298813 5:0.586365 6:0.586365 7:0.507032 8:0.407642 9:0.614153 
-0.4890386841454951 1:0.597147 2:0.567963 3:0.193563 4:0.294414 5:0.567963 6:0.567963 7:0.504219 8:0.408486 9:0.61195 
-0.1212208929374927 1:0.591152 2:0.591829 3:0.193821 4:0.285018 5:0.591829 6:0.591829 7:0.503608 8:0.409331 9:0.604997 
-1 1:0.597232 2:0.572892 3:0.193899 4:0.275617 5:0.572892 6:0.572892 7:0.503363 8:0.409753 9:0.595148 
-1 1:0.598505 2:0.570597 3:0.193894 4:0.274346 5:0.570597 6:0.570597 7:0.503485 8:0.409753 9:0.59433 
-1 1:0.599545 2:0.568799 3:0.193869 4:0.273184 5:0.568799 6:0.568799 7:0.50373 8:0.409964 9:0.593858 
-1 1:0.600307 2:0.567611 3:0.193788 4:0.272173 5:0.567611 6:0.567611 7:0.504097 8:0.409964 9:0.593953 
-1 1:0.605766 2:0.470751 3:0.194658 4:0.274542 5:0.470751 6:0.470751 7:0.512046 8:0.405109 9:0.325341 
-1 1:0.612296 2:0.475297 3:0.194413 4:0.278296 5:0.475297 6:0.475297 7:0.512657 8:0.404898 9:0.312063 
-0.5873468007002159 1:0.61972 2:0.480639 3:0.194184 4:0.282382 5:0.480639 6:0.480639 7:0.513147 8:0.404898 9:0.302561 
-1 1:0.618922 2:0.419834 3:0.193685 4:0.246445 5:0.419834 6:0.419834 7:0.407362 8:0.552882 9:0.269587 
-1 1:0.61705 2:0.399329 3:0.193594 4:0.236295 5:0.399329 6:0.399329 7:0.508255 8:0.409753 9:0.585111 
-1 1:0.61531 2:0.39227 3:0.19369 4:0.238262 5:0.39227 6:0.39227 7:0.510089 8:0.408909 9:0.58187 
-0.04481843404284639 1:0.611616 2:0.381685 3:0.193951 4:0.241177 5:0.381685 6:0.381685 7:0.511679 8:0.408064 9:0.576899 
-0.4306180879294629 1:0.606066 2:0.370257 3:0.194264 4:0.245011 5:0.370257 6:0.370257 7:0.513391 8:0.407431 9:0.570795 
-1 1:0.591244 2:0.35373 3:0.194716 4:0.255594 5:0.35373 6:0.35373 7:0.516815 8:0.405531 9:0.557894 
-0.4802463916392398 1:0.574407 2:0.350677 3:0.194764 4:0.269779 5:0.350677 6:0.350677 7:0.519751 8:0.40342 9:0.543295 
-0.2022120565011895 1:0.565856 2:0.353446 3:0.19461 4:0.278046 5:0.353446 6:0.353446 7:0.520973 8:0.402364 9:0.540086 
-0.07396932114896672 1:0.557597 2:0.358259 3:0.194399 4:0.286984 5:0.358259 6:0.358259 7:0.522074 8:0.40152 9:0.539393 
-0.4044262341958747 1:0.54969 2:0.364506 3:0.194131 4:0.296502 5:0.364506 6:0.364506 7:0.523052 8:0.400676 9:0.541848 
-0.2371321685552597 1:0.542124 2:0.371496 3:0.193827 4:0.306515 5:0.371496 6:0.371496 7:0.523908 8:0.39962 9:0.547259 
-0.7402094926668844 1:0.535055 2:0.378602 3:0.193477 4:0.316946 5:0.378602 6:0.378602 7:0.52452 8:0.398776 9:0.555346 
-0.2337802592382667 1:0.528587 2:0.385522 3:0.193121 4:0.327705 5:0.385522 6:0.385522 7:0.525009 8:0.398142 9:0.565666 
-0.02772190399904257 1:0.517596 2:0.398352 3:0.19238 4:0.350069 5:0.398352 6:0.398352 7:0.526354 8:0.396031 9:0.59282 
-1 1:0.512821 2:0.404323 3:0.191979 4:0.361979 5:0.404323 6:0.404323 7:0.527333 8:0.394765 9:0.612107 
-1 1:0.487465 2:0.432145 3:0.192975 4:0.28042 5:0.432145 6:0.432145 7:0.239574 8:0.578636 9:0.557234 
-1 1:0.476081 2:0.444228 3:0.193492 4:0.237173 5:0.444228 6:0.444228 7:0.510823 8:0.407009 9:0.587502 
-0.5495662585674698 1:0.478913 2:0.467806 3:0.190826 4:0.298938 5:0.467806 6:0.467806 7:0.528433 8:0.385265 9:0.645617 
-0.4995494417012792 1:0.481265 2:0.472833 3:0.19062 4:0.31205 5:0.472833 6:0.472833 7:0.529534 8:0.383154 9:0.655151 
-0.5784734899966524 1:0.48543 2:0.482364 3:0.190497 4:0.339767 5:0.482364 6:0.482364 7:0.530879 8:0.379354 9:0.671953 
-0.3294135575235823 1:0.487052 2:0.487398 3:0.19051 4:0.354015 5:0.487398 6:0.487398 7:0.531124 8:0.377454 9:0.679064 
-0.8957152099980507 1:0.489124 2:0.498693 3:0.19072 4:0.382554 5:0.498693 6:0.498693 7:0.530757 8:0.374499 9:0.690359 
-0.4940750226399294 1:0.490604 2:0.511136 3:0.191772 4:0.434827 5:0.511136 6:0.511136 7:0.526721 8:0.370488 9:0.702064 
-1 1:0.490675 2:0.507333 3:0.192166 4:0.446269 5:0.507333 6:0.507333 7:0.525376 8:0.370065 9:0.704739 
-1 1:0.485825 2:0.488996 3:0.192713 4:0.406848 5:0.488996 6:0.488996 7:0.07142 8:1 9:0.591813 
-1 1:0.469951 2:0.443951 3:0.193591 4:0.235827 5:0.443951 6:0.443951 7:0.507766 8:0.406586 9:0.586086 
-0.2283166078849251 1:0.469766 2:0.443972 3:0.193445 4:0.237687 5:0.443972 6:0.443972 7:0.510089 8:0.400676 9:0.587691 
-0.4679678422596489 1:0.4793 2:0.426388 3:0.191613 4:0.258947 5:0.426388 6:0.426388 7:0.514859 8:0.382732 9:0.607042 
-0.115668521440968 1:0.484742 2:0.416238 3:0.191538 4:0.26422 5:0.416238 6:0.416238 7:0.515226 8:0.381465 9:0.611352 
-0.5141052839636751 1:0.497551 2:0.392014 3:0.19209 4:0.275196 5:0.392014 6:0.392014 7:0.515593 8:0.379565 9:0.62054 
-1 1:0.503736 2:0.379296 3:0.192743 4:0.280832 5:0.379296 6:0.379296 7:0.515837 8:0.378932 9:0.624536 
-0.1814159557470794 1:0.509386 2:0.366756 3:0.193597 4:0.286584 5:0.366756 6:0.366756 7:0.516082 8:0.378087 9:0.62784 
-0.7729983910864611 1:0.514875 2:0.355105 3:0.194619 4:0.292608 5:0.355105 6:0.355105 7:0.516815 8:0.376821 9:0.630766 
-0.4650164765792069 1:0.520705 2:0.345319 3:0.195706 4:0.299098 5:0.345319 6:0.345319 7:0.517672 8:0.375765 9:0.634447 
-0.07503885488288102 1:0.527032 2:0.338179 3:0.196784 4:0.306118 5:0.338179 6:0.338179 7:0.51865 8:0.37471 9:0.637688 
-0.9078920034612454 1:0.540727 2:0.331233 3:0.198415 4:0.321832 5:0.331233 6:0.331233 7:0.520729 8:0.373654 9:0.642408 
-0.3625017525807397 1:0.579635 2:0.349898 3:0.199345 4:0.363637 5:0.349898 6:0.349898 7:0.519628 8:0.382521 9:0.647568 
-0.1199563565918654 1:0.585221 2:0.360153 3:0.199508 4:0.371285 5:0.360153 6:0.360153 7:0.519017 8:0.385054 9:0.650935 
-0.5159400075876674 1:0.587928 2:0.372954 3:0.199713 4:0.378582 5:0.372954 6:0.372954 7:0.518283 8:0.387798 9:0.655434 
-0.2057291413348809 1:0.584095 2:0.399857 3:0.212428 4:0.390836 5:0.399857 6:0.399857 7:0.513514 8:0.392865 9:0.665849 
-1 1:0.580958 2:0.403136 3:0.222728 4:0.394021 5:0.403136 6:0.403136 7:0.509355 8:0.396665 9:0.67082 
-0.2086617483530053 1:0.578112 2:0.395904 3:0.229252 4:0.395092 5:0.395904 6:0.395904 7:0.506054 8:0.400464 9:0.673148 
-0.02309154066152259 1:0.575354 2:0.380048 3:0.231565 4:0.394523 5:0.380048 6:0.380048 7:0.503363 8:0.404053 9:0.672802 
-0.7628188221149119 1:0.572655 2:0.358472 3:0.230489 4:0.392671 5:0.358472 6:0.358472 7:0.501406 8:0.407431 9:0.671795 
-0.4363949444218518 1:0.57027 2:0.334658 3:0.226471 4:0.389832 5:0.334658 6:0.334658 7:0.499939 8:0.410386 9:0.669813 
-0.7972533099084128 1:0.568308 2:0.312229 3:0.220389 4:0.386215 5:0.312229 6:0.312229 7:0.498716 8:0.413342 9:0.666478 
-0.1510847267397747 1:0.565354 2:0.283202 3:0.205342 4:0.377328 5:0.283202 6:0.283202 7:0.497004 8:0.417986 9:0.65342 
-1 1:0.564397 2:0.279532 3:0.197696 4:0.37225 5:0.279532 6:0.279532 7:0.496392 8:0.420097 9:0.645837 
-0.1982600745121458 1:0.563634 2:0.282672 3:0.19064 4:0.366869 5:0.282672 6:0.282672 7:0.495903 8:0.421997 9:0.640016 
-0.3226850746762817 1:0.562236 2:0.304901 3:0.179097 4:0.355646 5:0.304901 6:0.304901 7:0.495659 8:0.425164 9:0.624536 
-0.6963215014034368 1:0.560927 2:0.321117 3:0.17486 4:0.349994 5:0.321117 6:0.321117 7:0.495659 8:0.42643 9:0.615726 
-0.3061761430966348 1:0.558683 2:0.3389 3:0.171744 4:0.344411 5:0.3389 6:0.3389 7:0.495903 8:0.427486 9:0.608583 
-0.7953309310284621 1:0.555186 2:0.357324 3:0.169627 4:0.338962 5:0.357324 6:0.357324 7:0.496148 8:0.42833 9:0.603077 
-0.1682521200583261 1:0.550286 2:0.375906 3:0.168314 4:0.333696 5:0.375906 6:0.375906 7:0.496515 8:0.428963 9:0.59905 
-0.8885081625029343 1:0.544004 2:0.394461 3:0.167743 4:0.328655 5:0.394461 6:0.394461 7:0.496881 8:0.429386 9:0.596407 
-0.2546990203830245 1:0.536343 2:0.412869 3:0.167885 4:0.323874 5:0.412869 6:0.412869 7:0.497371 8:0.429808 9:0.595211 
-0.6526346576822236 1:0.526999 2:0.430748 3:0.168785 4:0.319391 5:0.430748 6:0.430748 7:0.497982 8:0.429808 9:0.595777 
-0.2568764383584788 1:0.51571 2:0.447348 3:0.171814 4:0.315145 5:0.447348 6:0.447348 7:0.498104 8:0.43023 9:0.597099 
-0.05260366117829197 1:0.502052 2:0.460592 3:0.175754 4:0.310682 5:0.460592 6:0.460592 7:0.497371 8:0.431075 9:0.59927 
-0.04077503634542015 1:0.4866 2:0.46964 3:0.17984 4:0.305793 5:0.46964 6:0.46964 7:0.496759 8:0.431708 9:0.602385 
-1 1:0.446073 2:0.477798 3:0.188341 4:0.290284 5:0.477798 6:0.477798 7:0.496515 8:0.43213 9:0.605752 
-0.1748947231467424 1:0.437313 2:0.473908 3:0.189621 4:0.285229 5:0.473908 6:0.473908 7:0.496881 8:0.431708 9:0.604808 
-0.1838401252023341 1:0.428121 2:0.455221 3:0.19027 4:0.275958 5:0.455221 6:0.455221 7:0.497982 8:0.430652 9:0.602826 
-0.2181506093790234 1:0.428129 2:0.442104 3:0.190075 4:0.27183 5:0.442104 6:0.442104 7:0.498716 8:0.430019 9:0.601756 
-0.2335234507738798 1:0.431164 2:0.428061 3:0.189705 4:0.268091 5:0.428061 6:0.428061 7:0.49945 8:0.429386 9:0.601315 
-0.4420054642953236 1:0.437098 2:0.414461 3:0.189237 4:0.264836 5:0.414461 6:0.414461 7:0.500428 8:0.428541 9:0.602133 
-0.692722567104731 1:0.471009 2:0.39076 3:0.189334 4:0.258244 5:0.39076 6:0.39076 7:0.502507 8:0.42643 9:0.608521 
-1 1:0.487049 2:0.392693 3:0.189042 4:0.256338 5:0.392693 6:0.392693 7:0.502018 8:0.42643 9:0.61151 
-1 1:0.506652 2:0.401239 3:0.18824 4:0.254162 5:0.401239 6:0.401239 7:0.501651 8:0.42643 9:0.614876 
-0.1006944090053624 1:0.571569 2:0.432719 3:0.184204 4:0.247566 5:0.432719 6:0.432719 7:0.50214 8:0.426852 9:0.631961 
-1 1:0.588768 2:0.434255 3:0.183229 4:0.245733 5:0.434255 6:0.434255 7:0.502752 8:0.426641 9:0.638632 
-1 1:0.603091 2:0.429576 3:0.182545 4:0.244276 5:0.429576 6:0.429576 7:0.503485 8:0.42643 9:0.644988 
