svm_type c_svc
kernel_type rbf
gamma 136
nr_class 2
total_sv 225
rho -0.74402
label 0 1
nr_sv 170 55
SV
0.9360626918776769 1:0.363423 2:0.485561 3:0.510413 4:0.536259 5:0.485561 6:0.485561 7:0.897638 8:0.6 9:0.743919 
1 1:0.362989 2:0.485799 3:0.510096 4:0.53634 5:0.485799 6:0.485799 7:0.897638 8:0.6 9:0.743919 
1 1:0.362938 2:0.485827 3:0.509415 4:0.536387 5:0.485827 6:0.485827 7:0.897638 8:0.6 9:0.743919 
1 1:0.362958 2:0.485816 3:0.508159 4:0.536387 5:0.485816 6:0.485816 7:0.897638 8:0.6 9:0.743919 
0.04775947979926989 1:0.291827 2:0.416255 3:0.498387 4:0.535647 5:0.416255 6:0.416255 7:0.899138 8:0.576923 9:0.743879 
0.1499972910870856 1:0.234057 2:0.378687 3:0.506548 4:0.542218 5:0.378687 6:0.378687 7:0.900637 8:0.576923 9:0.745191 
0.1223329234485658 1:0.246877 2:0.404967 3:0.459104 4:0.547606 5:0.404967 6:0.404967 7:0.899888 8:0.592308 9:0.746145 
0.2531799300850616 1:0.252278 2:0.426102 3:0.248857 4:0.548831 5:0.426102 6:0.426102 7:0.899138 8:0.592308 9:0.70314 
0.2422452226802988 1:0.255189 2:0.451868 3:0.1053 4:0.549473 5:0.451868 6:0.451868 7:0.898013 8:0.530769 9:0.617289 
0.2134641397683393 1:0.256734 2:0.480098 3:0.032674 4:0.5491 5:0.480098 6:0.480098 7:0.896138 8:0.438462 9:0.543005 
0.1724705561796471 1:0.262135 2:0.50831 3:0.013042 4:0.547276 5:0.50831 6:0.50831 7:0.893513 8:0.361538 9:0.477107 
0.1560431561909754 1:0.275965 2:0.534009 3:0.030625 4:0.543868 5:0.534009 6:0.534009 7:0.890889 8:0.307692 9:0.417289 
0.1601231120333974 1:0.300346 2:0.555531 3:0.073001 4:0.53889 5:0.555531 6:0.555531 7:0.888639 8:0.261538 9:0.361924 
0.1575020988638997 1:0.334021 2:0.572363 3:0.129569 4:0.532191 5:0.572363 6:0.572363 7:0.885639 8:0.230769 9:0.310175 
0.1564039838294314 1:0.37429 2:0.584695 3:0.192157 4:0.523485 5:0.584695 6:0.584695 7:0.88189 8:0.215385 9:0.261447 
0.1490796522586214 1:0.417874 2:0.5927 3:0.254738 4:0.511054 5:0.5927 6:0.5927 7:0.873641 8:0.207692 9:0.215739 
0.1515811099126979 1:0.461676 2:0.595779 3:0.313249 4:0.492128 5:0.595779 6:0.595779 7:0.862017 8:0.207692 9:0.172695 
0.1671471919694124 1:0.502732 2:0.591723 3:0.365469 4:0.465956 5:0.591723 6:0.591723 7:0.851144 8:0.253846 9:0.132671 
0.1607975528312959 1:0.537661 2:0.577444 3:0.410112 4:0.433831 5:0.577444 6:0.577444 7:0.843645 8:0.315385 9:0.095549 
0.1432310643935487 1:0.562449 2:0.55179 3:0.44672 4:0.397223 5:0.55179 6:0.55179 7:0.83652 8:0.353846 9:0.062401 
0.1490935544480695 1:0.575161 2:0.516263 3:0.475817 4:0.355608 5:0.516263 6:0.516263 7:0.828271 8:0.361538 9:0.035095 
0.1650067081697599 1:0.577007 2:0.4728 3:0.497837 4:0.309468 5:0.4728 6:0.4728 7:0.822647 8:0.361538 9:0.015064 
0.1774906617334747 1:0.5718 2:0.422849 3:0.513759 4:0.260712 5:0.422849 6:0.422849 7:0.820023 8:0.369231 9:0.0031 
0.1838140536728067 1:0.56387 2:0.368211 3:0.524368 4:0.211754 5:0.368211 6:0.368211 7:0.821897 8:0.384615 9:0 
0.1799462360850246 1:0.556614 2:0.311934 3:0.530744 4:0.164916 5:0.311934 6:0.311934 7:0.826772 8:0.392308 9:0.006121 
0.1647634328350025 1:0.552393 2:0.258347 3:0.53375 4:0.122302 5:0.258347 6:0.258347 7:0.835021 8:0.384615 9:0.014706 
0.1403258838932899 1:0.55337 2:0.212011 3:0.534421 4:0.085388 5:0.212011 6:0.212011 7:0.844394 8:0.376923 9:0.031399 
0.1227659409002757 1:0.561139 2:0.176926 3:0.533399 4:0.054771 5:0.176926 6:0.176926 7:0.854893 8:0.361538 9:0.063355 
0.1053667973946015 1:0.576851 2:0.15608 3:0.531265 4:0.030923 5:0.15608 6:0.15608 7:0.865767 8:0.338462 9:0.107472 
0.1120352075407314 1:0.601044 2:0.150739 3:0.528551 4:0.014029 5:0.150739 6:0.150739 7:0.87664 8:0.323077 9:0.160413 
0.1269681829692379 1:0.633242 2:0.160137 3:0.525427 4:0.003894 5:0.160137 6:0.160137 7:0.886764 8:0.330769 9:0.2188 
0.1585829372893168 1:0.671571 2:0.182386 3:0.52222 4:0 5:0.182386 6:0.182386 7:0.896138 8:0.353846 9:0.27973 
0.1809659557110263 1:0.712458 2:0.214587 3:0.51915 4:0.001607 5:0.214587 6:0.214587 7:0.904012 8:0.392308 9:0.341455 
0.1906535192372003 1:0.751782 2:0.253308 3:0.516029 4:0.008061 5:0.253308 6:0.253308 7:0.911136 8:0.446154 9:0.402146 
0.1862672466281958 1:0.785578 2:0.295291 3:0.513195 4:0.018408 5:0.295291 6:0.295291 7:0.916385 8:0.5 9:0.460215 
0.1810703094738569 1:0.810409 2:0.337343 3:0.510642 4:0.031673 5:0.337343 6:0.337343 7:0.92051 8:0.553846 9:0.513911 
0.1703227869930534 1:0.824341 2:0.376554 3:0.508355 4:0.047205 5:0.376554 6:0.376554 7:0.92351 8:0.615385 9:0.562758 
0.1432144776058544 1:0.827323 2:0.411027 3:0.506595 4:0.064453 5:0.411027 6:0.411027 7:0.925759 8:0.669231 9:0.60628 
0.1522006795128948 1:0.820028 2:0.439837 3:0.505299 4:0.082762 5:0.439837 6:0.439837 7:0.926884 8:0.723077 9:0.644157 
0.08703973347242686 1:0.803179 2:0.462445 3:0.504341 4:0.101773 5:0.462445 6:0.462445 7:0.928009 8:0.776923 9:0.676828 
0.1862801425533623 1:0.77779 2:0.478876 3:0.503879 4:0.121195 5:0.478876 6:0.478876 7:0.928384 8:0.823077 9:0.703537 
1 1:0.669273 2:0.497394 3:0.50416 4:0.179605 5:0.497394 6:0.497394 7:0.928009 8:0.930769 9:0.752226 
1 1:0.401805 2:0.495836 3:0.507695 4:0.614751 5:0.495836 6:0.495836 7:0.893513 8:0.646154 9:0.754571 
1 1:0.395594 2:0.494766 3:0.507723 4:0.612083 5:0.494766 6:0.494766 7:0.893513 8:0.646154 9:0.75473 
1 1:0.38769 2:0.493993 3:0.507668 4:0.609433 5:0.493993 6:0.493993 7:0.893513 8:0.646154 9:0.75465 
1 1:0.378238 2:0.492477 3:0.507658 4:0.606813 5:0.492477 6:0.492477 7:0.893513 8:0.646154 9:0.754571 
1 1:0.367596 2:0.487635 3:0.50764 4:0.604281 5:0.487635 6:0.487635 7:0.893888 8:0.646154 9:0.754372 
1 1:0.35628 2:0.476492 3:0.507556 4:0.602132 5:0.476492 6:0.476492 7:0.894638 8:0.646154 9:0.75469 
0.9135092884155636 1:0.345101 2:0.456928 3:0.50762 4:0.600567 5:0.456928 6:0.456928 7:0.895763 8:0.638462 9:0.755366 
0.1733151607413331 1:0.320161 2:0.345841 3:0.507874 4:0.603574 5:0.345841 6:0.345841 7:0.904387 8:0.615385 9:0.758466 
0.1364636347644868 1:0.314985 2:0.29664 3:0.508042 4:0.609396 5:0.29664 6:0.29664 7:0.909261 8:0.607692 9:0.762281 
0.1556666028782138 1:0.311229 2:0.245635 3:0.50841 4:0.618772 5:0.245635 6:0.245635 7:0.915261 8:0.6 9:0.767329 
0.1431227290377866 1:0.308775 2:0.195659 3:0.508622 4:0.63232 5:0.195659 6:0.195659 7:0.92276 8:0.592308 9:0.773172 
0.141085867947345 1:0.307884 2:0.148804 3:0.508828 4:0.65085 5:0.148804 6:0.148804 7:0.931009 8:0.584615 9:0.779889 
0.1214550493165589 1:0.308393 2:0.106798 3:0.509118 4:0.67491 5:0.106798 6:0.106798 7:0.940008 8:0.569231 9:0.787599 
0.1196799698157152 1:0.309708 2:0.071099 3:0.509336 4:0.70464 5:0.071099 6:0.071099 7:0.948631 8:0.561538 9:0.795747 
0.08115458500309453 1:0.311491 2:0.042577 3:0.509622 4:0.740037 5:0.042577 6:0.042577 7:0.95763 8:0.553846 9:0.803816 
0.1249580741484723 1:0.313183 2:0.021592 3:0.51002 4:0.781138 5:0.021592 6:0.021592 7:0.966629 8:0.546154 9:0.81244 
0.04010441075620656 1:0.314182 2:0.007982 3:0.510243 4:0.82781 5:0.007982 6:0.007982 7:0.975253 8:0.538462 9:0.820787 
0.1637049843886593 1:0.314561 2:0.00114 3:0.510626 4:0.879866 5:0.00114 6:0.00114 7:0.983502 8:0.530769 9:0.829253 
0.01734843074870663 1:0.314839 2:0 3:0.510835 4:0.937319 5:0 6:0 7:0.992126 8:0.523077 9:0.838831 
0.2254599102694915 1:0.315606 2:0.003425 3:0.510907 4:1 5:0.003425 6:0.003425 7:1 8:0.515385 9:0.849444 
0.2561226449339323 1:0.33542 2:0.339336 3:0.509841 4:0.88013 5:0.339336 6:0.339336 7:0 8:0.923077 9:0.75473 
0.2047073451431317 1:0.372624 2:1 3:0.507421 4:0.530108 5:1 6:1 7:0.902137 8:0.607692 9:0.742846 
0.08862007923557919 1:0.366411 2:0.961964 3:0.506293 4:0.544391 5:0.961964 6:0.961964 7:0.906262 8:0.623077 9:0.722814 
0.1793366478546118 1:0.364641 2:0.920805 3:0.505551 4:0.54951 5:0.920805 6:0.920805 7:0.905137 8:0.592308 9:0.686606 
0.1955021554198594 1:0.367923 2:0.863994 3:0.504978 4:0.55421 5:0.863994 6:0.863994 7:0.904762 8:0.561538 9:0.641097 
0.2040283621669168 1:0.375673 2:0.799736 3:0.504445 4:0.558556 5:0.799736 6:0.799736 7:0.904012 8:0.538462 9:0.600914 
0.1989287015978471 1:0.387554 2:0.73412 3:0.504235 4:0.562596 5:0.73412 6:0.73412 7:0.904012 8:0.507692 9:0.565819 
0.1836932973927824 1:0.403108 2:0.671486 3:0.504381 4:0.566551 5:0.671486 6:0.671486 7:0.904012 8:0.492308 9:0.53597 
0.1638498676620097 1:0.421443 2:0.615109 3:0.504527 4:0.570449 5:0.615109 6:0.615109 7:0.903637 8:0.476923 9:0.510254 
0.1403952638495979 1:0.441375 2:0.566828 3:0.504904 4:0.574197 5:0.566828 6:0.566828 7:0.903637 8:0.492308 9:0.489269 
0.1152775552651327 1:0.460709 2:0.527272 3:0.505166 4:0.577949 5:0.527272 6:0.527272 7:0.903637 8:0.515385 9:0.473172 
0.08489363813481043 1:0.476561 2:0.496385 3:0.505239 4:0.581711 5:0.496385 6:0.496385 7:0.903637 8:0.530769 9:0.461089 
0.08599319808146891 1:0.487317 2:0.473575 3:0.505478 4:0.585416 5:0.473575 6:0.473575 7:0.903262 8:0.553846 9:0.452464 
0.1243493627976846 1:0.490017 2:0.448538 3:0.505977 4:0.592407 5:0.448538 6:0.448538 7:0.902887 8:0.607692 9:0.444754 
0.05131321705861766 1:0.481473 2:0.444499 3:0.50606 4:0.595509 5:0.444499 6:0.444499 7:0.902137 8:0.630769 9:0.444277 
0.08519382114428481 1:0.42158 2:0.451707 3:0.506374 4:0.601066 5:0.451707 6:0.451707 7:0.898763 8:0.715385 9:0.451272 
1 1:0.393362 2:0.45658 3:0.506542 4:0.601359 5:0.45658 6:0.45658 7:0.897638 8:0.746154 9:0.455246 
1 1:0.375945 2:0.503358 3:0.508706 4:0.530447 5:0.503358 6:0.503358 7:0.894263 8:0.546154 9:0.743601 
1 1:0.357873 2:0.504248 3:0.475126 4:0.530098 5:0.504248 6:0.504248 7:0.899138 8:0.661538 9:0.743641 
0.3728818739950717 1:0.351419 2:0.505728 3:0.432762 4:0.531131 5:0.505728 6:0.505728 7:0.899513 8:0.707692 9:0.743641 
0.1141790664139652 1:0.334622 2:0.507438 3:0.352501 4:0.531984 5:0.507438 6:0.507438 7:0.898388 8:0.753846 9:0.742409 
0.1611802852162123 1:0.305546 2:0.508311 3:0.274703 4:0.532215 5:0.508311 6:0.508311 7:0.897638 8:0.792308 9:0.738275 
0.1232426624158631 1:0.267023 2:0.507627 3:0.207389 4:0.532059 5:0.507627 6:0.507627 7:0.897263 8:0.815385 9:0.734539 
0.1227762990031833 1:0.222789 2:0.505121 3:0.151162 4:0.531743 5:0.505121 6:0.505121 7:0.897263 8:0.838462 9:0.728736 
0.1085620962157263 1:0.176912 2:0.501092 3:0.105518 4:0.531508 5:0.501092 6:0.501092 7:0.897263 8:0.846154 9:0.721781 
0.06603431583041015 1:0.13301 2:0.496351 3:0.069948 4:0.531343 5:0.496351 6:0.496351 7:0.897263 8:0.853846 9:0.714905 
0.1239499405901617 1:0.093827 2:0.491615 3:0.04342 4:0.531314 5:0.491615 6:0.491615 7:0.898013 8:0.853846 9:0.7093 
0.01163278230949087 1:0.061029 2:0.487333 3:0.024438 4:0.531743 5:0.487333 6:0.487333 7:0.898763 8:0.846154 9:0.704928 
0.1943168997918432 1:4.6e-05 2:0.484461 3:0 4:0.538291 5:0.484461 6:0.484461 7:0.901762 8:0.815385 9:0.703657 
0.1282207377207686 1:0.029218 2:0.527689 3:0.018369 4:0.571256 5:0.527689 6:0.527689 7:0.910761 8:0.776923 9:0.743879 
0.000698210940797521 1:0.035404 2:0.540371 3:0.021412 4:0.579896 5:0.540371 6:0.540371 7:0.911511 8:0.753846 9:0.752186 
0.1178866107940411 1:0.040185 2:0.554374 3:0.02405 4:0.58897 5:0.554374 6:0.554374 7:0.911886 8:0.730769 9:0.760851 
0.02274162686063864 1:0.044191 2:0.569228 3:0.026281 4:0.598101 5:0.569228 6:0.569228 7:0.911886 8:0.7 9:0.768561 
0.1134264102077313 1:0.048242 2:0.58413 3:0.028068 4:0.606996 5:0.58413 6:0.58413 7:0.911511 8:0.669231 9:0.77496 
0.02930284976547393 1:0.053022 2:0.598254 3:0.029219 4:0.615694 5:0.598254 6:0.598254 7:0.911136 8:0.646154 9:0.781836 
0.07390998034022102 1:0.058781 2:0.611219 3:0.030002 4:0.624221 5:0.611219 6:0.611219 7:0.911136 8:0.615385 9:0.789825 
0.08420920520550777 1:0.06474 2:0.622877 3:0.030389 4:0.632692 5:0.622877 6:0.622877 7:0.910761 8:0.584615 9:0.798211 
0.0654335315848534 1:0.070621 2:0.633399 3:0.030476 4:0.641177 5:0.633399 6:0.633399 7:0.911136 8:0.538462 9:0.805843 
0.09792107703881296 1:0.077711 2:0.642928 3:0.030332 4:0.64994 5:0.642928 6:0.642928 7:0.911886 8:0.5 9:0.812878 
0.01191243572238806 1:0.087285 2:0.651836 3:0.030322 4:0.658934 5:0.651836 6:0.651836 7:0.911511 8:0.469231 9:0.818839 
0.1028463104397586 1:0.099295 2:0.66022 3:0.030275 4:0.667613 5:0.66022 6:0.66022 7:0.910761 8:0.446154 9:0.823211 
0.01926460137812274 1:0.126395 2:0.673664 3:0.029861 4:0.682777 5:0.673664 6:0.673664 7:0.908511 8:0.415385 9:0.823927 
0.05289223284221543 1:0.139512 2:0.677445 3:0.029713 4:0.689447 5:0.677445 6:0.677445 7:0.907762 8:0.407692 9:0.824205 
0.06194966831026526 1:0.151115 2:0.6789 3:0.02956 4:0.695637 5:0.6789 6:0.6789 7:0.907012 8:0.4 9:0.824801 
0.02775212113470258 1:0.184844 2:0.666384 3:0.028913 4:0.726122 5:0.666384 6:0.666384 7:0.908136 8:0.353846 9:0.824245 
0.1234448828783034 1:0.203251 2:0.667502 3:0.029845 4:0.739981 5:0.667502 6:0.667502 7:0.908511 8:0.369231 9:0.819833 
0.1057849221306285 1:0.233272 2:0.678724 3:0.058711 4:0.752718 5:0.678724 6:0.678724 7:0.906262 8:0.307692 9:0.806359 
0.09224785476200709 1:0.257076 2:0.687095 3:0.086254 4:0.757804 5:0.687095 6:0.687095 7:0.904762 8:0.269231 9:0.802703 
0.1162847879573878 1:0.288796 2:0.695267 3:0.119923 4:0.761947 5:0.695267 6:0.695267 7:0.903262 8:0.230769 9:0.801232 
0.1227238172924906 1:0.32828 2:0.701988 3:0.157507 4:0.76496 5:0.701988 6:0.701988 7:0.901387 8:0.184615 9:0.802544 
0.1256426974448842 1:0.375065 2:0.706314 3:0.197264 4:0.7666 5:0.706314 6:0.706314 7:0.899138 8:0.146154 9:0.80624 
0.1330417664230651 1:0.428103 2:0.707446 3:0.237247 4:0.767015 5:0.707446 6:0.707446 7:0.897638 8:0.107692 9:0.811248 
0.136202835302678 1:0.486588 2:0.705191 3:0.275997 4:0.766383 5:0.705191 6:0.705191 7:0.895763 8:0.069231 9:0.816852 
0.1320843113751943 1:0.549369 2:0.699933 3:0.312672 4:0.764408 5:0.699933 6:0.699933 7:0.893138 8:0.038461 9:0.823052 
0.1311960758042168 1:0.614212 2:0.691992 3:0.346257 4:0.760675 5:0.691992 6:0.691992 7:0.890514 8:0.015385 9:0.829253 
0.1228098394168477 1:0.678932 2:0.681701 3:0.376441 4:0.755131 5:0.681701 6:0.681701 7:0.887514 8:0 9:0.83589 
0.1197009849182265 1:0.741345 2:0.669339 3:0.402879 4:0.747711 5:0.669339 6:0.669339 7:0.884514 8:0 9:0.843243 
0.1112903437503103 1:0.799932 2:0.655246 3:0.425502 4:0.738364 5:0.655246 6:0.655246 7:0.881515 8:0.007692 9:0.851312 
0.113247984245577 1:0.853357 2:0.639506 3:0.444656 4:0.727192 5:0.639506 6:0.639506 7:0.87889 8:0.023077 9:0.860056 
0.1017420791441096 1:0.900418 2:0.62223 3:0.460381 4:0.714591 5:0.62223 6:0.62223 7:0.87664 8:0.046154 9:0.869595 
0.1125029895597679 1:0.939756 2:0.603906 3:0.473147 4:0.700737 5:0.603906 6:0.603906 7:0.875141 8:0.076923 9:0.879968 
0.1128927428335062 1:0.970101 2:0.585141 3:0.483242 4:0.685898 5:0.585141 6:0.585141 7:0.873641 8:0.123077 9:0.89062 
0.1194278253243945 1:0.990444 2:0.56675 3:0.491279 4:0.670337 5:0.56675 6:0.56675 7:0.872891 8:0.176923 9:0.901351 
0.1212848614815807 1:1 2:0.549444 3:0.497312 4:0.654315 5:0.549444 6:0.549444 7:0.872141 8:0.238462 9:0.912361 
0.1160365468430422 1:0.99884 2:0.533807 3:0.501834 4:0.638174 5:0.533807 6:0.533807 7:0.872141 8:0.3 9:0.92341 
0.1179571175143486 1:0.987416 2:0.520349 3:0.5052 4:0.622147 5:0.520349 6:0.520349 7:0.872891 8:0.361538 9:0.934221 
0.1193577909071863 1:0.966603 2:0.509622 3:0.507448 4:0.606473 5:0.509622 6:0.509622 7:0.873266 8:0.423077 9:0.944356 
0.1179094113406413 1:0.937958 2:0.501813 3:0.509063 4:0.591139 5:0.501813 6:0.501813 7:0.874016 8:0.484615 9:0.953617 
0.1124849633929185 1:0.903044 2:0.496733 3:0.510005 4:0.576328 5:0.496733 6:0.496733 7:0.874766 8:0.538462 9:0.962202 
0.1136987110538741 1:0.86352 2:0.494387 3:0.510458 4:0.562012 5:0.494387 6:0.494387 7:0.875516 8:0.592308 9:0.970469 
0.1094772129176644 1:0.820817 2:0.494399 3:0.510715 4:0.548162 5:0.494399 6:0.494399 7:0.876265 8:0.638462 9:0.977742 
0.1051064228439977 1:0.776544 2:0.496208 3:0.510741 4:0.534944 5:0.496208 6:0.496208 7:0.87739 8:0.684615 9:0.983863 
0.1038031808905448 1:0.73241 2:0.499445 3:0.510644 4:0.522292 5:0.499445 6:0.499445 7:0.87814 8:0.723077 9:0.988951 
0.09051755294814973 1:0.689628 2:0.503601 3:0.510265 4:0.51022 5:0.503601 6:0.503601 7:0.879265 8:0.761538 9:0.993084 
0.09109917190725463 1:0.649149 2:0.508184 3:0.509998 4:0.49877 5:0.508184 6:0.508184 7:0.880015 8:0.792308 9:0.996343 
0.0799194985674362 1:0.611825 2:0.512801 3:0.509613 4:0.48789 5:0.512801 6:0.512801 7:0.880765 8:0.823077 9:0.998728 
0.07160618569231167 1:0.578111 2:0.517196 3:0.509224 4:0.47742 5:0.517196 6:0.517196 7:0.881515 8:0.853846 9:1 
0.09899611536730694 1:0.547799 2:0.520938 3:0.509046 4:0.467276 5:0.520938 6:0.520938 7:0.88189 8:0.884615 9:0.999881 
0.1299026078975812 1:0.495903 2:0.525535 3:0.508401 4:0.447511 5:0.525535 6:0.525535 7:0.882265 8:0.930769 9:0.996184 
0.04064175264172759 1:0.45312 2:0.524355 3:0.507786 4:0.428146 5:0.524355 6:0.524355 7:0.88264 8:0.953846 9:0.990064 
0.1076272228425302 1:0.41778 2:0.516922 3:0.507279 4:0.409432 5:0.516922 6:0.516922 7:0.88339 8:0.969231 9:0.981518 
0.03380342843703697 1:0.390945 2:0.504899 3:0.507098 4:0.392155 5:0.504899 6:0.504899 7:0.884889 8:0.969231 9:0.970191 
0.1441996778934796 1:0.36837 2:0.486574 3:0.510297 4:0.370867 5:0.486574 6:0.486574 7:0.888264 8:0.938462 9:0.952305 
0.1089957844435765 1:0.372517 2:0.481268 3:0.556024 4:0.360572 5:0.481268 6:0.481268 7:0.890889 8:0.876923 9:0.939984 
0.1117255542842529 1:0.384934 2:0.481816 3:0.597974 4:0.356669 5:0.481816 6:0.481816 7:0.892388 8:0.830769 9:0.932552 
0.1112596504055768 1:0.404467 2:0.483468 3:0.646876 4:0.353831 5:0.483468 6:0.483468 7:0.894263 8:0.792308 9:0.923529 
0.1214204438211547 1:0.429207 2:0.485559 3:0.6988 4:0.352275 5:0.485559 6:0.485559 7:0.896138 8:0.753846 9:0.913792 
0.1038511240342471 1:0.456678 2:0.487993 3:0.750392 4:0.352162 5:0.487993 6:0.487993 7:0.898763 8:0.723077 9:0.903418 
0.103624382360028 1:0.484229 2:0.491045 3:0.799192 4:0.353774 5:0.491045 6:0.491045 7:0.901387 8:0.7 9:0.892528 
0.08315417819784293 1:0.509341 2:0.495289 3:0.84318 4:0.357051 5:0.495289 6:0.495289 7:0.904012 8:0.684615 9:0.881518 
0.06637270809762652 1:0.530325 2:0.501266 3:0.881487 4:0.361774 5:0.501266 6:0.501266 7:0.905887 8:0.676923 9:0.869316 
0.09940071930784915 1:0.546371 2:0.509073 3:0.913711 4:0.367756 5:0.509073 6:0.509073 7:0.908136 8:0.661538 9:0.855723 
0.106276974600994 1:0.563179 2:0.528991 3:0.960533 4:0.383274 5:0.528991 6:0.528991 7:0.911511 8:0.661538 9:0.827266 
0.03303695408723125 1:0.56339 2:0.540542 3:0.97592 4:0.392499 5:0.540542 6:0.540542 7:0.912636 8:0.661538 9:0.813275 
0.01197809889268292 1:0.55869 2:0.552676 3:0.986681 4:0.4022 5:0.552676 6:0.552676 7:0.913011 8:0.661538 9:0.800954 
0.1010002382348228 1:0.549941 2:0.564534 3:0.993806 4:0.412255 5:0.564534 6:0.564534 7:0.913761 8:0.661538 9:0.790024 
0.05462111046316578 1:0.522039 2:0.584287 3:0.999822 4:0.433458 5:0.584287 6:0.584287 7:0.914886 8:0.661538 9:0.77186 
0.0676723549446758 1:0.503926 2:0.59174 3:1 4:0.444475 5:0.59174 6:0.59174 7:0.915261 8:0.653846 9:0.764428 
0.01960762905118314 1:0.484663 2:0.597814 3:0.999134 4:0.455713 5:0.597814 6:0.597814 7:0.915261 8:0.653846 9:0.75787 
0.1219033272611153 1:0.448198 2:0.606136 3:0.995522 4:0.47858 5:0.606136 6:0.606136 7:0.915636 8:0.646154 9:0.747576 
0.03763165657432852 1:0.406159 2:0.611363 3:0.989809 4:0.512883 5:0.611363 6:0.611363 7:0.915261 8:0.630769 9:0.736049 
0.1092045820030238 1:0.387972 2:0.61015 3:0.986874 4:0.534614 5:0.61015 6:0.61015 7:0.914511 8:0.623077 9:0.73128 
0.1384296511043761 1:0.350693 2:0.59761 3:0.983637 4:0.587217 5:0.59761 6:0.59761 7:0.914136 8:0.584615 9:0.732075 
0.1196732446620823 1:0.338184 2:0.595003 3:0.983127 4:0.627785 5:0.595003 6:0.595003 7:0.913011 8:0.515385 9:0.737122 
0.02574557736243841 1:0.350817 2:0.598228 3:0.983349 4:0.646928 5:0.598228 6:0.598228 7:0.912261 8:0.484615 9:0.740858 
0.04372903485889426 1:0.363198 2:0.600779 3:0.983605 4:0.656129 5:0.600779 6:0.600779 7:0.911886 8:0.469231 9:0.742766 
0.07148196841213021 1:0.37933 2:0.603907 3:0.983916 4:0.665048 5:0.603907 6:0.603907 7:0.911511 8:0.446154 9:0.745111 
0.2137189566401717 1:0.443679 2:0.617136 3:0.984986 4:0.688872 5:0.617136 6:0.617136 7:0.908511 8:0.407692 9:0.75163 
-1 1:0.628466 2:0.496003 3:0.504485 4:0.19879 5:0.496003 6:0.496003 7:0.927634 8:0.953846 9:0.758903 
-0.9566003154852619 1:0.587986 2:0.492282 3:0.505083 4:0.217759 5:0.492282 6:0.492282 7:0.927259 8:0.976923 9:0.762242 
-0.8287602483171483 1:0.51298 2:0.480983 3:0.506072 4:0.255221 5:0.480983 6:0.480983 7:0.926884 8:1 9:0.763037 
-0.3247076588506878 1:0.480297 2:0.474671 3:0.506608 4:0.273727 5:0.474671 6:0.474671 7:0.926509 8:1 9:0.761924 
-0.2468866612334731 1:0.451481 2:0.468656 3:0.506962 4:0.292225 5:0.468656 6:0.468656 7:0.926884 8:1 9:0.759897 
-0.6087451828072975 1:0.426447 2:0.463648 3:0.507329 4:0.310845 5:0.463648 6:0.463648 7:0.926884 8:1 9:0.75779 
-0.7106257257703965 1:0.38673 2:0.458776 3:0.507854 4:0.348608 5:0.458776 6:0.458776 7:0.927634 8:0.984615 9:0.75314 
-0.4052093198780193 1:0.360751 2:0.461837 3:0.508197 4:0.386442 5:0.461837 6:0.461837 7:0.926884 8:0.953846 9:0.749722 
-0.3527159338166092 1:0.35318 2:0.465513 3:0.508379 4:0.405019 5:0.465513 6:0.465513 7:0.926509 8:0.938462 9:0.748251 
-0.7083048929637042 1:0.34835 2:0.475076 3:0.508498 4:0.440798 5:0.475076 6:0.475076 7:0.924634 8:0.915385 9:0.746145 
-0.6955915954710568 1:0.354151 2:0.489185 3:0.508016 4:0.489563 5:0.489185 6:0.489185 7:0.921635 8:0.876923 9:0.746781 
-0.572090522469175 1:0.359786 2:0.49891 3:0.507713 4:0.532139 5:0.49891 6:0.49891 7:0.917885 8:0.838462 9:0.751033 
-0.06637660245103426 1:0.359976 2:0.504518 3:0.507762 4:0.567301 5:0.504518 6:0.504518 7:0.913761 8:0.8 9:0.754491 
-0.7849531246511089 1:0.35563 2:0.505834 3:0.507667 4:0.586062 5:0.505834 6:0.505834 7:0.911136 8:0.776923 9:0.755644 
-0.29296570047681 1:0.348007 2:0.504977 3:0.507596 4:0.60158 5:0.504977 6:0.504977 7:0.908886 8:0.746154 9:0.757512 
-0.01591791335756133 1:0.336591 2:0.502129 3:0.50772 4:0.620158 5:0.502129 6:0.502129 7:0.906262 8:0.707692 9:0.761725 
-1 1:0.333465 2:0.501498 3:0.507621 4:0.625286 5:0.501498 6:0.501498 7:0.905137 8:0.692308 9:0.762361 
-1 1:0.330442 2:0.501146 3:0.50748 4:0.629835 5:0.501146 6:0.501146 7:0.904387 8:0.676923 9:0.763116 
-0.2224221111769586 1:0.327646 2:0.500807 3:0.507451 4:0.6338 5:0.500807 6:0.500807 7:0.903262 8:0.669231 9:0.76399 
-0.5987532666446367 1:0.318793 2:0.498104 3:0.507013 4:0.642968 5:0.498104 6:0.498104 7:0.901762 8:0.623077 9:0.765501 
-0.8197610476933018 1:0.340912 2:0.494176 3:0.505652 4:0.673962 5:0.494176 6:0.494176 7:0.899888 8:0.492308 9:0.760175 
-0.4181978601368008 1:0.396082 2:0.503614 3:0.506785 4:0.682881 5:0.503614 6:0.503614 7:0.898763 8:0.530769 9:0.758188 
-1 1:0.408534 2:0.503153 3:0.507955 4:0.626649 5:0.503153 6:0.503153 7:0.892763 8:0.615385 9:0.752862 
-1 1:0.410173 2:0.501342 3:0.507896 4:0.623537 5:0.501342 6:0.501342 7:0.892763 8:0.623077 9:0.753617 
-1 1:0.40938 2:0.499347 3:0.507793 4:0.620492 5:0.499347 6:0.499347 7:0.892763 8:0.630769 9:0.754054 
-1 1:0.406475 2:0.497444 3:0.507808 4:0.617532 5:0.497444 6:0.497444 7:0.893138 8:0.638462 9:0.754293 
-1 1:0.362777 2:0.461095 3:0.506645 4:0.600868 5:0.461095 6:0.461095 7:0.896138 8:0.761538 9:0.459897 
-1 1:0.331317 2:0.464479 3:0.506954 4:0.599652 5:0.464479 6:0.464479 7:0.895388 8:0.776923 9:0.464547 
-0.1005890557293375 1:0.237204 2:0.472566 3:0.50804 4:0.589597 5:0.472566 6:0.472566 7:0.892388 8:0.776923 9:0.483784 
-1 1:0.229992 2:0.478441 3:0.508235 4:0.586175 5:0.478441 6:0.478441 7:0.892013 8:0.769231 9:0.489547 
-0.0128733538721748 1:0.229393 2:0.485552 3:0.50834 4:0.58247 5:0.485552 6:0.485552 7:0.891639 8:0.769231 9:0.496502 
-0.277414062475707 1:0.255032 2:0.502766 3:0.50803 4:0.567998 5:0.502766 6:0.502766 7:0.888639 8:0.784615 9:0.52496 
-0.2747971601306963 1:0.269576 2:0.504599 3:0.507854 4:0.561894 5:0.504599 6:0.504599 7:0.887514 8:0.784615 9:0.536844 
-0.1128692886791295 1:0.285937 2:0.504147 3:0.50759 4:0.555417 5:0.504147 6:0.504147 7:0.887139 8:0.784615 9:0.549801 
-0.3782509947744693 1:0.303586 2:0.501693 3:0.507299 4:0.548629 5:0.501693 6:0.501693 7:0.886764 8:0.792308 9:0.563633 
-0.5401691670274067 1:0.338856 2:0.492418 3:0.506743 4:0.534972 5:0.492418 6:0.492418 7:0.887139 8:0.8 9:0.592369 
-0.4009976426069234 1:0.354571 2:0.486646 3:0.506531 4:0.528401 5:0.486646 6:0.486646 7:0.887514 8:0.8 9:0.607075 
-0.03541150055409992 1:0.380259 2:0.474997 3:0.506274 4:0.51623 5:0.474997 6:0.474997 7:0.888639 8:0.8 9:0.636129 
-0.7012522880845659 1:0.390372 2:0.469671 3:0.50629 4:0.510705 5:0.469671 6:0.469671 7:0.889389 8:0.8 9:0.650755 
-0.09298313187786006 1:0.404378 2:0.460958 3:0.506586 4:0.501504 5:0.460958 6:0.460958 7:0.891264 8:0.784615 9:0.679849 
-0.7721424007116432 1:0.411039 2:0.454952 3:0.507236 4:0.492604 5:0.454952 6:0.454952 7:0.894263 8:0.769231 9:0.719555 
-0.3733626420797106 1:0.39501 2:0.45839 3:0.507616 4:0.48896 5:0.45839 6:0.45839 7:0.898763 8:0.738462 9:0.764587 
-0.02962459717185304 1:0.379333 2:0.465239 3:0.5071 4:0.495729 5:0.465239 6:0.465239 7:0.901762 8:0.715385 9:0.780962 
-0.7784996885771468 1:0.375522 2:0.467988 3:0.506832 4:0.498657 5:0.467988 6:0.467988 7:0.902512 8:0.707692 9:0.784221 
-0.04898160442846408 1:0.371955 2:0.471072 3:0.506743 4:0.501848 5:0.471072 6:0.471072 7:0.902887 8:0.7 9:0.786566 
-0.04540662043955888 1:0.357273 2:0.48543 3:0.506931 4:0.540672 5:0.48543 6:0.48543 7:0.903637 8:0.646154 9:0.781757 
-1 1:0.356971 2:0.485004 3:0.506975 4:0.544466 5:0.485004 6:0.485004 7:0.903637 8:0.646154 9:0.780246 
-1 1:0.357073 2:0.484559 3:0.507015 4:0.548365 5:0.484559 6:0.484559 7:0.904012 8:0.630769 9:0.778855 
-1 1:0.357595 2:0.484279 3:0.506994 4:0.552315 5:0.484279 6:0.484279 7:0.904012 8:0.623077 9:0.777464 
-1 1:0.358584 2:0.484367 3:0.506923 4:0.556251 5:0.484367 6:0.484367 7:0.903637 8:0.623077 9:0.775556 
-1 1:0.359617 2:0.48494 3:0.506837 4:0.560187 5:0.48494 6:0.48494 7:0.904012 8:0.615385 9:0.774126 
-1 1:0.360469 2:0.485922 3:0.506844 4:0.564156 5:0.485922 6:0.485922 7:0.904012 8:0.607692 9:0.772695 
-0.9917259038137942 1:0.367591 2:0.494601 3:0.50557 4:0.595725 5:0.494601 6:0.494601 7:0.896888 8:0.476923 9:0.746701 
-0.8782305847309123 1:0.359326 2:0.496813 3:0.507389 4:0.578821 5:0.496813 6:0.496813 7:0.897263 8:0.561538 9:0.753975 
-1 1:0.362477 2:0.496671 3:0.507539 4:0.578732 5:0.496671 6:0.496671 7:0.897638 8:0.561538 9:0.752385 
