svm_type c_svc
kernel_type rbf
gamma 35
nr_class 3
total_sv 257
rho 2.77724 0.380098 0.377699
label 0 1 2
nr_sv 110 51 96
SV
0 28.33852770419811 1:-0.020779 2:0.502659 3:0.348369 4:0.33492 5:0.5 6:0.5 7:0.810784 8:0.046794 9:0.666667 
1211.844673336008 0 1:-0.025504 2:0.501148 3:0.342738 4:0.334564 5:0.500013 6:0.5 7:0.810784 8:0.046918 9:0.666667 
25000 0 1:-0.036269 2:0.498997 3:0.346284 4:0.334154 5:0.500022 6:0.5 7:0.81073 8:0.046918 9:0.666667 
8574.54959199951 0 1:-0.048036 2:0.49861 3:0.347639 4:0.333982 5:0.500025 6:0.5 7:0.81073 8:0.046794 9:0.666667 
25000 0 1:-0.065702 2:0.498267 3:0.348549 4:0.33383 5:0.500027 6:0.5 7:0.810757 8:0.046794 9:0.666667 
13722.34400632364 68.23927111769784 1:-0.088982 2:0.498976 3:0.349311 4:0.333724 5:0.500027 6:0.5 7:0.810784 8:0.046794 9:0.666667 
0 40.55805277971128 1:-0.116821 2:0.50132 3:0.35003 4:0.333678 5:0.500029 6:0.5 7:0.810811 8:0.046918 9:0.666667 
2437.309484546282 0 1:-0.148271 2:0.50538 3:0.350347 4:0.333698 5:0.500032 6:0.5 7:0.810838 8:0.046918 9:0.666667 
767.0331433160135 0 1:-0.181984 2:0.511185 3:0.350575 4:0.333821 5:0.500038 6:0.5 7:0.810892 8:0.046918 9:0.666667 
0 295.3477889136335 1:-0.233766 2:0.527795 3:0.35067 4:0.334458 5:0.500059 6:0.5 7:0.811 8:0.047165 9:0.666667 
0 1.727926862112851 1:-0.24118 2:0.537845 3:0.350349 4:0.334896 5:0.500075 6:0.5 7:0.811 8:0.047289 9:0.666667 
3595.619257299667 205.6090089607255 1:-0.156091 2:0.566683 3:0.34899 4:0.335986 5:0.500135 6:0.5 7:0.810892 8:0.047413 9:0.666667 
1992.9713220254 400.1693346747479 1:-0.092126 2:0.574383 3:0.339826 4:0.33612 5:0.500158 6:0.5 7:0.810838 8:0.047413 9:0.666667 
165.4016175757431 0 1:-0.016417 2:0.581313 3:0.308582 4:0.336101 5:0.500181 6:0.505456 7:0.810784 8:0.047413 9:0.721356 
3.643290473047547 0 1:0.31582 2:0.604871 3:0.285656 4:0.331821 5:0.500425 6:0.541861 7:0.809432 8:0.049641 9:0.7014 
67.46040022171518 0 1:0.24087 2:0.556983 3:0.336029 4:0.284427 5:0.501203 6:0.570862 7:0.805649 8:0.053974 9:0.6778 
0 0.4770344834397243 1:-0.446643 2:0.361183 3:0.351893 4:0.207949 5:0.503804 6:0.566605 7:0.805757 8:0.059544 9:0.648467 
0 1.10526163869317 1:-0.536489 2:0.321499 3:0.35186 4:0.196886 5:0.504265 6:0.562341 7:0.806189 8:0.058678 9:0.644022 
0.8264202868650717 0.9171701275204748 1:-0.606629 2:0.287482 3:0.35148 4:0.18693 5:0.504685 6:0.557252 7:0.80673 8:0.05744 9:0.640911 
0 0.4636490761779741 1:-0.686471 2:0.243766 3:0.350124 4:0.170959 5:0.505371 6:0.54611 7:0.807946 8:0.054469 9:0.643133 
3.061991998626671 0.7267683691116761 1:-0.69708 2:0.235264 3:0.349394 4:0.165173 5:0.505629 6:0.541062 7:0.808595 8:0.05286 9:0.639933 
0.06333275888913451 0 1:-0.63228 2:0.254203 3:0.3476 4:0.156202 5:0.506044 6:0.521756 7:0.810378 8:0.048155 9:0.634333 
0 0.06072564499795755 1:-0.364384 2:0.362433 3:0.346732 4:0.166679 5:0.505702 6:0.495313 7:0.812946 8:0.042585 9:0.6506 
35.36645405753966 0 1:-0.302862 2:0.384937 3:0.34674 4:0.172004 5:0.505532 6:0.492387 7:0.813351 8:0.041966 9:0.654511 
11594.68195319771 0 1:0.019928 2:0.483987 3:0.348126 4:0.39436 5:0.499875 6:0.499164 7:0.809919 8:0.046546 9:0.6608 
0 40.31928896462065 1:-0.063652 2:0.482681 3:0.348265 4:0.385061 5:0.499825 6:0.495895 7:0.810162 8:0.04667 9:0.666667 
0 65.25506656110845 1:-0.117785 2:0.483063 3:0.348136 4:0.383753 5:0.499827 6:0.496003 7:0.810297 8:0.046918 9:0.667667 
0 219.2348295404154 1:-0.194225 2:0.483638 3:0.348028 4:0.382813 5:0.499837 6:0.496268 7:0.810486 8:0.047165 9:0.668133 
21.15932949174077 89.48820111275225 1:-0.290318 2:0.484604 3:0.347907 4:0.382386 5:0.499854 6:0.496604 7:0.810757 8:0.047289 9:0.668511 
9.150906460825185 41.55417493622971 1:-0.400418 2:0.486136 3:0.347769 4:0.382673 5:0.499878 6:0.497035 7:0.811135 8:0.047537 9:0.668889 
1.059946252955712 63.25359364612418 1:-0.633327 2:0.490369 3:0.347663 4:0.386396 5:0.499943 6:0.498036 7:0.812162 8:0.047784 9:0.6692 
1.931508309816707 0 1:-0.742063 2:0.492656 3:0.347664 4:0.390222 5:0.499981 6:0.498529 7:0.812838 8:0.047908 9:0.668867 
0.2173224854282544 92.77372558174349 1:-0.838409 2:0.494969 3:0.347739 4:0.395664 5:0.500022 6:0.498936 7:0.813568 8:0.047908 9:0.668378 
1.693024635146901 81.28494979889514 1:-0.919427 2:0.49746 3:0.347772 4:0.40291 5:0.500062 6:0.499238 7:0.814405 8:0.047784 9:0.6678 
0 2.11359239931307 1:-1.089634 2:0.506474 3:0.347696 4:0.452283 5:0.500217 6:0.499144 7:0.817973 8:0.047908 9:0.665689 
2.709281879766168 3.924332554866689 1:-1.100636 2:0.508143 3:0.347801 4:0.469511 5:0.500259 6:0.498846 7:0.81873 8:0.047908 9:0.664689 
1.323967801406192 0 1:-0.99282 2:0.512566 3:0.348224 4:0.6058 5:0.500583 6:0.498102 7:0.823081 8:0.048651 9:0.6684 
0.6737947974734324 0 1:-0.925373 2:0.501089 3:0.348032 4:0.634616 5:0.500652 6:0.499025 7:0.823757 8:0.048527 9:0.674156 
1.429900411984672 0 1:-0.831841 2:0.480614 3:0.347738 4:0.664668 5:0.500713 6:0.5006 7:0.824162 8:0.048279 9:0.673867 
1.652868902771122 0.1805164121235523 1:-0.714154 2:0.451031 3:0.347419 4:0.695414 5:0.500757 6:0.501928 7:0.824378 8:0.047537 9:0.672311 
1.881151451607996 1.432599990331558 1:-0.578679 2:0.413327 3:0.347222 4:0.726694 5:0.500767 6:0.502949 7:0.824622 8:0.046546 9:0.670733 
1.922235919473571 1.014405490983791 1:-0.434307 2:0.369132 3:0.347161 4:0.758487 5:0.500732 6:0.503634 7:0.824811 8:0.045061 9:0.6692 
2.024511458152153 0.6992073562183194 1:-0.289996 2:0.320713 3:0.347177 4:0.790403 5:0.500633 6:0.505871 7:0.82473 8:0.042956 9:0.689578 
1.797941522884015 0.7283588908800283 1:-0.153317 2:0.270533 3:0.34717 4:0.821993 5:0.50044 6:0.510876 7:0.824513 8:0.040357 9:0.689311 
1.572563187036097 0.5445974228858624 1:-0.029939 2:0.220847 3:0.347201 4:0.852833 5:0.500147 6:0.515095 7:0.824081 8:0.037633 9:0.684289 
1.528728977018619 0.5818313832803487 1:0.075751 2:0.173397 3:0.347277 4:0.882506 5:0.499752 6:0.517922 7:0.823487 8:0.03491 9:0.676022 
0.7609308192551497 0.2601924635116518 1:0.161213 2:0.129622 3:0.347432 4:0.910581 5:0.499257 6:0.519185 7:0.822703 8:0.032186 9:0.669333 
1.644942494054381 0.6100891421627622 1:0.226114 2:0.090517 3:0.347582 4:0.936727 5:0.49866 6:0.519029 7:0.821784 8:0.029463 9:0.662711 
0.2076510932616398 0.0716828961785313 1:0.325916 2:-0.013425 3:0.348064 4:1.019109 5:0.49511 6:0.506373 7:0.818108 8:0.017083 9:0.643933 
1.856369761821157 0.6929880284518639 1:0.271184 2:-0.037483 3:0.347675 4:1.071177 5:0.489878 6:0.488758 7:0.814838 8:0.006066 9:0.649644 
0.8336429847516758 0.2921058325228545 1:0.264579 2:-0.028208 3:0.347535 4:1.079116 5:0.488297 6:0.48546 7:0.813703 8:0.003095 9:0.652044 
2.154017891613426 0.7873278489266662 1:0.444798 2:0.099086 3:0.348021 4:1.08262 5:0.481125 6:0.477091 7:0.808568 8:-0.00359 9:0.661289 
0.7509976210159908 0.2768804163112342 1:0.533289 2:0.14904 3:0.348393 4:1.075891 5:0.479238 6:0.476221 7:0.807162 8:-0.00359 9:0.663689 
1.769852286687915 0.639526031613818 1:0.627095 2:0.202332 3:0.348673 4:1.065912 5:0.477365 6:0.475872 7:0.80573 8:-0.002847 9:0.666244 
1.011192936422588 0.3826888804575871 1:0.719482 2:0.256592 3:0.348875 4:1.052619 5:0.47553 6:0.476049 7:0.804243 8:-0.001609 9:0.668867 
1.576896211853414 0.5561703270077186 1:0.80535 2:0.309488 3:0.349068 4:1.035923 5:0.473749 6:0.476783 7:0.80273 8:0 9:0.671356 
0.6333766577597373 0.2511176418979364 1:0.879659 2:0.358998 3:0.349127 4:1.015754 5:0.472034 6:0.477985 7:0.801216 8:0.001857 9:0.673444 
1.420892930238078 0.5348041187382232 1:0.939713 2:0.403672 3:0.349231 4:0.992123 5:0.470397 6:0.479604 7:0.799703 8:0.004209 9:0.675467 
0.3938271146217711 0.02141269230430354 1:0.984634 2:0.442758 3:0.349341 4:0.965072 5:0.468849 6:0.481598 7:0.798243 8:0.006809 9:0.676911 
0.3281629257948129 0.3647558256930145 1:1.01472 2:0.476085 3:0.34933 4:0.934743 5:0.467406 6:0.483853 7:0.796838 8:0.009656 9:0.678 
0.6744988009687592 0.02661642379732366 1:1.031605 2:0.50347 3:0.34923 4:0.901304 5:0.466077 6:0.486315 7:0.795514 8:0.012874 9:0.678911 
1.327666886153606 0.5432165982782686 1:1.036957 2:0.525043 3:0.349019 4:0.864936 5:0.464871 6:0.488915 7:0.79427 8:0.016217 9:0.679356 
0 0.04968412248685129 1:1.020046 2:0.553397 3:0.34832 4:0.784277 5:0.462836 6:0.494224 7:0.792108 8:0.023025 9:0.679267 
1.18700660090972 0.4876042291085792 1:1.001152 2:0.561579 3:0.348019 4:0.740461 5:0.462004 6:0.496826 7:0.791162 8:0.02612 9:0.678978 
0.8650533359474097 0 1:0.975532 2:0.566844 3:0.347772 4:0.694647 5:0.461282 6:0.499298 7:0.790351 8:0.028844 9:0.678067 
0.2198946308664215 0.5453272689333448 1:0.939596 2:0.571425 3:0.347547 4:0.647161 5:0.460662 6:0.501661 7:0.78973 8:0.031567 9:0.678733 
1.571180143820193 0.1711057669693169 1:0.887116 2:0.578736 3:0.347265 4:0.598481 5:0.460149 6:0.504295 7:0.789324 8:0.034538 9:0.679133 
0.8680930288874755 0.594252920245311 1:0.81243 2:0.592077 3:0.346857 4:0.549198 5:0.459751 6:0.506703 7:0.789135 8:0.037757 9:0.677222 
1.895505236345932 0.4859769828468747 1:0.712963 2:0.613277 3:0.346357 4:0.499468 5:0.459476 6:0.508703 7:0.788946 8:0.041099 9:0.675156 
1.329776863543873 0.7171815860900447 1:0.590386 2:0.642663 3:0.345844 4:0.449449 5:0.459334 6:0.510211 7:0.788892 8:0.044937 9:0.672756 
2.154049883241076 0.2600257702849332 1:0.45072 2:0.679293 3:0.345337 4:0.399534 5:0.459337 6:0.511261 7:0.789054 8:0.048898 9:0.670689 
8.395662834552404 0.9541047582883465 1:0.302029 2:0.721133 3:0.345045 4:0.350221 5:0.459492 6:0.511899 7:0.789432 8:0.053107 9:0.668844 
15.00731801322073 0 1:0.153079 2:0.765618 3:0.344989 4:0.302052 5:0.459807 6:0.512223 7:0.790027 8:0.05744 9:0.667622 
2.908694950806794 0 1:0.012144 2:0.810375 3:0.345164 4:0.255442 5:0.460289 6:0.512303 7:0.790784 8:0.061897 9:0.666511 
16.25874163976824 0 1:-0.114287 2:0.853282 3:0.345527 4:0.210743 5:0.46094 6:0.512158 7:0.791703 8:0.066477 9:0.665444 
0.8082984889341079 1.119904476674606 1:-0.308357 2:0.92681 3:0.346619 4:0.128384 5:0.462754 6:0.511257 7:0.793919 8:0.075638 9:0.663689 
1.420433457599331 0 1:-0.373218 2:0.955351 3:0.34724 4:0.091137 5:0.463915 6:0.510596 7:0.795108 8:0.080094 9:0.663333 
3.028542266772257 1.20629222421101 1:-0.451625 2:1.010375 3:0.348761 4:-0.029957 5:0.470231 6:0.507826 7:0.800054 8:0.097796 9:0.663867 
3.777314453612396 1.380526878470131 1:-0.282073 2:0.485245 3:0.348356 4:0.142804 5:0.485851 6:0.503718 7:0.993919 8:0.899728 9:0.626844 
3.096148284227971 1.27515837477285 1:-0.118883 2:-0.041938 3:0.347799 4:0.332834 5:0.500024 6:0.50034 7:0.810405 8:0.047784 9:0.669733 
0 0.05475468821474595 1:-0.112633 2:0.019479 3:0.348465 4:0.323374 5:0.500264 6:0.505942 7:0.809297 8:0.048527 9:0.675244 
129.2139708369312 6.229363044517924 1:-0.158528 2:0.325691 3:0.349116 4:0.304593 5:0.500745 6:0.515119 7:0.809919 8:0.049517 9:0.6722 
0 57.76542874961649 1:-0.14953 2:0.368142 3:0.349075 4:0.302834 5:0.500851 6:0.516225 7:0.810162 8:0.049765 9:0.671733 
504.4969003020512 0 1:-0.05345 2:0.470444 3:0.348214 4:0.300233 5:0.501344 6:0.519833 7:0.810838 8:0.050384 9:0.670244 
394.3198008731846 0 1:0.066209 2:0.453533 3:0.347389 4:0.315568 5:0.50257 6:0.523872 7:0.811838 8:0.047784 9:0.667356 
4.161967783992698 0 1:0.013273 2:0.383651 3:0.147642 4:0.350953 5:0.503169 6:0.511734 7:0.812162 8:0.045061 9:0.658356 
0 2.58504822878335 1:0.013187 2:0.385564 3:0.14674 4:0.354256 5:0.503094 6:0.509977 7:0.812351 8:0.044565 9:0.658111 
0 0.913186547717419 1:0.298518 2:0.424754 3:0.151227 4:0.391729 5:0.501948 6:0.497715 7:0.813027 8:0.041594 9:0.662422 
3.078065618153337 1.098258188249145 1:0.532645 2:0.417916 3:0.152634 4:0.432391 5:0.50007 6:0.493314 7:0.811892 8:0.042832 9:0.664556 
0.1529662585389931 0 1:0.478539 2:0.415229 3:0.15303 4:0.43928 5:0.499376 6:0.492851 7:0.810757 8:0.044565 9:0.668067 
0.6734144370007968 0 1:0.487684 2:0.4812 3:0.283943 4:0.426239 5:0.498453 6:0.492961 7:0.809486 8:0.043328 9:0.663556 
0 0.2031670017229094 1:0.475457 2:0.490906 3:0.297219 4:0.42305 5:0.498323 6:0.492231 7:0.809351 8:0.043328 9:0.662733 
0 0.2052251927803229 1:0.360327 2:0.522432 3:0.337075 4:0.403521 5:0.497713 6:0.486084 7:0.808865 8:0.043823 9:0.659444 
385.8609106082047 0 1:0.164757 2:0.52386 3:0.34829 4:0.350783 5:0.496901 6:0.473127 7:0.808784 8:0.045308 9:0.660556 
69.03131708874562 0 1:0.087205 2:0.564215 3:0.348318 4:0.313402 5:0.496635 6:0.468655 7:0.809405 8:0.047537 9:0.669533 
127.6407927912595 0 1:0.107741 2:0.539445 3:0.391646 4:0.293611 5:0.497457 6:0.475405 7:0.810081 8:0.050879 9:0.672556 
63.36418395386022 0.4228292885203762 1:0.108809 2:0.532301 3:0.414106 4:0.292048 5:0.497613 6:0.476698 7:0.810189 8:0.051003 9:0.673178 
0 0.1205629005784001 1:0.205186 2:0.486781 3:0.543914 4:0.309904 5:0.500442 6:0.503376 7:0.810892 8:0.050631 9:0.667044 
0 0.2881050491905632 1:0.146995 2:0.443583 3:0.543648 4:0.311919 5:0.501349 6:0.503543 7:0.811081 8:0.050631 9:0.666444 
0 0.8328571647564598 1:0.146733 2:0.437604 3:0.543648 4:0.312599 5:0.501487 6:0.503481 7:0.811135 8:0.050384 9:0.666356 
13.99007627096337 0 1:0.149865 2:0.432874 3:0.54358 4:0.313398 5:0.501617 6:0.503444 7:0.811189 8:0.050136 9:0.666467 
17462.09423877857 0 1:0.053242 2:0.505524 3:0.347824 4:0.333341 5:0.500001 6:0.5 7:0.810811 8:0.046794 9:0.666667 
0 0.573705642328085 1:0.439538 2:0.556107 3:0.358753 4:0.302071 5:0.500461 6:0.552185 7:0.806784 8:0.049517 9:0.693289 
0 0.3487691604356895 1:0.309884 2:0.555216 3:0.354071 4:0.271938 5:0.500804 6:0.56607 7:0.806135 8:0.05026 9:0.684111 
13.45553205586781 0 1:0.24318 2:0.553463 3:0.352896 4:0.261111 5:0.500938 6:0.569383 7:0.806 8:0.050508 9:0.681022 
9.220891986116962 0 1:-0.238073 2:0.52003 3:0.347829 4:0.195811 5:0.502222 6:0.568661 7:0.806622 8:0.054964 9:0.649822 
0 3.809099952719797 1:-0.455046 2:0.465305 3:0.346995 4:0.172651 5:0.503223 6:0.55388 7:0.808405 8:0.055954 9:0.637644 
127.6123645430048 0 1:-0.050407 2:0.378149 3:0.347729 4:0.201656 5:0.505811 6:0.491067 7:0.814189 8:0.048651 9:0.656911 
228.9796919594399 0 1:0.068349 2:0.393483 3:0.353969 4:0.389429 5:0.508698 6:0.494662 7:0.811189 8:0.042461 9:0.669378 
20059.22409062232 0 1:0.044131 2:0.510259 3:0.347827 4:0.333333 5:0.499999 6:0.5 7:0.810811 8:0.046794 9:0.666667 
-55.63109019503708 0 1:-0.184595 2:0.423375 3:0.346912 4:0.185331 5:0.505136 6:0.489015 7:0.814081 8:0.041099 9:0.6626 
-1076.168684650788 0 1:0.091196 2:0.516366 3:0.347322 4:0.316038 5:0.499984 6:0.500168 7:0.812622 8:0.039242 9:0.666911 
-9945.309812404861 0 1:0.027856 2:0.521965 3:0.347661 4:0.338411 5:0.497968 6:0.500336 7:0.811216 8:0.04308 9:0.666822 
-124.8950471295579 0 1:-0.023632 2:0.512229 3:0.347408 4:0.343327 5:0.497292 6:0.49975 7:0.810919 8:0.04667 9:0.665778 
-1316.538835965767 0 1:-0.077923 2:0.508388 3:0.347858 4:0.344584 5:0.497294 6:0.499253 7:0.811108 8:0.046918 9:0.665756 
-0 130.9507795104346 1:-0.079659 2:0.516331 3:0.348158 4:0.355183 5:0.497478 6:0.49847 7:0.81173 8:0.048279 9:0.666711 
-838.415518545636 0 1:-0.078507 2:0.501157 3:0.348383 4:0.376339 5:0.498169 6:0.500335 7:0.811973 8:0.048403 9:0.667311 
-0 117.2208432751045 1:-0.073578 2:0.502936 3:0.348455 4:0.379102 5:0.498228 6:0.500444 7:0.812054 8:0.048403 9:0.667222 
-683.4365619073038 0 1:-0.002571 2:0.48761 3:0.34789 4:0.407566 5:0.49982 6:0.501099 7:0.810351 8:0.047165 9:0.666244 
-9719.136126338582 0 1:0.026575 2:0.485868 3:0.347919 4:0.396334 5:0.499881 6:0.500461 7:0.809973 8:0.04667 9:0.660156 
-0 7.834777396010955 1:0.007549 2:0.382436 3:0.347731 4:0.209466 5:0.50587 6:0.48938 7:0.81427 8:0.048155 9:0.660222 
-0 4.499074606809418 1:0.154368 2:0.301243 3:0.348604 4:0.347588 5:0.504069 6:0.501318 7:0.810919 8:0.043699 9:0.668111 
-0 2.412148390942376 1:0.140604 2:0.270137 3:0.348216 4:0.34772 5:0.503935 6:0.501588 7:0.810811 8:0.042709 9:0.667622 
-17.77115894406324 0 1:0.137599 2:0.240252 3:0.347779 4:0.347619 5:0.503761 6:0.501719 7:0.810703 8:0.041594 9:0.667156 
-0 0.4620884784062353 1:0.016069 2:0.25759 3:0.349061 4:0.336246 5:0.500218 6:0.50279 7:0.809919 8:0.029834 9:0.664822 
-0 58.36708254410178 1:-0.086242 2:0.330099 3:0.351387 4:0.332431 5:0.498887 6:0.501822 7:0.810054 8:0.028349 9:0.664067 
-0 66.8128835247293 1:-0.13625 2:0.366913 3:0.352453 4:0.330836 5:0.498188 6:0.501283 7:0.810162 8:0.027977 9:0.664 
-446.001473597422 0 1:-0.184043 2:0.402572 3:0.353153 4:0.329553 5:0.497481 6:0.500695 7:0.810324 8:0.027853 9:0.663756 
-40.43651775567455 31.06368794800048 1:-0.286466 2:0.563838 3:0.352631 4:0.330999 5:0.494136 6:0.498961 7:0.811595 8:0.031196 9:0.667156 
-30.36340205334939 0 1:-0.262511 2:0.593278 3:0.351829 4:0.333048 5:0.493576 6:0.499046 7:0.811838 8:0.032434 9:0.667067 
-311.6379773903399 0 1:-0.176023 2:0.645 3:0.350083 4:0.338576 5:0.492605 6:0.499212 7:0.812189 8:0.035281 9:0.666867 
-232.2328241044921 0 1:-0.120708 2:0.66786 3:0.349139 4:0.341823 5:0.492206 6:0.49921 7:0.81227 8:0.03689 9:0.666422 
-0 12.43351763972658 1:-0.003794 2:0.659701 3:0.346977 4:0.428274 5:0.494507 6:0.505453 7:0.810108 8:0.044937 9:0.661956 
-0 13.57927363902512 1:-0.040245 2:0.668668 3:0.347095 4:0.42668 5:0.49445 6:0.504438 7:0.810108 8:0.045556 9:0.661667 
-0 4.770635033670995 1:-0.080884 2:0.673224 3:0.347178 4:0.425107 5:0.494417 6:0.503449 7:0.810135 8:0.046175 9:0.662156 
-4.392873782870119 0 1:-0.213659 2:0.671078 3:0.347847 4:0.421578 5:0.494431 6:0.500921 7:0.810513 8:0.047537 9:0.6632 
-0 18.25662124925811 1:-0.243764 2:0.67135 3:0.348434 4:0.421108 5:0.494467 6:0.500203 7:0.810703 8:0.048032 9:0.663311 
-25000 0 1:0.053758 2:0.502684 3:0.347902 4:0.333352 5:0.5 6:0.499994 7:0.810811 8:0.046794 9:0.666689 
-0 623.1133483051365 1:-0.114806 2:0.555912 3:0.348178 4:0.333373 5:0.500001 6:0.49999 7:0.810865 8:0.046794 9:0.666733 
-4942.412882103146 0 1:-0.151295 2:0.536229 3:0.351118 4:0.333778 5:0.500012 6:0.499879 7:0.810622 8:0.046422 9:0.666911 
-91.50036789603789 75.79507506091056 1:-0.243139 2:0.470899 3:0.348857 4:0.333497 5:0.499997 6:0.500111 7:0.810811 8:0.046794 9:0.666622 
-11067.40037558258 0 1:-0.107907 2:0.52332 3:0.347999 4:0.333536 5:0.499996 6:0.5 7:0.811054 8:0.046546 9:0.666667 
-169.2948495277225 139.467555285505 1:-0.045118 2:0.531367 3:0.348468 4:0.334003 5:0.499987 6:0.499995 7:0.810541 8:0.047165 9:0.666667 
-0 0.6415495428764513 1:0.311479 2:0.578541 3:0.359115 4:0.332797 5:0.500126 6:0.499068 7:0.810486 8:0.049022 9:0.663 
-15.64117668989658 0 1:0.272245 2:0.554152 3:0.363743 4:0.329964 5:0.500341 6:0.496834 7:0.809919 8:0.05026 9:0.661044 
-1283.400506641534 0 1:0.078589 2:0.50545 3:0.358239 4:0.318726 5:0.500998 6:0.492857 7:0.809405 8:0.051745 9:0.663333 
-42.45211325726063 0 1:0.016558 2:0.496112 3:0.356216 4:0.315529 5:0.501185 6:0.492263 7:0.809432 8:0.051869 9:0.664333 
-345.7777636450269 2.021424994805304 1:-0.050953 2:0.494067 3:0.347479 4:0.330019 5:0.500324 6:0.499925 7:0.826892 8:-0.048898 9:0.670689 
-25000 0 1:-0.055548 2:0.493044 3:0.347769 4:0.333297 5:0.500007 6:0.500021 7:0.810784 8:0.047289 9:0.666911 
-25000 0 1:-0.055282 2:0.493606 3:0.34745 4:0.33316 5:0.500035 6:0.500092 7:0.81073 8:0.047784 9:0.667089 
-3729.596157871777 0 1:-0.053285 2:0.495412 3:0.346875 4:0.332946 5:0.500083 6:0.500201 7:0.810703 8:0.048279 9:0.667267 
-5472.375816889837 0 1:-0.028693 2:0.506898 3:0.345177 4:0.332294 5:0.500238 6:0.500237 7:0.810622 8:0.049517 9:0.666378 
-5223.790957942922 0 1:-0.001505 2:0.51863 3:0.344686 4:0.331749 5:0.500353 6:0.500186 7:0.810541 8:0.05026 9:0.666444 
-0 0.9442370936842166 1:0.294514 2:0.693973 3:0.347432 4:0.332724 5:0.500066 6:0.499896 7:0.810432 8:0.04927 9:0.6658 
-154.749792774793 0 1:0.222168 2:0.578686 3:0.342433 4:0.316751 5:0.502441 6:0.498051 7:0.809162 8:0.061278 9:0.666889 
-0 0.3669050314688944 1:0.325213 2:0.485485 3:0.342883 4:0.28276 5:0.505772 6:0.49979 7:0.807351 8:0.06103 9:0.669933 
-59.98222006001775 0 1:-0.04006 2:0.407206 3:0.350547 4:0.127204 5:0.504154 6:0.499204 7:0.807297 8:0.047289 9:0.661467 
-0 20.83887690938085 1:0.003751 2:0.548286 3:0.349723 4:0.320104 5:0.504804 6:0.507766 7:0.812595 8:0.057316 9:0.6638 
-232.3774818518179 0 1:0.04311 2:0.476208 3:0.35474 4:0.359252 5:0.508403 6:0.496097 7:0.81227 8:0.053479 9:0.660867 
-1231.493366159292 0 1:0.012895 2:0.457931 3:0.354983 4:0.362557 5:0.508636 6:0.494998 7:0.812243 8:0.052488 9:0.662044 
-0 44.95543402396898 1:-0.081783 2:0.398229 3:0.355366 4:0.377152 5:0.509203 6:0.491876 7:0.811973 8:0.047165 9:0.666444 
-0 -5.367838789939512 1:-0.012261 2:0.536437 3:0.413864 4:0.337501 5:0.499644 6:0.503899 7:0.811189 8:0.044565 9:0.658067 
-0 -34.52629243883798 1:-0.152092 2:0.532556 3:0.403965 4:0.339103 5:0.499496 6:0.500866 7:0.811135 8:0.045061 9:0.6608 
-42.11277141033619 -8.069643133739904 1:-0.365502 2:0.532659 3:0.376959 4:0.341081 5:0.49934 6:0.498507 7:0.811081 8:0.045803 9:0.6652 
-0.4462089341992125 -20.98142462951144 1:0.029822 2:0.361274 3:0.348002 4:0.334278 5:0.499979 6:0.499113 7:0.810351 8:0.047289 9:0.671733 
-71.86662661155967 -183.8508613137859 1:-0.104952 2:0.386607 3:0.351502 4:0.333614 5:0.499973 6:0.500257 7:0.811054 8:0.045432 9:0.670244 
-46.98019361128264 -2.026612238735901 1:-0.180793 2:0.422332 3:0.393414 4:0.345101 5:0.499929 6:0.513848 7:0.813135 8:0.048032 9:0.681578 
-8.01574995798685 -0 1:-0.531491 2:0.410587 3:0.340573 4:0.356611 5:0.500354 6:0.518818 7:0.811946 8:0.052488 9:0.670444 
-0 -0.1971666682807969 1:-0.735632 2:0.535693 3:0.348594 4:0.34453 5:0.499284 6:0.49878 7:0.811189 8:0.046918 9:0.668133 
-0 -0.007336810928225974 1:-0.72397 2:0.361063 3:0.325273 4:0.361021 5:0.500797 6:0.51997 7:0.811649 8:0.052612 9:0.6692 
-0 -0.08043536003391416 1:-0.760816 2:0.3335 3:0.325624 4:0.36286 5:0.501003 6:0.520543 7:0.811595 8:0.051993 9:0.6694 
-0 -0.2360017257843019 1:-0.640571 2:0.270281 3:0.345311 4:0.367774 5:0.501445 6:0.521388 7:0.811486 8:0.04927 9:0.665867 
-0.2521657557858498 -0.2194666950044724 1:-1.435022 2:0.526919 3:0.345708 4:0.35435 5:0.499484 6:0.500051 7:0.811459 8:0.047784 9:0.666133 
-0.1530510984418549 -0.1540632089659804 1:-1.674884 2:0.537085 3:0.346239 4:0.359338 5:0.499606 6:0.500412 7:0.811595 8:0.047908 9:0.668356 
-0.2166016567509691 -0.2215837625296691 1:-1.819893 2:0.544048 3:0.346698 4:0.363033 5:0.499695 6:0.501276 7:0.811649 8:0.048032 9:0.668933 
-0.07756132265103131 -0.07576545993005923 1:-1.949232 2:0.548314 3:0.347563 4:0.367019 5:0.499787 6:0.502206 7:0.811703 8:0.048032 9:0.6688 
-0 -4.85635371098598 1:-0.340479 2:0.693662 3:0.322863 4:0.38535 5:0.500468 6:0.48564 7:0.811595 8:0.055459 9:0.667111 
-0 -3.276235843226407 1:-0.346916 2:0.711263 3:0.318013 4:0.387128 5:0.50082 6:0.485709 7:0.811595 8:0.056945 9:0.667044 
-14.97213292351615 -0 1:-0.283114 2:0.462558 3:0.315172 4:0.396457 5:0.503703 6:0.489123 7:0.810757 8:0.054345 9:0.672422 
-0.4442989446427542 -0.4482317388673333 1:-2.166464 2:0.53917 3:0.348666 4:0.384232 5:0.500117 6:0.504589 7:0.811757 8:0.04766 9:0.6672 
-79.94889620417032 -0 1:-0.903723 2:0.478116 3:0.353639 4:0.382771 5:0.504005 6:0.501872 7:0.810595 8:0.045308 9:0.666711 
-0.8639094647386184 -0.3394271019147293 1:-1.018496 2:0.622178 3:0.349984 4:0.381703 5:0.504659 6:0.499893 7:0.810865 8:0.046422 9:0.669622 
-0 -0.02652382572969951 1:-0.896002 2:0.29889 3:0.350857 4:0.38512 5:0.500586 6:0.500524 7:0.810486 8:0.04407 9:0.666511 
-0 -0.05595357319958504 1:-1.17518 2:0.301749 3:0.34979 4:0.38148 5:0.499889 6:0.501723 7:0.810811 8:0.045061 9:0.667356 
-0.4341150432672312 -0.3906980440438223 1:-1.348941 2:0.356308 3:0.348706 4:0.382988 5:0.499593 6:0.501927 7:0.811027 8:0.045927 9:0.666178 
-5.370127679265591 -0 1:-1.046546 2:0.49023 3:0.347203 4:0.387687 5:0.499507 6:0.49936 7:0.811 8:0.047165 9:0.665778 
-36.01723009837471 -0 1:-0.859088 2:0.52807 3:0.3481 4:0.388561 5:0.499571 6:0.498931 7:0.810865 8:0.047537 9:0.6656 
-4.825589460806148 -0 1:-0.733741 2:0.545593 3:0.348611 4:0.388661 5:0.499634 6:0.498654 7:0.810784 8:0.047784 9:0.666178 
-3.143060384806695 -0 1:-0.569566 2:0.565208 3:0.349032 4:0.388 5:0.499752 6:0.498615 7:0.810622 8:0.047908 9:0.666511 
-0 -0.1156869595827685 1:-1.261334 2:0.55355 3:0.347976 4:0.360196 5:0.500371 6:0.502618 7:0.811378 8:0.047165 9:0.668489 
-0 -1.570371666277677 1:-0.265484 2:0.643521 3:0.32228 4:0.446997 5:0.484762 6:0.510239 7:0.816378 8:0.065858 9:0.669422 
-0 -0.3532724068161591 1:-0.805473 2:0.607163 3:0.253949 4:0.478996 5:0.488473 6:0.51261 7:0.812811 8:0.07638 9:0.670111 
-6.695595811144237 -0.2786734348529266 1:-1.083329 2:0.506737 3:0.278715 4:0.487216 5:0.491934 6:0.514923 7:0.811027 8:0.077123 9:0.669089 
-0 -0.1281691759192122 1:-1.178911 2:0.410473 3:0.320499 4:0.486208 5:0.494111 6:0.51501 7:0.810243 8:0.0744 9:0.662689 
-0.2132443223600541 -0.2598959173486187 1:-1.153152 2:0.264186 3:0.353802 4:0.478547 5:0.496866 6:0.526759 7:0.809378 8:0.067467 9:0.739133 
-0.2016673676969195 -0.3434205558705817 1:-0.959591 2:0.21156 3:0.368846 4:0.461979 5:0.499249 6:0.538796 7:0.80873 8:0.05843 9:0.638067 
-0 -0.3298339887692134 1:-0.715916 2:0.273169 3:0.370334 4:0.452628 5:0.499985 6:0.52235 7:0.808811 8:0.055088 9:0.620067 
-1.889535121184841 -0 1:-0.292957 2:0.406806 3:0.368793 4:0.438813 5:0.500757 6:0.493314 7:0.808784 8:0.052736 9:0.624978 
-34.70546899701851 -0 1:-0.185866 2:0.448243 3:0.367808 4:0.434227 5:0.500971 6:0.485258 7:0.808811 8:0.052364 9:0.631267 
-0 -20.55960639681068 1:-0.030248 2:0.51798 3:0.364683 4:0.42512 5:0.501361 6:0.472563 7:0.808811 8:0.051745 9:0.642756 
-0 -8.084537035809555 1:0.084097 2:0.581401 3:0.353188 4:0.40651 5:0.502063 6:0.46614 7:0.80873 8:0.051127 9:0.672 
-54.57937138353513 -0 1:-0.205604 2:0.524599 3:0.333404 4:0.380276 5:0.502921 6:0.483461 7:0.809135 8:0.049889 9:0.682956 
-70.74721486735481 -0 1:-0.323411 2:0.475506 3:0.328707 4:0.373286 5:0.503122 6:0.489988 7:0.809405 8:0.049022 9:0.681756 
-0 -10.2557974426645 1:-0.299548 2:0.391287 3:0.344545 4:0.35464 5:0.503057 6:0.500795 7:0.809811 8:0.044689 9:0.667311 
-0 -26.81769887326424 1:-0.240982 2:0.451985 3:0.348805 4:0.350504 5:0.502894 6:0.500489 7:0.81 8:0.044565 9:0.664422 
-224.0586061796103 -0 1:-0.212786 2:0.488942 3:0.349191 4:0.348762 5:0.502815 6:0.499578 7:0.810108 8:0.044813 9:0.661156 
-269.4193188963304 -153.9037082658907 1:-0.117129 2:0.578841 3:0.34436 4:0.345207 5:0.502648 6:0.497108 7:0.810486 8:0.045927 9:0.676933 
-4.253040260871031 -0 1:-0.003741 2:0.574647 3:0.344054 4:0.343488 5:0.502568 6:0.501838 7:0.810568 8:0.046051 9:0.670022 
-402.4459709245701 -723.5722646288422 1:-0.082371 2:0.543087 3:0.346974 4:0.342473 5:0.502464 6:0.501729 7:0.810784 8:0.04568 9:0.663911 
-308.0485281667473 -132.7164244123448 1:-0.208927 2:0.54146 3:0.345217 4:0.343339 5:0.502335 6:0.498674 7:0.811054 8:0.04568 9:0.659378 
-0.1359161165010039 -0.1334373867140919 1:-2.125339 2:0.604463 3:0.347933 4:0.358849 5:0.501226 6:0.503443 7:0.811405 8:0.046051 9:0.663978 
-0.05313862753066902 -0.0568312528408316 1:-2.012875 2:0.609183 3:0.349423 4:0.363037 5:0.501138 6:0.50225 7:0.811432 8:0.045927 9:0.665022 
-0.2597407057860445 -0.2587879489351114 1:-1.92775 2:0.606856 3:0.350045 4:0.364464 5:0.501105 6:0.501878 7:0.811432 8:0.045803 9:0.6648 
-0.1766273260694717 -0.1689711442882894 1:-1.691796 2:0.595355 3:0.352211 4:0.367151 5:0.501029 6:0.501069 7:0.811378 8:0.04568 9:0.664444 
-0.2722888825330181 -0.292689671026738 1:-1.546461 2:0.586247 3:0.352438 4:0.368408 5:0.500989 6:0.500547 7:0.811351 8:0.04568 9:0.664 
-0.3378495179689022 -0.2378781842791894 1:-1.225082 2:0.56664 3:0.351713 4:0.370607 5:0.500902 6:0.499321 7:0.811216 8:0.045556 9:0.663378 
-0 -0.1177358717804024 1:-0.707946 2:0.671928 3:0.347859 4:0.368047 5:0.500943 6:0.500068 7:0.810568 8:0.048403 9:0.6696 
-0 -0.0318462817800893 1:-0.818577 2:0.65363 3:0.351506 4:0.366681 5:0.501118 6:0.501414 7:0.810676 8:0.048279 9:0.6678 
-0.5002532790968193 -0.4512654230296589 1:-0.502029 2:-0.011841 3:0.381508 4:0.709319 5:0.502809 6:0.506098 7:0.803919 8:0.052612 9:0.667156 
-0.0251293169427961 -0.139634923777698 1:-0.409075 2:-0.023425 3:0.404417 4:0.693146 5:0.502949 6:0.506101 7:0.803568 8:0.048527 9:0.666067 
-0 -0.00147796213085002 1:-0.833284 2:0.64341 3:0.352801 4:0.366407 5:0.50117 6:0.501609 7:0.81073 8:0.048155 9:0.667422 
-0.4054696163709757 -0.2299786772904792 1:-0.336998 2:0.074987 3:0.442276 4:0.64196 5:0.502511 6:0.504888 7:0.803324 8:0.037757 9:0.6634 
-0.134231781749447 -0.1384704748893959 1:-0.362107 2:0.143727 3:0.445489 4:0.625077 5:0.50212 6:0.504124 7:0.803486 8:0.035157 9:0.662644 
-3.256304097198857 -0.02329694759255149 1:-0.481229 2:0.42091 3:0.433478 4:0.573474 5:0.500707 6:0.50098 7:0.802973 8:0.03491 9:0.660689 
-0 -0.07823496509911027 1:-0.545148 2:0.726509 3:0.402649 4:0.519888 5:0.499706 6:0.497584 7:0.80327 8:0.041471 9:0.661622 
-0.581877990598809 -0.5273440735283175 1:-0.752762 2:0.960238 3:0.36052 4:0.442957 5:0.500556 6:0.493307 7:0.807838 8:0.058925 9:0.664133 
-0 -0.2586137487165784 1:-0.792582 2:0.788657 3:0.319352 4:0.43478 5:0.502901 6:0.490499 7:0.811324 8:0.065734 9:0.663156 
-42.51687164094862 -0 1:-0.639387 2:0.494584 3:0.351585 4:0.362811 5:0.501494 6:0.500738 7:0.810513 8:0.046422 9:0.667822 
-2.244066570225962 -0 1:-0.47473 2:0.593809 3:0.257403 4:0.438651 5:0.505221 6:0.488263 7:0.811216 8:0.06821 9:0.663733 
-13.06642634231336 -7.536379980424331 1:-0.08608 2:0.382443 3:0.255357 4:0.438198 5:0.50744 6:0.486762 7:0.810135 8:0.063753 9:0.665644 
-0 -1.5403852036587 1:0.09441 2:0.234961 3:0.311253 4:0.429654 5:0.508866 6:0.487197 7:0.809108 8:0.054964 9:0.668444 
-0 -11.80061547750024 1:-0.116775 2:0.242487 3:0.370738 4:0.417984 5:0.509284 6:0.488434 7:0.809351 8:0.046422 9:0.668933 
-7.91777301427231 -0 1:-0.615005 2:0.433772 3:0.392834 4:0.417083 5:0.508358 6:0.521454 7:0.810811 8:0.040109 9:0.651756 
-8.072860880306617 -0 1:-0.635938 2:0.532268 3:0.381481 4:0.414388 5:0.507618 6:0.503831 7:0.81027 8:0.040357 9:0.631933 
-0 -0.04368845220060288 1:-0.697361 2:0.570759 3:0.371645 4:0.412754 5:0.506919 6:0.484553 7:0.81073 8:0.041099 9:0.642444 
-0 -0.09357612710797061 1:-0.952566 2:0.449286 3:0.350003 4:0.35991 5:0.501169 6:0.501408 7:0.810892 8:0.04568 9:0.665644 
-44.94618925685418 -0 1:-0.85723 2:0.514026 3:0.323069 4:0.410299 5:0.506069 6:0.47663 7:0.810649 8:0.043699 9:0.675 
-0 -0.110779407242087 1:-0.918925 2:0.440698 3:0.350986 4:0.360546 5:0.501036 6:0.500561 7:0.810919 8:0.045556 9:0.664778 
-0 -0.1236503809638445 1:-0.932527 2:0.332674 3:0.323716 4:0.409218 5:0.505605 6:0.484004 7:0.810595 8:0.040975 9:0.680533 
-0.3592510598582556 -0.3435766538284626 1:-1.118937 2:0.130379 3:0.34504 4:0.40709 5:0.504692 6:0.49273 7:0.810378 8:0.036148 9:0.679911 
-0.2530839690213796 -0.2512177718288196 1:-1.321309 2:0.050563 3:0.361604 4:0.404961 5:0.503789 6:0.497734 7:0.810324 8:0.033424 9:0.677378 
-0.441290345170659 -0.4452028720252478 1:-1.437147 2:0.031378 3:0.368916 4:0.403893 5:0.503272 6:0.499849 7:0.810351 8:0.032558 9:0.676333 
-0.4065464379981845 -0.4082745412227252 1:-1.787054 2:0.038527 3:0.382814 4:0.401534 5:0.501623 6:0.504075 7:0.810622 8:0.032186 9:0.670778 
-0.2224938819671926 -0.2229064601591575 1:-2.008697 2:0.092917 3:0.379974 4:0.401593 5:0.500084 6:0.505502 7:0.811054 8:0.034291 9:0.667111 
-12.52644335684776 -0.04924756653665725 1:-0.762529 2:0.441211 3:0.35113 4:0.362552 5:0.500675 6:0.500065 7:0.810892 8:0.04568 9:0.665844 
-0.3151402144275555 -0.315696405806778 1:-1.817 2:0.179642 3:0.349285 4:0.430233 5:0.496326 6:0.503518 7:0.811513 8:0.04568 9:0.668444 
-0.3195622941778308 -0.3210962027842078 1:-2.018322 2:0.145444 3:0.34997 4:0.4338 5:0.496256 6:0.504188 7:0.811676 8:0.045927 9:0.668067 
-0.650638376146051 -0 1:-0.722421 2:0.47612 3:0.349427 4:0.362309 5:0.500356 6:0.500585 7:0.810784 8:0.046299 9:0.666022 
-0.5927751377437137 -0.595138612582554 1:-2.524054 2:0.065441 3:0.354184 4:0.443258 5:0.496114 6:0.505433 7:0.812027 8:0.045556 9:0.668 
-0.592196352710547 -0.5943147483920036 1:-2.817911 2:0.023533 3:0.357336 4:0.449126 5:0.496012 6:0.505923 7:0.812162 8:0.045308 9:0.667333 
-0.6125527449136241 -0.6144283756170598 1:-3.262036 2:-0.055943 3:0.361719 4:0.45855 5:0.495799 6:0.50561 7:0.812189 8:0.044442 9:0.665111 
-0.5256751242663672 -0.5275419768606932 1:-3.601839 2:-0.141454 3:0.369298 4:0.464804 5:0.495581 6:0.504754 7:0.812162 8:0.04308 9:0.664333 
-0.5349805169191832 -0.5374244297357279 1:-3.820464 2:-0.206741 3:0.378311 4:0.467893 5:0.495419 6:0.50427 7:0.812162 8:0.041718 9:0.664444 
-0.6196909173064221 -0.6224895120625759 1:-4.454928 2:-0.430458 3:0.428534 4:0.475001 5:0.494863 6:0.502469 7:0.81273 8:0.036271 9:0.6588 
-0.6200459824569495 -0.6220032199733305 1:-5.445018 2:-0.910667 3:0.58592 4:0.490413 5:0.493166 6:0.497144 7:0.81573 8:0.005447 9:0.648378 
-0.619654739187553 -0.6221667848474379 1:-6.031768 2:-1.331275 3:0.712717 4:0.500728 5:0.491613 6:0.492873 7:0.814784 8:0.007428 9:0.644489 
-0.6199844475135725 -0.6222461478565148 1:-6.951303 2:-2.419483 3:0.759739 4:0.516904 5:0.488403 6:0.481586 7:0.815622 8:-0.020797 9:0.6346 
